<?xml version="1.0"?>
<opencv_storage>
<opencv_ml_svm>
  <format>3</format>
  <svmType>C_SVC</svmType>
  <kernel>
    <type>LINEAR</type></kernel>
  <C>2.6699999999999999e+00</C>
  <term_criteria><epsilon>1.1920928955078125e-07</epsilon>
    <iterations>1000</iterations></term_criteria>
  <var_count>64</var_count>
  <class_count>11</class_count>
  <class_labels type_id="opencv-matrix">
    <rows>11</rows>
    <cols>1</cols>
    <dt>i</dt>
    <data>
      0 1 2 3 4 5 6 7 8 9 11</data></class_labels>
  <sv_total>55</sv_total>
  <support_vectors>
    <_>
      2.38573062e-04 9.64285136e-05 2.83895370e-05 -1.06296575e-04
      6.77023127e-05 6.54977121e-05 6.55896147e-05 3.21895786e-05
      -3.19006154e-04 1.88155973e-04 2.14639178e-04 8.85535483e-05
      1.95401415e-04 1.71854743e-04 7.68091995e-05 2.71687459e-05 0. 0.
      0. 0. 0. 0. 0. 0. 0. 0. 0. 0. 0. 0. 0. 0. 0. 0. 0. 0. 0. 0. 0. 0.
      0. 0. 0. 0. 0. 0. 0. 0. 0. 0. 0. 0. 0. 0. 0. 0. 0. 0. 0. 0. 0. 0.
      0. 0.</_>
    <_>
      1.97921127e-05 -7.42129414e-05 -1.33075053e-04 -7.44033168e-05
      -8.49117860e-05 2.25300755e-05 7.97473112e-05 1.62347787e-04
      1.94687236e-04 -9.00663290e-05 -9.35437638e-05 -1.14430193e-04
      -1.05267834e-04 -1.30312549e-06 1.14239527e-04 1.21624522e-04 0.
      0. 0. 0. 0. 0. 0. 0. 0. 0. 0. 0. 0. 0. 0. 0. 0. 0. 0. 0. 0. 0. 0.
      0. 0. 0. 0. 0. 0. 0. 0. 0. 0. 0. 0. 0. 0. 0. 0. 0. 0. 0. 0. 0. 0.
      0. 0. 0.</_>
    <_>
      1.01835882e-04 6.31420626e-05 -1.14127484e-04 -1.07339129e-05
      -1.75273337e-04 -1.00638681e-04 -1.28556552e-04 2.74844002e-04
      2.86288850e-04 1.48376334e-04 -4.42697819e-05 1.77317506e-05
      -1.88727121e-04 -1.47694242e-04 2.16192293e-05 1.10586581e-04 0.
      0. 0. 0. 0. 0. 0. 0. 0. 0. 0. 0. 0. 0. 0. 0. 0. 0. 0. 0. 0. 0. 0.
      0. 0. 0. 0. 0. 0. 0. 0. 0. 0. 0. 0. 0. 0. 0. 0. 0. 0. 0. 0. 0. 0.
      0. 0. 0.</_>
    <_>
      -2.27965240e-04 -1.23012273e-04 -2.84210109e-04 2.41045651e-04
      -2.47876651e-05 -1.13474627e-04 7.88298785e-05 2.06680954e-04
      4.41666401e-04 6.37510850e-04 -2.04757889e-04 -1.79811424e-04
      7.20275275e-04 2.08145080e-04 8.81078071e-04 4.56006936e-04 0. 0.
      0. 0. 0. 0. 0. 0. 0. 0. 0. 0. 0. 0. 0. 0. 0. 0. 0. 0. 0. 0. 0. 0.
      0. 0. 0. 0. 0. 0. 0. 0. 0. 0. 0. 0. 0. 0. 0. 0. 0. 0. 0. 0. 0. 0.
      0. 0.</_>
    <_>
      1.96810768e-04 4.99172966e-05 -7.06556020e-05 3.07083974e-05
      -2.32698774e-04 -2.40019828e-04 -1.01813021e-04 7.10313398e-05
      1.76817019e-04 -4.37949275e-05 -2.53488950e-04 -1.63186298e-04
      -7.09098822e-05 1.47862520e-04 7.28423038e-05 1.86984995e-04 0. 0.
      0. 0. 0. 0. 0. 0. 0. 0. 0. 0. 0. 0. 0. 0. 0. 0. 0. 0. 0. 0. 0. 0.
      0. 0. 0. 0. 0. 0. 0. 0. 0. 0. 0. 0. 0. 0. 0. 0. 0. 0. 0. 0. 0. 0.
      0. 0.</_>
    <_>
      4.64028926e-05 1.45085825e-04 -4.10409470e-04 -1.02822829e-04
      -6.92927861e-04 -4.40035685e-04 9.69917892e-05 3.34555516e-05
      4.90864099e-04 1.03711485e-04 -2.91087985e-04 3.02859320e-04
      2.26136413e-04 -2.10963044e-04 5.28488308e-04 3.02021712e-04 0. 0.
      0. 0. 0. 0. 0. 0. 0. 0. 0. 0. 0. 0. 0. 0. 0. 0. 0. 0. 0. 0. 0. 0.
      0. 0. 0. 0. 0. 0. 0. 0. 0. 0. 0. 0. 0. 0. 0. 0. 0. 0. 0. 0. 0. 0.
      0. 0.</_>
    <_>
      3.15493526e-05 -2.06899145e-04 -1.95311350e-05 8.56789775e-05
      2.06979777e-04 1.46511753e-04 1.31228211e-04 7.84091299e-06
      -3.16082915e-05 -1.00291443e-04 -3.92992588e-05 -8.41130168e-05
      -1.36763847e-04 5.03950978e-05 9.95336086e-05 4.14465212e-05 0. 0.
      0. 0. 0. 0. 0. 0. 0. 0. 0. 0. 0. 0. 0. 0. 0. 0. 0. 0. 0. 0. 0. 0.
      0. 0. 0. 0. 0. 0. 0. 0. 0. 0. 0. 0. 0. 0. 0. 0. 0. 0. 0. 0. 0. 0.
      0. 0.</_>
    <_>
      5.69013529e-04 -2.66033076e-05 -1.59732503e-04 -6.56326374e-05
      -1.08019922e-04 -3.70731286e-04 -1.87769649e-04 3.42345214e-04
      2.92717217e-04 1.43201964e-04 -2.65508424e-04 -3.14952602e-04
      -2.46981392e-04 -2.08072335e-04 7.51030020e-05 1.95792119e-04 0.
      0. 0. 0. 0. 0. 0. 0. 0. 0. 0. 0. 0. 0. 0. 0. 0. 0. 0. 0. 0. 0. 0.
      0. 0. 0. 0. 0. 0. 0. 0. 0. 0. 0. 0. 0. 0. 0. 0. 0. 0. 0. 0. 0. 0.
      0. 0. 0.</_>
    <_>
      -1.00000238e-04 -1.14556344e-04 -7.68194965e-04 -4.69070001e-05
      1.07931992e-04 -2.47178454e-04 3.53840063e-04 3.51637747e-04
      6.88771310e-04 3.22122971e-04 -6.51722134e-04 -2.06847923e-04
      -7.13914691e-04 2.33749553e-04 3.93196795e-04 3.63643718e-04 0. 0.
      0. 0. 0. 0. 0. 0. 0. 0. 0. 0. 0. 0. 0. 0. 0. 0. 0. 0. 0. 0. 0. 0.
      0. 0. 0. 0. 0. 0. 0. 0. 0. 0. 0. 0. 0. 0. 0. 0. 0. 0. 0. 0. 0. 0.
      0. 0.</_>
    <_>
      2.72443212e-05 7.41524218e-06 4.95575523e-06 6.17001979e-06
      -6.76563504e-05 4.95575523e-06 7.41524218e-06 1.04983419e-05
      2.72443212e-05 7.41524218e-06 4.95575523e-06 6.17001979e-06
      -6.76563504e-05 4.95575523e-06 7.41524218e-06 1.04983419e-05 0. 0.
      0. 0. 0. 0. 0. 0. 0. 0. 0. 0. 0. 0. 0. 0. 0. 0. 0. 0. 0. 0. 0. 0.
      0. 0. 0. 0. 0. 0. 0. 0. 0. 0. 0. 0. 0. 0. 0. 0. 0. 0. 0. 0. 0. 0.
      0. 0.</_>
    <_>
      4.43847821e-05 -2.45813044e-05 -4.38221214e-05 -1.44966325e-05
      -2.76302017e-05 6.76888658e-06 7.98359542e-06 1.09809264e-06
      1.65563208e-04 -4.87460966e-05 -4.48365972e-05 -5.11400722e-05
      -5.11602848e-05 1.13766794e-06 6.38434449e-06 7.43743931e-06 0. 0.
      0. 0. 0. 0. 0. 0. 0. 0. 0. 0. 0. 0. 0. 0. 0. 0. 0. 0. 0. 0. 0. 0.
      0. 0. 0. 0. 0. 0. 0. 0. 0. 0. 0. 0. 0. 0. 0. 0. 0. 0. 0. 0. 0. 0.
      0. 0.</_>
    <_>
      4.57191563e-05 -1.10620940e-05 -1.65825422e-05 2.09477603e-05
      -8.89493022e-05 -1.29556011e-05 -5.64166694e-05 1.31194736e-06
      1.92292966e-04 -1.58274033e-05 -3.78056611e-05 -3.73334551e-05
      -8.68868374e-05 -2.78448988e-05 -9.94511174e-06 8.67417748e-06 0.
      0. 0. 0. 0. 0. 0. 0. 0. 0. 0. 0. 0. 0. 0. 0. 0. 0. 0. 0. 0. 0. 0.
      0. 0. 0. 0. 0. 0. 0. 0. 0. 0. 0. 0. 0. 0. 0. 0. 0. 0. 0. 0. 0. 0.
      0. 0. 0.</_>
    <_>
      -1.29647233e-04 -7.93669169e-05 -1.30301496e-05 7.76886736e-06
      6.25892135e-05 2.85294009e-05 -6.23696033e-05 -1.72186337e-05
      4.26452927e-04 -1.42373838e-05 -2.72594775e-06 0. 5.00484130e-05
      -1.07923433e-05 5.81359964e-05 1.99327133e-05 0. 0. 0. 0. 0. 0. 0.
      0. 0. 0. 0. 0. 0. 0. 0. 0. 0. 0. 0. 0. 0. 0. 0. 0. 0. 0. 0. 0. 0.
      0. 0. 0. 0. 0. 0. 0. 0. 0. 0. 0. 0. 0. 0. 0. 0. 0. 0. 0.</_>
    <_>
      6.82470418e-05 -1.37158968e-05 -1.40163938e-05 8.26570522e-06
      -5.61995257e-05 -4.21744080e-05 -2.42840651e-05 -1.30872468e-05
      1.80823365e-04 -3.86023894e-05 -6.35861797e-05 -5.77417668e-05
      -5.71485216e-05 2.06892564e-05 -1.23564696e-05 2.72053367e-05 0.
      0. 0. 0. 0. 0. 0. 0. 0. 0. 0. 0. 0. 0. 0. 0. 0. 0. 0. 0. 0. 0. 0.
      0. 0. 0. 0. 0. 0. 0. 0. 0. 0. 0. 0. 0. 0. 0. 0. 0. 0. 0. 0. 0. 0.
      0. 0. 0.</_>
    <_>
      9.56755757e-05 1.92243533e-05 -2.03352047e-05 -6.17174010e-05
      -4.09049899e-05 -6.46686385e-05 -3.11448966e-05 -3.16118239e-05
      2.63188704e-04 -6.66401029e-05 0. -7.06917635e-05 -2.34453546e-05
      -8.81285960e-05 -2.58302680e-06 3.52898096e-05 0. 0. 0. 0. 0. 0.
      0. 0. 0. 0. 0. 0. 0. 0. 0. 0. 0. 0. 0. 0. 0. 0. 0. 0. 0. 0. 0. 0.
      0. 0. 0. 0. 0. 0. 0. 0. 0. 0. 0. 0. 0. 0. 0. 0. 0. 0. 0. 0.</_>
    <_>
      -2.34696745e-05 -9.57925949e-05 -9.72056023e-06 3.58873949e-05
      1.17737989e-04 2.86244649e-05 2.57786251e-05 1.86787129e-05
      9.90222907e-05 -1.62987722e-04 -5.60530716e-05 -5.86710848e-05
      -1.23037549e-04 1.75364785e-05 2.83598456e-05 -6.64260460e-06 0.
      0. 0. 0. 0. 0. 0. 0. 0. 0. 0. 0. 0. 0. 0. 0. 0. 0. 0. 0. 0. 0. 0.
      0. 0. 0. 0. 0. 0. 0. 0. 0. 0. 0. 0. 0. 0. 0. 0. 0. 0. 0. 0. 0. 0.
      0. 0. 0.</_>
    <_>
      1.65504433e-04 -2.52146237e-05 -2.64581267e-05 3.40924489e-05
      -2.16536391e-05 -5.32339618e-05 1.06762618e-05 -2.61990499e-05
      2.01117422e-04 -2.69461998e-05 -8.80134030e-05 -9.83943246e-05
      -2.69255797e-05 -5.67554198e-05 -2.63258045e-07 3.49074362e-05 0.
      0. 0. 0. 0. 0. 0. 0. 0. 0. 0. 0. 0. 0. 0. 0. 0. 0. 0. 0. 0. 0. 0.
      0. 0. 0. 0. 0. 0. 0. 0. 0. 0. 0. 0. 0. 0. 0. 0. 0. 0. 0. 0. 0. 0.
      0. 0. 0.</_>
    <_>
      3.60802078e-05 -3.08587769e-05 -4.93024982e-06 -9.91377783e-06
      5.86820533e-06 -5.24039060e-05 -2.48532779e-05 1.00879624e-05
      2.74251826e-04 -8.06136668e-05 -1.05062958e-04 -7.25892096e-05
      -9.60894467e-05 -2.35469042e-06 -3.20752633e-06 1.98548219e-06 0.
      0. 0. 0. 0. 0. 0. 0. 0. 0. 0. 0. 0. 0. 0. 0. 0. 0. 0. 0. 0. 0. 0.
      0. 0. 0. 0. 0. 0. 0. 0. 0. 0. 0. 0. 0. 0. 0. 0. 0. 0. 0. 0. 0. 0.
      0. 0. 0.</_>
    <_>
      2.11721981e-05 2.65337167e-06 3.22400592e-06 3.60882427e-06
      -5.17338740e-05 3.22400592e-06 2.65337167e-06 1.74748516e-06
      3.63482213e-05 0. 0. 0. -5.61267880e-05 3.24372922e-06
      2.25290319e-06 4.42818873e-06 0. 0. 0. 0. 0. 0. 0. 0. 0. 0. 0. 0.
      0. 0. 0. 0. 0. 0. 0. 0. 0. 0. 0. 0. 0. 0. 0. 0. 0. 0. 0. 0. 0. 0.
      0. 0. 0. 0. 0. 0. 0. 0. 0. 0. 0. 0. 0. 0.</_>
    <_>
      -3.55564339e-06 1.69595893e-04 3.32673284e-04 1.93504064e-04
      6.59760701e-07 -3.66897948e-05 -2.62541493e-04 -8.06064127e-05
      1.94466935e-07 1.18399745e-04 1.95325716e-04 1.48962950e-04
      -6.27260379e-05 -9.28020963e-05 -1.24328843e-04 -1.04693063e-04 0.
      0. 0. 0. 0. 0. 0. 0. 0. 0. 0. 0. 0. 0. 0. 0. 0. 0. 0. 0. 0. 0. 0.
      0. 0. 0. 0. 0. 0. 0. 0. 0. 0. 0. 0. 0. 0. 0. 0. 0. 0. 0. 0. 0. 0.
      0. 0. 0.</_>
    <_>
      4.81046409e-05 2.17856032e-05 1.48505322e-04 2.44387396e-04
      -1.33562080e-05 -1.30586021e-04 -1.24703520e-05 -1.93017739e-04
      -1.17847012e-04 2.53218837e-04 1.83875200e-05 1.80653096e-05
      1.84200428e-04 -2.53016387e-05 -1.93440545e-04 -4.50609587e-05 0.
      0. 0. 0. 0. 0. 0. 0. 0. 0. 0. 0. 0. 0. 0. 0. 0. 0. 0. 0. 0. 0. 0.
      0. 0. 0. 0. 0. 0. 0. 0. 0. 0. 0. 0. 0. 0. 0. 0. 0. 0. 0. 0. 0. 0.
      0. 0. 0.</_>
    <_>
      -1.82759923e-05 1.19496341e-04 3.57728801e-04 -6.47575143e-05
      -1.37496216e-04 -1.96624853e-04 -4.14964714e-04 -2.30836347e-04
      -4.09894201e-05 1.14563110e-04 -5.62746754e-06 1.30205066e-04
      -7.95101878e-05 5.37153064e-05 -1.55623056e-04 1.38706600e-04 0.
      0. 0. 0. 0. 0. 0. 0. 0. 0. 0. 0. 0. 0. 0. 0. 0. 0. 0. 0. 0. 0. 0.
      0. 0. 0. 0. 0. 0. 0. 0. 0. 0. 0. 0. 0. 0. 0. 0. 0. 0. 0. 0. 0. 0.
      0. 0. 0.</_>
    <_>
      -2.41039538e-06 1.73171589e-04 2.85667687e-04 8.02103677e-05
      3.41050982e-05 -9.10239542e-05 -1.19564225e-04 -1.85827157e-04
      -1.30797809e-04 9.35981661e-05 9.44338535e-05 1.46312785e-04
      7.29044405e-05 -8.89191069e-05 -3.14972458e-05 -2.18901972e-04 0.
      0. 0. 0. 0. 0. 0. 0. 0. 0. 0. 0. 0. 0. 0. 0. 0. 0. 0. 0. 0. 0. 0.
      0. 0. 0. 0. 0. 0. 0. 0. 0. 0. 0. 0. 0. 0. 0. 0. 0. 0. 0. 0. 0. 0.
      0. 0. 0.</_>
    <_>
      -2.47708467e-05 -1.02029029e-04 4.58674622e-05 8.10075362e-05
      2.29274461e-04 3.54430049e-05 -3.55128918e-06 -1.00747216e-04
      -1.58484225e-04 -2.71142089e-05 -5.68972291e-06 8.22934817e-05
      -1.96119690e-05 -1.71718748e-05 9.81075755e-06 2.43093109e-05 0.
      0. 0. 0. 0. 0. 0. 0. 0. 0. 0. 0. 0. 0. 0. 0. 0. 0. 0. 0. 0. 0. 0.
      0. 0. 0. 0. 0. 0. 0. 0. 0. 0. 0. 0. 0. 0. 0. 0. 0. 0. 0. 0. 0. 0.
      0. 0. 0.</_>
    <_>
      2.00410301e-04 9.76424781e-05 3.78135854e-04 1.37205163e-04
      1.17247291e-04 -1.79141367e-04 -2.23164738e-04 -2.04047217e-04
      -1.31119275e-04 1.98894020e-04 1.24903687e-04 -2.70564633e-05
      -3.14131139e-05 -2.13766252e-05 -1.63561432e-04 -1.42044271e-04 0.
      0. 0. 0. 0. 0. 0. 0. 0. 0. 0. 0. 0. 0. 0. 0. 0. 0. 0. 0. 0. 0. 0.
      0. 0. 0. 0. 0. 0. 0. 0. 0. 0. 0. 0. 0. 0. 0. 0. 0. 0. 0. 0. 0. 0.
      0. 0. 0.</_>
    <_>
      5.42157322e-05 6.00044914e-05 1.62546450e-04 1.23824168e-04
      1.70323736e-04 -1.49001818e-04 -9.47669978e-05 -2.64416041e-04
      -2.70906661e-04 1.79746028e-04 8.06937023e-05 1.41036959e-04
      5.94596850e-06 -3.23025815e-05 -1.62787735e-04 -1.18440490e-04 0.
      0. 0. 0. 0. 0. 0. 0. 0. 0. 0. 0. 0. 0. 0. 0. 0. 0. 0. 0. 0. 0. 0.
      0. 0. 0. 0. 0. 0. 0. 0. 0. 0. 0. 0. 0. 0. 0. 0. 0. 0. 0. 0. 0. 0.
      0. 0. 0.</_>
    <_>
      9.96636300e-06 4.61601257e-06 2.64709761e-05 1.70014355e-05
      -7.60932890e-05 3.65523192e-06 0. 0. 9.73709757e-06 8.77800539e-06
      1.15001967e-05 1.19883016e-05 -8.59687498e-05 8.51778805e-06 0.
      5.97220878e-06 0. 0. 0. 0. 0. 0. 0. 0. 0. 0. 0. 0. 0. 0. 0. 0. 0.
      0. 0. 0. 0. 0. 0. 0. 0. 0. 0. 0. 0. 0. 0. 0. 0. 0. 0. 0. 0. 0. 0.
      0. 0. 0. 0. 0. 0. 0. 0. 0.</_>
    <_>
      1.52479057e-04 -2.12570740e-04 1.94802451e-05 1.19005716e-04
      1.28202242e-04 -1.70186795e-05 2.87437899e-04 -2.10436367e-04
      -1.16338691e-04 2.52381233e-05 -6.14491801e-05 -1.75010806e-04
      2.66846735e-04 1.97820016e-04 -1.50015621e-05 3.08642143e-06 0. 0.
      0. 0. 0. 0. 0. 0. 0. 0. 0. 0. 0. 0. 0. 0. 0. 0. 0. 0. 0. 0. 0. 0.
      0. 0. 0. 0. 0. 0. 0. 0. 0. 0. 0. 0. 0. 0. 0. 0. 0. 0. 0. 0. 0. 0.
      0. 0.</_>
    <_>
      3.09149182e-05 -2.73971164e-05 6.26954134e-05 -4.10807086e-04
      -2.46529147e-04 -1.74121946e-04 1.55183778e-04 -2.88535201e-04
      1.51819477e-04 -3.15456418e-05 -4.39396215e-04 -2.25165422e-04
      1.95644519e-04 2.77146784e-04 8.16060783e-05 1.30850254e-04 0. 0.
      0. 0. 0. 0. 0. 0. 0. 0. 0. 0. 0. 0. 0. 0. 0. 0. 0. 0. 0. 0. 0. 0.
      0. 0. 0. 0. 0. 0. 0. 0. 0. 0. 0. 0. 0. 0. 0. 0. 0. 0. 0. 0. 0. 0.
      0. 0.</_>
    <_>
      9.98057512e-05 7.23956400e-05 1.92846986e-04 -1.42380566e-04
      -1.80574607e-05 -3.32558739e-05 3.57903074e-04 -2.30398757e-04
      -2.85279617e-04 -2.26046395e-04 -2.78020652e-05 -3.13003875e-05
      2.87656294e-04 9.07466965e-05 2.90418335e-04 -3.01572203e-04 0. 0.
      0. 0. 0. 0. 0. 0. 0. 0. 0. 0. 0. 0. 0. 0. 0. 0. 0. 0. 0. 0. 0. 0.
      0. 0. 0. 0. 0. 0. 0. 0. 0. 0. 0. 0. 0. 0. 0. 0. 0. 0. 0. 0. 0. 0.
      0. 0.</_>
    <_>
      -2.74912472e-05 -1.24384373e-04 -2.41138096e-05 5.92077013e-05
      1.59451825e-04 7.81352064e-05 9.20409875e-05 -6.90898305e-05
      -9.91104826e-05 -9.11768875e-05 -5.40261935e-05 -1.82907133e-05
      -1.47311619e-06 5.19802561e-05 5.69734730e-05 3.41015621e-05 0. 0.
      0. 0. 0. 0. 0. 0. 0. 0. 0. 0. 0. 0. 0. 0. 0. 0. 0. 0. 0. 0. 0. 0.
      0. 0. 0. 0. 0. 0. 0. 0. 0. 0. 0. 0. 0. 0. 0. 0. 0. 0. 0. 0. 0. 0.
      0. 0.</_>
    <_>
      6.40558137e-04 -1.74358691e-04 2.92369456e-04 -2.10167873e-05
      -2.51978508e-05 -9.69366301e-05 5.23698051e-04 -3.44365253e-04
      -2.80373846e-04 -4.86639910e-05 -2.94645783e-04 -3.02877103e-04
      1.53416549e-04 1.60915020e-04 -2.49933219e-05 -2.15094551e-04 0.
      0. 0. 0. 0. 0. 0. 0. 0. 0. 0. 0. 0. 0. 0. 0. 0. 0. 0. 0. 0. 0. 0.
      0. 0. 0. 0. 0. 0. 0. 0. 0. 0. 0. 0. 0. 0. 0. 0. 0. 0. 0. 0. 0. 0.
      0. 0. 0.</_>
    <_>
      5.48455464e-05 -2.21729424e-04 1.17014228e-04 6.83706457e-05
      2.38054286e-04 4.01171455e-05 4.67792037e-04 -3.24835419e-04
      -3.17159458e-04 2.26788188e-06 -2.69176944e-05 -1.51330532e-04
      1.07792141e-04 2.06094322e-04 5.56621926e-05 -1.25199120e-04 0. 0.
      0. 0. 0. 0. 0. 0. 0. 0. 0. 0. 0. 0. 0. 0. 0. 0. 0. 0. 0. 0. 0. 0.
      0. 0. 0. 0. 0. 0. 0. 0. 0. 0. 0. 0. 0. 0. 0. 0. 0. 0. 0. 0. 0. 0.
      0. 0.</_>
    <_>
      2.45473238e-05 1.20930372e-06 1.21941166e-05 3.52476627e-06
      -8.19702836e-05 3.90656942e-06 1.01813330e-05 3.05743492e-06
      8.95248104e-06 5.74321712e-06 1.18439812e-06 8.35789888e-06
      -8.32357764e-05 7.99428653e-06 6.89654053e-06 6.33713489e-06 0. 0.
      0. 0. 0. 0. 0. 0. 0. 0. 0. 0. 0. 0. 0. 0. 0. 0. 0. 0. 0. 0. 0. 0.
      0. 0. 0. 0. 0. 0. 0. 0. 0. 0. 0. 0. 0. 0. 0. 0. 0. 0. 0. 0. 0. 0.
      0. 0.</_>
    <_>
      5.58435431e-06 1.84310891e-04 1.14678396e-05 -2.88482639e-04
      -1.55384696e-04 -1.27598134e-04 -4.48161532e-04 -4.69727383e-05
      -2.62795384e-05 -2.99837906e-04 -9.29770104e-05 1.60137119e-04
      -2.97398132e-04 3.36877099e-04 1.25529099e-04 5.60427980e-05 0. 0.
      0. 0. 0. 0. 0. 0. 0. 0. 0. 0. 0. 0. 0. 0. 0. 0. 0. 0. 0. 0. 0. 0.
      0. 0. 0. 0. 0. 0. 0. 0. 0. 0. 0. 0. 0. 0. 0. 0. 0. 0. 0. 0. 0. 0.
      0. 0.</_>
    <_>
      1.01102421e-04 2.87286239e-04 4.29153297e-05 -3.22004693e-04
      1.27057365e-05 -1.90989042e-04 -1.59444200e-04 5.70530210e-05
      5.82482826e-05 -4.01449273e-04 1.06641950e-04 2.56382511e-04
      -2.28824269e-04 -1.22410886e-04 1.92477732e-04 -8.57645136e-05 0.
      0. 0. 0. 0. 0. 0. 0. 0. 0. 0. 0. 0. 0. 0. 0. 0. 0. 0. 0. 0. 0. 0.
      0. 0. 0. 0. 0. 0. 0. 0. 0. 0. 0. 0. 0. 0. 0. 0. 0. 0. 0. 0. 0. 0.
      0. 0. 0.</_>
    <_>
      6.82254176e-05 -6.86669082e-05 -3.30432740e-05 -6.73654631e-06
      1.86618316e-04 4.21575060e-05 4.01522666e-05 -1.51986060e-05
      -1.09743378e-04 -1.49036874e-04 -1.55555288e-04 -4.72058273e-05
      -2.26150558e-04 -3.50820337e-05 9.73677597e-05 6.90684465e-05 0.
      0. 0. 0. 0. 0. 0. 0. 0. 0. 0. 0. 0. 0. 0. 0. 0. 0. 0. 0. 0. 0. 0.
      0. 0. 0. 0. 0. 0. 0. 0. 0. 0. 0. 0. 0. 0. 0. 0. 0. 0. 0. 0. 0. 0.
      0. 0. 0.</_>
    <_>
      6.31914998e-04 -7.15806382e-05 3.41666018e-04 -4.63584147e-04
      6.53881754e-04 4.96067696e-05 1.39214681e-04 -1.69544765e-05
      -4.49410320e-04 2.06403987e-04 -2.25230251e-04 -8.53805395e-05
      -5.99231920e-04 -1.16990013e-04 -2.34429739e-04 -8.43965332e-04 0.
      0. 0. 0. 0. 0. 0. 0. 0. 0. 0. 0. 0. 0. 0. 0. 0. 0. 0. 0. 0. 0. 0.
      0. 0. 0. 0. 0. 0. 0. 0. 0. 0. 0. 0. 0. 0. 0. 0. 0. 0. 0. 0. 0. 0.
      0. 0. 0.</_>
    <_>
      1.58840980e-04 5.00878203e-04 -7.87070821e-05 -6.74776267e-04
      4.59669391e-04 -2.61332752e-04 -1.10905763e-04 1.51952668e-06
      -3.67871835e-05 -4.87234473e-04 1.29775913e-06 1.89812141e-04
      -5.36417181e-04 6.72768947e-05 -3.35418408e-05 1.14774302e-04 0.
      0. 0. 0. 0. 0. 0. 0. 0. 0. 0. 0. 0. 0. 0. 0. 0. 0. 0. 0. 0. 0. 0.
      0. 0. 0. 0. 0. 0. 0. 0. 0. 0. 0. 0. 0. 0. 0. 0. 0. 0. 0. 0. 0. 0.
      0. 0. 0.</_>
    <_>
      1.55900016e-05 9.23229982e-06 8.04384763e-06 0. -6.76553245e-05
      1.16463743e-05 0. 6.66001824e-06 1.22721913e-05 2.06429763e-06
      1.38997175e-05 1.78012087e-05 -7.88433899e-05 8.04384763e-06
      9.23229982e-06 4.21874302e-06 0. 0. 0. 0. 0. 0. 0. 0. 0. 0. 0. 0.
      0. 0. 0. 0. 0. 0. 0. 0. 0. 0. 0. 0. 0. 0. 0. 0. 0. 0. 0. 0. 0. 0.
      0. 0. 0. 0. 0. 0. 0. 0. 0. 0. 0. 0. 0. 0.</_>
    <_>
      -8.33767626e-06 8.40037683e-05 1.28769476e-04 -1.27234944e-05
      2.63693597e-04 8.11191348e-05 1.76192130e-04 4.95549193e-06
      -6.02785913e-05 -6.91245878e-05 3.40181141e-04 2.85979215e-04
      3.80756501e-05 -2.72141100e-04 1.68032275e-04 -4.43450583e-04 0.
      0. 0. 0. 0. 0. 0. 0. 0. 0. 0. 0. 0. 0. 0. 0. 0. 0. 0. 0. 0. 0. 0.
      0. 0. 0. 0. 0. 0. 0. 0. 0. 0. 0. 0. 0. 0. 0. 0. 0. 0. 0. 0. 0. 0.
      0. 0. 0.</_>
    <_>
      -6.18857011e-05 -1.21245153e-04 -4.06801155e-05 3.20290055e-05
      2.11787337e-04 9.82019992e-05 6.37804915e-05 -2.70675391e-05
      -6.85193227e-05 -3.52666466e-05 -5.92496190e-06 4.38835959e-05
      -2.72653142e-05 -5.08164994e-05 4.57399983e-05 3.29210707e-05 0.
      0. 0. 0. 0. 0. 0. 0. 0. 0. 0. 0. 0. 0. 0. 0. 0. 0. 0. 0. 0. 0. 0.
      0. 0. 0. 0. 0. 0. 0. 0. 0. 0. 0. 0. 0. 0. 0. 0. 0. 0. 0. 0. 0. 0.
      0. 0. 0.</_>
    <_>
      3.84273822e-04 -3.90325804e-05 2.98215746e-05 1.58193390e-04
      2.74497172e-04 2.57708569e-04 1.14259856e-04 1.96335051e-04
      -2.06398654e-05 2.54697050e-04 3.27764341e-04 -3.19404389e-05
      6.23704254e-05 -4.86845500e-04 -1.33267386e-04 -5.01256203e-04 0.
      0. 0. 0. 0. 0. 0. 0. 0. 0. 0. 0. 0. 0. 0. 0. 0. 0. 0. 0. 0. 0. 0.
      0. 0. 0. 0. 0. 0. 0. 0. 0. 0. 0. 0. 0. 0. 0. 0. 0. 0. 0. 0. 0. 0.
      0. 0. 0.</_>
    <_>
      -7.72016210e-05 5.21438451e-05 1.57596389e-06 -4.67663449e-05
      4.32689383e-04 1.38044692e-04 4.37225972e-04 -3.84643681e-05
      -2.04769603e-04 1.53603280e-04 4.24110942e-04 1.69449893e-04
      -9.92664063e-05 -1.56440699e-04 6.82967438e-05 -1.06094201e-04 0.
      0. 0. 0. 0. 0. 0. 0. 0. 0. 0. 0. 0. 0. 0. 0. 0. 0. 0. 0. 0. 0. 0.
      0. 0. 0. 0. 0. 0. 0. 0. 0. 0. 0. 0. 0. 0. 0. 0. 0. 0. 0. 0. 0. 0.
      0. 0. 0.</_>
    <_>
      2.21889513e-05 0. 6.87095689e-06 3.72442196e-06 -8.49885691e-05
      5.81400354e-06 7.12299925e-06 1.51181821e-05 8.63843616e-06
      1.93757533e-05 1.59089705e-05 1.36572007e-05 -9.62673221e-05
      1.34240736e-06 5.33181901e-06 4.99007820e-06 0. 0. 0. 0. 0. 0. 0.
      0. 0. 0. 0. 0. 0. 0. 0. 0. 0. 0. 0. 0. 0. 0. 0. 0. 0. 0. 0. 0. 0.
      0. 0. 0. 0. 0. 0. 0. 0. 0. 0. 0. 0. 0. 0. 0. 0. 0. 0. 0.</_>
    <_>
      1.06587422e-05 -1.77211332e-04 -2.78113366e-05 4.85582932e-05
      1.94136199e-04 1.06941938e-04 7.91739731e-05 1.39273598e-05
      -9.35894786e-05 -6.78447323e-05 -3.69584595e-05 -4.02960359e-05
      -9.61412079e-05 -5.28950659e-06 2.69222364e-05 9.15807032e-05 0.
      0. 0. 0. 0. 0. 0. 0. 0. 0. 0. 0. 0. 0. 0. 0. 0. 0. 0. 0. 0. 0. 0.
      0. 0. 0. 0. 0. 0. 0. 0. 0. 0. 0. 0. 0. 0. 0. 0. 0. 0. 0. 0. 0. 0.
      0. 0. 0.</_>
    <_>
      3.87172622e-04 -1.32357440e-04 -2.93424528e-04 -1.42730947e-04
      6.30484894e-04 2.53753824e-04 -2.55397143e-04 5.79268031e-04
      2.32982478e-04 6.45619119e-04 -5.64305286e-04 -5.62181813e-04
      1.01079691e-04 1.64815443e-04 -2.97892286e-04 6.58414065e-05 0. 0.
      0. 0. 0. 0. 0. 0. 0. 0. 0. 0. 0. 0. 0. 0. 0. 0. 0. 0. 0. 0. 0. 0.
      0. 0. 0. 0. 0. 0. 0. 0. 0. 0. 0. 0. 0. 0. 0. 0. 0. 0. 0. 0. 0. 0.
      0. 0.</_>
    <_>
      4.99226953e-05 -5.16370521e-04 -4.00544057e-04 -4.50488260e-05
      4.51907486e-04 6.05511013e-04 4.77743713e-04 1.38893874e-05
      -3.40636674e-04 4.79192386e-04 -2.79909786e-04 -1.51835935e-04
      -3.72114504e-04 3.15082085e-04 -2.38266512e-04 3.02321074e-04 0.
      0. 0. 0. 0. 0. 0. 0. 0. 0. 0. 0. 0. 0. 0. 0. 0. 0. 0. 0. 0. 0. 0.
      0. 0. 0. 0. 0. 0. 0. 0. 0. 0. 0. 0. 0. 0. 0. 0. 0. 0. 0. 0. 0. 0.
      0. 0. 0.</_>
    <_>
      1.33280628e-05 0. 2.14542160e-06 1.32994519e-05 -7.78784743e-05 0.
      5.94081848e-06 1.10067613e-05 1.37660863e-05 4.40722897e-06
      4.74104809e-06 9.92840705e-06 -8.67682102e-05 1.04864066e-05 0.
      1.58247803e-05 0. 0. 0. 0. 0. 0. 0. 0. 0. 0. 0. 0. 0. 0. 0. 0. 0.
      0. 0. 0. 0. 0. 0. 0. 0. 0. 0. 0. 0. 0. 0. 0. 0. 0. 0. 0. 0. 0. 0.
      0. 0. 0. 0. 0. 0. 0. 0. 0.</_>
    <_>
      1.31159773e-04 1.23928665e-04 4.88271908e-05 -1.68901970e-05
      -2.11258564e-04 -9.54542556e-05 -9.12338219e-05 4.27163905e-05
      2.49683399e-05 9.62345948e-05 7.33303750e-05 -6.37520498e-05
      8.53153615e-05 6.41126235e-06 -9.29923917e-05 -7.36631555e-05 0.
      0. 0. 0. 0. 0. 0. 0. 0. 0. 0. 0. 0. 0. 0. 0. 0. 0. 0. 0. 0. 0. 0.
      0. 0. 0. 0. 0. 0. 0. 0. 0. 0. 0. 0. 0. 0. 0. 0. 0. 0. 0. 0. 0. 0.
      0. 0. 0.</_>
    <_>
      2.75006050e-06 1.53083689e-04 4.46495651e-05 -6.30920476e-05
      -2.77823681e-04 -1.56826383e-04 -8.44493188e-05 8.64538379e-05
      1.43106896e-04 1.18173339e-04 8.26391624e-05 -2.20838101e-05
      1.12219104e-05 -3.06665715e-05 -1.46594568e-04 -1.50327338e-04 0.
      0. 0. 0. 0. 0. 0. 0. 0. 0. 0. 0. 0. 0. 0. 0. 0. 0. 0. 0. 0. 0. 0.
      0. 0. 0. 0. 0. 0. 0. 0. 0. 0. 0. 0. 0. 0. 0. 0. 0. 0. 0. 0. 0. 0.
      0. 0. 0.</_>
    <_>
      1.70510357e-05 1.76866342e-05 9.80162986e-06 1.77160337e-06
      -6.94775008e-05 0. 1.18587991e-06 9.82224810e-06 1.86875968e-05
      8.46006606e-06 1.04703486e-05 4.31542048e-06 -5.05368480e-05
      4.62604976e-06 0. 0. 0. 0. 0. 0. 0. 0. 0. 0. 0. 0. 0. 0. 0. 0. 0.
      0. 0. 0. 0. 0. 0. 0. 0. 0. 0. 0. 0. 0. 0. 0. 0. 0. 0. 0. 0. 0. 0.
      0. 0. 0. 0. 0. 0. 0. 0. 0. 0. 0.</_>
    <_>
      -5.47072035e-04 -4.34444897e-04 -4.14340699e-04 -6.92822068e-05
      4.41020966e-04 -1.79384951e-04 9.11730807e-04 -2.74103484e-04
      -5.78916341e-04 4.03062841e-05 4.25245351e-04 4.17747913e-04
      -8.81745887e-04 3.39442748e-04 2.32922521e-05 -9.45807042e-05 0.
      0. 0. 0. 0. 0. 0. 0. 0. 0. 0. 0. 0. 0. 0. 0. 0. 0. 0. 0. 0. 0. 0.
      0. 0. 0. 0. 0. 0. 0. 0. 0. 0. 0. 0. 0. 0. 0. 0. 0. 0. 0. 0. 0. 0.
      0. 0. 0.</_>
    <_>
      9.37666118e-06 0. 1.07161122e-05 9.96966901e-06 -8.32834412e-05
      1.07161122e-05 0. 8.12669805e-06 1.01479554e-05 9.99924509e-07
      3.40950101e-06 1.99535916e-05 -8.06830285e-05 3.40950101e-06
      9.99924509e-07 8.89799139e-06 0. 0. 0. 0. 0. 0. 0. 0. 0. 0. 0. 0.
      0. 0. 0. 0. 0. 0. 0. 0. 0. 0. 0. 0. 0. 0. 0. 0. 0. 0. 0. 0. 0. 0.
      0. 0. 0. 0. 0. 0. 0. 0. 0. 0. 0. 0. 0. 0.</_>
    <_>
      1.37660863e-05 4.40722897e-06 4.74104809e-06 9.92840705e-06
      -8.67682102e-05 1.04864066e-05 0. 1.58247785e-05 1.33280628e-05 0.
      2.14542160e-06 1.32994519e-05 -7.78784743e-05 0. 5.94081848e-06
      1.10067604e-05 0. 0. 0. 0. 0. 0. 0. 0. 0. 0. 0. 0. 0. 0. 0. 0. 0.
      0. 0. 0. 0. 0. 0. 0. 0. 0. 0. 0. 0. 0. 0. 0. 0. 0. 0. 0. 0. 0. 0.
      0. 0. 0. 0. 0. 0. 0. 0. 0.</_></support_vectors>
  <uncompressed_sv_total>65</uncompressed_sv_total>
  <uncompressed_support_vectors>
    <_>
      4.62236426e+03 7.65324768e+02 1.87228210e+03 6.91809235e+01
      5.01565479e+03 1.33614392e+03 2.20102686e+03 0. 1948.
      6.46623535e+02 1.19120056e+03 1.45077271e+03 5.07488965e+03
      6.92342407e+02 1.21897302e+03 1.99474805e+03 0. 0. 0. 0. 0. 0. 0.
      0. 0. 0. 0. 0. 0. 0. 0. 0. 0. 0. 0. 0. 0. 0. 0. 0. 0. 0. 0. 0. 0.
      0. 0. 0. 0. 0. 0. 0. 0. 0. 0. 0. 0. 0. 0. 0. 0. 0. 0. 0.</_>
    <_>
      7.90414648e+03 2.00327051e+03 1.51418823e+03 7.63468384e+02
      2.49362988e+03 0. 0. 2.55096924e+03 5.29676611e+03 0.
      5.59072449e+02 8.79659042e+01 2.42154614e+03 5.14861145e+02 0.
      2.16133789e+03 0. 0. 0. 0. 0. 0. 0. 0. 0. 0. 0. 0. 0. 0. 0. 0. 0.
      0. 0. 0. 0. 0. 0. 0. 0. 0. 0. 0. 0. 0. 0. 0. 0. 0. 0. 0. 0. 0. 0.
      0. 0. 0. 0. 0. 0. 0. 0. 0.</_>
    <_>
      3014. 1.20846130e+03 1.21418030e+03 6.45804932e+02 4.82133154e+03
      2.20287476e+03 1.57953467e+03 1.49274719e+03 3.08321362e+03
      1.35542114e+03 2.23266113e+03 2.02744983e+03 3.71356567e+03 0.
      1.06931555e+03 8.46249390e+02 0. 0. 0. 0. 0. 0. 0. 0. 0. 0. 0. 0.
      0. 0. 0. 0. 0. 0. 0. 0. 0. 0. 0. 0. 0. 0. 0. 0. 0. 0. 0. 0. 0. 0.
      0. 0. 0. 0. 0. 0. 0. 0. 0. 0. 0. 0. 0. 0.</_>
    <_>
      3.34205469e+03 1.26121204e+03 5.44987183e+02 9.13898193e+02
      5.22929150e+03 1.05926367e+03 1.32053931e+03 4.30743530e+02
      2.96587109e+03 1.47210132e+03 1.50027966e+03 6.50246094e+02
      4.17468164e+03 7.94074280e+02 3.41505493e+02 2.90104565e+03 0. 0.
      0. 0. 0. 0. 0. 0. 0. 0. 0. 0. 0. 0. 0. 0. 0. 0. 0. 0. 0. 0. 0. 0.
      0. 0. 0. 0. 0. 0. 0. 0. 0. 0. 0. 0. 0. 0. 0. 0. 0. 0. 0. 0. 0. 0.
      0. 0.</_>
    <_>
      6.56339453e+03 2.62363818e+03 4.44288208e+02 0. 0. 0.
      1.02449989e+02 4.28098114e+02 8.05417969e+03 4.40672705e+03
      9.41107056e+02 1.48487354e+03 4.49913184e+03 0. 0. 3.01673853e+03
      0. 0. 0. 0. 0. 0. 0. 0. 0. 0. 0. 0. 0. 0. 0. 0. 0. 0. 0. 0. 0. 0.
      0. 0. 0. 0. 0. 0. 0. 0. 0. 0. 0. 0. 0. 0. 0. 0. 0. 0. 0. 0. 0. 0.
      0. 0. 0. 0.</_>
    <_>
      2.37622681e+03 2.34233008e+03 9.89909546e+02 9.13898254e+02
      3.41389819e+03 9.89909546e+02 2.34233008e+03 9.28226746e+02
      2.85071582e+03 1.84646362e+03 5.00657593e+02 1.68323535e+03
      4.18323535e+03 5.00657593e+02 1.84646362e+03 1.40271594e+03 0. 0.
      0. 0. 0. 0. 0. 0. 0. 0. 0. 0. 0. 0. 0. 0. 0. 0. 0. 0. 0. 0. 0. 0.
      0. 0. 0. 0. 0. 0. 0. 0. 0. 0. 0. 0. 0. 0. 0. 0. 0. 0. 0. 0. 0. 0.
      0. 0.</_>
    <_>
      4.72036279e+03 1.05068176e+03 1.39069116e+03 6.83264221e+02
      3.54882422e+03 7.94074280e+02 5.67850342e+02 2.90104565e+03
      3.29405469e+03 9.02319214e+02 1.19985461e+03 1.36068457e+03
      4.26597510e+03 0. 1.63751270e+03 1.34609717e+03 0. 0. 0. 0. 0. 0.
      0. 0. 0. 0. 0. 0. 0. 0. 0. 0. 0. 0. 0. 0. 0. 0. 0. 0. 0. 0. 0. 0.
      0. 0. 0. 0. 0. 0. 0. 0. 0. 0. 0. 0. 0. 0. 0. 0. 0. 0. 0. 0.</_>
    <_>
      7.51832471e+03 340. 1.28667664e+03 8.82281128e+02 3.85428101e+03
      1.28667664e+03 340. 1.33032471e+03 7.51832471e+03 340.
      1.28667664e+03 8.82281067e+02 3.85428101e+03 1.28667664e+03 340.
      1.33032471e+03 0. 0. 0. 0. 0. 0. 0. 0. 0. 0. 0. 0. 0. 0. 0. 0. 0.
      0. 0. 0. 0. 0. 0. 0. 0. 0. 0. 0. 0. 0. 0. 0. 0. 0. 0. 0. 0. 0. 0.
      0. 0. 0. 0. 0. 0. 0. 0. 0.</_>
    <_>
      1.34131091e+03 6.21240479e+02 3.56256421e+03 2.28811768e+03
      6.07907666e+03 4.91934967e+02 0. 0. 1.31045544e+03 1.18137720e+03
      1.54773999e+03 1.61343103e+03 4750. 1.14635620e+03 0.
      8.03762451e+02 0. 0. 0. 0. 0. 0. 0. 0. 0. 0. 0. 0. 0. 0. 0. 0. 0.
      0. 0. 0. 0. 0. 0. 0. 0. 0. 0. 0. 0. 0. 0. 0. 0. 0. 0. 0. 0. 0. 0.
      0. 0. 0. 0. 0. 0. 0. 0. 0.</_>
    <_>
      3.19556909e+03 0. 1.67440955e+03 5.36302124e+02 5.17952686e+03
      4.00065002e+02 1.18137720e+03 4.74455475e+02 7.98999695e+02
      7.91466980e+02 0. 1.10395923e+03 5.15666602e+03 1.01049689e+03
      9.77211426e+02 9.60704712e+02 0. 0. 0. 0. 0. 0. 0. 0. 0. 0. 0. 0.
      0. 0. 0. 0. 0. 0. 0. 0. 0. 0. 0. 0. 0. 0. 0. 0. 0. 0. 0. 0. 0. 0.
      0. 0. 0. 0. 0. 0. 0. 0. 0. 0. 0. 0. 0. 0.</_>
    <_>
      4.43314404e+03 3.90608350e+03 1.84071045e+03 1.05536720e+02 1802.
      2.81684235e+02 1.18908582e+03 1.81479028e+03 2.80507104e+03
      6.90323486e+02 0. 0. 1.97134570e+03 0. 1.65958362e+03
      5.53398621e+02 0. 0. 0. 0. 0. 0. 0. 0. 0. 0. 0. 0. 0. 0. 0. 0. 0.
      0. 0. 0. 0. 0. 0. 0. 0. 0. 0. 0. 0. 0. 0. 0. 0. 0. 0. 0. 0. 0. 0.
      0. 0. 0. 0. 0. 0. 0. 0. 0.</_>
    <_>
      2.42478711e+03 0. 7.50851501e+02 4.07001221e+02 7.03253125e+03
      6.35348694e+02 7.78394470e+02 1.65210034e+03 944. 2.11736353e+03
      1.73851685e+03 1.49244568e+03 5800. 1.46696976e+02 5.82656006e+02
      5.45310913e+02 0. 0. 0. 0. 0. 0. 0. 0. 0. 0. 0. 0. 0. 0. 0. 0. 0.
      0. 0. 0. 0. 0. 0. 0. 0. 0. 0. 0. 0. 0. 0. 0. 0. 0. 0. 0. 0. 0. 0.
      0. 0. 0. 0. 0. 0. 0. 0. 0.</_>
    <_>
      1.80112524e+03 0. 2.89927582e+02 1.79725891e+03 5.79567285e+03 0.
      8.02829224e+02 1.48742969e+03 1.86031885e+03 5.95583313e+02
      6.40694885e+02 1.34170325e+03 4.59433350e+03 1.41711011e+03 0.
      2.13852612e+03 0. 0. 0. 0. 0. 0. 0. 0. 0. 0. 0. 0. 0. 0. 0. 0. 0.
      0. 0. 0. 0. 0. 0. 0. 0. 0. 0. 0. 0. 0. 0. 0. 0. 0. 0. 0. 0. 0. 0.
      0. 0. 0. 0. 0. 0. 0. 0. 0.</_>
    <_>
      5.60680566e+03 2.90286548e+03 2.57005829e+02 0. 0. 0. 0.
      4.20868164e+02 5.31507227e+03 3.59623267e+03 1.79575220e+03
      3.85323242e+02 4.91743506e+03 1.05711768e+03 0. 0. 0. 0. 0. 0. 0.
      0. 0. 0. 0. 0. 0. 0. 0. 0. 0. 0. 0. 0. 0. 0. 0. 0. 0. 0. 0. 0. 0.
      0. 0. 0. 0. 0. 0. 0. 0. 0. 0. 0. 0. 0. 0. 0. 0. 0. 0. 0. 0. 0.</_>
    <_>
      1.29026599e+03 0. 1.47457983e+03 1.37186621e+03 4.85986621e+03
      1.47457983e+03 0. 1.11826611e+03 1.39639917e+03 1.37593597e+02
      4.69160950e+02 2.74569385e+03 5.21769385e+03 4.69160950e+02
      1.37593597e+02 1.22439917e+03 0. 0. 0. 0. 0. 0. 0. 0. 0. 0. 0. 0.
      0. 0. 0. 0. 0. 0. 0. 0. 0. 0. 0. 0. 0. 0. 0. 0. 0. 0. 0. 0. 0. 0.
      0. 0. 0. 0. 0. 0. 0. 0. 0. 0. 0. 0. 0. 0.</_>
    <_>
      1.86031885e+03 5.95583313e+02 6.40694885e+02 1.34170325e+03
      4.59433350e+03 1.41711011e+03 0. 2.13852612e+03 1.80112524e+03 0.
      2.89927582e+02 1.79725891e+03 5.79567285e+03 0. 8.02829224e+02
      1.48742957e+03 0. 0. 0. 0. 0. 0. 0. 0. 0. 0. 0. 0. 0. 0. 0. 0. 0.
      0. 0. 0. 0. 0. 0. 0. 0. 0. 0. 0. 0. 0. 0. 0. 0. 0. 0. 0. 0. 0. 0.
      0. 0. 0. 0. 0. 0. 0. 0. 0.</_>
    <_>
      3.17942407e+03 7.14382751e+02 3.86657471e+02 1.15054297e+03
      3.13854297e+03 3.86657471e+02 7.14382751e+02 2.08742407e+03
      3.17942407e+03 7.14382751e+02 3.86657471e+02 1.15054285e+03
      3.13854297e+03 3.86657471e+02 7.14382751e+02 2.08742407e+03 0. 0.
      0. 0. 0. 0. 0. 0. 0. 0. 0. 0. 0. 0. 0. 0. 0. 0. 0. 0. 0. 0. 0. 0.
      0. 0. 0. 0. 0. 0. 0. 0. 0. 0. 0. 0. 0. 0. 0. 0. 0. 0. 0. 0. 0. 0.
      0. 0.</_>
    <_>
      1.89886255e+03 2.51435303e+03 1.00854047e+03 1.71835266e+03
      4.89835254e+03 1.00854047e+03 2.51435303e+03 4.54862579e+02
      2.85041089e+03 1.61591309e+03 2.16113306e+03 8.59176331e+02
      4.03917627e+03 2.16113306e+03 1.61591309e+03 1.40641089e+03 0. 0.
      0. 0. 0. 0. 0. 0. 0. 0. 0. 0. 0. 0. 0. 0. 0. 0. 0. 0. 0. 0. 0. 0.
      0. 0. 0. 0. 0. 0. 0. 0. 0. 0. 0. 0. 0. 0. 0. 0. 0. 0. 0. 0. 0. 0.
      0. 0.</_>
    <_>
      4.54133496e+03 8.98439758e+02 1.27962500e+03 8.41493896e+02
      3.36365601e+03 1.44388281e+03 1.68509473e+03 2.06976001e+03
      2.60773364e+03 1.98963574e+03 1.77814478e+03 0. 3.07228613e+03
      6.85423462e+02 3.58736664e+02 1.88969153e+03 0. 0. 0. 0. 0. 0. 0.
      0. 0. 0. 0. 0. 0. 0. 0. 0. 0. 0. 0. 0. 0. 0. 0. 0. 0. 0. 0. 0. 0.
      0. 0. 0. 0. 0. 0. 0. 0. 0. 0. 0. 0. 0. 0. 0. 0. 0. 0. 0.</_>
    <_>
      4.54133496e+03 8.98439758e+02 1.27962500e+03 8.41493896e+02
      3.36365601e+03 1.44388281e+03 1.68509473e+03 2.06975977e+03
      2.60773364e+03 1.98963574e+03 1.77814478e+03 0. 3.07228613e+03
      6.85423462e+02 3.58736664e+02 1.88969165e+03 0. 0. 0. 0. 0. 0. 0.
      0. 0. 0. 0. 0. 0. 0. 0. 0. 0. 0. 0. 0. 0. 0. 0. 0. 0. 0. 0. 0. 0.
      0. 0. 0. 0. 0. 0. 0. 0. 0. 0. 0. 0. 0. 0. 0. 0. 0. 0. 0.</_>
    <_>
      4.78444922e+03 9.48937256e+02 0. 9.14532654e+02 2.82653271e+03 0.
      9.48937256e+02 4.59245313e+03 9.24400781e+03 0. 0. 0.
      1.70126880e+03 0. 9.36586365e+02 5.79385010e+03 0. 0. 0. 0. 0. 0.
      0. 0. 0. 0. 0. 0. 0. 0. 0. 0. 0. 0. 0. 0. 0. 0. 0. 0. 0. 0. 0. 0.
      0. 0. 0. 0. 0. 0. 0. 0. 0. 0. 0. 0. 0. 0. 0. 0. 0. 0. 0. 0.</_>
    <_>
      4.78444922e+03 9.48937317e+02 0. 9.14532654e+02 2.82653271e+03 0.
      9.48937317e+02 4.59245313e+03 9.24400781e+03 0. 0. 0.
      1.70126880e+03 0. 9.36586365e+02 5.79385010e+03 0. 0. 0. 0. 0. 0.
      0. 0. 0. 0. 0. 0. 0. 0. 0. 0. 0. 0. 0. 0. 0. 0. 0. 0. 0. 0. 0. 0.
      0. 0. 0. 0. 0. 0. 0. 0. 0. 0. 0. 0. 0. 0. 0. 0. 0. 0. 0. 0.</_>
    <_>
      0. 0. 0. 0. 16320. 0. 0. 0. 0. 0. 0. 0. 16320. 0. 0. 0. 0. 0. 0.
      0. 0. 0. 0. 0. 0. 0. 0. 0. 0. 0. 0. 0. 0. 0. 0. 0. 0. 0. 0. 0. 0.
      0. 0. 0. 0. 0. 0. 0. 0. 0. 0. 0. 0. 0. 0. 0. 0. 0. 0. 0. 0. 0. 0.
      0.</_>
    <_>
      3.79413159e+03 2.38923364e+03 2.00281580e+03 1.80779895e+03
      4.39952051e+03 5.98533447e+02 0. 0. 1494. 2.03823877e+03
      1.76506836e+03 2.33910864e+03 4.48643945e+03 8.38504639e+02 0.
      5.30693909e+02 0. 0. 0. 0. 0. 0. 0. 0. 0. 0. 0. 0. 0. 0. 0. 0. 0.
      0. 0. 0. 0. 0. 0. 0. 0. 0. 0. 0. 0. 0. 0. 0. 0. 0. 0. 0. 0. 0. 0.
      0. 0. 0. 0. 0. 0. 0. 0. 0.</_>
    <_>
      3.26095483e+03 1.09175220e+03 1.38449268e+03 2.03098779e+03
      3.07281177e+03 1.76797717e+03 2.11523486e+03 3.84088531e+02 1742.
      6.19754639e+02 8.96857910e+02 3.93459015e+02 4.44279150e+03
      2.47771704e+03 1.39860742e+03 9.00089478e+02 0. 0. 0. 0. 0. 0. 0.
      0. 0. 0. 0. 0. 0. 0. 0. 0. 0. 0. 0. 0. 0. 0. 0. 0. 0. 0. 0. 0. 0.
      0. 0. 0. 0. 0. 0. 0. 0. 0. 0. 0. 0. 0. 0. 0. 0. 0. 0. 0.</_>
    <_>
      7.65706152e+03 2.12305908e+03 9.24772705e+02 6.09546265e+02 1876.
      0. 6.98815125e+02 2.40949756e+03 5.92331689e+03 2.37023209e+02
      4.69938293e+02 0. 9.25538086e+02 0. 5.48971741e+02 2.21825537e+03
      0. 0. 0. 0. 0. 0. 0. 0. 0. 0. 0. 0. 0. 0. 0. 0. 0. 0. 0. 0. 0. 0.
      0. 0. 0. 0. 0. 0. 0. 0. 0. 0. 0. 0. 0. 0. 0. 0. 0. 0. 0. 0. 0. 0.
      0. 0. 0. 0.</_>
    <_>
      2.37261987e+03 2.75080103e+03 9.42559326e+02 0. 4.00322339e+03
      1.43734387e+03 4.17085144e+02 1.21768994e+03 3.16245361e+03
      1.52433578e+02 1.72324475e+03 2.59402222e+03 3.11556567e+03
      9.42559326e+02 2.00234155e+03 1.39341113e+03 0. 0. 0. 0. 0. 0. 0.
      0. 0. 0. 0. 0. 0. 0. 0. 0. 0. 0. 0. 0. 0. 0. 0. 0. 0. 0. 0. 0. 0.
      0. 0. 0. 0. 0. 0. 0. 0. 0. 0. 0. 0. 0. 0. 0. 0. 0. 0. 0.</_>
    <_>
      5.64967969e+03 1.21897302e+03 4.81807037e+02 7.77270386e+02
      2.13547314e+03 2.54192529e+03 5.95063049e+02 0. 3.82799609e+03
      3.12371582e+02 1.30188428e+03 2.42580151e+03 3.41053516e+03
      1.60066113e+03 1.88499121e+03 0. 0. 0. 0. 0. 0. 0. 0. 0. 0. 0. 0.
      0. 0. 0. 0. 0. 0. 0. 0. 0. 0. 0. 0. 0. 0. 0. 0. 0. 0. 0. 0. 0. 0.
      0. 0. 0. 0. 0. 0. 0. 0. 0. 0. 0. 0. 0. 0. 0.</_>
    <_>
      4.05900317e+03 1.92080762e+03 1.79793774e+03 0. 3.92540991e+03
      8.23573914e+02 8.30963257e+02 8.03866882e+02 5.83586670e+03
      8.30963318e+02 8.23573914e+02 1.75740991e+03 2168. 1.79793762e+03
      1.92080774e+03 1.40300330e+03 0. 0. 0. 0. 0. 0. 0. 0. 0. 0. 0. 0.
      0. 0. 0. 0. 0. 0. 0. 0. 0. 0. 0. 0. 0. 0. 0. 0. 0. 0. 0. 0. 0. 0.
      0. 0. 0. 0. 0. 0. 0. 0. 0. 0. 0. 0. 0. 0.</_>
    <_>
      7.25297803e+03 1.02330750e+03 2.19129297e+03 0. 2.04475562e+03
      8.79701111e+02 6.56982483e+02 9.11530212e+02 10256. 0. 0. 0. 724.
      0. 1.49523877e+03 2.10523163e+02 0. 0. 0. 0. 0. 0. 0. 0. 0. 0. 0.
      0. 0. 0. 0. 0. 0. 0. 0. 0. 0. 0. 0. 0. 0. 0. 0. 0. 0. 0. 0. 0. 0.
      0. 0. 0. 0. 0. 0. 0. 0. 0. 0. 0. 0. 0. 0. 0.</_>
    <_>
      4.31582275e+03 9.16905457e+02 4.18814551e+03 1.71594763e+03
      3.83396069e+03 5.51885864e+02 0. 0. 618. 1.15694946e+03
      8.45415161e+02 1.51696118e+03 4.66580469e+03 6.09237244e+02
      9.48937256e+02 0. 0. 0. 0. 0. 0. 0. 0. 0. 0. 0. 0. 0. 0. 0. 0. 0.
      0. 0. 0. 0. 0. 0. 0. 0. 0. 0. 0. 0. 0. 0. 0. 0. 0. 0. 0. 0. 0. 0.
      0. 0. 0. 0. 0. 0. 0. 0. 0. 0.</_>
    <_>
      3.97749658e+03 1.21624915e+03 1.41213147e+03 6.91809235e+01
      6.08148193e+03 1.33614392e+03 2.58318091e+03 0. 3.82549927e+03
      6.46623535e+02 1.19120056e+03 1.25102783e+03 4.95688965e+03
      1.49106604e+03 6.02742065e+02 1.47105408e+02 0. 0. 0. 0. 0. 0. 0.
      0. 0. 0. 0. 0. 0. 0. 0. 0. 0. 0. 0. 0. 0. 0. 0. 0. 0. 0. 0. 0. 0.
      0. 0. 0. 0. 0. 0. 0. 0. 0. 0. 0. 0. 0. 0. 0. 0. 0. 0. 0.</_>
    <_>
      4.18875830e+03 2.65423047e+03 1.18276489e+03 7.17712830e+02
      2.77223877e+03 9.31013733e+02 5.38362305e+02 2.83005884e+03
      4.89501855e+03 2.37023193e+02 4.69938293e+02 0. 1.03370459e+03 0.
      7.50376831e+02 7.50367920e+02 0. 0. 0. 0. 0. 0. 0. 0. 0. 0. 0. 0.
      0. 0. 0. 0. 0. 0. 0. 0. 0. 0. 0. 0. 0. 0. 0. 0. 0. 0. 0. 0. 0. 0.
      0. 0. 0. 0. 0. 0. 0. 0. 0. 0. 0. 0. 0. 0.</_>
    <_>
      4.30097900e+03 3.12371582e+02 1.58330737e+03 2.37762012e+03
      6.58388525e+03 9.61550842e+02 1.56037476e+03 4.57735748e+02 914.
      0. 1.57111951e+03 1.44678809e+03 4.26584033e+03 1.63526392e+03
      5.95063049e+02 0. 0. 0. 0. 0. 0. 0. 0. 0. 0. 0. 0. 0. 0. 0. 0. 0.
      0. 0. 0. 0. 0. 0. 0. 0. 0. 0. 0. 0. 0. 0. 0. 0. 0. 0. 0. 0. 0. 0.
      0. 0. 0. 0. 0. 0. 0. 0. 0. 0.</_>
    <_>
      3.91687329e+03 3.10072632e+03 1.64037366e+03 4.48368164e+02 2246.
      9.02771484e+02 2.63936426e+03 9.99746582e+02 5.20765967e+03
      3.93954315e+01 0. 0. 1.03814282e+03 1.37215247e+03 1.18766296e+03
      4.11866486e+02 0. 0. 0. 0. 0. 0. 0. 0. 0. 0. 0. 0. 0. 0. 0. 0. 0.
      0. 0. 0. 0. 0. 0. 0. 0. 0. 0. 0. 0. 0. 0. 0. 0. 0. 0. 0. 0. 0. 0.
      0. 0. 0. 0. 0. 0. 0. 0. 0.</_>
    <_>
      3.84999609e+03 3.12371582e+02 1.30188428e+03 2.06598853e+03
      3.59904858e+03 2.10908105e+03 1.22946484e+03 5.75569275e+02
      4.69504053e+03 1.21334326e+03 0. 1.28711353e+03 2.13547314e+03
      2.54192529e+03 5.95063049e+02 0. 0. 0. 0. 0. 0. 0. 0. 0. 0. 0. 0.
      0. 0. 0. 0. 0. 0. 0. 0. 0. 0. 0. 0. 0. 0. 0. 0. 0. 0. 0. 0. 0. 0.
      0. 0. 0. 0. 0. 0. 0. 0. 0. 0. 0. 0. 0. 0. 0.</_>
    <_>
      4.03508496e+03 4.20786914e+03 2.01319458e+03 3.94312042e+02 1802.
      2.81684235e+02 1.18908582e+03 1.94624854e+03 3.01391162e+03
      6.90323486e+02 0. 0. 1.07228711e+03 1.61759558e+03 7.87771362e+02
      8.24931274e+02 0. 0. 0. 0. 0. 0. 0. 0. 0. 0. 0. 0. 0. 0. 0. 0. 0.
      0. 0. 0. 0. 0. 0. 0. 0. 0. 0. 0. 0. 0. 0. 0. 0. 0. 0. 0. 0. 0. 0.
      0. 0. 0. 0. 0. 0. 0. 0. 0.</_>
    <_>
      3.41356958e+03 6.01100647e+02 7.87193848e+02 1.16640674e+03 2540.
      3.22660791e+03 6.11236450e+02 9.41180054e+02 1028. 1.02025507e+03
      8.06336182e+02 2.32424512e+03 3.08726392e+03 4.69160950e+02
      7.72384399e+02 3.91187988e+03 0. 0. 0. 0. 0. 0. 0. 0. 0. 0. 0. 0.
      0. 0. 0. 0. 0. 0. 0. 0. 0. 0. 0. 0. 0. 0. 0. 0. 0. 0. 0. 0. 0. 0.
      0. 0. 0. 0. 0. 0. 0. 0. 0. 0. 0. 0. 0. 0.</_>
    <_>
      1.84779370e+03 1.37263013e+03 1.31875073e+03 0. 3.25457715e+03
      1.90732837e+03 4.17085144e+02 1.21768994e+03 5.64446387e+03
      6.56530762e+02 1.72324475e+03 2.18249561e+03 2092. 1.89595947e+03
      5.83849304e+02 5.49089844e+02 0. 0. 0. 0. 0. 0. 0. 0. 0. 0. 0. 0.
      0. 0. 0. 0. 0. 0. 0. 0. 0. 0. 0. 0. 0. 0. 0. 0. 0. 0. 0. 0. 0. 0.
      0. 0. 0. 0. 0. 0. 0. 0. 0. 0. 0. 0. 0. 0.</_>
    <_>
      8.81264355e+03 6.96186768e+02 8.08019897e+02 6.53521362e+02 1876.
      0. 6.98815125e+02 2.40949756e+03 6.12782666e+03 1.66859222e+02 0.
      0. 9.25538086e+02 0. 0. 3.06472876e+03 0. 0. 0. 0. 0. 0. 0. 0. 0.
      0. 0. 0. 0. 0. 0. 0. 0. 0. 0. 0. 0. 0. 0. 0. 0. 0. 0. 0. 0. 0. 0.
      0. 0. 0. 0. 0. 0. 0. 0. 0. 0. 0. 0. 0. 0. 0. 0. 0.</_>
    <_>
      2.52171704e+03 5.08993134e+02 1.40662427e+03 1.76490125e+03
      3.61464014e+03 1.78826782e+03 1.29880127e+03 1.03868616e+03
      3.22838013e+03 0. 2.20577051e+03 7.13639954e+02 3.84435547e+03
      2.68904517e+03 2.00838242e+02 1.24622559e+03 0. 0. 0. 0. 0. 0. 0.
      0. 0. 0. 0. 0. 0. 0. 0. 0. 0. 0. 0. 0. 0. 0. 0. 0. 0. 0. 0. 0. 0.
      0. 0. 0. 0. 0. 0. 0. 0. 0. 0. 0. 0. 0. 0. 0. 0. 0. 0. 0.</_>
    <_>
      4.27670361e+03 2.85996521e+02 1.40633496e+03 1.68629883e+03
      3.18005542e+03 2.63795068e+03 0. 2.02677637e+03 1.10432910e+03
      1.30390601e+03 2.20790063e+03 4.32010681e+02 3.52265723e+03
      3.24161670e+03 0. 1.95459167e+03 0. 0. 0. 0. 0. 0. 0. 0. 0. 0. 0.
      0. 0. 0. 0. 0. 0. 0. 0. 0. 0. 0. 0. 0. 0. 0. 0. 0. 0. 0. 0. 0. 0.
      0. 0. 0. 0. 0. 0. 0. 0. 0. 0. 0. 0. 0. 0. 0.</_>
    <_>
      4.38634619e+03 2.85705371e+03 6.27146057e+02 0. 0. 0.
      1.79610687e+02 0. 4.58796631e+03 5.05750781e+03 1.06225049e+03
      9.21140564e+02 3.92685571e+03 1.46039954e+03 0. 0. 0. 0. 0. 0. 0.
      0. 0. 0. 0. 0. 0. 0. 0. 0. 0. 0. 0. 0. 0. 0. 0. 0. 0. 0. 0. 0. 0.
      0. 0. 0. 0. 0. 0. 0. 0. 0. 0. 0. 0. 0. 0. 0. 0. 0. 0. 0. 0. 0.</_>
    <_>
      2.15834106e+03 1.17938171e+03 6.21289001e+02 2.32994873e+03
      3.55464014e+03 2.27282837e+03 5.96317688e+02 7.68803040e+02 1326.
      4.83497681e+02 1.22555933e+03 7.51917542e+02 4.68532422e+03
      2.54490186e+03 1.78708643e+03 9.75179260e+02 0. 0. 0. 0. 0. 0. 0.
      0. 0. 0. 0. 0. 0. 0. 0. 0. 0. 0. 0. 0. 0. 0. 0. 0. 0. 0. 0. 0. 0.
      0. 0. 0. 0. 0. 0. 0. 0. 0. 0. 0. 0. 0. 0. 0. 0. 0. 0. 0.</_>
    <_>
      4.92290234e+03 1.21897302e+03 9.82605957e+02 1.11643066e+03
      2.74947314e+03 1.82173584e+03 1.11282166e+03 0. 4.62999609e+03
      1.42490259e+03 1.85706091e+03 1.28306482e+03 3.40675757e+03
      9.42559265e+02 6.19814514e+02 8.07451782e+02 0. 0. 0. 0. 0. 0. 0.
      0. 0. 0. 0. 0. 0. 0. 0. 0. 0. 0. 0. 0. 0. 0. 0. 0. 0. 0. 0. 0. 0.
      0. 0. 0. 0. 0. 0. 0. 0. 0. 0. 0. 0. 0. 0. 0. 0. 0. 0. 0.</_>
    <_>
      4.84170508e+03 1.31779443e+03 8.80708496e+02 1.09650061e+03
      4.29650049e+03 8.80708496e+02 1.31779443e+03 1.86570532e+03
      4.84170508e+03 1.31779443e+03 8.80708496e+02 1.09650061e+03
      4.29650049e+03 8.80708496e+02 1.31779443e+03 1.86570532e+03 0. 0.
      0. 0. 0. 0. 0. 0. 0. 0. 0. 0. 0. 0. 0. 0. 0. 0. 0. 0. 0. 0. 0. 0.
      0. 0. 0. 0. 0. 0. 0. 0. 0. 0. 0. 0. 0. 0. 0. 0. 0. 0. 0. 0. 0. 0.
      0. 0.</_>
    <_>
      3.36622632e+03 4.14309052e+02 1.45411011e+03 1.50231714e+03
      3.49627490e+03 1.78826782e+03 8.38964355e+02 1.03868616e+03
      3.73260083e+03 0. 2.20577051e+03 1.12516638e+03 3.12992871e+03
      2.32766650e+03 7.38648804e+02 1.24622559e+03 0. 0. 0. 0. 0. 0. 0.
      0. 0. 0. 0. 0. 0. 0. 0. 0. 0. 0. 0. 0. 0. 0. 0. 0. 0. 0. 0. 0. 0.
      0. 0. 0. 0. 0. 0. 0. 0. 0. 0. 0. 0. 0. 0. 0. 0. 0. 0. 0.</_>
    <_>
      3.91097168e+03 4.02509448e+03 2.24903955e+03 4.04922211e+02 444.
      0. 2.75045441e+02 2.24856079e+03 4266. 1.90835938e+03
      2.40155420e+03 9.95125183e+02 4.76943457e+03 1.05711768e+03 0. 0.
      0. 0. 0. 0. 0. 0. 0. 0. 0. 0. 0. 0. 0. 0. 0. 0. 0. 0. 0. 0. 0. 0.
      0. 0. 0. 0. 0. 0. 0. 0. 0. 0. 0. 0. 0. 0. 0. 0. 0. 0. 0. 0. 0. 0.
      0. 0. 0. 0.</_>
    <_>
      3.01896558e+03 1.17139111e+03 1.22868945e+03 5.93196411e+02
      3.38127124e+03 3.40141333e+03 4.45970856e+02 1.74438123e+03
      2.32722290e+03 1.50339014e+03 8.64187500e+02 1.40953528e+03
      4.20013623e+03 1.00262469e+03 7.40121582e+02 2.20344849e+03 0. 0.
      0. 0. 0. 0. 0. 0. 0. 0. 0. 0. 0. 0. 0. 0. 0. 0. 0. 0. 0. 0. 0. 0.
      0. 0. 0. 0. 0. 0. 0. 0. 0. 0. 0. 0. 0. 0. 0. 0. 0. 0. 0. 0. 0. 0.
      0. 0.</_>
    <_>
      2.15834106e+03 1.17938184e+03 6.21289001e+02 2.32994873e+03
      3.55463989e+03 2.27282861e+03 5.96317688e+02 7.68803040e+02 1326.
      4.83497681e+02 1.22555933e+03 7.51917542e+02 4.68532422e+03
      2.54490186e+03 1.78708643e+03 9.75179260e+02 0. 0. 0. 0. 0. 0. 0.
      0. 0. 0. 0. 0. 0. 0. 0. 0. 0. 0. 0. 0. 0. 0. 0. 0. 0. 0. 0. 0. 0.
      0. 0. 0. 0. 0. 0. 0. 0. 0. 0. 0. 0. 0. 0. 0. 0. 0. 0. 0.</_>
    <_>
      2.92280566e+03 5.14770947e+03 1.62309253e+03 3.99101501e+02 404.
      0. 0. 1.97464941e+03 4.56307227e+03 3.59623267e+03 1.79575220e+03
      3.85323242e+02 4.91743506e+03 1.05711768e+03 0. 0. 0. 0. 0. 0. 0.
      0. 0. 0. 0. 0. 0. 0. 0. 0. 0. 0. 0. 0. 0. 0. 0. 0. 0. 0. 0. 0. 0.
      0. 0. 0. 0. 0. 0. 0. 0. 0. 0. 0. 0. 0. 0. 0. 0. 0. 0. 0. 0. 0.</_>
    <_>
      4.42673389e+03 2.74240845e+03 1.38508203e+03 0. 3.65562476e+03
      1.19496313e+03 8.30963257e+02 1.61309229e+03 3.83709229e+03
      8.30963257e+02 1.19496313e+03 1.35562488e+03 2300. 1.38508203e+03
      2.74240845e+03 1.50673364e+03 0. 0. 0. 0. 0. 0. 0. 0. 0. 0. 0. 0.
      0. 0. 0. 0. 0. 0. 0. 0. 0. 0. 0. 0. 0. 0. 0. 0. 0. 0. 0. 0. 0. 0.
      0. 0. 0. 0. 0. 0. 0. 0. 0. 0. 0. 0. 0. 0.</_>
    <_>
      7.41522363e+03 0. 1.14224268e+03 0. 2366. 1.16943542e+03
      4.17316895e+03 9.67307617e+02 3.61130762e+03 3.65541016e+03
      1.16943542e+03 8.35852844e+02 2664. 1.34641321e+03 6.19814514e+02
      1.34556860e+03 0. 0. 0. 0. 0. 0. 0. 0. 0. 0. 0. 0. 0. 0. 0. 0. 0.
      0. 0. 0. 0. 0. 0. 0. 0. 0. 0. 0. 0. 0. 0. 0. 0. 0. 0. 0. 0. 0. 0.
      0. 0. 0. 0. 0. 0. 0. 0. 0.</_>
    <_>
      8.80122363e+03 1.13757312e+03 1.34641321e+03 0. 2544.
      1.34641321e+03 1.13757312e+03 9.45223816e+02 8.80122363e+03
      1.13757312e+03 1.34641321e+03 0. 2544. 1.34641321e+03
      1.13757312e+03 9.45223816e+02 0. 0. 0. 0. 0. 0. 0. 0. 0. 0. 0. 0.
      0. 0. 0. 0. 0. 0. 0. 0. 0. 0. 0. 0. 0. 0. 0. 0. 0. 0. 0. 0. 0. 0.
      0. 0. 0. 0. 0. 0. 0. 0. 0. 0. 0. 0. 0. 0.</_>
    <_>
      5592. 6.62397156e+02 9.31632996e+02 9.42274902e+02 2.85427490e+03
      9.31632996e+02 6.62397156e+02 0. 9.48702344e+03 0. 0. 0.
      1.70859412e+03 9.37332397e+02 5.48032837e+02 6.42535828e+02 0. 0.
      0. 0. 0. 0. 0. 0. 0. 0. 0. 0. 0. 0. 0. 0. 0. 0. 0. 0. 0. 0. 0. 0.
      0. 0. 0. 0. 0. 0. 0. 0. 0. 0. 0. 0. 0. 0. 0. 0. 0. 0. 0. 0. 0. 0.
      0. 0.</_>
    <_>
      3.22299463e+03 2.21740332e+03 1.87933264e+03 1.34734229e+03
      2.69192969e+03 7.78781067e+02 1.06931555e+03 1.61474634e+03
      2.35336255e+03 6.19814514e+02 1.26552368e+03 0. 3.73536230e+03
      1.69122046e+03 8.54318115e+02 3.51333594e+03 0. 0. 0. 0. 0. 0. 0.
      0. 0. 0. 0. 0. 0. 0. 0. 0. 0. 0. 0. 0. 0. 0. 0. 0. 0. 0. 0. 0. 0.
      0. 0. 0. 0. 0. 0. 0. 0. 0. 0. 0. 0. 0. 0. 0. 0. 0. 0. 0.</_>
    <_>
      2.93399292e+03 6.89919983e+02 4.88405176e+03 1.25287207e+03
      3.65264624e+03 6.15374268e+02 8.65970886e+02 0. 2.19693115e+03
      2.76429834e+03 2.75853833e+03 2.50485254e+03 3.35238403e+03
      9.42559326e+02 7.52198120e+02 0. 0. 0. 0. 0. 0. 0. 0. 0. 0. 0. 0.
      0. 0. 0. 0. 0. 0. 0. 0. 0. 0. 0. 0. 0. 0. 0. 0. 0. 0. 0. 0. 0. 0.
      0. 0. 0. 0. 0. 0. 0. 0. 0. 0. 0. 0. 0. 0. 0.</_>
    <_>
      6.33174951e+03 1.21897302e+03 5.78752136e+02 1.44999622e+03
      2.13547314e+03 1.82173584e+03 5.95063049e+02 0. 4.05199609e+03
      3.12371582e+02 2.19384814e+03 1.87414246e+03 2.98880298e+03
      9.42559326e+02 7.65324768e+02 4.99289490e+02 0. 0. 0. 0. 0. 0. 0.
      0. 0. 0. 0. 0. 0. 0. 0. 0. 0. 0. 0. 0. 0. 0. 0. 0. 0. 0. 0. 0. 0.
      0. 0. 0. 0. 0. 0. 0. 0. 0. 0. 0. 0. 0. 0. 0. 0. 0. 0. 0.</_>
    <_>
      4.65891260e+03 3.12371582e+02 1.59249463e+03 1.00248688e+03
      4.29765479e+03 1.33614392e+03 2.03823877e+03 0. 1684. 0.
      1.25472253e+03 9.73765930e+02 2.77871631e+03 2.97180811e+03
      1.81267090e+03 1.35690698e+03 0. 0. 0. 0. 0. 0. 0. 0. 0. 0. 0. 0.
      0. 0. 0. 0. 0. 0. 0. 0. 0. 0. 0. 0. 0. 0. 0. 0. 0. 0. 0. 0. 0. 0.
      0. 0. 0. 0. 0. 0. 0. 0. 0. 0. 0. 0. 0. 0.</_>
    <_>
      2.78602515e+03 1.30390601e+03 2.46447021e+03 1.09963330e+03
      4.35850977e+03 1.62842737e+03 0. 2.32189819e+03 3.62352612e+03
      1.36243103e+03 6.50576660e+02 1.12628369e+03 3092. 1.10635083e+03
      8.76225708e+02 3.13209198e+02 0. 0. 0. 0. 0. 0. 0. 0. 0. 0. 0. 0.
      0. 0. 0. 0. 0. 0. 0. 0. 0. 0. 0. 0. 0. 0. 0. 0. 0. 0. 0. 0. 0. 0.
      0. 0. 0. 0. 0. 0. 0. 0. 0. 0. 0. 0. 0. 0.</_>
    <_>
      2.55590674e+03 1.51359180e+03 1.31875073e+03 0. 5.22823047e+03
      1.90936792e+03 0. 1.09187842e+03 2.01196753e+03 3.38431824e+02
      2.27879272e+03 2.91842383e+03 3394. 1.31875073e+03 1.51359180e+03
      6.91642944e+02 0. 0. 0. 0. 0. 0. 0. 0. 0. 0. 0. 0. 0. 0. 0. 0. 0.
      0. 0. 0. 0. 0. 0. 0. 0. 0. 0. 0. 0. 0. 0. 0. 0. 0. 0. 0. 0. 0. 0.
      0. 0. 0. 0. 0. 0. 0. 0. 0.</_>
    <_>
      1588. 2.70202515e+03 1.86749268e+03 6.75473206e+02 2.69328418e+03
      1.85589050e+03 5.95063049e+02 0. 3.59999609e+03 3.12371582e+02
      9.34392822e+02 2.82930859e+03 4.90102197e+03 1.59249463e+03
      1.94943530e+03 1.65454822e+03 0. 0. 0. 0. 0. 0. 0. 0. 0. 0. 0. 0.
      0. 0. 0. 0. 0. 0. 0. 0. 0. 0. 0. 0. 0. 0. 0. 0. 0. 0. 0. 0. 0. 0.
      0. 0. 0. 0. 0. 0. 0. 0. 0. 0. 0. 0. 0. 0.</_>
    <_>
      1.38278711e+03 1.80789478e+03 1.18936047e+03 2.43798901e+03
      4.98500439e+03 1.58676440e+03 1.71225195e+03 1.17764490e+03 2046.
      2.11736353e+03 1.73851685e+03 1.49244568e+03 5496. 1.46696976e+02
      5.82656006e+02 1.42414886e+02 0. 0. 0. 0. 0. 0. 0. 0. 0. 0. 0. 0.
      0. 0. 0. 0. 0. 0. 0. 0. 0. 0. 0. 0. 0. 0. 0. 0. 0. 0. 0. 0. 0. 0.
      0. 0. 0. 0. 0. 0. 0. 0. 0. 0. 0. 0. 0. 0.</_>
    <_>
      3.07286084e+03 3.21978369e+03 2.07802808e+03 6.75473206e+02
      2.95181079e+03 1.10323938e+03 1.06931555e+03 1.79147314e+03 2478.
      1.62312427e+03 1.21418042e+03 9.53752563e+02 5.26511670e+03
      1.59249463e+03 1.54849146e+03 1.65454822e+03 0. 0. 0. 0. 0. 0. 0.
      0. 0. 0. 0. 0. 0. 0. 0. 0. 0. 0. 0. 0. 0. 0. 0. 0. 0. 0. 0. 0. 0.
      0. 0. 0. 0. 0. 0. 0. 0. 0. 0. 0. 0. 0. 0. 0. 0. 0. 0. 0.</_>
    <_>
      4.28481201e+03 8.30963257e+02 8.23573914e+02 1.75740991e+03 2168.
      1.79793762e+03 1.92080762e+03 1.40300330e+03 4.29473389e+03
      2.74240845e+03 1.38508203e+03 0. 3.65562476e+03 1.19496313e+03
      8.30963257e+02 1.76014722e+03 0. 0. 0. 0. 0. 0. 0. 0. 0. 0. 0. 0.
      0. 0. 0. 0. 0. 0. 0. 0. 0. 0. 0. 0. 0. 0. 0. 0. 0. 0. 0. 0. 0. 0.
      0. 0. 0. 0. 0. 0. 0. 0. 0. 0. 0. 0. 0. 0.</_></uncompressed_support_vectors>
  <decision_functions>
    <_>
      <sv_count>1</sv_count>
      <rho>1.5004970350046615e-01</rho>
      <alpha>
        1.</alpha>
      <index>
        0</index></_>
    <_>
      <sv_count>1</sv_count>
      <rho>-5.9764998627256949e-01</rho>
      <alpha>
        1.</alpha>
      <index>
        1</index></_>
    <_>
      <sv_count>1</sv_count>
      <rho>-1.7836371939135748e-01</rho>
      <alpha>
        1.</alpha>
      <index>
        2</index></_>
    <_>
      <sv_count>1</sv_count>
      <rho>4.2168571804785682e+00</rho>
      <alpha>
        1.</alpha>
      <index>
        3</index></_>
    <_>
      <sv_count>1</sv_count>
      <rho>-5.5608802142499736e-01</rho>
      <alpha>
        1.</alpha>
      <index>
        4</index></_>
    <_>
      <sv_count>1</sv_count>
      <rho>2.7520539139749356e-01</rho>
      <alpha>
        1.</alpha>
      <index>
        5</index></_>
    <_>
      <sv_count>1</sv_count>
      <rho>-6.7633716880566275e-01</rho>
      <alpha>
        1.</alpha>
      <index>
        6</index></_>
    <_>
      <sv_count>1</sv_count>
      <rho>9.2564945130086318e-01</rho>
      <alpha>
        1.</alpha>
      <index>
        7</index></_>
    <_>
      <sv_count>1</sv_count>
      <rho>2.9892747343419074e-01</rho>
      <alpha>
        1.</alpha>
      <index>
        8</index></_>
    <_>
      <sv_count>1</sv_count>
      <rho>-1.2083032458041196e+00</rho>
      <alpha>
        1.</alpha>
      <index>
        9</index></_>
    <_>
      <sv_count>1</sv_count>
      <rho>6.0279536187695626e-01</rho>
      <alpha>
        1.</alpha>
      <index>
        10</index></_>
    <_>
      <sv_count>1</sv_count>
      <rho>5.9915482601442338e-01</rho>
      <alpha>
        1.</alpha>
      <index>
        11</index></_>
    <_>
      <sv_count>1</sv_count>
      <rho>2.5473673578741631e+00</rho>
      <alpha>
        1.</alpha>
      <index>
        12</index></_>
    <_>
      <sv_count>1</sv_count>
      <rho>7.9943026264350781e-01</rho>
      <alpha>
        1.</alpha>
      <index>
        13</index></_>
    <_>
      <sv_count>1</sv_count>
      <rho>1.6684929011008820e+00</rho>
      <alpha>
        1.</alpha>
      <index>
        14</index></_>
    <_>
      <sv_count>1</sv_count>
      <rho>-3.3218478720125975e-02</rho>
      <alpha>
        1.</alpha>
      <index>
        15</index></_>
    <_>
      <sv_count>1</sv_count>
      <rho>1.6430331226867678e+00</rho>
      <alpha>
        1.</alpha>
      <index>
        16</index></_>
    <_>
      <sv_count>1</sv_count>
      <rho>1.5538170869435328e+00</rho>
      <alpha>
        1.</alpha>
      <index>
        17</index></_>
    <_>
      <sv_count>1</sv_count>
      <rho>-7.6028599166545796e-01</rho>
      <alpha>
        1.</alpha>
      <index>
        18</index></_>
    <_>
      <sv_count>1</sv_count>
      <rho>9.0878495815309424e-01</rho>
      <alpha>
        1.</alpha>
      <index>
        19</index></_>
    <_>
      <sv_count>1</sv_count>
      <rho>1.0329200035717887e+00</rho>
      <alpha>
        1.</alpha>
      <index>
        20</index></_>
    <_>
      <sv_count>1</sv_count>
      <rho>-6.7821090345511925e-01</rho>
      <alpha>
        1.</alpha>
      <index>
        21</index></_>
    <_>
      <sv_count>1</sv_count>
      <rho>8.5795053252340614e-01</rho>
      <alpha>
        1.</alpha>
      <index>
        22</index></_>
    <_>
      <sv_count>1</sv_count>
      <rho>-2.6861009186189255e-01</rho>
      <alpha>
        1.</alpha>
      <index>
        23</index></_>
    <_>
      <sv_count>1</sv_count>
      <rho>1.5400950641002011e+00</rho>
      <alpha>
        1.</alpha>
      <index>
        24</index></_>
    <_>
      <sv_count>1</sv_count>
      <rho>9.2932166586563569e-01</rho>
      <alpha>
        1.</alpha>
      <index>
        25</index></_>
    <_>
      <sv_count>1</sv_count>
      <rho>-1.6448525112853076e+00</rho>
      <alpha>
        1.</alpha>
      <index>
        26</index></_>
    <_>
      <sv_count>1</sv_count>
      <rho>1.7713397298162727e+00</rho>
      <alpha>
        1.</alpha>
      <index>
        27</index></_>
    <_>
      <sv_count>1</sv_count>
      <rho>-9.7453451338297070e-01</rho>
      <alpha>
        1.</alpha>
      <index>
        28</index></_>
    <_>
      <sv_count>1</sv_count>
      <rho>8.9987637897393691e-01</rho>
      <alpha>
        1.</alpha>
      <index>
        29</index></_>
    <_>
      <sv_count>1</sv_count>
      <rho>-3.9450408222593830e-01</rho>
      <alpha>
        1.</alpha>
      <index>
        30</index></_>
    <_>
      <sv_count>1</sv_count>
      <rho>1.9369846345188637e+00</rho>
      <alpha>
        1.</alpha>
      <index>
        31</index></_>
    <_>
      <sv_count>1</sv_count>
      <rho>1.2247182180552287e+00</rho>
      <alpha>
        1.</alpha>
      <index>
        32</index></_>
    <_>
      <sv_count>1</sv_count>
      <rho>-1.6961628877301937e+00</rho>
      <alpha>
        1.</alpha>
      <index>
        33</index></_>
    <_>
      <sv_count>1</sv_count>
      <rho>-2.0341658060809333e+00</rho>
      <alpha>
        1.</alpha>
      <index>
        34</index></_>
    <_>
      <sv_count>1</sv_count>
      <rho>-2.1957445447467844e-01</rho>
      <alpha>
        1.</alpha>
      <index>
        35</index></_>
    <_>
      <sv_count>1</sv_count>
      <rho>-1.3157064720765665e+00</rho>
      <alpha>
        1.</alpha>
      <index>
        36</index></_>
    <_>
      <sv_count>1</sv_count>
      <rho>-2.7121253391832345e-01</rho>
      <alpha>
        1.</alpha>
      <index>
        37</index></_>
    <_>
      <sv_count>1</sv_count>
      <rho>5.8098466689085848e-01</rho>
      <alpha>
        1.</alpha>
      <index>
        38</index></_>
    <_>
      <sv_count>1</sv_count>
      <rho>-1.3908590332478512e+00</rho>
      <alpha>
        1.</alpha>
      <index>
        39</index></_>
    <_>
      <sv_count>1</sv_count>
      <rho>1.9658465597010044e+00</rho>
      <alpha>
        1.</alpha>
      <index>
        40</index></_>
    <_>
      <sv_count>1</sv_count>
      <rho>-2.7178875997923574e-01</rho>
      <alpha>
        1.</alpha>
      <index>
        41</index></_>
    <_>
      <sv_count>1</sv_count>
      <rho>3.2276386564537480e+00</rho>
      <alpha>
        1.</alpha>
      <index>
        42</index></_>
    <_>
      <sv_count>1</sv_count>
      <rho>2.3073833970133957e+00</rho>
      <alpha>
        1.</alpha>
      <index>
        43</index></_>
    <_>
      <sv_count>1</sv_count>
      <rho>-1.9580961675147051e+00</rho>
      <alpha>
        1.</alpha>
      <index>
        44</index></_>
    <_>
      <sv_count>1</sv_count>
      <rho>-6.9691623525106505e-01</rho>
      <alpha>
        1.</alpha>
      <index>
        45</index></_>
    <_>
      <sv_count>1</sv_count>
      <rho>4.2072891854223071e+00</rho>
      <alpha>
        1.</alpha>
      <index>
        46</index></_>
    <_>
      <sv_count>1</sv_count>
      <rho>5.6642209302670177e-01</rho>
      <alpha>
        1.</alpha>
      <index>
        47</index></_>
    <_>
      <sv_count>1</sv_count>
      <rho>-1.6870340433750945e+00</rho>
      <alpha>
        1.</alpha>
      <index>
        48</index></_>
    <_>
      <sv_count>1</sv_count>
      <rho>9.0843405811803868e-01</rho>
      <alpha>
        1.</alpha>
      <index>
        49</index></_>
    <_>
      <sv_count>1</sv_count>
      <rho>7.8321961892119096e-01</rho>
      <alpha>
        1.</alpha>
      <index>
        50</index></_>
    <_>
      <sv_count>1</sv_count>
      <rho>-9.5863410620428047e-01</rho>
      <alpha>
        1.</alpha>
      <index>
        51</index></_>
    <_>
      <sv_count>1</sv_count>
      <rho>-4.8499886960075740e+00</rho>
      <alpha>
        1.</alpha>
      <index>
        52</index></_>
    <_>
      <sv_count>1</sv_count>
      <rho>-1.6759327406893889e+00</rho>
      <alpha>
        1.</alpha>
      <index>
        53</index></_>
    <_>
      <sv_count>1</sv_count>
      <rho>-1.6870340160133692e+00</rho>
      <alpha>
        1.</alpha>
      <index>
        54</index></_></decision_functions></opencv_ml_svm>
</opencv_storage>
