<?xml version="1.0"?>
<opencv_storage>
<opencv_ml_svm>
  <format>3</format>
  <svmType>C_SVC</svmType>
  <kernel>
    <type>LINEAR</type></kernel>
  <C>2.6699999999999999e+00</C>
  <term_criteria><epsilon>1.1920928955078125e-07</epsilon>
    <iterations>1000</iterations></term_criteria>
  <var_count>64</var_count>
  <class_count>11</class_count>
  <class_labels type_id="opencv-matrix">
    <rows>11</rows>
    <cols>1</cols>
    <dt>i</dt>
    <data>
      0 1 2 3 4 5 6 7 8 9 11</data></class_labels>
  <sv_total>55</sv_total>
  <support_vectors>
    <_>
      2.57325504e-04 2.22647723e-04 6.12819640e-05 -1.63070421e-04
      -6.29958085e-05 -3.69275913e-05 1.33034073e-05 5.79587468e-05
      -2.68112548e-04 3.48639907e-04 2.68041098e-04 2.93586549e-04
      4.83778334e-04 8.34651000e-05 1.98290159e-04 -3.51395662e-04 0. 0.
      0. 0. 0. 0. 0. 0. 0. 0. 0. 0. 0. 0. 0. 0. 0. 0. 0. 0. 0. 0. 0. 0.
      0. 0. 0. 0. 0. 0. 0. 0. 0. 0. 0. 0. 0. 0. 0. 0. 0. 0. 0. 0. 0. 0.
      0. 0.</_>
    <_>
      8.27024123e-05 -1.17589370e-04 -1.17946322e-04 -2.00829469e-04
      -3.68404071e-05 -3.21688663e-06 7.63501230e-05 1.99651244e-04
      1.54344627e-04 -3.73069270e-05 -1.65531965e-04 -1.95712928e-04
      -4.41517950e-05 -3.40371844e-05 -1.98835983e-06 1.43113921e-05 0.
      0. 0. 0. 0. 0. 0. 0. 0. 0. 0. 0. 0. 0. 0. 0. 0. 0. 0. 0. 0. 0. 0.
      0. 0. 0. 0. 0. 0. 0. 0. 0. 0. 0. 0. 0. 0. 0. 0. 0. 0. 0. 0. 0. 0.
      0. 0. 0.</_>
    <_>
      2.03070158e-04 1.94909095e-04 1.23023041e-04 2.28729870e-04
      -1.14537557e-04 -2.21755108e-04 -1.89180922e-04 2.86859809e-04
      1.05863197e-04 2.61141802e-04 -1.10292873e-04 8.05964155e-05
      -2.98722327e-04 -3.34306533e-04 -6.66150445e-05 6.41524384e-05 0.
      0. 0. 0. 0. 0. 0. 0. 0. 0. 0. 0. 0. 0. 0. 0. 0. 0. 0. 0. 0. 0. 0.
      0. 0. 0. 0. 0. 0. 0. 0. 0. 0. 0. 0. 0. 0. 0. 0. 0. 0. 0. 0. 0. 0.
      0. 0. 0.</_>
    <_>
      7.03788246e-05 -6.03405060e-04 -4.31137189e-04 -6.35857723e-05
      1.02232720e-04 2.34842679e-04 -7.68550090e-05 -7.19687341e-06
      2.57245119e-05 3.81947553e-04 -1.28598986e-04 7.38571034e-05
      2.81831075e-04 -5.51231569e-05 6.38340833e-04 -5.31419209e-05 0.
      0. 0. 0. 0. 0. 0. 0. 0. 0. 0. 0. 0. 0. 0. 0. 0. 0. 0. 0. 0. 0. 0.
      0. 0. 0. 0. 0. 0. 0. 0. 0. 0. 0. 0. 0. 0. 0. 0. 0. 0. 0. 0. 0. 0.
      0. 0. 0.</_>
    <_>
      1.85857949e-04 1.75040859e-05 3.56170785e-05 2.39152541e-05
      -1.24898652e-04 -3.63366213e-04 2.54665865e-05 2.43487782e-04
      1.62964541e-04 -3.58654906e-05 -3.06870556e-04 -2.17412759e-04
      -3.25520705e-06 3.31398151e-05 4.33285095e-06 1.55866743e-04 0. 0.
      0. 0. 0. 0. 0. 0. 0. 0. 0. 0. 0. 0. 0. 0. 0. 0. 0. 0. 0. 0. 0. 0.
      0. 0. 0. 0. 0. 0. 0. 0. 0. 0. 0. 0. 0. 0. 0. 0. 0. 0. 0. 0. 0. 0.
      0. 0.</_>
    <_>
      -1.18518386e-04 -4.44179954e-04 -3.14438366e-05 -1.70052779e-04
      -5.58223226e-04 -5.84949623e-04 3.02965636e-04 1.64197612e-04
      6.17794285e-04 -7.31753753e-05 -8.51902470e-04 1.34281605e-03
      3.87877750e-04 -2.58877175e-04 7.91881466e-04 -2.18242683e-04 0.
      0. 0. 0. 0. 0. 0. 0. 0. 0. 0. 0. 0. 0. 0. 0. 0. 0. 0. 0. 0. 0. 0.
      0. 0. 0. 0. 0. 0. 0. 0. 0. 0. 0. 0. 0. 0. 0. 0. 0. 0. 0. 0. 0. 0.
      0. 0. 0.</_>
    <_>
      3.20373438e-05 -1.30884859e-04 4.04916791e-05 3.77243559e-05
      2.05790420e-04 3.84125487e-05 1.15111558e-04 4.62824501e-05
      -8.35405535e-06 -1.72645392e-04 -6.81699239e-05 -5.83466817e-06
      -1.63815188e-04 1.95264583e-05 7.52626147e-05 -7.89641854e-06 0.
      0. 0. 0. 0. 0. 0. 0. 0. 0. 0. 0. 0. 0. 0. 0. 0. 0. 0. 0. 0. 0. 0.
      0. 0. 0. 0. 0. 0. 0. 0. 0. 0. 0. 0. 0. 0. 0. 0. 0. 0. 0. 0. 0. 0.
      0. 0. 0.</_>
    <_>
      6.73007569e-04 4.43341705e-04 -3.84093000e-04 -1.73057386e-04
      1.97946021e-04 -6.35628181e-04 -1.56434864e-04 5.31950442e-04
      4.45571786e-05 7.70693077e-05 -1.02991275e-04 -5.09634730e-04
      -1.17157055e-04 -3.35211749e-04 -2.30397389e-04 2.30946549e-04 0.
      0. 0. 0. 0. 0. 0. 0. 0. 0. 0. 0. 0. 0. 0. 0. 0. 0. 0. 0. 0. 0. 0.
      0. 0. 0. 0. 0. 0. 0. 0. 0. 0. 0. 0. 0. 0. 0. 0. 0. 0. 0. 0. 0. 0.
      0. 0. 0.</_>
    <_>
      2.10119877e-04 -3.76227224e-04 -4.96896508e-04 2.50468525e-04
      5.92033553e-04 3.55559110e-04 4.09506814e-04 2.67652067e-04
      2.34901934e-04 -3.53794865e-04 -7.09412096e-04 -2.87161034e-04
      -9.43958468e-04 3.23350250e-04 1.97615547e-04 5.97836100e-04 0. 0.
      0. 0. 0. 0. 0. 0. 0. 0. 0. 0. 0. 0. 0. 0. 0. 0. 0. 0. 0. 0. 0. 0.
      0. 0. 0. 0. 0. 0. 0. 0. 0. 0. 0. 0. 0. 0. 0. 0. 0. 0. 0. 0. 0. 0.
      0. 0.</_>
    <_>
      1.86127509e-04 3.00709835e-05 7.41649492e-05 6.05481182e-05
      -1.76642832e-04 -2.44478979e-05 -5.87695322e-05 1.64053214e-04
      6.95432973e-05 2.46510044e-05 -5.55428305e-05 5.80536016e-06
      4.81258830e-05 2.32871262e-05 5.65625960e-05 2.51810179e-05 0. 0.
      0. 0. 0. 0. 0. 0. 0. 0. 0. 0. 0. 0. 0. 0. 0. 0. 0. 0. 0. 0. 0. 0.
      0. 0. 0. 0. 0. 0. 0. 0. 0. 0. 0. 0. 0. 0. 0. 0. 0. 0. 0. 0. 0. 0.
      0. 0.</_>
    <_>
      6.50280126e-05 -2.44111634e-05 -4.33523855e-05 -3.60069862e-05
      -2.05294600e-05 6.24932045e-06 2.37891436e-06 2.56394978e-05
      1.60674696e-04 -3.98375596e-05 -5.87103532e-05 -6.66852575e-05
      -3.77671895e-05 -7.20275648e-06 4.78253241e-07 6.56976545e-06 0.
      0. 0. 0. 0. 0. 0. 0. 0. 0. 0. 0. 0. 0. 0. 0. 0. 0. 0. 0. 0. 0. 0.
      0. 0. 0. 0. 0. 0. 0. 0. 0. 0. 0. 0. 0. 0. 0. 0. 0. 0. 0. 0. 0. 0.
      0. 0. 0.</_>
    <_>
      1.21244848e-04 8.66131472e-07 -1.72912678e-05 2.89369764e-05
      -6.66334454e-05 -2.22299623e-05 -6.05028181e-05 7.89751266e-06
      1.82803604e-04 -2.24767664e-05 -2.75034035e-05 -2.39518777e-05
      -9.91671986e-05 -4.21378136e-05 -3.50880509e-05 2.18027471e-05 0.
      0. 0. 0. 0. 0. 0. 0. 0. 0. 0. 0. 0. 0. 0. 0. 0. 0. 0. 0. 0. 0. 0.
      0. 0. 0. 0. 0. 0. 0. 0. 0. 0. 0. 0. 0. 0. 0. 0. 0. 0. 0. 0. 0. 0.
      0. 0. 0.</_>
    <_>
      -2.00336435e-05 -2.06948243e-04 -1.36457922e-04 1.68763036e-05
      3.22664673e-05 6.25098546e-05 2.93528665e-05 6.74401890e-05
      3.81927530e-04 -2.62309386e-05 -9.06672140e-05 -4.41610573e-05
      -1.45784550e-04 -1.19809438e-05 6.91121677e-05 7.59169707e-05 0.
      0. 0. 0. 0. 0. 0. 0. 0. 0. 0. 0. 0. 0. 0. 0. 0. 0. 0. 0. 0. 0. 0.
      0. 0. 0. 0. 0. 0. 0. 0. 0. 0. 0. 0. 0. 0. 0. 0. 0. 0. 0. 0. 0. 0.
      0. 0. 0.</_>
    <_>
      9.66268708e-05 -8.96089477e-06 -1.13594342e-05 -1.40579077e-05
      -3.51753770e-05 -6.79124059e-05 -9.98729229e-06 1.86275574e-05
      1.91517523e-04 -3.89146226e-05 -4.94433334e-05 -7.20389799e-05
      -3.33301286e-05 -4.62381558e-06 -3.26037589e-05 2.47345160e-05 0.
      0. 0. 0. 0. 0. 0. 0. 0. 0. 0. 0. 0. 0. 0. 0. 0. 0. 0. 0. 0. 0. 0.
      0. 0. 0. 0. 0. 0. 0. 0. 0. 0. 0. 0. 0. 0. 0. 0. 0. 0. 0. 0. 0. 0.
      0. 0. 0.</_>
    <_>
      3.05977119e-05 -4.70334780e-05 -1.19329279e-05 2.31855465e-05
      -3.62296887e-05 -3.54015829e-05 -4.64383011e-05 7.74523942e-05
      2.91094650e-04 -8.73444806e-05 -4.42785640e-05 -3.19311075e-05
      -4.26159422e-05 -2.53126905e-06 -2.56945605e-05 1.33612857e-05 0.
      0. 0. 0. 0. 0. 0. 0. 0. 0. 0. 0. 0. 0. 0. 0. 0. 0. 0. 0. 0. 0. 0.
      0. 0. 0. 0. 0. 0. 0. 0. 0. 0. 0. 0. 0. 0. 0. 0. 0. 0. 0. 0. 0. 0.
      0. 0. 0.</_>
    <_>
      -3.57169265e-05 -7.75238368e-05 1.50036085e-05 3.45681037e-05
      1.11989742e-04 2.75976963e-05 2.65524341e-05 3.56442870e-05
      7.44793870e-05 -1.75975772e-04 -4.33985078e-05 -5.46184965e-05
      -1.21952391e-04 1.36882436e-05 3.18082493e-05 -2.26156608e-05 0.
      0. 0. 0. 0. 0. 0. 0. 0. 0. 0. 0. 0. 0. 0. 0. 0. 0. 0. 0. 0. 0. 0.
      0. 0. 0. 0. 0. 0. 0. 0. 0. 0. 0. 0. 0. 0. 0. 0. 0. 0. 0. 0. 0. 0.
      0. 0. 0.</_>
    <_>
      2.42777081e-04 2.28023891e-05 -6.77752032e-05 6.60806327e-05
      -2.55172163e-05 9.05180605e-06 -1.22726502e-04 -2.23855568e-05
      1.88174672e-04 -1.32193629e-04 -4.17100928e-05 -1.38217016e-04
      -6.97499854e-05 -4.50969419e-05 -1.13545699e-04 6.23092419e-05 0.
      0. 0. 0. 0. 0. 0. 0. 0. 0. 0. 0. 0. 0. 0. 0. 0. 0. 0. 0. 0. 0. 0.
      0. 0. 0. 0. 0. 0. 0. 0. 0. 0. 0. 0. 0. 0. 0. 0. 0. 0. 0. 0. 0. 0.
      0. 0. 0.</_>
    <_>
      -1.02090034e-05 -4.70709565e-05 -7.85877455e-06 -3.43023712e-05
      2.34618528e-05 -5.21907032e-06 -1.40342681e-05 5.58013817e-05
      2.71216035e-04 -1.08115943e-04 -8.49262578e-05 -4.37795352e-05
      -1.14818031e-04 -5.94552284e-06 -4.31698345e-06 4.80156086e-05 0.
      0. 0. 0. 0. 0. 0. 0. 0. 0. 0. 0. 0. 0. 0. 0. 0. 0. 0. 0. 0. 0. 0.
      0. 0. 0. 0. 0. 0. 0. 0. 0. 0. 0. 0. 0. 0. 0. 0. 0. 0. 0. 0. 0. 0.
      0. 0. 0.</_>
    <_>
      9.68736204e-05 1.08527402e-05 6.98785607e-06 1.75559508e-05
      -7.81713534e-05 6.79904701e-07 -3.75184754e-05 1.47794235e-05
      1.34359696e-04 -1.85221325e-05 -2.36474207e-05 -1.74846173e-05
      -1.11383736e-06 1.70270796e-05 1.17866839e-05 1.88589347e-05 0. 0.
      0. 0. 0. 0. 0. 0. 0. 0. 0. 0. 0. 0. 0. 0. 0. 0. 0. 0. 0. 0. 0. 0.
      0. 0. 0. 0. 0. 0. 0. 0. 0. 0. 0. 0. 0. 0. 0. 0. 0. 0. 0. 0. 0. 0.
      0. 0.</_>
    <_>
      -1.52372493e-04 1.18040203e-04 1.93934829e-04 3.00404790e-04
      4.82085079e-06 -1.42759673e-04 -1.38004572e-04 -4.85967794e-05
      -2.68958993e-05 1.20175406e-04 1.86955702e-04 2.20985807e-04
      -9.13444383e-05 -8.09750927e-05 -1.20680779e-04 3.01883465e-05 0.
      0. 0. 0. 0. 0. 0. 0. 0. 0. 0. 0. 0. 0. 0. 0. 0. 0. 0. 0. 0. 0. 0.
      0. 0. 0. 0. 0. 0. 0. 0. 0. 0. 0. 0. 0. 0. 0. 0. 0. 0. 0. 0. 0. 0.
      0. 0. 0.</_>
    <_>
      -1.26434112e-04 2.51449655e-05 1.59088915e-04 1.50362743e-04
      1.59134026e-04 3.34114557e-05 -2.78827920e-05 -7.42978664e-05
      -4.96100110e-05 1.21000485e-04 2.06745724e-04 2.95944395e-04
      1.29595908e-04 -2.61966179e-05 8.67804993e-05 -3.64110456e-05 0.
      0. 0. 0. 0. 0. 0. 0. 0. 0. 0. 0. 0. 0. 0. 0. 0. 0. 0. 0. 0. 0. 0.
      0. 0. 0. 0. 0. 0. 0. 0. 0. 0. 0. 0. 0. 0. 0. 0. 0. 0. 0. 0. 0. 0.
      0. 0. 0.</_>
    <_>
      -9.57408702e-05 2.11335282e-04 2.32958409e-04 2.88977055e-04
      -8.84138572e-05 -2.56915577e-04 -1.01171841e-04 -2.03941876e-04
      -3.89067209e-05 3.51476192e-05 2.55234554e-05 1.11709160e-04
      6.11338983e-05 3.64927291e-05 -1.15245006e-04 1.10693923e-04 0. 0.
      0. 0. 0. 0. 0. 0. 0. 0. 0. 0. 0. 0. 0. 0. 0. 0. 0. 0. 0. 0. 0. 0.
      0. 0. 0. 0. 0. 0. 0. 0. 0. 0. 0. 0. 0. 0. 0. 0. 0. 0. 0. 0. 0. 0.
      0. 0.</_>
    <_>
      -1.06265470e-04 1.82768956e-04 2.46287265e-04 3.41056933e-04
      -2.51211823e-05 -7.20440198e-07 -1.50978565e-04 -2.92063603e-04
      1.41506080e-05 -6.38188940e-05 2.80955835e-04 2.18440953e-04
      1.26650912e-05 -1.40162461e-04 -1.54612953e-05 -5.29172985e-06 0.
      0. 0. 0. 0. 0. 0. 0. 0. 0. 0. 0. 0. 0. 0. 0. 0. 0. 0. 0. 0. 0. 0.
      0. 0. 0. 0. 0. 0. 0. 0. 0. 0. 0. 0. 0. 0. 0. 0. 0. 0. 0. 0. 0. 0.
      0. 0. 0.</_>
    <_>
      -6.97851428e-05 -4.27747000e-05 5.66360395e-05 9.36796205e-05
      1.28908054e-04 1.59367682e-05 2.47234511e-05 -1.54183290e-05
      -1.19145916e-04 -7.35316353e-05 1.96295514e-05 8.59291831e-05
      -4.66659367e-05 3.76318212e-07 2.78240004e-05 4.51246888e-05 0. 0.
      0. 0. 0. 0. 0. 0. 0. 0. 0. 0. 0. 0. 0. 0. 0. 0. 0. 0. 0. 0. 0. 0.
      0. 0. 0. 0. 0. 0. 0. 0. 0. 0. 0. 0. 0. 0. 0. 0. 0. 0. 0. 0. 0. 0.
      0. 0.</_>
    <_>
      1.85914192e-04 1.00967511e-04 3.55527445e-04 3.05103575e-04
      7.20904791e-05 -2.39084533e-04 -2.20929564e-04 -2.48384633e-04
      -1.76233283e-04 2.29713129e-04 1.28007305e-04 1.25638719e-04
      -1.48807623e-04 -7.63038479e-05 -8.72825767e-05 -5.86030983e-05 0.
      0. 0. 0. 0. 0. 0. 0. 0. 0. 0. 0. 0. 0. 0. 0. 0. 0. 0. 0. 0. 0. 0.
      0. 0. 0. 0. 0. 0. 0. 0. 0. 0. 0. 0. 0. 0. 0. 0. 0. 0. 0. 0. 0. 0.
      0. 0. 0.</_>
    <_>
      -3.92864276e-05 6.36694167e-05 2.22545117e-04 1.58465351e-04
      -2.53045309e-05 -1.15982330e-04 2.56378985e-06 -3.26299341e-04
      -4.80048620e-04 4.03235208e-05 1.35564042e-04 1.23538557e-04
      -1.75615423e-04 -1.69688821e-04 -8.94143159e-05 1.19444543e-04 0.
      0. 0. 0. 0. 0. 0. 0. 0. 0. 0. 0. 0. 0. 0. 0. 0. 0. 0. 0. 0. 0. 0.
      0. 0. 0. 0. 0. 0. 0. 0. 0. 0. 0. 0. 0. 0. 0. 0. 0. 0. 0. 0. 0. 0.
      0. 0. 0.</_>
    <_>
      9.38810990e-05 2.84869184e-05 2.04793454e-04 1.56830210e-04
      -1.34044749e-04 -1.50637552e-05 -1.61500720e-04 0. -3.79584635e-05
      2.27588771e-05 2.82692636e-05 5.73653742e-05 6.81600723e-05
      5.68333271e-05 -1.61381886e-05 1.57000832e-05 0. 0. 0. 0. 0. 0. 0.
      0. 0. 0. 0. 0. 0. 0. 0. 0. 0. 0. 0. 0. 0. 0. 0. 0. 0. 0. 0. 0. 0.
      0. 0. 0. 0. 0. 0. 0. 0. 0. 0. 0. 0. 0. 0. 0. 0. 0. 0. 0.</_>
    <_>
      -1.23620819e-04 -1.32985297e-04 -5.46425363e-05 -9.87281092e-05
      2.65843875e-04 2.13562162e-04 1.35438149e-05 -3.11628864e-05
      -4.92727449e-05 3.15911821e-05 6.48682908e-05 -3.01976597e-05
      2.15651526e-04 8.14238301e-05 1.38239790e-04 -1.08810518e-05 0. 0.
      0. 0. 0. 0. 0. 0. 0. 0. 0. 0. 0. 0. 0. 0. 0. 0. 0. 0. 0. 0. 0. 0.
      0. 0. 0. 0. 0. 0. 0. 0. 0. 0. 0. 0. 0. 0. 0. 0. 0. 0. 0. 0. 0. 0.
      0. 0.</_>
    <_>
      3.98958109e-05 1.39799755e-04 2.61457899e-04 -2.06690616e-04
      -1.95635250e-04 -1.45224345e-04 2.79495544e-05 -2.83194531e-04
      1.27509440e-04 -2.36631517e-04 -2.94051482e-04 -3.32043273e-04
      3.62357678e-04 2.25668948e-04 1.91467392e-04 9.68327440e-05 0. 0.
      0. 0. 0. 0. 0. 0. 0. 0. 0. 0. 0. 0. 0. 0. 0. 0. 0. 0. 0. 0. 0. 0.
      0. 0. 0. 0. 0. 0. 0. 0. 0. 0. 0. 0. 0. 0. 0. 0. 0. 0. 0. 0. 0. 0.
      0. 0.</_>
    <_>
      -1.15588839e-04 -1.55568137e-04 2.82345689e-04 -3.93672031e-04
      4.61036798e-05 4.38811607e-04 1.62732846e-04 -2.79444415e-04
      1.67621638e-05 -5.54806087e-04 -2.79523403e-04 -2.24952601e-04
      4.42059943e-04 7.10757231e-05 3.26839741e-04 -1.16214309e-04 0. 0.
      0. 0. 0. 0. 0. 0. 0. 0. 0. 0. 0. 0. 0. 0. 0. 0. 0. 0. 0. 0. 0. 0.
      0. 0. 0. 0. 0. 0. 0. 0. 0. 0. 0. 0. 0. 0. 0. 0. 0. 0. 0. 0. 0. 0.
      0. 0.</_>
    <_>
      -7.35432477e-05 -7.17737639e-05 5.78799336e-05 2.98611230e-05
      1.51448316e-04 9.52394184e-05 4.56633788e-05 4.83377107e-07
      -9.02943066e-05 -1.00913283e-04 -1.60659729e-05 1.53612746e-05
      -2.49217119e-05 3.28563183e-05 5.83209658e-05 3.99200180e-05 0. 0.
      0. 0. 0. 0. 0. 0. 0. 0. 0. 0. 0. 0. 0. 0. 0. 0. 0. 0. 0. 0. 0. 0.
      0. 0. 0. 0. 0. 0. 0. 0. 0. 0. 0. 0. 0. 0. 0. 0. 0. 0. 0. 0. 0. 0.
      0. 0.</_>
    <_>
      4.49663901e-04 -5.68295945e-04 -9.16014716e-04 -4.68578772e-04
      6.73991046e-04 1.09109492e-03 3.85570194e-04 -5.07717836e-04
      -1.60317977e-05 -2.28215620e-04 -7.95263622e-04 -7.40442949e-04
      1.34960705e-04 -5.27910190e-04 3.00037820e-04 -9.41830513e-05 0.
      0. 0. 0. 0. 0. 0. 0. 0. 0. 0. 0. 0. 0. 0. 0. 0. 0. 0. 0. 0. 0. 0.
      0. 0. 0. 0. 0. 0. 0. 0. 0. 0. 0. 0. 0. 0. 0. 0. 0. 0. 0. 0. 0. 0.
      0. 0. 0.</_>
    <_>
      -3.43898173e-05 -1.53127316e-04 -1.18575350e-04 -2.68109608e-04
      1.58420371e-04 2.05204386e-04 3.93374416e-04 -2.67119089e-04
      -3.88904737e-04 -2.06041834e-04 8.90085939e-05 -4.84082062e-04
      -4.00023346e-05 4.85162833e-04 5.40452347e-05 -1.21831754e-05 0.
      0. 0. 0. 0. 0. 0. 0. 0. 0. 0. 0. 0. 0. 0. 0. 0. 0. 0. 0. 0. 0. 0.
      0. 0. 0. 0. 0. 0. 0. 0. 0. 0. 0. 0. 0. 0. 0. 0. 0. 0. 0. 0. 0. 0.
      0. 0. 0.</_>
    <_>
      1.93446074e-04 7.00171950e-06 1.50055217e-04 7.98546171e-05
      -2.86789262e-04 8.86677881e-05 -7.51150874e-05 4.18021300e-05
      5.81621607e-05 9.28307691e-06 -8.32048681e-05 -4.19119606e-05
      1.25905135e-04 1.80891060e-04 1.09230830e-04 5.11214785e-05 0. 0.
      0. 0. 0. 0. 0. 0. 0. 0. 0. 0. 0. 0. 0. 0. 0. 0. 0. 0. 0. 0. 0. 0.
      0. 0. 0. 0. 0. 0. 0. 0. 0. 0. 0. 0. 0. 0. 0. 0. 0. 0. 0. 0. 0. 0.
      0. 0.</_>
    <_>
      1.17611293e-04 1.15933712e-04 1.11533569e-04 -4.49052532e-05
      -2.04890093e-04 -2.88663752e-04 3.92090078e-06 2.58235195e-05
      6.00490566e-05 -8.03050280e-05 -1.25708495e-04 -1.15919829e-04
      -3.61587699e-05 3.04586829e-05 -1.19274264e-04 2.31578360e-05 0.
      0. 0. 0. 0. 0. 0. 0. 0. 0. 0. 0. 0. 0. 0. 0. 0. 0. 0. 0. 0. 0. 0.
      0. 0. 0. 0. 0. 0. 0. 0. 0. 0. 0. 0. 0. 0. 0. 0. 0. 0. 0. 0. 0. 0.
      0. 0. 0.</_>
    <_>
      -1.48759529e-04 1.38231742e-04 2.90493423e-04 1.06905776e-04
      -4.34254907e-04 -1.57090573e-04 -2.53213017e-04 -7.04277991e-05
      1.88032252e-04 -3.93257098e-04 -1.39914686e-04 1.61076077e-05
      -5.99173036e-05 -6.82553309e-06 -1.96894660e-04 -9.24930791e-05 0.
      0. 0. 0. 0. 0. 0. 0. 0. 0. 0. 0. 0. 0. 0. 0. 0. 0. 0. 0. 0. 0. 0.
      0. 0. 0. 0. 0. 0. 0. 0. 0. 0. 0. 0. 0. 0. 0. 0. 0. 0. 0. 0. 0. 0.
      0. 0. 0.</_>
    <_>
      -1.34496677e-05 5.05837088e-05 1.26700674e-04 2.06006443e-05
      1.42769117e-04 7.02499437e-06 8.04115407e-05 4.36516893e-05
      -4.48098363e-05 -2.43656003e-04 -7.36433722e-05 -1.53233723e-05
      -1.55072077e-04 -1.59931333e-05 4.83709373e-05 3.88578701e-05 0.
      0. 0. 0. 0. 0. 0. 0. 0. 0. 0. 0. 0. 0. 0. 0. 0. 0. 0. 0. 0. 0. 0.
      0. 0. 0. 0. 0. 0. 0. 0. 0. 0. 0. 0. 0. 0. 0. 0. 0. 0. 0. 0. 0. 0.
      0. 0. 0.</_>
    <_>
      3.06944334e-04 2.70458258e-04 1.96851252e-05 1.17154530e-04
      -1.88409409e-04 -2.46957643e-04 -2.18764690e-05 1.35212715e-04
      -6.44767642e-05 -2.27589742e-04 -7.68497048e-05 -6.17682826e-06
      -1.56428025e-04 -3.60681915e-05 -2.07149453e-04 -1.19443088e-04 0.
      0. 0. 0. 0. 0. 0. 0. 0. 0. 0. 0. 0. 0. 0. 0. 0. 0. 0. 0. 0. 0. 0.
      0. 0. 0. 0. 0. 0. 0. 0. 0. 0. 0. 0. 0. 0. 0. 0. 0. 0. 0. 0. 0. 0.
      0. 0. 0.</_>
    <_>
      3.82371800e-05 2.26500211e-04 2.69155105e-04 -1.11711619e-04
      -1.38284275e-04 -2.63282884e-04 2.28794452e-04 1.76939400e-04
      -6.07949050e-06 -4.10623470e-04 -2.08961486e-04 -2.02639858e-05
      -3.37026780e-04 8.30223726e-05 -2.18598841e-04 -8.00409834e-05 0.
      0. 0. 0. 0. 0. 0. 0. 0. 0. 0. 0. 0. 0. 0. 0. 0. 0. 0. 0. 0. 0. 0.
      0. 0. 0. 0. 0. 0. 0. 0. 0. 0. 0. 0. 0. 0. 0. 0. 0. 0. 0. 0. 0. 0.
      0. 0. 0.</_>
    <_>
      1.50965410e-04 5.87022259e-05 6.06137291e-05 4.65630583e-05
      -1.77354159e-04 -2.99975491e-05 -5.10238096e-05 4.94081323e-05
      4.88045007e-05 -2.79992710e-05 -2.51685560e-05 4.57475153e-06
      5.11479220e-06 4.68554717e-05 2.30736641e-05 1.86775396e-05 0. 0.
      0. 0. 0. 0. 0. 0. 0. 0. 0. 0. 0. 0. 0. 0. 0. 0. 0. 0. 0. 0. 0. 0.
      0. 0. 0. 0. 0. 0. 0. 0. 0. 0. 0. 0. 0. 0. 0. 0. 0. 0. 0. 0. 0. 0.
      0. 0.</_>
    <_>
      -3.73075545e-06 -1.55795031e-04 -1.84475619e-04 -1.58239927e-04
      1.56935959e-04 5.34935331e-04 -1.83943630e-04 -4.74644512e-05
      -1.61348173e-04 -1.25584862e-04 3.52368806e-04 4.21253033e-04
      1.83076681e-05 -3.59560130e-04 1.79281691e-04 -2.17363966e-04 0.
      0. 0. 0. 0. 0. 0. 0. 0. 0. 0. 0. 0. 0. 0. 0. 0. 0. 0. 0. 0. 0. 0.
      0. 0. 0. 0. 0. 0. 0. 0. 0. 0. 0. 0. 0. 0. 0. 0. 0. 0. 0. 0. 0. 0.
      0. 0. 0.</_>
    <_>
      -8.21721042e-05 -6.74266994e-05 3.02395292e-05 3.11456242e-05
      1.49338055e-04 8.21638532e-05 4.65119265e-05 3.03492270e-05
      -7.70412735e-05 -8.48902855e-05 9.26357188e-06 5.70826305e-05
      -5.29490899e-05 -2.25391177e-05 4.35462389e-05 2.66427778e-05 0.
      0. 0. 0. 0. 0. 0. 0. 0. 0. 0. 0. 0. 0. 0. 0. 0. 0. 0. 0. 0. 0. 0.
      0. 0. 0. 0. 0. 0. 0. 0. 0. 0. 0. 0. 0. 0. 0. 0. 0. 0. 0. 0. 0. 0.
      0. 0. 0.</_>
    <_>
      3.68863286e-04 -7.25289210e-05 -3.75265925e-04 1.44260281e-04
      4.33068082e-04 5.07486577e-04 -1.68050053e-06 5.83986621e-05
      -7.45367288e-05 3.65741260e-04 1.65233607e-04 2.94539088e-04
      -1.85876517e-04 -3.11684271e-04 1.26906758e-04 -3.78554425e-04 0.
      0. 0. 0. 0. 0. 0. 0. 0. 0. 0. 0. 0. 0. 0. 0. 0. 0. 0. 0. 0. 0. 0.
      0. 0. 0. 0. 0. 0. 0. 0. 0. 0. 0. 0. 0. 0. 0. 0. 0. 0. 0. 0. 0. 0.
      0. 0. 0.</_>
    <_>
      -1.03731654e-04 -2.48337717e-04 -9.62566119e-05 -3.04237270e-04
      1.94589869e-04 4.66440368e-04 2.30433739e-04 7.21740571e-06
      -4.21460718e-04 2.16371918e-04 3.09729628e-04 -4.67218269e-05
      -4.22848650e-04 -2.23125884e-04 1.21577854e-04 -1.38255768e-04 0.
      0. 0. 0. 0. 0. 0. 0. 0. 0. 0. 0. 0. 0. 0. 0. 0. 0. 0. 0. 0. 0. 0.
      0. 0. 0. 0. 0. 0. 0. 0. 0. 0. 0. 0. 0. 0. 0. 0. 0. 0. 0. 0. 0. 0.
      0. 0. 0.</_>
    <_>
      2.44992349e-04 -3.67426583e-05 5.66819108e-05 5.26890726e-05
      -2.05113422e-04 3.39415487e-06 -1.59943447e-04 1.86148623e-04
      -8.67155613e-05 1.44333375e-04 8.66165356e-05 8.44867827e-05
      1.23282938e-04 2.32686580e-06 5.56697050e-05 2.84196340e-05 0. 0.
      0. 0. 0. 0. 0. 0. 0. 0. 0. 0. 0. 0. 0. 0. 0. 0. 0. 0. 0. 0. 0. 0.
      0. 0. 0. 0. 0. 0. 0. 0. 0. 0. 0. 0. 0. 0. 0. 0. 0. 0. 0. 0. 0. 0.
      0. 0.</_>
    <_>
      -3.35350633e-05 -6.91380701e-05 4.40896547e-05 3.60304002e-05
      1.79975599e-04 2.83554418e-05 1.12995789e-04 6.11956784e-05
      -1.01509206e-04 -1.05542749e-04 -2.90318130e-05 -2.21975756e-06
      -1.15010575e-04 6.22221478e-06 6.02404943e-05 7.29431194e-05 0. 0.
      0. 0. 0. 0. 0. 0. 0. 0. 0. 0. 0. 0. 0. 0. 0. 0. 0. 0. 0. 0. 0. 0.
      0. 0. 0. 0. 0. 0. 0. 0. 0. 0. 0. 0. 0. 0. 0. 0. 0. 0. 0. 0. 0. 0.
      0. 0.</_>
    <_>
      7.29213352e-04 -4.78220463e-04 -6.31803530e-04 3.69406625e-04
      4.19099961e-04 -2.03167569e-04 2.57897249e-04 -2.14400745e-04
      -5.88021881e-04 6.76132273e-04 4.74166482e-05 -1.09257794e-03
      -1.89656523e-04 -9.43489897e-04 -4.21697478e-04 -1.41574405e-04 0.
      0. 0. 0. 0. 0. 0. 0. 0. 0. 0. 0. 0. 0. 0. 0. 0. 0. 0. 0. 0. 0. 0.
      0. 0. 0. 0. 0. 0. 0. 0. 0. 0. 0. 0. 0. 0. 0. 0. 0. 0. 0. 0. 0. 0.
      0. 0. 0.</_>
    <_>
      -1.33895519e-04 -3.32215248e-04 -1.23601290e-04 -8.98792787e-05
      1.81795680e-04 6.56915145e-05 3.98001604e-04 6.63371393e-05
      -5.19061810e-04 8.24099916e-05 3.37686615e-05 -5.70789969e-04
      -6.54273375e-04 1.47630621e-04 4.42799865e-06 2.14659522e-04 0. 0.
      0. 0. 0. 0. 0. 0. 0. 0. 0. 0. 0. 0. 0. 0. 0. 0. 0. 0. 0. 0. 0. 0.
      0. 0. 0. 0. 0. 0. 0. 0. 0. 0. 0. 0. 0. 0. 0. 0. 0. 0. 0. 0. 0. 0.
      0. 0.</_>
    <_>
      1.99453265e-04 -6.65810949e-05 6.35627075e-05 1.61599324e-04
      -2.40711612e-04 -3.82516409e-05 -1.16759969e-04 1.23023972e-04
      4.63119977e-05 2.33430783e-05 -3.72693503e-05 9.65581148e-06
      1.54915106e-04 9.42106926e-05 -3.23724817e-06 1.60185475e-04 0. 0.
      0. 0. 0. 0. 0. 0. 0. 0. 0. 0. 0. 0. 0. 0. 0. 0. 0. 0. 0. 0. 0. 0.
      0. 0. 0. 0. 0. 0. 0. 0. 0. 0. 0. 0. 0. 0. 0. 0. 0. 0. 0. 0. 0. 0.
      0. 0.</_>
    <_>
      1.27774518e-04 1.06106971e-04 -6.21280051e-05 -4.31759399e-05
      -1.46452541e-04 -5.48894641e-05 -1.01191756e-04 -2.48805427e-05
      3.56893142e-05 1.15535193e-04 4.44779398e-05 -4.23579731e-05
      6.64803956e-05 -1.12606076e-05 -6.41993538e-05 -5.34757382e-05 0.
      0. 0. 0. 0. 0. 0. 0. 0. 0. 0. 0. 0. 0. 0. 0. 0. 0. 0. 0. 0. 0. 0.
      0. 0. 0. 0. 0. 0. 0. 0. 0. 0. 0. 0. 0. 0. 0. 0. 0. 0. 0. 0. 0. 0.
      0. 0. 0.</_>
    <_>
      -2.37076820e-05 1.25572435e-04 -6.40597355e-05 -1.60769210e-04
      -2.43105707e-04 -7.03834157e-05 -1.05006045e-04 -5.41787849e-05
      1.15962648e-04 1.77445996e-04 4.17134470e-05 -1.84043965e-05
      1.39961601e-04 8.35575611e-06 -8.80981825e-05 -8.52905214e-05 0.
      0. 0. 0. 0. 0. 0. 0. 0. 0. 0. 0. 0. 0. 0. 0. 0. 0. 0. 0. 0. 0. 0.
      0. 0. 0. 0. 0. 0. 0. 0. 0. 0. 0. 0. 0. 0. 0. 0. 0. 0. 0. 0. 0. 0.
      0. 0. 0.</_>
    <_>
      8.25554089e-05 5.23417621e-05 4.16122566e-06 0. -1.22054771e-04
      -1.39425283e-05 -4.77398971e-05 1.19300657e-05 5.72924291e-05
      6.08345144e-05 2.02708611e-06 -7.30346619e-06 3.28021306e-05
      7.66486028e-06 -2.59627171e-07 -1.57834420e-05 0. 0. 0. 0. 0. 0.
      0. 0. 0. 0. 0. 0. 0. 0. 0. 0. 0. 0. 0. 0. 0. 0. 0. 0. 0. 0. 0. 0.
      0. 0. 0. 0. 0. 0. 0. 0. 0. 0. 0. 0. 0. 0. 0. 0. 0. 0. 0. 0.</_>
    <_>
      -6.00051077e-04 -5.33743354e-04 1.98674024e-04 -3.55214055e-04
      -2.39946719e-04 5.12470840e-04 8.00027279e-04 -4.12210211e-04
      -4.17450210e-04 -6.97965243e-06 -8.82264649e-05 5.00839014e-05
      -7.29780179e-04 2.35573723e-04 -2.04654600e-04 2.63667986e-04 0.
      0. 0. 0. 0. 0. 0. 0. 0. 0. 0. 0. 0. 0. 0. 0. 0. 0. 0. 0. 0. 0. 0.
      0. 0. 0. 0. 0. 0. 0. 0. 0. 0. 0. 0. 0. 0. 0. 0. 0. 0. 0. 0. 0. 0.
      0. 0. 0.</_>
    <_>
      1.69139283e-04 6.59116995e-05 1.29321139e-04 1.38413641e-04
      -2.71301804e-04 2.46944346e-05 -1.09087086e-04 9.92052883e-05
      3.23227760e-05 4.39801333e-05 9.60477064e-06 7.37949522e-05
      1.62302938e-04 1.14872419e-04 7.31986656e-05 2.93859157e-05 0. 0.
      0. 0. 0. 0. 0. 0. 0. 0. 0. 0. 0. 0. 0. 0. 0. 0. 0. 0. 0. 0. 0. 0.
      0. 0. 0. 0. 0. 0. 0. 0. 0. 0. 0. 0. 0. 0. 0. 0. 0. 0. 0. 0. 0. 0.
      0. 0.</_>
    <_>
      1.57980205e-04 3.59230835e-05 8.95786070e-05 1.16180541e-04
      -1.80201037e-04 8.07855577e-06 -1.50991749e-04 1.28834974e-04
      7.97316097e-05 4.50077932e-05 -2.61401929e-05 9.14870689e-05
      1.19701064e-04 5.49239812e-05 4.40345284e-05 -3.05043773e-06 0. 0.
      0. 0. 0. 0. 0. 0. 0. 0. 0. 0. 0. 0. 0. 0. 0. 0. 0. 0. 0. 0. 0. 0.
      0. 0. 0. 0. 0. 0. 0. 0. 0. 0. 0. 0. 0. 0. 0. 0. 0. 0. 0. 0. 0. 0.
      0. 0.</_></support_vectors>
  <uncompressed_sv_total>81</uncompressed_sv_total>
  <uncompressed_support_vectors>
    <_>
      4.78444922e+03 9.48937317e+02 0. 9.14532654e+02 2.82653271e+03 0.
      9.48937317e+02 4.59245312e+03 9.24400781e+03 0. 0. 0.
      1.70126880e+03 0. 9.36586365e+02 5.79385010e+03 0. 0. 0. 0. 0. 0.
      0. 0. 0. 0. 0. 0. 0. 0. 0. 0. 0. 0. 0. 0. 0. 0. 0. 0. 0. 0. 0. 0.
      0. 0. 0. 0. 0. 0. 0. 0. 0. 0. 0. 0. 0. 0. 0. 0. 0. 0. 0. 0.</_>
    <_>
      4.62236426e+03 7.65324768e+02 1.87228210e+03 6.91809235e+01
      5.01565479e+03 1.33614392e+03 2.20102686e+03 0. 1948.
      6.46623535e+02 1.19120056e+03 1.45077271e+03 5.07488965e+03
      6.92342407e+02 1.21897302e+03 1.99474805e+03 0. 0. 0. 0. 0. 0. 0.
      0. 0. 0. 0. 0. 0. 0. 0. 0. 0. 0. 0. 0. 0. 0. 0. 0. 0. 0. 0. 0. 0.
      0. 0. 0. 0. 0. 0. 0. 0. 0. 0. 0. 0. 0. 0. 0. 0. 0. 0. 0.</_>
    <_>
      7.90414648e+03 2.00327051e+03 1.51418823e+03 7.63468384e+02
      2.49362988e+03 0. 0. 2.55096924e+03 5.29676611e+03 0.
      5.59072449e+02 8.79659042e+01 2.42154614e+03 5.14861145e+02 0.
      2.16133789e+03 0. 0. 0. 0. 0. 0. 0. 0. 0. 0. 0. 0. 0. 0. 0. 0. 0.
      0. 0. 0. 0. 0. 0. 0. 0. 0. 0. 0. 0. 0. 0. 0. 0. 0. 0. 0. 0. 0. 0.
      0. 0. 0. 0. 0. 0. 0. 0. 0.</_>
    <_>
      3014. 1.20846130e+03 1.21418030e+03 6.45804932e+02 4.82133154e+03
      2.20287476e+03 1.57953467e+03 1.49274719e+03 3.08321362e+03
      1.35542114e+03 2.23266113e+03 2.02744983e+03 3.71356567e+03 0.
      1.06931555e+03 8.46249390e+02 0. 0. 0. 0. 0. 0. 0. 0. 0. 0. 0. 0.
      0. 0. 0. 0. 0. 0. 0. 0. 0. 0. 0. 0. 0. 0. 0. 0. 0. 0. 0. 0. 0. 0.
      0. 0. 0. 0. 0. 0. 0. 0. 0. 0. 0. 0. 0. 0.</_>
    <_>
      3.29405469e+03 9.02319214e+02 1.27351184e+03 9.13898254e+02
      5.09276172e+03 0. 1.58713806e+03 1.30435413e+03 3.37066821e+03
      2.09475830e+03 1.55779395e+03 6.50246094e+02 3.78249561e+03
      7.94074280e+02 3.41505493e+02 2.90104565e+03 0. 0. 0. 0. 0. 0. 0.
      0. 0. 0. 0. 0. 0. 0. 0. 0. 0. 0. 0. 0. 0. 0. 0. 0. 0. 0. 0. 0. 0.
      0. 0. 0. 0. 0. 0. 0. 0. 0. 0. 0. 0. 0. 0. 0. 0. 0. 0. 0.</_>
    <_>
      6.56339453e+03 2.62363818e+03 4.44288208e+02 0. 0. 0.
      1.02449989e+02 4.28098114e+02 8.05417969e+03 4.40672705e+03
      9.41107056e+02 1.48487354e+03 4.49913184e+03 0. 0. 3.01673853e+03
      0. 0. 0. 0. 0. 0. 0. 0. 0. 0. 0. 0. 0. 0. 0. 0. 0. 0. 0. 0. 0. 0.
      0. 0. 0. 0. 0. 0. 0. 0. 0. 0. 0. 0. 0. 0. 0. 0. 0. 0. 0. 0. 0. 0.
      0. 0. 0. 0.</_>
    <_>
      2.37622681e+03 2.34233008e+03 9.89909546e+02 9.13898254e+02
      3.41389819e+03 9.89909546e+02 2.34233008e+03 9.28226746e+02
      2.85071582e+03 1.84646362e+03 5.00657562e+02 1.68323535e+03
      4.18323535e+03 5.00657562e+02 1.84646362e+03 1.40271594e+03 0. 0.
      0. 0. 0. 0. 0. 0. 0. 0. 0. 0. 0. 0. 0. 0. 0. 0. 0. 0. 0. 0. 0. 0.
      0. 0. 0. 0. 0. 0. 0. 0. 0. 0. 0. 0. 0. 0. 0. 0. 0. 0. 0. 0. 0. 0.
      0. 0.</_>
    <_>
      4.72036230e+03 1.05068176e+03 1.39069116e+03 6.83264221e+02
      3.54882422e+03 7.94074280e+02 5.67850342e+02 2.90104565e+03
      3.29405469e+03 9.02319214e+02 1.19985461e+03 1.36068457e+03
      4.26597510e+03 0. 1.63751270e+03 1.34609717e+03 0. 0. 0. 0. 0. 0.
      0. 0. 0. 0. 0. 0. 0. 0. 0. 0. 0. 0. 0. 0. 0. 0. 0. 0. 0. 0. 0. 0.
      0. 0. 0. 0. 0. 0. 0. 0. 0. 0. 0. 0. 0. 0. 0. 0. 0. 0. 0. 0.</_>
    <_>
      7.51832471e+03 340. 1.28667664e+03 8.82281128e+02 3.85428125e+03
      1.28667664e+03 340. 1.33032471e+03 7.51832471e+03 340.
      1.28667664e+03 8.82281128e+02 3.85428125e+03 1.28667664e+03 340.
      1.33032471e+03 0. 0. 0. 0. 0. 0. 0. 0. 0. 0. 0. 0. 0. 0. 0. 0. 0.
      0. 0. 0. 0. 0. 0. 0. 0. 0. 0. 0. 0. 0. 0. 0. 0. 0. 0. 0. 0. 0. 0.
      0. 0. 0. 0. 0. 0. 0. 0. 0.</_>
    <_>
      1.34131091e+03 6.21240417e+02 3.56256421e+03 2.28811768e+03
      6.07907666e+03 4.91934967e+02 0. 0. 1.31045544e+03 1.18137720e+03
      1.54773999e+03 1.61343103e+03 4750. 1.14635620e+03 0.
      8.03762390e+02 0. 0. 0. 0. 0. 0. 0. 0. 0. 0. 0. 0. 0. 0. 0. 0. 0.
      0. 0. 0. 0. 0. 0. 0. 0. 0. 0. 0. 0. 0. 0. 0. 0. 0. 0. 0. 0. 0. 0.
      0. 0. 0. 0. 0. 0. 0. 0. 0.</_>
    <_>
      3.19556909e+03 0. 1.67440955e+03 5.36302124e+02 5.17952686e+03
      4.00065002e+02 1.18137720e+03 4.74455475e+02 7.98999695e+02
      7.91466980e+02 0. 1.10395923e+03 5.15666602e+03 1.01049689e+03
      9.77211426e+02 9.60704712e+02 0. 0. 0. 0. 0. 0. 0. 0. 0. 0. 0. 0.
      0. 0. 0. 0. 0. 0. 0. 0. 0. 0. 0. 0. 0. 0. 0. 0. 0. 0. 0. 0. 0. 0.
      0. 0. 0. 0. 0. 0. 0. 0. 0. 0. 0. 0. 0. 0.</_>
    <_>
      4.43314404e+03 3.90608350e+03 1.84071045e+03 1.05536720e+02 1802.
      2.81684235e+02 1.18908582e+03 1.81479028e+03 2.80507104e+03
      6.90323486e+02 0. 0. 1.97134570e+03 0. 1.65958362e+03
      5.53398621e+02 0. 0. 0. 0. 0. 0. 0. 0. 0. 0. 0. 0. 0. 0. 0. 0. 0.
      0. 0. 0. 0. 0. 0. 0. 0. 0. 0. 0. 0. 0. 0. 0. 0. 0. 0. 0. 0. 0. 0.
      0. 0. 0. 0. 0. 0. 0. 0. 0.</_>
    <_>
      2.42478711e+03 0. 7.50851501e+02 4.07001221e+02 7.03253125e+03
      6.35348694e+02 7.78394531e+02 1.65210034e+03 944. 2.11736377e+03
      1.73851685e+03 1.49244568e+03 5800. 1.46696960e+02 5.82656006e+02
      5.45310913e+02 0. 0. 0. 0. 0. 0. 0. 0. 0. 0. 0. 0. 0. 0. 0. 0. 0.
      0. 0. 0. 0. 0. 0. 0. 0. 0. 0. 0. 0. 0. 0. 0. 0. 0. 0. 0. 0. 0. 0.
      0. 0. 0. 0. 0. 0. 0. 0. 0.</_>
    <_>
      1.80112524e+03 0. 2.89927582e+02 1.79725891e+03 5.79567285e+03 0.
      8.02829285e+02 1.48742969e+03 1.86031885e+03 5.95583313e+02
      6.40694946e+02 1.34170312e+03 4.59433350e+03 1.41710999e+03 0.
      2.13852612e+03 0. 0. 0. 0. 0. 0. 0. 0. 0. 0. 0. 0. 0. 0. 0. 0. 0.
      0. 0. 0. 0. 0. 0. 0. 0. 0. 0. 0. 0. 0. 0. 0. 0. 0. 0. 0. 0. 0. 0.
      0. 0. 0. 0. 0. 0. 0. 0. 0.</_>
    <_>
      5.60680566e+03 2.90286548e+03 2.57005829e+02 0. 0. 0. 0.
      4.20868164e+02 5.31507227e+03 3.59623267e+03 1.79575220e+03
      3.85323242e+02 4.91743506e+03 1.05711768e+03 0. 0. 0. 0. 0. 0. 0.
      0. 0. 0. 0. 0. 0. 0. 0. 0. 0. 0. 0. 0. 0. 0. 0. 0. 0. 0. 0. 0. 0.
      0. 0. 0. 0. 0. 0. 0. 0. 0. 0. 0. 0. 0. 0. 0. 0. 0. 0. 0. 0. 0.</_>
    <_>
      1.29026599e+03 0. 1.47457996e+03 1.37186609e+03 4.85986621e+03
      1.47457996e+03 0. 1.11826599e+03 1.39639917e+03 1.37593597e+02
      4.69160950e+02 2.74569385e+03 5.21769385e+03 4.69160950e+02
      1.37593597e+02 1.22439917e+03 0. 0. 0. 0. 0. 0. 0. 0. 0. 0. 0. 0.
      0. 0. 0. 0. 0. 0. 0. 0. 0. 0. 0. 0. 0. 0. 0. 0. 0. 0. 0. 0. 0. 0.
      0. 0. 0. 0. 0. 0. 0. 0. 0. 0. 0. 0. 0. 0.</_>
    <_>
      1.86031885e+03 5.95583313e+02 6.40694946e+02 1.34170312e+03
      4.59433350e+03 1.41710999e+03 0. 2.13852612e+03 1.80112524e+03 0.
      2.89927582e+02 1.79725891e+03 5.79567285e+03 0. 8.02829285e+02
      1.48742969e+03 0. 0. 0. 0. 0. 0. 0. 0. 0. 0. 0. 0. 0. 0. 0. 0. 0.
      0. 0. 0. 0. 0. 0. 0. 0. 0. 0. 0. 0. 0. 0. 0. 0. 0. 0. 0. 0. 0. 0.
      0. 0. 0. 0. 0. 0. 0. 0. 0.</_>
    <_>
      3.17942407e+03 7.14382751e+02 3.86657471e+02 1.15054297e+03
      3.13854297e+03 3.86657471e+02 7.14382751e+02 2.08742407e+03
      3.17942407e+03 7.14382751e+02 3.86657471e+02 1.15054297e+03
      3.13854297e+03 3.86657471e+02 7.14382751e+02 2.08742407e+03 0. 0.
      0. 0. 0. 0. 0. 0. 0. 0. 0. 0. 0. 0. 0. 0. 0. 0. 0. 0. 0. 0. 0. 0.
      0. 0. 0. 0. 0. 0. 0. 0. 0. 0. 0. 0. 0. 0. 0. 0. 0. 0. 0. 0. 0. 0.
      0. 0.</_>
    <_>
      1.89886255e+03 2.51435278e+03 1.00854041e+03 1.71835266e+03
      4.89835254e+03 1.00854041e+03 2.51435278e+03 4.54862610e+02
      2.85041089e+03 1.61591309e+03 2.16113306e+03 8.59176331e+02
      4.03917627e+03 2.16113306e+03 1.61591309e+03 1.40641089e+03 0. 0.
      0. 0. 0. 0. 0. 0. 0. 0. 0. 0. 0. 0. 0. 0. 0. 0. 0. 0. 0. 0. 0. 0.
      0. 0. 0. 0. 0. 0. 0. 0. 0. 0. 0. 0. 0. 0. 0. 0. 0. 0. 0. 0. 0. 0.
      0. 0.</_>
    <_>
      3.69255664e+03 0. 4.88405176e+03 2.82096899e+03 5.63601123e+03
      4.66476135e+01 8.65970886e+02 0. 2.11293115e+03 1.84928064e+03
      3.54027588e+03 2.17839551e+03 3.75038403e+03 9.42559265e+02
      1.04212073e+03 0. 0. 0. 0. 0. 0. 0. 0. 0. 0. 0. 0. 0. 0. 0. 0. 0.
      0. 0. 0. 0. 0. 0. 0. 0. 0. 0. 0. 0. 0. 0. 0. 0. 0. 0. 0. 0. 0. 0.
      0. 0. 0. 0. 0. 0. 0. 0. 0. 0.</_>
    <_>
      3.34327979e+03 2.43463721e+03 1.23190625e+03 2.93149658e+03
      3.98820166e+03 4.56830505e+02 8.11906128e+02 0. 1674.
      2.03823877e+03 1.76506836e+03 3.00273657e+03 3.46106665e+03
      9.42559265e+02 1.10058582e+03 1.61748267e+03 0. 0. 0. 0. 0. 0. 0.
      0. 0. 0. 0. 0. 0. 0. 0. 0. 0. 0. 0. 0. 0. 0. 0. 0. 0. 0. 0. 0. 0.
      0. 0. 0. 0. 0. 0. 0. 0. 0. 0. 0. 0. 0. 0. 0. 0. 0. 0. 0.</_>
    <_>
      1.43365869e+03 1.34453772e+03 1.52801904e+03 7.13330200e+02
      5.10287256e+03 2.17400317e+03 2.34327710e+03 3.06887604e+02
      2.91064331e+03 1.20058875e+03 5.26636475e+02 2.85296326e+02
      3.47546997e+03 2.83004712e+03 8.36337280e+02 1.64666260e+03 0. 0.
      0. 0. 0. 0. 0. 0. 0. 0. 0. 0. 0. 0. 0. 0. 0. 0. 0. 0. 0. 0. 0. 0.
      0. 0. 0. 0. 0. 0. 0. 0. 0. 0. 0. 0. 0. 0. 0. 0. 0. 0. 0. 0. 0. 0.
      0. 0.</_>
    <_>
      6.82284131e+03 2.46985815e+03 4.15308398e+03 0. 1250. 0.
      1.12724280e+03 2.61093842e+02 0. 0. 1.09261108e+03 0.
      4.41520459e+03 7.13943970e+02 7.53100098e+02 2.00002930e+03 0. 0.
      0. 0. 0. 0. 0. 0. 0. 0. 0. 0. 0. 0. 0. 0. 0. 0. 0. 0. 0. 0. 0. 0.
      0. 0. 0. 0. 0. 0. 0. 0. 0. 0. 0. 0. 0. 0. 0. 0. 0. 0. 0. 0. 0. 0.
      0. 0.</_>
    <_>
      4.51071729e+03 1.20846130e+03 1.81686267e+03 6.45804932e+02
      5.74333154e+03 2.20287476e+03 2.17914282e+03 4.57735718e+02 1470.
      1.68932043e+03 2.23266113e+03 1.68838696e+03 3.23156567e+03 0.
      1.06931555e+03 8.46249390e+02 0. 0. 0. 0. 0. 0. 0. 0. 0. 0. 0. 0.
      0. 0. 0. 0. 0. 0. 0. 0. 0. 0. 0. 0. 0. 0. 0. 0. 0. 0. 0. 0. 0. 0.
      0. 0. 0. 0. 0. 0. 0. 0. 0. 0. 0. 0. 0. 0.</_>
    <_>
      2346. 8.35694946e+02 8.70220337e+02 1.84619055e+03 3.47385449e+03
      2.48651636e+03 1.67851904e+03 3.09520728e+03 2.44565186e+03
      2.55122510e+03 1.05985474e+03 0. 3.40067920e+03 1.62428687e+03
      1.46607800e+03 1.63381665e+03 0. 0. 0. 0. 0. 0. 0. 0. 0. 0. 0. 0.
      0. 0. 0. 0. 0. 0. 0. 0. 0. 0. 0. 0. 0. 0. 0. 0. 0. 0. 0. 0. 0. 0.
      0. 0. 0. 0. 0. 0. 0. 0. 0. 0. 0. 0. 0. 0.</_>
    <_>
      2.95722583e+03 6.23149121e+03 1.70469940e+02 0. 7.51446960e+02 0.
      0. 1.38056055e+03 5.30567041e+03 6.70853857e+03 1.70469940e+02
      8.91078003e+02 3.20505933e+03 1.01213904e+03 5.96417664e+02 0. 0.
      0. 0. 0. 0. 0. 0. 0. 0. 0. 0. 0. 0. 0. 0. 0. 0. 0. 0. 0. 0. 0. 0.
      0. 0. 0. 0. 0. 0. 0. 0. 0. 0. 0. 0. 0. 0. 0. 0. 0. 0. 0. 0. 0. 0.
      0. 0. 0.</_>
    <_>
      2.61250952e+03 1.45642981e+03 1.55816467e+03 3.06887604e+02
      3.96214453e+03 2.24964185e+03 7.14821655e+02 1.27789319e+03
      3.81089111e+03 1.53153519e+02 2.99034277e+03 4.11526428e+02
      3.06571777e+03 1.44504980e+03 1.70301245e+03 1.38044348e+03 0. 0.
      0. 0. 0. 0. 0. 0. 0. 0. 0. 0. 0. 0. 0. 0. 0. 0. 0. 0. 0. 0. 0. 0.
      0. 0. 0. 0. 0. 0. 0. 0. 0. 0. 0. 0. 0. 0. 0. 0. 0. 0. 0. 0. 0. 0.
      0. 0.</_>
    <_>
      6.69174951e+03 1.21897302e+03 7.90793274e+02 1.67137817e+03
      2.11356567e+03 6.65230774e+02 1.06931555e+03 8.46249390e+02 4308.
      1.89157910e+03 1.54566479e+03 6.19909668e+02 3.35289771e+03
      9.42559265e+02 7.65324768e+02 4.99289490e+02 0. 0. 0. 0. 0. 0. 0.
      0. 0. 0. 0. 0. 0. 0. 0. 0. 0. 0. 0. 0. 0. 0. 0. 0. 0. 0. 0. 0. 0.
      0. 0. 0. 0. 0. 0. 0. 0. 0. 0. 0. 0. 0. 0. 0. 0. 0. 0. 0.</_>
    <_>
      3.61597607e+03 2.22008789e+03 1.45908838e+03 0. 3.86343311e+03
      4.77529053e+02 1.66667651e+03 1.58523254e+03 7.49323242e+03
      1.66667651e+03 4.77529053e+02 7.77432983e+02 3086. 1.45908838e+03
      2.22008789e+03 1.37597595e+03 0. 0. 0. 0. 0. 0. 0. 0. 0. 0. 0. 0.
      0. 0. 0. 0. 0. 0. 0. 0. 0. 0. 0. 0. 0. 0. 0. 0. 0. 0. 0. 0. 0. 0.
      0. 0. 0. 0. 0. 0. 0. 0. 0. 0. 0. 0. 0. 0.</_>
    <_>
      2.63826538e+03 6.35107849e+02 1.90569275e+03 1.94262573e+03
      2.61901123e+03 1.89232239e+03 1.74573376e+03 5.56420715e+02
      3.34140161e+03 1.18512708e+03 1.64476929e+03 3.33565582e+02
      3.93608008e+03 2.39881738e+03 0. 1.72849109e+03 0. 0. 0. 0. 0. 0.
      0. 0. 0. 0. 0. 0. 0. 0. 0. 0. 0. 0. 0. 0. 0. 0. 0. 0. 0. 0. 0. 0.
      0. 0. 0. 0. 0. 0. 0. 0. 0. 0. 0. 0. 0. 0. 0. 0. 0. 0. 0. 0.</_>
    <_>
      3.26824268e+03 1.04212073e+03 1.55816467e+03 6.40453186e+02
      3.59749829e+03 1.96089453e+03 7.14821655e+02 1.27789319e+03
      3.36667041e+03 1.53153519e+02 3.16296973e+03 0. 2.89171777e+03
      1.44504980e+03 1.99317163e+03 1.44696802e+03 0. 0. 0. 0. 0. 0. 0.
      0. 0. 0. 0. 0. 0. 0. 0. 0. 0. 0. 0. 0. 0. 0. 0. 0. 0. 0. 0. 0. 0.
      0. 0. 0. 0. 0. 0. 0. 0. 0. 0. 0. 0. 0. 0. 0. 0. 0. 0. 0.</_>
    <_>
      3.25565845e+03 1.64401947e+02 1.77862195e+03 0. 2.99321167e+03
      6.45525208e+02 2.00471326e+03 1.54357227e+03 7.28899414e+03
      1.70800757e+03 1.22613213e+02 1.78076562e+03 2.21704980e+03
      1.01548047e+03 1.92834265e+03 4.82501801e+02 0. 0. 0. 0. 0. 0. 0.
      0. 0. 0. 0. 0. 0. 0. 0. 0. 0. 0. 0. 0. 0. 0. 0. 0. 0. 0. 0. 0. 0.
      0. 0. 0. 0. 0. 0. 0. 0. 0. 0. 0. 0. 0. 0. 0. 0. 0. 0. 0.</_>
    <_>
      2.33235571e+03 1.26607800e+03 1.72027966e+03 1.91049728e+02
      4.40645557e+03 3.97836639e+02 2.26817603e+03 1.54357227e+03
      2.73221411e+03 2.57624609e+03 8.39890442e+02 1.59999304e+03
      3.20104980e+03 1.85537097e+03 1.31125903e+03 1.00285742e+03 0. 0.
      0. 0. 0. 0. 0. 0. 0. 0. 0. 0. 0. 0. 0. 0. 0. 0. 0. 0. 0. 0. 0. 0.
      0. 0. 0. 0. 0. 0. 0. 0. 0. 0. 0. 0. 0. 0. 0. 0. 0. 0. 0. 0. 0. 0.
      0. 0.</_>
    <_>
      8.29761621e+03 1.73701807e+03 1.07424390e+03 1.30402161e+03
      2.40268286e+03 0. 6.79536621e+02 3.08492554e+03 4.30092529e+03
      6.79536621e+02 0. 2.34682770e+02 3.47202148e+03 1.07424390e+03
      1.73701807e+03 1.57761597e+03 0. 0. 0. 0. 0. 0. 0. 0. 0. 0. 0. 0.
      0. 0. 0. 0. 0. 0. 0. 0. 0. 0. 0. 0. 0. 0. 0. 0. 0. 0. 0. 0. 0. 0.
      0. 0. 0. 0. 0. 0. 0. 0. 0. 0. 0. 0. 0. 0.</_>
    <_>
      6.92778467e+03 2.68678125e+03 1.21194604e+03 1.54012985e+02
      3.67751416e+03 5.43323120e+02 9.23953491e+02 2.03873169e+03
      2.88673169e+03 9.23953491e+02 5.43323120e+02 1.50951416e+03
      2.32201294e+03 1.21194604e+03 2.68678125e+03 5.75784668e+02 0. 0.
      0. 0. 0. 0. 0. 0. 0. 0. 0. 0. 0. 0. 0. 0. 0. 0. 0. 0. 0. 0. 0. 0.
      0. 0. 0. 0. 0. 0. 0. 0. 0. 0. 0. 0. 0. 0. 0. 0. 0. 0. 0. 0. 0. 0.
      0. 0.</_>
    <_>
      5744. 6.50053833e+02 8.97067444e+02 8.79422546e+02 2.66342261e+03
      8.97067444e+02 6.50053833e+02 0. 9.46988672e+03 0. 0. 0.
      1.52514038e+03 0. 1.32563623e+03 7.83205078e+02 0. 0. 0. 0. 0. 0.
      0. 0. 0. 0. 0. 0. 0. 0. 0. 0. 0. 0. 0. 0. 0. 0. 0. 0. 0. 0. 0. 0.
      0. 0. 0. 0. 0. 0. 0. 0. 0. 0. 0. 0. 0. 0. 0. 0. 0. 0. 0. 0.</_>
    <_>
      3.31603345e+03 1.63713708e+03 1.59261975e+03 1.28546216e+03
      3.95626099e+03 0. 2.61986328e+03 1.87784448e+03 3.56796777e+03
      2.01796814e+03 1.67422949e+03 0. 3.47761157e+03 1.70132715e+03
      1.37388416e+03 4.46508667e+02 0. 0. 0. 0. 0. 0. 0. 0. 0. 0. 0. 0.
      0. 0. 0. 0. 0. 0. 0. 0. 0. 0. 0. 0. 0. 0. 0. 0. 0. 0. 0. 0. 0. 0.
      0. 0. 0. 0. 0. 0. 0. 0. 0. 0. 0. 0. 0. 0.</_>
    <_>
      1870. 1.55256946e+03 2.76169604e+03 6.33018188e+02 4.54066895e+03
      2.07001880e+03 2.40831348e+03 0. 2.26375488e+03 1.69238916e+03
      9.02229431e+02 1.44574426e+03 4.95564697e+03 2.83979858e+03
      1.87160925e+03 7.91784058e+02 0. 0. 0. 0. 0. 0. 0. 0. 0. 0. 0. 0.
      0. 0. 0. 0. 0. 0. 0. 0. 0. 0. 0. 0. 0. 0. 0. 0. 0. 0. 0. 0. 0. 0.
      0. 0. 0. 0. 0. 0. 0. 0. 0. 0. 0. 0. 0. 0.</_>
    <_>
      1460. 1.11013782e+03 1.15091064e+03 7.12062256e+02 4.47623389e+03
      1.38537415e+03 2.39823535e+03 3.06887604e+02 3.72064331e+03
      1.06081567e+03 1.20748596e+03 6.26917847e+02 3.22756152e+03
      1.28895117e+03 3.40332080e+03 1.69201135e+03 0. 0. 0. 0. 0. 0. 0.
      0. 0. 0. 0. 0. 0. 0. 0. 0. 0. 0. 0. 0. 0. 0. 0. 0. 0. 0. 0. 0. 0.
      0. 0. 0. 0. 0. 0. 0. 0. 0. 0. 0. 0. 0. 0. 0. 0. 0. 0. 0.</_>
    <_>
      2.14088770e+03 0. 1.76102173e+03 1.44589612e+03 3.79695459e+03
      8.11371704e+02 2.61312744e+03 2.37010840e+03 4.03335864e+03
      1.51924109e+03 1.78717651e+02 1.42377686e+03 2.16878979e+03
      3.07195068e+03 3.10831146e+02 2.22123657e+03 0. 0. 0. 0. 0. 0. 0.
      0. 0. 0. 0. 0. 0. 0. 0. 0. 0. 0. 0. 0. 0. 0. 0. 0. 0. 0. 0. 0. 0.
      0. 0. 0. 0. 0. 0. 0. 0. 0. 0. 0. 0. 0. 0. 0. 0. 0. 0. 0.</_>
    <_>
      3.19989795e+03 2.06915576e+03 8.11947021e+02 6.38811401e+02
      3.55491797e+03 4.29662659e+02 4.15740295e+02 4.72534375e+03
      7.04934375e+03 4.15740295e+02 4.29662659e+02 7.86918030e+02
      3.40681152e+03 8.11947021e+02 2.06915576e+03 1.33189807e+03 0. 0.
      0. 0. 0. 0. 0. 0. 0. 0. 0. 0. 0. 0. 0. 0. 0. 0. 0. 0. 0. 0. 0. 0.
      0. 0. 0. 0. 0. 0. 0. 0. 0. 0. 0. 0. 0. 0. 0. 0. 0. 0. 0. 0. 0. 0.
      0. 0.</_>
    <_>
      2.96773096e+03 8.77366699e+02 9.05319824e+02 1.85605969e+03
      3.22645068e+03 3.19041431e+03 6.69727234e+02 9.99547913e+02
      2.88918994e+03 1.09615649e+03 1.03259033e+03 2.36903271e+03 1620.
      1.71615967e+03 2.20205884e+03 5.83660889e+02 0. 0. 0. 0. 0. 0. 0.
      0. 0. 0. 0. 0. 0. 0. 0. 0. 0. 0. 0. 0. 0. 0. 0. 0. 0. 0. 0. 0. 0.
      0. 0. 0. 0. 0. 0. 0. 0. 0. 0. 0. 0. 0. 0. 0. 0. 0. 0. 0.</_>
    <_>
      5.03260742e+03 1.54809912e+03 1.80486731e+03 2.70681592e+03
      3.01299048e+03 8.74538757e+02 0. 7.20406799e+02 3480.
      1.00114465e+03 9.02229431e+02 1.46420044e+03 4.69673584e+03
      1.85211780e+03 1.25373193e+03 7.19077026e+02 0. 0. 0. 0. 0. 0. 0.
      0. 0. 0. 0. 0. 0. 0. 0. 0. 0. 0. 0. 0. 0. 0. 0. 0. 0. 0. 0. 0. 0.
      0. 0. 0. 0. 0. 0. 0. 0. 0. 0. 0. 0. 0. 0. 0. 0. 0. 0. 0.</_>
    <_>
      4.02049487e+03 2.85087793e+03 9.72210876e+02 1.62932397e+03 2676.
      0. 2.33403076e+03 2.23102637e+03 5.80163574e+03 2.90193054e+02
      5.37447693e+02 1.28548523e+03 2.96234717e+03 1.14907812e+03
      5.35817200e+02 4.66566193e+02 0. 0. 0. 0. 0. 0. 0. 0. 0. 0. 0. 0.
      0. 0. 0. 0. 0. 0. 0. 0. 0. 0. 0. 0. 0. 0. 0. 0. 0. 0. 0. 0. 0. 0.
      0. 0. 0. 0. 0. 0. 0. 0. 0. 0. 0. 0. 0. 0.</_>
    <_>
      3.20584375e+03 9.64598450e+02 2.95135083e+03 1.99699768e+02
      5.98903906e+03 0. 1.52261975e+03 1.72798938e+03 3.52560205e+03
      1.86420593e+03 0. 2.08363208e+03 4.64947803e+03 1.05346167e+03
      2.31267847e+03 4.65192444e+02 0. 0. 0. 0. 0. 0. 0. 0. 0. 0. 0. 0.
      0. 0. 0. 0. 0. 0. 0. 0. 0. 0. 0. 0. 0. 0. 0. 0. 0. 0. 0. 0. 0. 0.
      0. 0. 0. 0. 0. 0. 0. 0. 0. 0. 0. 0. 0. 0.</_>
    <_>
      5592. 6.62397156e+02 9.31632996e+02 9.42274902e+02 2.85427490e+03
      9.31632996e+02 6.62397156e+02 0. 9.48702344e+03 0. 0. 0.
      1.70859412e+03 9.37332397e+02 5.48032837e+02 6.42535828e+02 0. 0.
      0. 0. 0. 0. 0. 0. 0. 0. 0. 0. 0. 0. 0. 0. 0. 0. 0. 0. 0. 0. 0. 0.
      0. 0. 0. 0. 0. 0. 0. 0. 0. 0. 0. 0. 0. 0. 0. 0. 0. 0. 0. 0. 0. 0.
      0. 0.</_>
    <_>
      2024. 4.22755420e+03 1.09250745e+03 2.76799561e+02 4.73355225e+03
      7.30020569e+02 5.70816956e+02 1.88730884e+03 3.94230859e+03
      2.57271289e+03 1.61058990e+02 8.89640381e+02 4.08023633e+03
      1.12323853e+03 1.13653491e+03 2.07185376e+03 0. 0. 0. 0. 0. 0. 0.
      0. 0. 0. 0. 0. 0. 0. 0. 0. 0. 0. 0. 0. 0. 0. 0. 0. 0. 0. 0. 0. 0.
      0. 0. 0. 0. 0. 0. 0. 0. 0. 0. 0. 0. 0. 0. 0. 0. 0. 0. 0.</_>
    <_>
      6.33174951e+03 1.21897302e+03 5.78752136e+02 1.44999622e+03
      2.13547314e+03 1.82173572e+03 5.95063049e+02 0. 4.05199609e+03
      3.12371582e+02 2.19384814e+03 1.87414246e+03 2.98880298e+03
      9.42559265e+02 7.65324768e+02 4.99289490e+02 0. 0. 0. 0. 0. 0. 0.
      0. 0. 0. 0. 0. 0. 0. 0. 0. 0. 0. 0. 0. 0. 0. 0. 0. 0. 0. 0. 0. 0.
      0. 0. 0. 0. 0. 0. 0. 0. 0. 0. 0. 0. 0. 0. 0. 0. 0. 0. 0.</_>
    <_>
      3.25920312e+03 1.57451465e+03 2.36945532e+03 9.82939026e+02
      5.47692285e+03 4.29662659e+02 2.11055713e+03 3.48764600e+03
      3.35710107e+03 1.46021118e+03 3.56609039e+02 9.10286865e+02
      3.48281152e+03 8.61975647e+02 1.95908142e+03 4.89979584e+02 0. 0.
      0. 0. 0. 0. 0. 0. 0. 0. 0. 0. 0. 0. 0. 0. 0. 0. 0. 0. 0. 0. 0. 0.
      0. 0. 0. 0. 0. 0. 0. 0. 0. 0. 0. 0. 0. 0. 0. 0. 0. 0. 0. 0. 0. 0.
      0. 0.</_>
    <_>
      4.70623828e+03 4.22612354e+03 2.29956641e+03 0. 1760.
      1.40655609e+02 1.39064819e+03 4.01183258e+02 4.37837061e+03
      2.50007996e+02 8.59592957e+02 9.49210205e+01 2.84411523e+03
      9.12452515e+02 9.18131897e+02 0. 0. 0. 0. 0. 0. 0. 0. 0. 0. 0. 0.
      0. 0. 0. 0. 0. 0. 0. 0. 0. 0. 0. 0. 0. 0. 0. 0. 0. 0. 0. 0. 0. 0.
      0. 0. 0. 0. 0. 0. 0. 0. 0. 0. 0. 0. 0. 0. 0.</_>
    <_>
      4.09967773e+03 1.80132422e+03 2.82524219e+03 3.86432404e+02
      4.25263623e+03 1.12305627e+03 1.33739526e+03 8.44773315e+02
      8.39578613e+02 3.59010645e+03 2.74200653e+02 1.49044019e+03
      3.32744043e+03 1.91705359e+03 1.44387891e+03 0. 0. 0. 0. 0. 0. 0.
      0. 0. 0. 0. 0. 0. 0. 0. 0. 0. 0. 0. 0. 0. 0. 0. 0. 0. 0. 0. 0. 0.
      0. 0. 0. 0. 0. 0. 0. 0. 0. 0. 0. 0. 0. 0. 0. 0. 0. 0. 0. 0.</_>
    <_>
      2.96459399e+03 8.61872253e+02 1.14813379e+03 1.74046399e+03
      4.34717529e+03 1.47836072e+03 1.48822632e+03 1.87784448e+03
      4.04396777e+03 2.37785962e+03 1.35870459e+03 0. 3.02039307e+03
      1.59876733e+03 2.15686475e+03 0. 0. 0. 0. 0. 0. 0. 0. 0. 0. 0. 0.
      0. 0. 0. 0. 0. 0. 0. 0. 0. 0. 0. 0. 0. 0. 0. 0. 0. 0. 0. 0. 0. 0.
      0. 0. 0. 0. 0. 0. 0. 0. 0. 0. 0. 0. 0. 0. 0.</_>
    <_>
      3.41064014e+03 8.04767029e+02 1.51824231e+03 2.18183716e+03
      4.48323584e+03 1.71908313e+03 7.76284729e+02 1.31277637e+03
      2.49081958e+03 7.35447449e+02 7.76176514e+02 6.98765564e+02
      3.96254663e+03 2.87678979e+03 8.04767029e+02 3.00085522e+03 0. 0.
      0. 0. 0. 0. 0. 0. 0. 0. 0. 0. 0. 0. 0. 0. 0. 0. 0. 0. 0. 0. 0. 0.
      0. 0. 0. 0. 0. 0. 0. 0. 0. 0. 0. 0. 0. 0. 0. 0. 0. 0. 0. 0. 0. 0.
      0. 0.</_>
    <_>
      4.41185596e+03 1.63755933e+03 1.84260596e+03 5.84837280e+02
      4.37896045e+03 2.53186865e+03 3.21126129e+02 0. 2.06240332e+03
      2.04401566e+02 1.71702832e+03 0. 3.98618213e+03 2.87589331e+03
      1.58286536e+03 1.13151440e+03 0. 0. 0. 0. 0. 0. 0. 0. 0. 0. 0. 0.
      0. 0. 0. 0. 0. 0. 0. 0. 0. 0. 0. 0. 0. 0. 0. 0. 0. 0. 0. 0. 0. 0.
      0. 0. 0. 0. 0. 0. 0. 0. 0. 0. 0. 0. 0. 0.</_>
    <_>
      4.89928174e+03 1.54071826e+03 2.81257874e+02 8.58261047e+02
      4.00626099e+03 2.81257874e+02 1.54071826e+03 2.83928174e+03
      4.89928174e+03 1.54071826e+03 2.81257874e+02 8.58261047e+02
      4.00626099e+03 2.81257874e+02 1.54071826e+03 2.83928174e+03 0. 0.
      0. 0. 0. 0. 0. 0. 0. 0. 0. 0. 0. 0. 0. 0. 0. 0. 0. 0. 0. 0. 0. 0.
      0. 0. 0. 0. 0. 0. 0. 0. 0. 0. 0. 0. 0. 0. 0. 0. 0. 0. 0. 0. 0. 0.
      0. 0.</_>
    <_>
      4.63414014e+03 3.12371582e+02 9.34392822e+02 1.64829175e+03
      5.58008008e+03 1.61965259e+03 1.97737598e+03 4.57735718e+02 1410.
      4.22291382e+02 2.75502075e+03 1.44678809e+03 3.02147314e+03
      1.15650500e+03 1.34167810e+03 7.58377197e+02 0. 0. 0. 0. 0. 0. 0.
      0. 0. 0. 0. 0. 0. 0. 0. 0. 0. 0. 0. 0. 0. 0. 0. 0. 0. 0. 0. 0. 0.
      0. 0. 0. 0. 0. 0. 0. 0. 0. 0. 0. 0. 0. 0. 0. 0. 0. 0. 0.</_>
    <_>
      2.86515820e+03 8.46300903e+02 9.52253113e+02 0. 4.86193506e+03
      9.40952698e+02 2.39754443e+03 2.04182751e+03 3.79358472e+03
      3.70475372e+02 7.48113464e+02 7.19904175e+02 4.13530518e+03
      2.04445557e+03 1.86988049e+03 7.12699097e+02 0. 0. 0. 0. 0. 0. 0.
      0. 0. 0. 0. 0. 0. 0. 0. 0. 0. 0. 0. 0. 0. 0. 0. 0. 0. 0. 0. 0. 0.
      0. 0. 0. 0. 0. 0. 0. 0. 0. 0. 0. 0. 0. 0. 0. 0. 0. 0. 0.</_>
    <_>
      5.95316553e+03 7.40121582e+02 8.80708496e+02 1.09650061e+03
      3.96828125e+03 1.61072913e+03 5.77672913e+02 1.86570532e+03
      4.72770508e+03 1.31779443e+03 8.80708496e+02 1.09650061e+03
      4.29650049e+03 5.56656067e+02 1.65779443e+03 1.93886426e+03 0. 0.
      0. 0. 0. 0. 0. 0. 0. 0. 0. 0. 0. 0. 0. 0. 0. 0. 0. 0. 0. 0. 0. 0.
      0. 0. 0. 0. 0. 0. 0. 0. 0. 0. 0. 0. 0. 0. 0. 0. 0. 0. 0. 0. 0. 0.
      0. 0.</_>
    <_>
      2.96483789e+03 2.84477612e+03 1.38568555e+03 1.90568433e+03
      2.04756555e+03 7.78781128e+02 1.06931555e+03 8.46249390e+02
      3.92536255e+03 1.20846130e+03 1.21418030e+03 0. 4.58925391e+03
      9.34392822e+02 1.28469751e+03 2.65660425e+03 0. 0. 0. 0. 0. 0. 0.
      0. 0. 0. 0. 0. 0. 0. 0. 0. 0. 0. 0. 0. 0. 0. 0. 0. 0. 0. 0. 0. 0.
      0. 0. 0. 0. 0. 0. 0. 0. 0. 0. 0. 0. 0. 0. 0. 0. 0. 0. 0.</_>
    <_>
      2.50666846e+03 1.63161096e+03 5.32805786e+02 1.03417993e+03
      3.55919458e+03 8.59102600e+02 2.25084058e+03 0. 6.39673145e+03
      4.15611237e+02 1.81419641e+03 4.55034058e+02 2.86222900e+03
      2.84347583e+03 1.74759436e+03 4.03150085e+02 0. 0. 0. 0. 0. 0. 0.
      0. 0. 0. 0. 0. 0. 0. 0. 0. 0. 0. 0. 0. 0. 0. 0. 0. 0. 0. 0. 0. 0.
      0. 0. 0. 0. 0. 0. 0. 0. 0. 0. 0. 0. 0. 0. 0. 0. 0. 0. 0.</_>
    <_>
      6.43586670e+03 8.30963318e+02 1.41289478e+03 3.01705139e+02
      3.09599927e+03 0. 1.87059094e+03 9.94339966e+02 8.62233984e+03
      1.87059094e+03 0. 1.16599939e+03 2.23170508e+03 1.41289478e+03
      8.30963318e+02 8.03866882e+02 0. 0. 0. 0. 0. 0. 0. 0. 0. 0. 0. 0.
      0. 0. 0. 0. 0. 0. 0. 0. 0. 0. 0. 0. 0. 0. 0. 0. 0. 0. 0. 0. 0. 0.
      0. 0. 0. 0. 0. 0. 0. 0. 0. 0. 0. 0. 0. 0.</_>
    <_>
      2.90539380e+03 2.44131250e+03 9.92380981e+02 1.49805640e+03
      4.28471289e+03 0. 1.20251038e+03 1.53394913e+02 3.63300269e+03
      1.29845972e+03 0. 2.79125879e+03 4.19215234e+03 1.96781140e+03
      2.12626733e+03 7.47830200e+02 0. 0. 0. 0. 0. 0. 0. 0. 0. 0. 0. 0.
      0. 0. 0. 0. 0. 0. 0. 0. 0. 0. 0. 0. 0. 0. 0. 0. 0. 0. 0. 0. 0. 0.
      0. 0. 0. 0. 0. 0. 0. 0. 0. 0. 0. 0. 0. 0.</_>
    <_>
      4792. 1.55256946e+03 1.80445886e+03 9.01346313e+02 4.47296045e+03
      2.53186865e+03 3.21126129e+02 0. 2218. 2.88617401e+02
      1.80513770e+03 1.11372620e+03 4.35670020e+03 2.02068555e+03
      1.96385522e+03 2.26106171e+02 0. 0. 0. 0. 0. 0. 0. 0. 0. 0. 0. 0.
      0. 0. 0. 0. 0. 0. 0. 0. 0. 0. 0. 0. 0. 0. 0. 0. 0. 0. 0. 0. 0. 0.
      0. 0. 0. 0. 0. 0. 0. 0. 0. 0. 0. 0. 0. 0.</_>
    <_>
      7.02008008e+03 9.41387268e+02 0. 8.61895569e+02 2.64589551e+03 0.
      9.41387268e+02 6.63608398e+03 7.26800830e+03 0. 0. 0. 764.
      6.61254883e+02 1.20893677e+03 3.68029614e+03 0. 0. 0. 0. 0. 0. 0.
      0. 0. 0. 0. 0. 0. 0. 0. 0. 0. 0. 0. 0. 0. 0. 0. 0. 0. 0. 0. 0. 0.
      0. 0. 0. 0. 0. 0. 0. 0. 0. 0. 0. 0. 0. 0. 0. 0. 0. 0. 0.</_>
    <_>
      4.61999316e+03 8.75004211e+02 6.59037695e+03 9.18001343e+02 2470.
      0. 4.29196930e+02 3.83275360e+02 1192. 0. 2.71302930e+03
      3.02281055e+03 2.35963135e+03 1.85580188e+03 1.72450720e+03 0. 0.
      0. 0. 0. 0. 0. 0. 0. 0. 0. 0. 0. 0. 0. 0. 0. 0. 0. 0. 0. 0. 0. 0.
      0. 0. 0. 0. 0. 0. 0. 0. 0. 0. 0. 0. 0. 0. 0. 0. 0. 0. 0. 0. 0. 0.
      0. 0. 0.</_>
    <_>
      614. 1.18793938e+02 4.50122192e+02 0. 6.98293262e+03
      7.85269409e+02 2.68880078e+03 0. 2.08579541e+03 9.84097778e+02
      1.25640906e+03 9.28973633e+02 1656. 0. 0. 0. 0. 0. 0. 0. 0. 0. 0.
      0. 0. 0. 0. 0. 0. 0. 0. 0. 0. 0. 0. 0. 0. 0. 0. 0. 0. 0. 0. 0. 0.
      0. 0. 0. 0. 0. 0. 0. 0. 0. 0. 0. 0. 0. 0. 0. 0. 0. 0. 0.</_>
    <_>
      2.60963037e+03 7.99528992e+02 4.73293750e+03 1.83484338e+03
      3.28114722e+03 4.92327118e+02 3.19699860e+02 5.68577148e+02
      2.59864014e+03 1.27708936e+03 3.74476538e+03 2.75294116e+03
      2.71102734e+03 1.57458533e+03 0. 0. 0. 0. 0. 0. 0. 0. 0. 0. 0. 0.
      0. 0. 0. 0. 0. 0. 0. 0. 0. 0. 0. 0. 0. 0. 0. 0. 0. 0. 0. 0. 0. 0.
      0. 0. 0. 0. 0. 0. 0. 0. 0. 0. 0. 0. 0. 0. 0. 0.</_>
    <_>
      1.83195239e+03 0. 2.09212085e+03 8.77097473e+02 3.11989478e+03
      3.10754736e+03 2.45286890e+03 6.97389404e+02 3.78345264e+03
      2.08619434e+03 7.81416687e+02 2.69536652e+02 4.09141968e+03
      1.76675488e+03 7.79392334e+02 2.66709326e+03 0. 0. 0. 0. 0. 0. 0.
      0. 0. 0. 0. 0. 0. 0. 0. 0. 0. 0. 0. 0. 0. 0. 0. 0. 0. 0. 0. 0. 0.
      0. 0. 0. 0. 0. 0. 0. 0. 0. 0. 0. 0. 0. 0. 0. 0. 0. 0. 0.</_>
    <_>
      7.42369189e+03 1.04460071e+03 2.11970557e+03 0. 1.85285156e+03
      8.55674011e+02 6.58976501e+02 9.17903320e+02 10320. 0. 0. 0. 556.
      0. 7.79098206e+02 8.94673218e+02 0. 0. 0. 0. 0. 0. 0. 0. 0. 0. 0.
      0. 0. 0. 0. 0. 0. 0. 0. 0. 0. 0. 0. 0. 0. 0. 0. 0. 0. 0. 0. 0. 0.
      0. 0. 0. 0. 0. 0. 0. 0. 0. 0. 0. 0. 0. 0. 0.</_>
    <_>
      3.31162939e+03 2.19866260e+03 2.69196851e+03 3.32644653e+03
      4.50302734e+03 1.43939514e+03 0. 0. 1878. 2.37655212e+02
      4.85161230e+03 2.00851428e+03 4.36135010e+03 9.02229431e+02
      7.76284729e+02 0. 0. 0. 0. 0. 0. 0. 0. 0. 0. 0. 0. 0. 0. 0. 0. 0.
      0. 0. 0. 0. 0. 0. 0. 0. 0. 0. 0. 0. 0. 0. 0. 0. 0. 0. 0. 0. 0. 0.
      0. 0. 0. 0. 0. 0. 0. 0. 0. 0.</_>
    <_>
      2.79631897e+02 9.49110779e+02 4.50122192e+02 0. 7.68293262e+03
      7.85269409e+02 2.68880078e+03 0. 2.08579541e+03 9.84097778e+02
      1.25640906e+03 9.28973633e+02 2970. 3.21126129e+02 1.04540857e+03
      1.23386511e+03 0. 0. 0. 0. 0. 0. 0. 0. 0. 0. 0. 0. 0. 0. 0. 0. 0.
      0. 0. 0. 0. 0. 0. 0. 0. 0. 0. 0. 0. 0. 0. 0. 0. 0. 0. 0. 0. 0. 0.
      0. 0. 0. 0. 0. 0. 0. 0. 0.</_>
    <_>
      2.36883521e+03 6.51602661e+02 9.82951172e+02 5.66485657e+02 2574.
      1.61273511e+03 4.13767871e+03 0. 4.59162061e+03 2.50857812e+03
      1.84786499e+03 0. 2.39563550e+03 1.46873621e+03 3.36725403e+02
      3.18227319e+03 0. 0. 0. 0. 0. 0. 0. 0. 0. 0. 0. 0. 0. 0. 0. 0. 0.
      0. 0. 0. 0. 0. 0. 0. 0. 0. 0. 0. 0. 0. 0. 0. 0. 0. 0. 0. 0. 0. 0.
      0. 0. 0. 0. 0. 0. 0. 0. 0.</_>
    <_>
      264. 8.25647644e+02 0. 0. 7.07093262e+03 7.85269409e+02
      2.68880078e+03 0. 2.08579541e+03 9.84097778e+02 1.25640906e+03
      9.28973633e+02 2622. 6.13651917e+02 1.70645554e+02 8.88953125e+02
      0. 0. 0. 0. 0. 0. 0. 0. 0. 0. 0. 0. 0. 0. 0. 0. 0. 0. 0. 0. 0. 0.
      0. 0. 0. 0. 0. 0. 0. 0. 0. 0. 0. 0. 0. 0. 0. 0. 0. 0. 0. 0. 0. 0.
      0. 0. 0. 0.</_>
    <_>
      2.14515552e+03 1.57276147e+03 1.11454993e+03 2.11809619e+03
      5.53112402e+03 9.45365540e+02 6.59692383e+02 1.37768042e+03 3348.
      2.01777393e+03 1.52957739e+03 2.26750439e+03 4.40389258e+03
      1.71453638e+03 8.78253906e+02 8.83413696e+02 0. 0. 0. 0. 0. 0. 0.
      0. 0. 0. 0. 0. 0. 0. 0. 0. 0. 0. 0. 0. 0. 0. 0. 0. 0. 0. 0. 0. 0.
      0. 0. 0. 0. 0. 0. 0. 0. 0. 0. 0. 0. 0. 0. 0. 0. 0. 0. 0.</_>
    <_>
      0. 0. 0. 0. 16320. 0. 0. 0. 0. 0. 0. 0. 16320. 0. 0. 0. 0. 0. 0.
      0. 0. 0. 0. 0. 0. 0. 0. 0. 0. 0. 0. 0. 0. 0. 0. 0. 0. 0. 0. 0. 0.
      0. 0. 0. 0. 0. 0. 0. 0. 0. 0. 0. 0. 0. 0. 0. 0. 0. 0. 0. 0. 0. 0.
      0.</_>
    <_>
      4.98811816e+03 6.73450134e+02 3.08076636e+03 6.52791382e+02 1960.
      0. 0. 0. 0. 1.97266312e+02 6.80461609e+02 7.22144043e+02 1084.
      1.91245227e+03 8.59099243e+02 1.35852380e+03 0. 0. 0. 0. 0. 0. 0.
      0. 0. 0. 0. 0. 0. 0. 0. 0. 0. 0. 0. 0. 0. 0. 0. 0. 0. 0. 0. 0. 0.
      0. 0. 0. 0. 0. 0. 0. 0. 0. 0. 0. 0. 0. 0. 0. 0. 0. 0. 0.</_>
    <_>
      0. 1.20198471e+02 4.21667480e+02 0. 6.89493262e+03 7.85269409e+02
      2.68880078e+03 0. 2.08579541e+03 9.84097778e+02 1.25640906e+03
      9.28973633e+02 2182. 3.21126129e+02 8.48528137e+01 4.86996033e+02
      0. 0. 0. 0. 0. 0. 0. 0. 0. 0. 0. 0. 0. 0. 0. 0. 0. 0. 0. 0. 0. 0.
      0. 0. 0. 0. 0. 0. 0. 0. 0. 0. 0. 0. 0. 0. 0. 0. 0. 0. 0. 0. 0. 0.
      0. 0. 0. 0.</_>
    <_>
      5.50829297e+03 2.77253711e+03 2.05825977e+03 0. 2374. 0.
      1.79744263e+02 3.50074585e+03 5.59264014e+03 5.54562866e+02
      1.13470068e+03 0. 1.68900244e+03 1.48450220e+03 8.97253540e+02
      1.18028259e+03 0. 0. 0. 0. 0. 0. 0. 0. 0. 0. 0. 0. 0. 0. 0. 0. 0.
      0. 0. 0. 0. 0. 0. 0. 0. 0. 0. 0. 0. 0. 0. 0. 0. 0. 0. 0. 0. 0. 0.
      0. 0. 0. 0. 0. 0. 0. 0. 0.</_>
    <_>
      7.54552051e+03 2.15164624e+03 5.00449799e+02 0. 3.24455420e+03
      8.98386353e+02 1.04102234e+03 1.89061694e+03 2.72942139e+03
      1.00266248e+03 3.08609772e+02 9.22787354e+02 1578. 4.06078796e+02
      1.22847339e+03 2.09959692e+03 0. 0. 0. 0. 0. 0. 0. 0. 0. 0. 0. 0.
      0. 0. 0. 0. 0. 0. 0. 0. 0. 0. 0. 0. 0. 0. 0. 0. 0. 0. 0. 0. 0. 0.
      0. 0. 0. 0. 0. 0. 0. 0. 0. 0. 0. 0. 0. 0.</_>
    <_>
      6.29277344e+03 7.64944458e+02 1.72831836e+03 0. 3.44229834e+03 0.
      5.28239111e+03 0. 2420. 5.28239111e+03 0. 1.12829846e+03 2314.
      1.72831836e+03 7.64944458e+02 8.44773315e+02 0. 0. 0. 0. 0. 0. 0.
      0. 0. 0. 0. 0. 0. 0. 0. 0. 0. 0. 0. 0. 0. 0. 0. 0. 0. 0. 0. 0. 0.
      0. 0. 0. 0. 0. 0. 0. 0. 0. 0. 0. 0. 0. 0. 0. 0. 0. 0. 0.</_>
    <_>
      10148. 7.76284729e+02 9.02229431e+02 3.16509094e+02 1.54450903e+03
      9.02229431e+02 7.76284729e+02 0. 10148. 7.76284729e+02
      9.02229431e+02 3.16509094e+02 1.54450903e+03 9.02229431e+02
      7.76284729e+02 0. 0. 0. 0. 0. 0. 0. 0. 0. 0. 0. 0. 0. 0. 0. 0. 0.
      0. 0. 0. 0. 0. 0. 0. 0. 0. 0. 0. 0. 0. 0. 0. 0. 0. 0. 0. 0. 0. 0.
      0. 0. 0. 0. 0. 0. 0. 0. 0. 0.</_></uncompressed_support_vectors>
  <decision_functions>
    <_>
      <sv_count>1</sv_count>
      <rho>5.2859249360721350e-01</rho>
      <alpha>
        1.</alpha>
      <index>
        0</index></_>
    <_>
      <sv_count>1</sv_count>
      <rho>-6.9167872264757990e-01</rho>
      <alpha>
        1.</alpha>
      <index>
        1</index></_>
    <_>
      <sv_count>1</sv_count>
      <rho>-2.9322338638036366e-01</rho>
      <alpha>
        1.</alpha>
      <index>
        2</index></_>
    <_>
      <sv_count>1</sv_count>
      <rho>4.9279250195966490e-01</rho>
      <alpha>
        1.</alpha>
      <index>
        3</index></_>
    <_>
      <sv_count>1</sv_count>
      <rho>9.3438003542450382e-02</rho>
      <alpha>
        1.</alpha>
      <index>
        4</index></_>
    <_>
      <sv_count>1</sv_count>
      <rho>1.0340025479624337e+00</rho>
      <alpha>
        1.</alpha>
      <index>
        5</index></_>
    <_>
      <sv_count>1</sv_count>
      <rho>-7.4527711568177568e-01</rho>
      <alpha>
        1.</alpha>
      <index>
        6</index></_>
    <_>
      <sv_count>1</sv_count>
      <rho>1.8737361612729719e+00</rho>
      <alpha>
        1.</alpha>
      <index>
        7</index></_>
    <_>
      <sv_count>1</sv_count>
      <rho>7.8308728953248663e-01</rho>
      <alpha>
        1.</alpha>
      <index>
        8</index></_>
    <_>
      <sv_count>1</sv_count>
      <rho>-7.4847829899422499e-02</rho>
      <alpha>
        1.</alpha>
      <index>
        9</index></_>
    <_>
      <sv_count>1</sv_count>
      <rho>6.7947875342932940e-01</rho>
      <alpha>
        1.</alpha>
      <index>
        10</index></_>
    <_>
      <sv_count>1</sv_count>
      <rho>9.5886333179113492e-01</rho>
      <alpha>
        1.</alpha>
      <index>
        11</index></_>
    <_>
      <sv_count>1</sv_count>
      <rho>2.2591342337347924e+00</rho>
      <alpha>
        1.</alpha>
      <index>
        12</index></_>
    <_>
      <sv_count>1</sv_count>
      <rho>1.0939619278792851e+00</rho>
      <alpha>
        1.</alpha>
      <index>
        13</index></_>
    <_>
      <sv_count>1</sv_count>
      <rho>1.6644655533500463e+00</rho>
      <alpha>
        1.</alpha>
      <index>
        14</index></_>
    <_>
      <sv_count>1</sv_count>
      <rho>-3.2762967021803352e-01</rho>
      <alpha>
        1.</alpha>
      <index>
        15</index></_>
    <_>
      <sv_count>1</sv_count>
      <rho>1.8277260384517846e+00</rho>
      <alpha>
        1.</alpha>
      <index>
        16</index></_>
    <_>
      <sv_count>1</sv_count>
      <rho>1.3246644421442819e+00</rho>
      <alpha>
        1.</alpha>
      <index>
        17</index></_>
    <_>
      <sv_count>1</sv_count>
      <rho>6.3192507560679256e-01</rho>
      <alpha>
        1.</alpha>
      <index>
        18</index></_>
    <_>
      <sv_count>1</sv_count>
      <rho>4.5647924741683649e-01</rho>
      <alpha>
        1.</alpha>
      <index>
        19</index></_>
    <_>
      <sv_count>1</sv_count>
      <rho>1.7801759471459664e+00</rho>
      <alpha>
        1.</alpha>
      <index>
        20</index></_>
    <_>
      <sv_count>1</sv_count>
      <rho>4.6162046886687680e-01</rho>
      <alpha>
        1.</alpha>
      <index>
        21</index></_>
    <_>
      <sv_count>1</sv_count>
      <rho>1.1013974991885149e+00</rho>
      <alpha>
        1.</alpha>
      <index>
        22</index></_>
    <_>
      <sv_count>1</sv_count>
      <rho>-5.6579874893606230e-01</rho>
      <alpha>
        1.</alpha>
      <index>
        23</index></_>
    <_>
      <sv_count>1</sv_count>
      <rho>1.1972764113167265e+00</rho>
      <alpha>
        1.</alpha>
      <index>
        24</index></_>
    <_>
      <sv_count>1</sv_count>
      <rho>-1.1736068955265142e+00</rho>
      <alpha>
        1.</alpha>
      <index>
        25</index></_>
    <_>
      <sv_count>1</sv_count>
      <rho>-7.5238774658653113e-02</rho>
      <alpha>
        1.</alpha>
      <index>
        26</index></_>
    <_>
      <sv_count>1</sv_count>
      <rho>1.1041002163711024e+00</rho>
      <alpha>
        1.</alpha>
      <index>
        27</index></_>
    <_>
      <sv_count>1</sv_count>
      <rho>2.0644785927433404e-01</rho>
      <alpha>
        1.</alpha>
      <index>
        28</index></_>
    <_>
      <sv_count>1</sv_count>
      <rho>1.2513416163882896e+00</rho>
      <alpha>
        1.</alpha>
      <index>
        29</index></_>
    <_>
      <sv_count>1</sv_count>
      <rho>-5.5919113393385511e-01</rho>
      <alpha>
        1.</alpha>
      <index>
        30</index></_>
    <_>
      <sv_count>1</sv_count>
      <rho>1.8258189198117354e+00</rho>
      <alpha>
        1.</alpha>
      <index>
        31</index></_>
    <_>
      <sv_count>1</sv_count>
      <rho>-8.9473170891353460e-01</rho>
      <alpha>
        1.</alpha>
      <index>
        32</index></_>
    <_>
      <sv_count>1</sv_count>
      <rho>-6.1117094254411009e-01</rho>
      <alpha>
        1.</alpha>
      <index>
        33</index></_>
    <_>
      <sv_count>1</sv_count>
      <rho>-6.5960018088533190e-01</rho>
      <alpha>
        1.</alpha>
      <index>
        34</index></_>
    <_>
      <sv_count>1</sv_count>
      <rho>-2.0693090829166705e+00</rho>
      <alpha>
        1.</alpha>
      <index>
        35</index></_>
    <_>
      <sv_count>1</sv_count>
      <rho>-9.0966196157233048e-01</rho>
      <alpha>
        1.</alpha>
      <index>
        36</index></_>
    <_>
      <sv_count>1</sv_count>
      <rho>-1.9936953339848160e-01</rho>
      <alpha>
        1.</alpha>
      <index>
        37</index></_>
    <_>
      <sv_count>1</sv_count>
      <rho>-9.1241179031509345e-01</rho>
      <alpha>
        1.</alpha>
      <index>
        38</index></_>
    <_>
      <sv_count>1</sv_count>
      <rho>-2.1691128179153107e-01</rho>
      <alpha>
        1.</alpha>
      <index>
        39</index></_>
    <_>
      <sv_count>1</sv_count>
      <rho>8.7241046685891421e-01</rho>
      <alpha>
        1.</alpha>
      <index>
        40</index></_>
    <_>
      <sv_count>1</sv_count>
      <rho>-5.9624388891047575e-01</rho>
      <alpha>
        1.</alpha>
      <index>
        41</index></_>
    <_>
      <sv_count>1</sv_count>
      <rho>3.3091249209560565e+00</rho>
      <alpha>
        1.</alpha>
      <index>
        42</index></_>
    <_>
      <sv_count>1</sv_count>
      <rho>-1.5523128283104450e+00</rho>
      <alpha>
        1.</alpha>
      <index>
        43</index></_>
    <_>
      <sv_count>1</sv_count>
      <rho>-3.3547464493450024e-01</rho>
      <alpha>
        1.</alpha>
      <index>
        44</index></_>
    <_>
      <sv_count>1</sv_count>
      <rho>-8.8269006254431470e-01</rho>
      <alpha>
        1.</alpha>
      <index>
        45</index></_>
    <_>
      <sv_count>1</sv_count>
      <rho>-1.5266256541407162e+00</rho>
      <alpha>
        1.</alpha>
      <index>
        46</index></_>
    <_>
      <sv_count>1</sv_count>
      <rho>-3.9651286166046162e+00</rho>
      <alpha>
        1.</alpha>
      <index>
        47</index></_>
    <_>
      <sv_count>1</sv_count>
      <rho>-3.6079539447406950e-01</rho>
      <alpha>
        1.</alpha>
      <index>
        48</index></_>
    <_>
      <sv_count>1</sv_count>
      <rho>9.8172408253435550e-01</rho>
      <alpha>
        1.</alpha>
      <index>
        49</index></_>
    <_>
      <sv_count>1</sv_count>
      <rho>1.2117162533662371e+00</rho>
      <alpha>
        1.</alpha>
      <index>
        50</index></_>
    <_>
      <sv_count>1</sv_count>
      <rho>3.1442297627193122e-01</rho>
      <alpha>
        1.</alpha>
      <index>
        51</index></_>
    <_>
      <sv_count>1</sv_count>
      <rho>-6.7302983807152517e+00</rho>
      <alpha>
        1.</alpha>
      <index>
        52</index></_>
    <_>
      <sv_count>1</sv_count>
      <rho>-3.6722099021856913e-01</rho>
      <alpha>
        1.</alpha>
      <index>
        53</index></_>
    <_>
      <sv_count>1</sv_count>
      <rho>1.2639586525484118e-02</rho>
      <alpha>
        1.</alpha>
      <index>
        54</index></_></decision_functions></opencv_ml_svm>
</opencv_storage>
