<?xml version="1.0"?>
<opencv_storage>
<opencv_ml_svm>
  <format>3</format>
  <svmType>C_SVC</svmType>
  <kernel>
    <type>LINEAR</type></kernel>
  <C>2.6699999999999999e+00</C>
  <term_criteria><epsilon>1.1920928955078125e-07</epsilon>
    <iterations>1000</iterations></term_criteria>
  <var_count>64</var_count>
  <class_count>11</class_count>
  <class_labels type_id="opencv-matrix">
    <rows>11</rows>
    <cols>1</cols>
    <dt>i</dt>
    <data>
      0 1 2 3 4 5 6 7 8 9 11</data></class_labels>
  <sv_total>55</sv_total>
  <support_vectors>
    <_>
      1.21158620e-04 -2.87252024e-05 7.74734508e-05 -1.38832584e-05
      1.19517717e-04 7.74734508e-05 -2.87252024e-05 -4.73292239e-05
      -3.00489948e-04 7.64896613e-05 1.76115893e-04 1.18003263e-04
      3.10949923e-04 5.22292794e-05 -2.65860126e-05 -5.21854236e-06 0.
      0. 0. 0. 0. 0. 0. 0. 0. 0. 0. 0. 0. 0. 0. 0. 0. 0. 0. 0. 0. 0. 0.
      0. 0. 0. 0. 0. 0. 0. 0. 0. 0. 0. 0. 0. 0. 0. 0. 0. 0. 0. 0. 0. 0.
      0. 0. 0.</_>
    <_>
      7.11155808e-05 -7.15818387e-05 -1.57212897e-04 -1.06343061e-04
      -1.15579038e-04 9.35457228e-06 8.21327703e-05 8.74821417e-05
      1.03289713e-04 -1.18274138e-05 -1.53153596e-04 -6.63217870e-05
      -6.64876643e-05 -2.48078140e-05 4.89548147e-05 8.37165135e-05 0.
      0. 0. 0. 0. 0. 0. 0. 0. 0. 0. 0. 0. 0. 0. 0. 0. 0. 0. 0. 0. 0. 0.
      0. 0. 0. 0. 0. 0. 0. 0. 0. 0. 0. 0. 0. 0. 0. 0. 0. 0. 0. 0. 0. 0.
      0. 0. 0.</_>
    <_>
      -4.71953645e-05 2.50362482e-05 -1.23595528e-04 4.27056548e-05
      -2.06011406e-04 -1.09110872e-04 -2.15280670e-06 1.92390740e-04
      2.38658802e-04 9.57451339e-05 -6.22614389e-05 -5.11148173e-05
      -2.08356621e-04 -5.53872924e-05 -3.32037343e-05 5.73906946e-05 0.
      0. 0. 0. 0. 0. 0. 0. 0. 0. 0. 0. 0. 0. 0. 0. 0. 0. 0. 0. 0. 0. 0.
      0. 0. 0. 0. 0. 0. 0. 0. 0. 0. 0. 0. 0. 0. 0. 0. 0. 0. 0. 0. 0. 0.
      0. 0. 0.</_>
    <_>
      -2.34985098e-04 -3.27511603e-04 -1.09374814e-04 2.67675186e-05
      1.62522920e-04 1.57574657e-04 1.25309933e-04 -1.01574667e-04
      9.59769895e-05 1.57146307e-04 1.12864662e-04 1.23884485e-04
      1.45161597e-04 1.20176024e-04 4.05156061e-05 1.88005743e-05 0. 0.
      0. 0. 0. 0. 0. 0. 0. 0. 0. 0. 0. 0. 0. 0. 0. 0. 0. 0. 0. 0. 0. 0.
      0. 0. 0. 0. 0. 0. 0. 0. 0. 0. 0. 0. 0. 0. 0. 0. 0. 0. 0. 0. 0. 0.
      0. 0.</_>
    <_>
      9.94423826e-05 2.16800345e-05 -8.32640071e-05 3.12794655e-05
      -2.97559105e-04 -2.45699252e-04 -3.57455574e-05 3.97868098e-05
      8.96995625e-05 -5.31500689e-07 -2.50669429e-04 -1.93616797e-04
      -1.15610012e-04 1.12227091e-04 4.67272039e-05 1.39572163e-04 0. 0.
      0. 0. 0. 0. 0. 0. 0. 0. 0. 0. 0. 0. 0. 0. 0. 0. 0. 0. 0. 0. 0. 0.
      0. 0. 0. 0. 0. 0. 0. 0. 0. 0. 0. 0. 0. 0. 0. 0. 0. 0. 0. 0. 0. 0.
      0. 0.</_>
    <_>
      -3.25239344e-05 -3.18380044e-05 7.65474906e-05 -2.38586086e-04
      -3.64605366e-04 -6.17115700e-04 7.10579297e-06 2.81597575e-04
      3.76714917e-04 6.62258899e-05 -2.12478742e-04 2.24943840e-04
      -2.34940933e-04 -3.26378104e-05 1.72069136e-04 7.08832958e-05 0.
      0. 0. 0. 0. 0. 0. 0. 0. 0. 0. 0. 0. 0. 0. 0. 0. 0. 0. 0. 0. 0. 0.
      0. 0. 0. 0. 0. 0. 0. 0. 0. 0. 0. 0. 0. 0. 0. 0. 0. 0. 0. 0. 0. 0.
      0. 0. 0.</_>
    <_>
      -3.11327094e-05 -5.18519191e-05 2.58251694e-05 4.76746573e-05
      2.99063162e-04 1.06353218e-04 1.21310557e-04 1.08065382e-04
      -8.97752307e-06 -8.37054467e-05 5.66005201e-06 -1.30708664e-04
      -9.48501547e-05 4.92918916e-05 6.25838074e-05 8.30960416e-05 0. 0.
      0. 0. 0. 0. 0. 0. 0. 0. 0. 0. 0. 0. 0. 0. 0. 0. 0. 0. 0. 0. 0. 0.
      0. 0. 0. 0. 0. 0. 0. 0. 0. 0. 0. 0. 0. 0. 0. 0. 0. 0. 0. 0. 0. 0.
      0. 0.</_>
    <_>
      3.14780802e-04 -1.73871900e-04 -7.04810445e-05 -8.71745433e-05
      -2.26176591e-04 -7.04810445e-05 -1.73871900e-04 2.37140179e-04
      1.45615661e-04 2.91474998e-06 1.03947408e-04 -3.61459126e-04
      -5.00461203e-04 1.03947408e-04 2.91474998e-06 6.79749646e-05 0. 0.
      0. 0. 0. 0. 0. 0. 0. 0. 0. 0. 0. 0. 0. 0. 0. 0. 0. 0. 0. 0. 0. 0.
      0. 0. 0. 0. 0. 0. 0. 0. 0. 0. 0. 0. 0. 0. 0. 0. 0. 0. 0. 0. 0. 0.
      0. 0.</_>
    <_>
      -2.06156779e-04 -4.35960319e-05 -2.51928926e-04 6.76136551e-08
      -2.66018324e-04 6.74487092e-05 1.46843537e-04 4.59283219e-05
      4.21565928e-04 1.68285878e-05 -2.06288838e-04 -3.73633491e-04
      -5.36689011e-04 1.16153147e-04 -2.89553893e-04 3.19431711e-04 0.
      0. 0. 0. 0. 0. 0. 0. 0. 0. 0. 0. 0. 0. 0. 0. 0. 0. 0. 0. 0. 0. 0.
      0. 0. 0. 0. 0. 0. 0. 0. 0. 0. 0. 0. 0. 0. 0. 0. 0. 0. 0. 0. 0. 0.
      0. 0. 0.</_>
    <_>
      2.37459299e-05 4.46857030e-06 6.52330527e-07 7.39413190e-06
      -6.64250547e-05 6.52330527e-07 4.46857030e-06 1.60610853e-05
      2.37459299e-05 4.46857030e-06 6.52330527e-07 7.39413190e-06
      -6.64250547e-05 6.52330527e-07 4.46857030e-06 1.60610853e-05 0. 0.
      0. 0. 0. 0. 0. 0. 0. 0. 0. 0. 0. 0. 0. 0. 0. 0. 0. 0. 0. 0. 0. 0.
      0. 0. 0. 0. 0. 0. 0. 0. 0. 0. 0. 0. 0. 0. 0. 0. 0. 0. 0. 0. 0. 0.
      0. 0.</_>
    <_>
      5.43252390e-05 -2.26321608e-05 -5.59595028e-05 -3.51239287e-05
      -3.74516349e-05 9.84573035e-06 6.51009896e-06 1.36038643e-05
      1.38241696e-04 -3.29039540e-05 -6.96244606e-05 -4.09904533e-05
      -4.08566739e-05 -5.36466700e-07 -4.42970759e-06 1.77759430e-05 0.
      0. 0. 0. 0. 0. 0. 0. 0. 0. 0. 0. 0. 0. 0. 0. 0. 0. 0. 0. 0. 0. 0.
      0. 0. 0. 0. 0. 0. 0. 0. 0. 0. 0. 0. 0. 0. 0. 0. 0. 0. 0. 0. 0. 0.
      0. 0. 0.</_>
    <_>
      2.96779999e-05 -1.78187674e-05 -2.86715567e-05 6.25249186e-06
      -4.88221449e-05 -4.01926045e-05 -1.81089024e-06 3.10567229e-05
      1.90133011e-04 -1.02609411e-05 -4.52864406e-05 -3.26800982e-05
      -8.15732274e-05 -2.21153368e-05 -3.06828260e-05 1.38915157e-05 0.
      0. 0. 0. 0. 0. 0. 0. 0. 0. 0. 0. 0. 0. 0. 0. 0. 0. 0. 0. 0. 0. 0.
      0. 0. 0. 0. 0. 0. 0. 0. 0. 0. 0. 0. 0. 0. 0. 0. 0. 0. 0. 0. 0. 0.
      0. 0. 0.</_>
    <_>
      -1.66616912e-04 -1.27990439e-04 -1.15735937e-04 1.46017992e-05
      2.68093554e-05 4.67909194e-05 8.70325384e-05 1.05184889e-04
      3.23034386e-04 0. -6.00085805e-05 -9.44190560e-06 -1.30472428e-04
      2.95792033e-05 9.65687432e-05 1.04684696e-05 0. 0. 0. 0. 0. 0. 0.
      0. 0. 0. 0. 0. 0. 0. 0. 0. 0. 0. 0. 0. 0. 0. 0. 0. 0. 0. 0. 0. 0.
      0. 0. 0. 0. 0. 0. 0. 0. 0. 0. 0. 0. 0. 0. 0. 0. 0. 0. 0.</_>
    <_>
      8.62255838e-05 -8.28736938e-06 -1.69479117e-05 1.10936128e-06
      -6.37660269e-05 -5.12326405e-05 -8.71531665e-06 1.76799876e-05
      1.73641936e-04 -2.91522501e-05 -7.21032338e-05 -6.71389425e-05
      -6.68789871e-05 1.73269545e-05 4.27940040e-06 3.83798670e-06 0. 0.
      0. 0. 0. 0. 0. 0. 0. 0. 0. 0. 0. 0. 0. 0. 0. 0. 0. 0. 0. 0. 0. 0.
      0. 0. 0. 0. 0. 0. 0. 0. 0. 0. 0. 0. 0. 0. 0. 0. 0. 0. 0. 0. 0. 0.
      0. 0.</_>
    <_>
      6.62655875e-05 -5.40899055e-06 -9.55746873e-06 -1.07538863e-05
      -2.00259237e-05 -8.12365761e-05 -1.73967001e-05 4.38979332e-05
      2.48229015e-04 -4.20187898e-05 -5.74812184e-05 -1.38328724e-05
      -7.56379231e-05 -5.39795656e-06 1.96983729e-05 -1.42769579e-06 0.
      0. 0. 0. 0. 0. 0. 0. 0. 0. 0. 0. 0. 0. 0. 0. 0. 0. 0. 0. 0. 0. 0.
      0. 0. 0. 0. 0. 0. 0. 0. 0. 0. 0. 0. 0. 0. 0. 0. 0. 0. 0. 0. 0. 0.
      0. 0. 0.</_>
    <_>
      -5.46851115e-05 -3.91101457e-05 -7.82066036e-06 4.59744333e-05
      1.39555385e-04 3.83475126e-05 2.48390133e-05 4.68428916e-05
      1.29644803e-04 -1.36749703e-04 -4.54863111e-05 -1.16197625e-04
      -1.27849111e-04 2.49266977e-05 2.23309999e-05 -2.80470476e-06 0.
      0. 0. 0. 0. 0. 0. 0. 0. 0. 0. 0. 0. 0. 0. 0. 0. 0. 0. 0. 0. 0. 0.
      0. 0. 0. 0. 0. 0. 0. 0. 0. 0. 0. 0. 0. 0. 0. 0. 0. 0. 0. 0. 0. 0.
      0. 0. 0.</_>
    <_>
      9.96434028e-05 -4.49024410e-05 -9.27910423e-06 1.94930806e-07
      -1.72367545e-05 -9.27910423e-06 -4.49024410e-05 2.61412733e-05
      1.70389860e-04 -5.18778579e-05 -1.40663715e-05 -4.72918327e-05
      -7.62604468e-05 9.28833288e-06 -3.13541714e-05 5.84761119e-06 0.
      0. 0. 0. 0. 0. 0. 0. 0. 0. 0. 0. 0. 0. 0. 0. 0. 0. 0. 0. 0. 0. 0.
      0. 0. 0. 0. 0. 0. 0. 0. 0. 0. 0. 0. 0. 0. 0. 0. 0. 0. 0. 0. 0. 0.
      0. 0. 0.</_>
    <_>
      6.98861477e-05 -1.16935898e-05 -3.87445034e-05 7.95290180e-06
      -3.64428488e-05 -1.24327944e-05 8.86549606e-06 2.16213339e-05
      2.23866693e-04 -4.05453357e-05 -5.17911103e-05 -6.17764672e-05
      -1.33198933e-04 3.29545474e-05 -3.36099183e-05 3.46069064e-05 0.
      0. 0. 0. 0. 0. 0. 0. 0. 0. 0. 0. 0. 0. 0. 0. 0. 0. 0. 0. 0. 0. 0.
      0. 0. 0. 0. 0. 0. 0. 0. 0. 0. 0. 0. 0. 0. 0. 0. 0. 0. 0. 0. 0. 0.
      0. 0. 0.</_>
    <_>
      2.11721981e-05 2.65337167e-06 3.22400592e-06 3.60882427e-06
      -5.17338740e-05 3.22400592e-06 2.65337167e-06 1.74748516e-06
      3.63482213e-05 0. 0. 0. -5.61267880e-05 3.24372922e-06
      2.25290319e-06 4.42818873e-06 0. 0. 0. 0. 0. 0. 0. 0. 0. 0. 0. 0.
      0. 0. 0. 0. 0. 0. 0. 0. 0. 0. 0. 0. 0. 0. 0. 0. 0. 0. 0. 0. 0. 0.
      0. 0. 0. 0. 0. 0. 0. 0. 0. 0. 0. 0. 0. 0.</_>
    <_>
      -2.45872623e-04 6.73028408e-05 2.16130618e-04 2.06736862e-04
      1.02767161e-04 -3.99005257e-05 -1.21065779e-04 -3.82511607e-05
      3.33319404e-05 6.38220081e-05 1.68535174e-04 6.67670320e-05
      -4.29598804e-05 -1.01542682e-05 -1.31107474e-04 -6.79031564e-06 0.
      0. 0. 0. 0. 0. 0. 0. 0. 0. 0. 0. 0. 0. 0. 0. 0. 0. 0. 0. 0. 0. 0.
      0. 0. 0. 0. 0. 0. 0. 0. 0. 0. 0. 0. 0. 0. 0. 0. 0. 0. 0. 0. 0. 0.
      0. 0. 0.</_>
    <_>
      -8.74766047e-05 -2.73137175e-05 4.37706549e-05 1.16674069e-04
      1.04211751e-04 6.25730172e-06 -5.30323741e-05 -5.03380943e-05
      -4.77689973e-05 4.15719187e-05 1.65441597e-04 9.42891857e-05
      7.43322817e-05 4.02387850e-05 -3.93944974e-05 -7.62931768e-06 0.
      0. 0. 0. 0. 0. 0. 0. 0. 0. 0. 0. 0. 0. 0. 0. 0. 0. 0. 0. 0. 0. 0.
      0. 0. 0. 0. 0. 0. 0. 0. 0. 0. 0. 0. 0. 0. 0. 0. 0. 0. 0. 0. 0. 0.
      0. 0. 0.</_>
    <_>
      -1.59899646e-04 1.20654127e-04 3.07419483e-04 2.06920085e-04
      -6.17866681e-05 -1.37893832e-04 -7.14200723e-05 -1.70415340e-04
      -6.79221484e-05 -2.29573311e-06 -5.15098873e-06 -2.89524014e-05
      -3.15222351e-05 8.89632865e-05 -1.27324911e-05 -8.44641909e-05 0.
      0. 0. 0. 0. 0. 0. 0. 0. 0. 0. 0. 0. 0. 0. 0. 0. 0. 0. 0. 0. 0. 0.
      0. 0. 0. 0. 0. 0. 0. 0. 0. 0. 0. 0. 0. 0. 0. 0. 0. 0. 0. 0. 0. 0.
      0. 0. 0.</_>
    <_>
      -5.38080130e-05 8.62373126e-05 3.38667567e-04 1.73747521e-05
      1.20563964e-04 1.59706524e-05 -1.28864296e-04 -9.33670162e-05
      -1.63748176e-04 5.84154513e-05 1.22751604e-04 1.42480843e-04
      8.86154066e-06 -1.01419268e-04 -5.03571209e-06 -1.62805780e-04 0.
      0. 0. 0. 0. 0. 0. 0. 0. 0. 0. 0. 0. 0. 0. 0. 0. 0. 0. 0. 0. 0. 0.
      0. 0. 0. 0. 0. 0. 0. 0. 0. 0. 0. 0. 0. 0. 0. 0. 0. 0. 0. 0. 0. 0.
      0. 0. 0.</_>
    <_>
      -1.04676852e-04 2.54280239e-05 7.11408866e-05 8.22021466e-05
      1.25001883e-04 1.27455132e-05 -1.75679020e-06 1.06694306e-05
      -1.09000772e-04 -4.73859291e-05 6.34348035e-05 3.61729180e-05
      -3.21291191e-05 -2.08812253e-06 2.12491104e-05 1.15479406e-05 0.
      0. 0. 0. 0. 0. 0. 0. 0. 0. 0. 0. 0. 0. 0. 0. 0. 0. 0. 0. 0. 0. 0.
      0. 0. 0. 0. 0. 0. 0. 0. 0. 0. 0. 0. 0. 0. 0. 0. 0. 0. 0. 0. 0. 0.
      0. 0. 0.</_>
    <_>
      1.18484777e-05 5.67954849e-05 4.26224084e-04 1.69422405e-04
      1.22782396e-04 -1.47214480e-04 -1.86335339e-04 -1.43105281e-04
      -1.06345316e-04 1.08728418e-04 1.82593867e-04 -5.09238344e-05
      -5.86702918e-05 -5.24104644e-06 -1.08395856e-04 -1.15321149e-04 0.
      0. 0. 0. 0. 0. 0. 0. 0. 0. 0. 0. 0. 0. 0. 0. 0. 0. 0. 0. 0. 0. 0.
      0. 0. 0. 0. 0. 0. 0. 0. 0. 0. 0. 0. 0. 0. 0. 0. 0. 0. 0. 0. 0. 0.
      0. 0. 0.</_>
    <_>
      -5.21879119e-05 1.65067922e-05 2.73983926e-04 9.24432097e-05
      1.16028270e-04 -1.49539474e-05 -3.41639789e-05 -9.49716123e-05
      -1.26849845e-04 1.00673751e-04 2.35653308e-04 -5.96041937e-05
      -6.55014519e-05 1.41312885e-05 -1.16367133e-04 -4.18240379e-05 0.
      0. 0. 0. 0. 0. 0. 0. 0. 0. 0. 0. 0. 0. 0. 0. 0. 0. 0. 0. 0. 0. 0.
      0. 0. 0. 0. 0. 0. 0. 0. 0. 0. 0. 0. 0. 0. 0. 0. 0. 0. 0. 0. 0. 0.
      0. 0. 0.</_>
    <_>
      9.96636300e-06 4.61601212e-06 2.64709761e-05 1.70014355e-05
      -7.60932890e-05 3.65523192e-06 0. 0. 9.73709757e-06 8.77800539e-06
      1.15001967e-05 1.19883016e-05 -8.59687498e-05 8.51778805e-06 0.
      5.97220787e-06 0. 0. 0. 0. 0. 0. 0. 0. 0. 0. 0. 0. 0. 0. 0. 0. 0.
      0. 0. 0. 0. 0. 0. 0. 0. 0. 0. 0. 0. 0. 0. 0. 0. 0. 0. 0. 0. 0. 0.
      0. 0. 0. 0. 0. 0. 0. 0. 0.</_>
    <_>
      -3.83994120e-05 -1.24545593e-04 4.52816039e-06 1.93601591e-05
      1.57896269e-04 1.13114831e-04 6.44492866e-06 -1.19232194e-04
      -8.05575910e-05 -5.25055657e-06 8.51236910e-05 7.13515765e-05
      1.48509018e-04 8.39394270e-05 2.95667596e-05 -9.10390008e-06 0. 0.
      0. 0. 0. 0. 0. 0. 0. 0. 0. 0. 0. 0. 0. 0. 0. 0. 0. 0. 0. 0. 0. 0.
      0. 0. 0. 0. 0. 0. 0. 0. 0. 0. 0. 0. 0. 0. 0. 0. 0. 0. 0. 0. 0. 0.
      0. 0.</_>
    <_>
      2.44995172e-04 -8.39870245e-06 1.57114293e-04 -3.72724571e-05
      -1.69896331e-04 -9.28954905e-05 6.33794116e-05 -2.76426348e-04
      -1.47929575e-04 -1.83730910e-04 -2.76871404e-04 -1.40999662e-04
      8.44548122e-05 2.00128867e-04 1.26262777e-04 3.27182715e-05 0. 0.
      0. 0. 0. 0. 0. 0. 0. 0. 0. 0. 0. 0. 0. 0. 0. 0. 0. 0. 0. 0. 0. 0.
      0. 0. 0. 0. 0. 0. 0. 0. 0. 0. 0. 0. 0. 0. 0. 0. 0. 0. 0. 0. 0. 0.
      0. 0.</_>
    <_>
      1.70910876e-04 -1.42867539e-05 3.59911763e-04 -1.94627428e-04
      4.86886529e-06 7.13558939e-06 8.89813055e-06 -1.64872574e-04
      -1.94041291e-04 -1.45597602e-04 -1.25163948e-04 6.50820002e-05
      3.08640709e-04 1.90867631e-05 2.34230916e-04 -1.79062059e-04 0. 0.
      0. 0. 0. 0. 0. 0. 0. 0. 0. 0. 0. 0. 0. 0. 0. 0. 0. 0. 0. 0. 0. 0.
      0. 0. 0. 0. 0. 0. 0. 0. 0. 0. 0. 0. 0. 0. 0. 0. 0. 0. 0. 0. 0. 0.
      0. 0.</_>
    <_>
      -7.25765203e-05 -9.62976719e-06 3.76194075e-05 2.65684976e-05
      1.83055803e-04 8.71447992e-05 2.65539402e-05 -6.42941086e-06
      -1.28819302e-04 -7.99491609e-05 1.53301444e-05 -2.92439672e-05
      1.07525329e-05 3.35675795e-05 6.11332653e-05 2.83369991e-05 0. 0.
      0. 0. 0. 0. 0. 0. 0. 0. 0. 0. 0. 0. 0. 0. 0. 0. 0. 0. 0. 0. 0. 0.
      0. 0. 0. 0. 0. 0. 0. 0. 0. 0. 0. 0. 0. 0. 0. 0. 0. 0. 0. 0. 0. 0.
      0. 0.</_>
    <_>
      4.27472725e-04 -1.83955082e-04 2.16713088e-04 -2.07163408e-04
      -1.89773493e-06 -5.75071535e-05 5.14481435e-05 -1.91986430e-04
      -2.64791161e-04 -6.35258039e-05 -9.52487317e-05 -2.57603679e-04
      3.36038065e-05 1.48950960e-04 3.65922351e-05 -1.13792135e-04 0. 0.
      0. 0. 0. 0. 0. 0. 0. 0. 0. 0. 0. 0. 0. 0. 0. 0. 0. 0. 0. 0. 0. 0.
      0. 0. 0. 0. 0. 0. 0. 0. 0. 0. 0. 0. 0. 0. 0. 0. 0. 0. 0. 0. 0. 0.
      0. 0.</_>
    <_>
      1.54806883e-04 -1.22059719e-04 2.92801997e-04 -2.32489299e-04
      1.62844401e-04 1.36886869e-04 1.33368972e-04 -2.22910094e-04
      -3.81378573e-04 -2.55871291e-05 4.52144486e-05 -2.28937090e-04
      -1.28365627e-05 1.62746961e-04 5.00977512e-06 -1.23444755e-04 0.
      0. 0. 0. 0. 0. 0. 0. 0. 0. 0. 0. 0. 0. 0. 0. 0. 0. 0. 0. 0. 0. 0.
      0. 0. 0. 0. 0. 0. 0. 0. 0. 0. 0. 0. 0. 0. 0. 0. 0. 0. 0. 0. 0. 0.
      0. 0. 0.</_>
    <_>
      2.37415406e-05 0. 1.24400567e-05 3.98446673e-06 -8.27683543e-05
      2.97229030e-06 8.77706407e-06 3.52497568e-06 5.93618324e-06
      5.88021840e-06 0. 8.20188598e-06 -8.29381970e-05 7.50750542e-06
      7.26021062e-06 7.13757345e-06 0. 0. 0. 0. 0. 0. 0. 0. 0. 0. 0. 0.
      0. 0. 0. 0. 0. 0. 0. 0. 0. 0. 0. 0. 0. 0. 0. 0. 0. 0. 0. 0. 0. 0.
      0. 0. 0. 0. 0. 0. 0. 0. 0. 0. 0. 0. 0. 0.</_>
    <_>
      1.15208153e-04 1.34536371e-04 3.23931235e-05 -2.41937450e-05
      -1.64869212e-04 -1.12076923e-04 -3.40232255e-05 2.56323601e-05
      8.93566994e-06 -4.46898594e-05 -1.21440069e-04 -1.14448296e-04
      -9.46252621e-05 5.11546750e-06 1.70857202e-05 -6.81605457e-07 0.
      0. 0. 0. 0. 0. 0. 0. 0. 0. 0. 0. 0. 0. 0. 0. 0. 0. 0. 0. 0. 0. 0.
      0. 0. 0. 0. 0. 0. 0. 0. 0. 0. 0. 0. 0. 0. 0. 0. 0. 0. 0. 0. 0. 0.
      0. 0. 0.</_>
    <_>
      1.35103764e-04 2.23123439e-04 9.42569604e-05 -7.84039657e-05
      -1.15665178e-04 -2.33085302e-04 -5.19565110e-05 5.08259254e-05
      1.03776612e-04 -5.94662888e-05 -1.10673078e-04 -2.87275725e-05
      -9.27485598e-05 -7.44778226e-05 5.88899056e-05 -6.48497225e-05 0.
      0. 0. 0. 0. 0. 0. 0. 0. 0. 0. 0. 0. 0. 0. 0. 0. 0. 0. 0. 0. 0. 0.
      0. 0. 0. 0. 0. 0. 0. 0. 0. 0. 0. 0. 0. 0. 0. 0. 0. 0. 0. 0. 0. 0.
      0. 0. 0.</_>
    <_>
      4.73977116e-06 7.77789610e-05 5.23725830e-05 3.68263318e-05
      1.56544716e-04 7.00936698e-06 1.75194291e-05 1.48211999e-04
      -7.16047289e-05 -1.50835709e-04 -6.08883383e-05 -1.33289272e-04
      -1.40325224e-04 -3.19385908e-05 2.63209022e-05 1.07716463e-04 0.
      0. 0. 0. 0. 0. 0. 0. 0. 0. 0. 0. 0. 0. 0. 0. 0. 0. 0. 0. 0. 0. 0.
      0. 0. 0. 0. 0. 0. 0. 0. 0. 0. 0. 0. 0. 0. 0. 0. 0. 0. 0. 0. 0. 0.
      0. 0. 0.</_>
    <_>
      1.74378772e-04 1.32569941e-04 7.21281394e-05 -6.85302730e-05
      -1.36651506e-04 -6.00410458e-05 -9.77683085e-05 7.51599800e-05
      -3.86961619e-06 -9.80138138e-05 -4.24441241e-05 -1.42699238e-04
      -1.87516838e-04 -4.24441241e-05 -1.58430812e-05 -7.20023672e-05 0.
      0. 0. 0. 0. 0. 0. 0. 0. 0. 0. 0. 0. 0. 0. 0. 0. 0. 0. 0. 0. 0. 0.
      0. 0. 0. 0. 0. 0. 0. 0. 0. 0. 0. 0. 0. 0. 0. 0. 0. 0. 0. 0. 0. 0.
      0. 0. 0.</_>
    <_>
      1.49385829e-04 2.31965227e-04 4.04741440e-05 -4.29714964e-05
      -1.78125701e-04 -6.71711023e-05 1.01847636e-05 -6.89518347e-05
      6.01531137e-05 -6.16465695e-05 -1.03916420e-04 -1.67775579e-04
      -2.47381977e-04 8.31504258e-06 -8.17817418e-05 -1.03943094e-05 0.
      0. 0. 0. 0. 0. 0. 0. 0. 0. 0. 0. 0. 0. 0. 0. 0. 0. 0. 0. 0. 0. 0.
      0. 0. 0. 0. 0. 0. 0. 0. 0. 0. 0. 0. 0. 0. 0. 0. 0. 0. 0. 0. 0. 0.
      0. 0. 0.</_>
    <_>
      2.09906902e-05 1.54278823e-05 7.62276613e-06 8.55387100e-07
      -6.12866643e-05 1.02325555e-06 4.31951275e-06 8.16959346e-06
      1.34644970e-05 2.50769222e-06 3.45644054e-07 5.43845253e-08
      -6.07160582e-05 3.18310612e-07 6.02865885e-06 3.34653168e-06 0. 0.
      0. 0. 0. 0. 0. 0. 0. 0. 0. 0. 0. 0. 0. 0. 0. 0. 0. 0. 0. 0. 0. 0.
      0. 0. 0. 0. 0. 0. 0. 0. 0. 0. 0. 0. 0. 0. 0. 0. 0. 0. 0. 0. 0. 0.
      0. 0.</_>
    <_>
      -2.52882746e-05 -2.73706210e-05 1.83157754e-04 -1.34077738e-04
      2.28366160e-04 2.74022459e-04 -1.37894764e-04 9.33473202e-05
      -2.48061260e-05 1.11356521e-05 3.61782702e-04 4.26929008e-04
      5.60127228e-05 -2.10845552e-04 3.01845012e-05 -2.60768691e-04 0.
      0. 0. 0. 0. 0. 0. 0. 0. 0. 0. 0. 0. 0. 0. 0. 0. 0. 0. 0. 0. 0. 0.
      0. 0. 0. 0. 0. 0. 0. 0. 0. 0. 0. 0. 0. 0. 0. 0. 0. 0. 0. 0. 0. 0.
      0. 0. 0.</_>
    <_>
      -1.23426187e-04 -2.25325130e-05 1.66549653e-05 2.35673197e-05
      1.75944559e-04 8.03893709e-05 5.25742616e-05 4.67831633e-05
      -8.38673441e-05 -4.64958721e-05 3.21903171e-05 1.36463241e-05
      -2.51422480e-05 -3.11060430e-05 3.26833651e-05 3.08821254e-05 0.
      0. 0. 0. 0. 0. 0. 0. 0. 0. 0. 0. 0. 0. 0. 0. 0. 0. 0. 0. 0. 0. 0.
      0. 0. 0. 0. 0. 0. 0. 0. 0. 0. 0. 0. 0. 0. 0. 0. 0. 0. 0. 0. 0. 0.
      0. 0. 0.</_>
    <_>
      4.02738864e-04 -1.38052783e-04 9.23959378e-05 -3.55168362e-04
      1.26649989e-04 2.39830639e-04 -3.95104553e-06 1.53601199e-04
      -5.08560770e-05 2.53984443e-04 4.38840594e-04 -1.81637151e-05
      -3.48499270e-05 -2.10948740e-04 -1.79032359e-04 -6.00068452e-05 0.
      0. 0. 0. 0. 0. 0. 0. 0. 0. 0. 0. 0. 0. 0. 0. 0. 0. 0. 0. 0. 0. 0.
      0. 0. 0. 0. 0. 0. 0. 0. 0. 0. 0. 0. 0. 0. 0. 0. 0. 0. 0. 0. 0. 0.
      0. 0. 0.</_>
    <_>
      -9.13801487e-05 -4.49825420e-05 6.98914082e-05 -1.29758831e-04
      3.36215744e-04 2.69178447e-04 1.39417127e-04 -7.28121668e-05
      -5.54391627e-05 1.91068189e-04 4.17817879e-04 5.13278064e-05
      -2.07603181e-04 -2.38152879e-05 -1.62760422e-04 -7.36800866e-05 0.
      0. 0. 0. 0. 0. 0. 0. 0. 0. 0. 0. 0. 0. 0. 0. 0. 0. 0. 0. 0. 0. 0.
      0. 0. 0. 0. 0. 0. 0. 0. 0. 0. 0. 0. 0. 0. 0. 0. 0. 0. 0. 0. 0. 0.
      0. 0. 0.</_>
    <_>
      2.21889495e-05 0. 6.87095644e-06 3.72442173e-06 -8.49885691e-05
      5.81400354e-06 7.12299970e-06 1.51181821e-05 8.63843616e-06
      1.93757551e-05 1.59089686e-05 1.36571998e-05 -9.62673221e-05
      1.34240713e-06 5.33181856e-06 4.99007820e-06 0. 0. 0. 0. 0. 0. 0.
      0. 0. 0. 0. 0. 0. 0. 0. 0. 0. 0. 0. 0. 0. 0. 0. 0. 0. 0. 0. 0. 0.
      0. 0. 0. 0. 0. 0. 0. 0. 0. 0. 0. 0. 0. 0. 0. 0. 0. 0. 0.</_>
    <_>
      -9.80375407e-05 -4.85396122e-05 7.35407502e-06 6.66857159e-05
      1.61592019e-04 1.08732980e-04 5.12116021e-05 6.06550457e-05
      -1.19240307e-04 -8.52840749e-05 -1.39592134e-06 -6.19019847e-05
      -6.03929366e-05 1.21728262e-05 1.03886823e-05 9.17620928e-05 0. 0.
      0. 0. 0. 0. 0. 0. 0. 0. 0. 0. 0. 0. 0. 0. 0. 0. 0. 0. 0. 0. 0. 0.
      0. 0. 0. 0. 0. 0. 0. 0. 0. 0. 0. 0. 0. 0. 0. 0. 0. 0. 0. 0. 0. 0.
      0. 0.</_>
    <_>
      1.90457737e-04 -3.49346170e-04 -2.51276593e-04 4.37805684e-05
      -3.00164626e-04 -2.12874656e-04 -5.39987286e-06 1.98961628e-04
      7.38781164e-05 -6.70916925e-05 -7.74254877e-05 -4.11746005e-04
      -2.73594749e-04 1.74848697e-04 -4.64615994e-04 5.64150105e-04 0.
      0. 0. 0. 0. 0. 0. 0. 0. 0. 0. 0. 0. 0. 0. 0. 0. 0. 0. 0. 0. 0. 0.
      0. 0. 0. 0. 0. 0. 0. 0. 0. 0. 0. 0. 0. 0. 0. 0. 0. 0. 0. 0. 0. 0.
      0. 0. 0.</_>
    <_>
      -1.14753668e-04 -1.71030042e-04 -1.04734863e-04 5.83424444e-05
      1.29565684e-04 4.28401363e-05 1.71039981e-04 4.78716393e-05
      -1.33617490e-04 1.26895466e-04 1.99267219e-04 -3.92828457e-04
      -3.90050613e-04 2.89828080e-04 -3.32195166e-04 2.52530095e-04 0.
      0. 0. 0. 0. 0. 0. 0. 0. 0. 0. 0. 0. 0. 0. 0. 0. 0. 0. 0. 0. 0. 0.
      0. 0. 0. 0. 0. 0. 0. 0. 0. 0. 0. 0. 0. 0. 0. 0. 0. 0. 0. 0. 0. 0.
      0. 0. 0.</_>
    <_>
      1.33280628e-05 0. 2.14542160e-06 1.32994519e-05 -7.78784743e-05 0.
      5.94081894e-06 1.10067613e-05 1.37660863e-05 4.40722897e-06
      4.74104854e-06 9.92840614e-06 -8.67682102e-05 1.04864057e-05 0.
      1.58247803e-05 0. 0. 0. 0. 0. 0. 0. 0. 0. 0. 0. 0. 0. 0. 0. 0. 0.
      0. 0. 0. 0. 0. 0. 0. 0. 0. 0. 0. 0. 0. 0. 0. 0. 0. 0. 0. 0. 0. 0.
      0. 0. 0. 0. 0. 0. 0. 0. 0.</_>
    <_>
      1.57422459e-04 -4.45841670e-06 -1.79189428e-05 -3.86884094e-05
      -1.44521880e-04 -4.19062271e-05 -9.55241703e-05 -2.69772645e-05
      1.06060426e-04 4.87715115e-05 4.31735789e-05 -2.17521501e-05
      1.76041940e-05 1.81982632e-05 -7.36205111e-05 -5.93817203e-05 0.
      0. 0. 0. 0. 0. 0. 0. 0. 0. 0. 0. 0. 0. 0. 0. 0. 0. 0. 0. 0. 0. 0.
      0. 0. 0. 0. 0. 0. 0. 0. 0. 0. 0. 0. 0. 0. 0. 0. 0. 0. 0. 0. 0. 0.
      0. 0. 0.</_>
    <_>
      1.27011619e-04 2.00497889e-05 -3.21090283e-06 -7.21042015e-05
      -2.43443123e-04 -2.00749673e-05 -4.76125097e-05 -6.91859022e-05
      1.17796299e-04 7.73242791e-05 2.01831717e-05 4.93371408e-06
      -3.16024511e-06 8.89892726e-06 -8.70690055e-05 -8.56906699e-05 0.
      0. 0. 0. 0. 0. 0. 0. 0. 0. 0. 0. 0. 0. 0. 0. 0. 0. 0. 0. 0. 0. 0.
      0. 0. 0. 0. 0. 0. 0. 0. 0. 0. 0. 0. 0. 0. 0. 0. 0. 0. 0. 0. 0. 0.
      0. 0. 0.</_>
    <_>
      2.32579732e-05 1.20415743e-05 1.06610344e-06 0. -6.76981072e-05 0.
      0. 1.74583192e-06 2.20478141e-05 1.49177777e-05 7.44908220e-06
      1.59838555e-06 -4.72997563e-05 4.38510187e-06 0. 0. 0. 0. 0. 0. 0.
      0. 0. 0. 0. 0. 0. 0. 0. 0. 0. 0. 0. 0. 0. 0. 0. 0. 0. 0. 0. 0. 0.
      0. 0. 0. 0. 0. 0. 0. 0. 0. 0. 0. 0. 0. 0. 0. 0. 0. 0. 0. 0. 0.</_>
    <_>
      -6.39675767e-04 -2.91060715e-04 2.88785988e-04 -4.34884751e-05
      3.29794420e-04 1.75501016e-04 7.59411603e-04 -4.26434359e-04
      -5.77330822e-04 5.75874350e-04 3.77793738e-04 -3.87053587e-05
      -3.94039234e-04 -1.04103769e-04 -2.30601421e-04 -5.15063512e-05 0.
      0. 0. 0. 0. 0. 0. 0. 0. 0. 0. 0. 0. 0. 0. 0. 0. 0. 0. 0. 0. 0. 0.
      0. 0. 0. 0. 0. 0. 0. 0. 0. 0. 0. 0. 0. 0. 0. 0. 0. 0. 0. 0. 0. 0.
      0. 0. 0.</_>
    <_>
      1.63666609e-05 1.83182397e-06 0. 1.73293174e-05 -8.27159238e-05 0.
      1.83182397e-06 1.30864892e-05 1.48628924e-05 8.69986070e-06
      7.39911820e-06 1.57471659e-05 -1.00922589e-04 7.39911820e-06
      8.69986070e-06 1.15827206e-05 0. 0. 0. 0. 0. 0. 0. 0. 0. 0. 0. 0.
      0. 0. 0. 0. 0. 0. 0. 0. 0. 0. 0. 0. 0. 0. 0. 0. 0. 0. 0. 0. 0. 0.
      0. 0. 0. 0. 0. 0. 0. 0. 0. 0. 0. 0. 0. 0.</_>
    <_>
      1.37660863e-05 4.40722897e-06 4.74104854e-06 9.92840614e-06
      -8.67682102e-05 1.04864057e-05 0. 1.58247803e-05 1.33280628e-05 0.
      2.14542160e-06 1.32994519e-05 -7.78784743e-05 0. 5.94081894e-06
      1.10067613e-05 0. 0. 0. 0. 0. 0. 0. 0. 0. 0. 0. 0. 0. 0. 0. 0. 0.
      0. 0. 0. 0. 0. 0. 0. 0. 0. 0. 0. 0. 0. 0. 0. 0. 0. 0. 0. 0. 0. 0.
      0. 0. 0. 0. 0. 0. 0. 0. 0.</_></support_vectors>
  <uncompressed_sv_total>40</uncompressed_sv_total>
  <uncompressed_support_vectors>
    <_>
      4.78444922e+03 9.48937317e+02 0. 9.14532654e+02 2.82653271e+03 0.
      9.48937317e+02 4.59245312e+03 9.24400781e+03 0. 0. 0.
      1.70126880e+03 0. 9.36586365e+02 5.79385010e+03 0. 0. 0. 0. 0. 0.
      0. 0. 0. 0. 0. 0. 0. 0. 0. 0. 0. 0. 0. 0. 0. 0. 0. 0. 0. 0. 0. 0.
      0. 0. 0. 0. 0. 0. 0. 0. 0. 0. 0. 0. 0. 0. 0. 0. 0. 0. 0. 0.</_>
    <_>
      3.69255664e+03 0. 4.88405176e+03 2.82096899e+03 5.63601123e+03
      4.66476135e+01 8.65970886e+02 0. 2.11293115e+03 1.84928064e+03
      3.54027588e+03 2.17839551e+03 3.75038403e+03 9.42559265e+02
      1.04212073e+03 0. 0. 0. 0. 0. 0. 0. 0. 0. 0. 0. 0. 0. 0. 0. 0. 0.
      0. 0. 0. 0. 0. 0. 0. 0. 0. 0. 0. 0. 0. 0. 0. 0. 0. 0. 0. 0. 0. 0.
      0. 0. 0. 0. 0. 0. 0. 0. 0. 0.</_>
    <_>
      7.90414648e+03 2.00327051e+03 1.51418823e+03 7.63468384e+02
      2.49362988e+03 0. 0. 2.55096924e+03 5.29676611e+03 0.
      5.59072449e+02 8.79659042e+01 2.42154614e+03 5.14861145e+02 0.
      2.16133789e+03 0. 0. 0. 0. 0. 0. 0. 0. 0. 0. 0. 0. 0. 0. 0. 0. 0.
      0. 0. 0. 0. 0. 0. 0. 0. 0. 0. 0. 0. 0. 0. 0. 0. 0. 0. 0. 0. 0. 0.
      0. 0. 0. 0. 0. 0. 0. 0. 0.</_>
    <_>
      3014. 1.20846130e+03 1.21418030e+03 6.45804932e+02 4.82133154e+03
      2.20287476e+03 1.57953467e+03 1.49274719e+03 3.08321362e+03
      1.35542114e+03 2.23266113e+03 2.02744983e+03 3.71356567e+03 0.
      1.06931555e+03 8.46249390e+02 0. 0. 0. 0. 0. 0. 0. 0. 0. 0. 0. 0.
      0. 0. 0. 0. 0. 0. 0. 0. 0. 0. 0. 0. 0. 0. 0. 0. 0. 0. 0. 0. 0. 0.
      0. 0. 0. 0. 0. 0. 0. 0. 0. 0. 0. 0. 0. 0.</_>
    <_>
      6.56339453e+03 2.62363818e+03 4.44288208e+02 0. 0. 0.
      1.02449989e+02 4.28098114e+02 8.05417969e+03 4.40672705e+03
      9.41107056e+02 1.48487354e+03 4.49913184e+03 0. 0. 3.01673853e+03
      0. 0. 0. 0. 0. 0. 0. 0. 0. 0. 0. 0. 0. 0. 0. 0. 0. 0. 0. 0. 0. 0.
      0. 0. 0. 0. 0. 0. 0. 0. 0. 0. 0. 0. 0. 0. 0. 0. 0. 0. 0. 0. 0. 0.
      0. 0. 0. 0.</_>
    <_>
      2.37622681e+03 2.34233008e+03 9.89909546e+02 9.13898254e+02
      3.41389819e+03 9.89909546e+02 2.34233008e+03 9.28226746e+02
      2.85071582e+03 1.84646362e+03 5.00657562e+02 1.68323535e+03
      4.18323535e+03 5.00657562e+02 1.84646362e+03 1.40271594e+03 0. 0.
      0. 0. 0. 0. 0. 0. 0. 0. 0. 0. 0. 0. 0. 0. 0. 0. 0. 0. 0. 0. 0. 0.
      0. 0. 0. 0. 0. 0. 0. 0. 0. 0. 0. 0. 0. 0. 0. 0. 0. 0. 0. 0. 0. 0.
      0. 0.</_>
    <_>
      4.72036230e+03 1.05068176e+03 1.39069116e+03 6.83264221e+02
      3.54882422e+03 7.94074280e+02 5.67850342e+02 2.90104565e+03
      3.29405469e+03 9.02319214e+02 1.19985461e+03 1.36068457e+03
      4.26597510e+03 0. 1.63751270e+03 1.34609717e+03 0. 0. 0. 0. 0. 0.
      0. 0. 0. 0. 0. 0. 0. 0. 0. 0. 0. 0. 0. 0. 0. 0. 0. 0. 0. 0. 0. 0.
      0. 0. 0. 0. 0. 0. 0. 0. 0. 0. 0. 0. 0. 0. 0. 0. 0. 0. 0. 0.</_>
    <_>
      5592. 6.62397156e+02 9.31632996e+02 9.42274902e+02 2.85427490e+03
      9.31632996e+02 6.62397156e+02 0. 9.48702344e+03 0. 0. 0.
      1.70859412e+03 9.37332397e+02 5.48032837e+02 6.42535828e+02 0. 0.
      0. 0. 0. 0. 0. 0. 0. 0. 0. 0. 0. 0. 0. 0. 0. 0. 0. 0. 0. 0. 0. 0.
      0. 0. 0. 0. 0. 0. 0. 0. 0. 0. 0. 0. 0. 0. 0. 0. 0. 0. 0. 0. 0. 0.
      0. 0.</_>
    <_>
      1.34131091e+03 6.21240417e+02 3.56256421e+03 2.28811768e+03
      6.07907666e+03 4.91934967e+02 0. 0. 1.31045544e+03 1.18137720e+03
      1.54773999e+03 1.61343103e+03 4750. 1.14635620e+03 0.
      8.03762390e+02 0. 0. 0. 0. 0. 0. 0. 0. 0. 0. 0. 0. 0. 0. 0. 0. 0.
      0. 0. 0. 0. 0. 0. 0. 0. 0. 0. 0. 0. 0. 0. 0. 0. 0. 0. 0. 0. 0. 0.
      0. 0. 0. 0. 0. 0. 0. 0. 0.</_>
    <_>
      3.19556909e+03 0. 1.67440955e+03 5.36302124e+02 5.17952686e+03
      4.00065002e+02 1.18137720e+03 4.74455475e+02 7.98999695e+02
      7.91466980e+02 0. 1.10395923e+03 5.15666602e+03 1.01049689e+03
      9.77211426e+02 9.60704712e+02 0. 0. 0. 0. 0. 0. 0. 0. 0. 0. 0. 0.
      0. 0. 0. 0. 0. 0. 0. 0. 0. 0. 0. 0. 0. 0. 0. 0. 0. 0. 0. 0. 0. 0.
      0. 0. 0. 0. 0. 0. 0. 0. 0. 0. 0. 0. 0. 0.</_>
    <_>
      4.43314404e+03 3.90608350e+03 1.84071045e+03 1.05536720e+02 1802.
      2.81684235e+02 1.18908582e+03 1.81479028e+03 2.80507104e+03
      6.90323486e+02 0. 0. 1.97134570e+03 0. 1.65958362e+03
      5.53398621e+02 0. 0. 0. 0. 0. 0. 0. 0. 0. 0. 0. 0. 0. 0. 0. 0. 0.
      0. 0. 0. 0. 0. 0. 0. 0. 0. 0. 0. 0. 0. 0. 0. 0. 0. 0. 0. 0. 0. 0.
      0. 0. 0. 0. 0. 0. 0. 0. 0.</_>
    <_>
      2.42478711e+03 0. 7.50851501e+02 4.07001221e+02 7.03253125e+03
      6.35348694e+02 7.78394531e+02 1.65210034e+03 944. 2.11736377e+03
      1.73851685e+03 1.49244568e+03 5800. 1.46696960e+02 5.82656006e+02
      5.45310913e+02 0. 0. 0. 0. 0. 0. 0. 0. 0. 0. 0. 0. 0. 0. 0. 0. 0.
      0. 0. 0. 0. 0. 0. 0. 0. 0. 0. 0. 0. 0. 0. 0. 0. 0. 0. 0. 0. 0. 0.
      0. 0. 0. 0. 0. 0. 0. 0. 0.</_>
    <_>
      1.80112524e+03 0. 2.89927582e+02 1.79725891e+03 5.79567285e+03 0.
      8.02829285e+02 1.48742969e+03 1.86031885e+03 5.95583313e+02
      6.40694946e+02 1.34170312e+03 4.59433350e+03 1.41710999e+03 0.
      2.13852612e+03 0. 0. 0. 0. 0. 0. 0. 0. 0. 0. 0. 0. 0. 0. 0. 0. 0.
      0. 0. 0. 0. 0. 0. 0. 0. 0. 0. 0. 0. 0. 0. 0. 0. 0. 0. 0. 0. 0. 0.
      0. 0. 0. 0. 0. 0. 0. 0. 0.</_>
    <_>
      5.60680566e+03 2.90286548e+03 2.57005829e+02 0. 0. 0. 0.
      4.20868164e+02 5.31507227e+03 3.59623267e+03 1.79575220e+03
      3.85323242e+02 4.91743506e+03 1.05711768e+03 0. 0. 0. 0. 0. 0. 0.
      0. 0. 0. 0. 0. 0. 0. 0. 0. 0. 0. 0. 0. 0. 0. 0. 0. 0. 0. 0. 0. 0.
      0. 0. 0. 0. 0. 0. 0. 0. 0. 0. 0. 0. 0. 0. 0. 0. 0. 0. 0. 0. 0.</_>
    <_>
      1.29026599e+03 0. 1.47457996e+03 1.37186609e+03 4.85986621e+03
      1.47457996e+03 0. 1.11826599e+03 1.39639917e+03 1.37593597e+02
      4.69160950e+02 2.74569385e+03 5.21769385e+03 4.69160950e+02
      1.37593597e+02 1.22439917e+03 0. 0. 0. 0. 0. 0. 0. 0. 0. 0. 0. 0.
      0. 0. 0. 0. 0. 0. 0. 0. 0. 0. 0. 0. 0. 0. 0. 0. 0. 0. 0. 0. 0. 0.
      0. 0. 0. 0. 0. 0. 0. 0. 0. 0. 0. 0. 0. 0.</_>
    <_>
      1.86031885e+03 5.95583313e+02 6.40694946e+02 1.34170312e+03
      4.59433350e+03 1.41710999e+03 0. 2.13852612e+03 1.80112524e+03 0.
      2.89927582e+02 1.79725891e+03 5.79567285e+03 0. 8.02829285e+02
      1.48742969e+03 0. 0. 0. 0. 0. 0. 0. 0. 0. 0. 0. 0. 0. 0. 0. 0. 0.
      0. 0. 0. 0. 0. 0. 0. 0. 0. 0. 0. 0. 0. 0. 0. 0. 0. 0. 0. 0. 0. 0.
      0. 0. 0. 0. 0. 0. 0. 0. 0.</_>
    <_>
      3.17942407e+03 7.14382751e+02 3.86657471e+02 1.15054297e+03
      3.13854297e+03 3.86657471e+02 7.14382751e+02 2.08742407e+03
      3.17942407e+03 7.14382751e+02 3.86657471e+02 1.15054297e+03
      3.13854297e+03 3.86657471e+02 7.14382751e+02 2.08742407e+03 0. 0.
      0. 0. 0. 0. 0. 0. 0. 0. 0. 0. 0. 0. 0. 0. 0. 0. 0. 0. 0. 0. 0. 0.
      0. 0. 0. 0. 0. 0. 0. 0. 0. 0. 0. 0. 0. 0. 0. 0. 0. 0. 0. 0. 0. 0.
      0. 0.</_>
    <_>
      1276. 2.01012744e+03 6.63887024e+02 2.20744434e+03 4.91885986e+03
      8.96109375e+02 2.01853125e+03 7.17641724e+02 2.28459619e+03
      1.00506372e+03 0. 2.00201465e+03 5.08962451e+03 1.74227832e+03
      2.71594067e+03 0. 0. 0. 0. 0. 0. 0. 0. 0. 0. 0. 0. 0. 0. 0. 0. 0.
      0. 0. 0. 0. 0. 0. 0. 0. 0. 0. 0. 0. 0. 0. 0. 0. 0. 0. 0. 0. 0. 0.
      0. 0. 0. 0. 0. 0. 0. 0. 0. 0.</_>
    <_>
      2.21609082e+03 1.21004321e+03 1.42511792e+03 2.72000024e+03
      3.65677954e+03 7.09378601e+02 1.11961816e+03 2.35440018e+02
      3.39825903e+03 1.10088904e+03 1.63734033e+03 0. 4.25047656e+03
      2.27086719e+03 4.39351074e+02 1.70268970e+03 0. 0. 0. 0. 0. 0. 0.
      0. 0. 0. 0. 0. 0. 0. 0. 0. 0. 0. 0. 0. 0. 0. 0. 0. 0. 0. 0. 0. 0.
      0. 0. 0. 0. 0. 0. 0. 0. 0. 0. 0. 0. 0. 0. 0. 0. 0. 0. 0.</_>
    <_>
      2.71657202e+03 1.71458179e+03 0. 1.01944312e+03 2794.
      2.53357642e+03 1.19166907e+03 1.48542651e+03 2.53816284e+03
      2.11019141e+03 2.29844067e+03 0. 4.09186792e+03 7.32280090e+02
      1.34026611e+03 2.59780054e+03 0. 0. 0. 0. 0. 0. 0. 0. 0. 0. 0. 0.
      0. 0. 0. 0. 0. 0. 0. 0. 0. 0. 0. 0. 0. 0. 0. 0. 0. 0. 0. 0. 0. 0.
      0. 0. 0. 0. 0. 0. 0. 0. 0. 0. 0. 0. 0. 0.</_>
    <_>
      7.38893750e+03 0. 1.06780017e+03 0. 3.06424365e+03 9.40376526e+02
      2.96450610e+03 1.62830554e+03 3.85230542e+03 2.96450610e+03
      9.40376526e+02 7.92243652e+02 2272. 1.06780017e+03 0.
      1.42093750e+03 0. 0. 0. 0. 0. 0. 0. 0. 0. 0. 0. 0. 0. 0. 0. 0. 0.
      0. 0. 0. 0. 0. 0. 0. 0. 0. 0. 0. 0. 0. 0. 0. 0. 0. 0. 0. 0. 0. 0.
      0. 0. 0. 0. 0. 0. 0. 0. 0.</_>
    <_>
      3.37006665e+03 3.44095117e+03 1.35642981e+03 0. 2280.
      1.35642981e+03 3.44095117e+03 9.06066589e+02 3.37006665e+03
      3.44095117e+03 1.35642981e+03 0. 2280. 1.35642981e+03
      3.44095117e+03 9.06066589e+02 0. 0. 0. 0. 0. 0. 0. 0. 0. 0. 0. 0.
      0. 0. 0. 0. 0. 0. 0. 0. 0. 0. 0. 0. 0. 0. 0. 0. 0. 0. 0. 0. 0. 0.
      0. 0. 0. 0. 0. 0. 0. 0. 0. 0. 0. 0. 0. 0.</_>
    <_>
      0. 0. 0. 0. 16320. 0. 0. 0. 0. 0. 0. 0. 16320. 0. 0. 0. 0. 0. 0.
      0. 0. 0. 0. 0. 0. 0. 0. 0. 0. 0. 0. 0. 0. 0. 0. 0. 0. 0. 0. 0. 0.
      0. 0. 0. 0. 0. 0. 0. 0. 0. 0. 0. 0. 0. 0. 0. 0. 0. 0. 0. 0. 0. 0.
      0.</_>
    <_>
      3.37683521e+03 7.76284729e+02 1.20324438e+03 1.19045520e+03
      5.01000879e+03 2.53186865e+03 3.21126129e+02 1.35634863e+03
      3.03095312e+03 4.52835510e+02 2.59251099e+03 2.48173193e+03
      3.53450903e+03 6.46914185e+02 0. 2.22040015e+03 0. 0. 0. 0. 0. 0.
      0. 0. 0. 0. 0. 0. 0. 0. 0. 0. 0. 0. 0. 0. 0. 0. 0. 0. 0. 0. 0. 0.
      0. 0. 0. 0. 0. 0. 0. 0. 0. 0. 0. 0. 0. 0. 0. 0. 0. 0. 0. 0.</_>
    <_>
      4.41955029e+03 1.35519690e+03 6.21514282e+02 1.49805640e+03
      4.20001318e+03 0. 1.20251038e+03 1.53394913e+02 3.63300269e+03
      1.29845972e+03 7.13741089e+02 2.26073999e+03 4.36402979e+03
      1.11086792e+03 1.61542920e+03 1.41143091e+03 0. 0. 0. 0. 0. 0. 0.
      0. 0. 0. 0. 0. 0. 0. 0. 0. 0. 0. 0. 0. 0. 0. 0. 0. 0. 0. 0. 0. 0.
      0. 0. 0. 0. 0. 0. 0. 0. 0. 0. 0. 0. 0. 0. 0. 0. 0. 0. 0.</_>
    <_>
      4792. 1.55256946e+03 1.80445886e+03 9.01346313e+02 4.47296045e+03
      2.53186865e+03 3.21126129e+02 0. 2218. 2.88617401e+02
      1.80513770e+03 1.11372620e+03 4.35670020e+03 2.02068555e+03
      1.96385522e+03 2.26106171e+02 0. 0. 0. 0. 0. 0. 0. 0. 0. 0. 0. 0.
      0. 0. 0. 0. 0. 0. 0. 0. 0. 0. 0. 0. 0. 0. 0. 0. 0. 0. 0. 0. 0. 0.
      0. 0. 0. 0. 0. 0. 0. 0. 0. 0. 0. 0. 0. 0.</_>
    <_>
      7.02008008e+03 9.41387268e+02 0. 8.61895569e+02 2.64589551e+03 0.
      9.41387268e+02 6.63608398e+03 7.26800830e+03 0. 0. 0. 764.
      6.61254883e+02 1.20893677e+03 3.68029614e+03 0. 0. 0. 0. 0. 0. 0.
      0. 0. 0. 0. 0. 0. 0. 0. 0. 0. 0. 0. 0. 0. 0. 0. 0. 0. 0. 0. 0. 0.
      0. 0. 0. 0. 0. 0. 0. 0. 0. 0. 0. 0. 0. 0. 0. 0. 0. 0. 0.</_>
    <_>
      2.90539380e+03 2.44131250e+03 9.92380981e+02 1.49805640e+03
      4.28471289e+03 0. 1.20251038e+03 1.53394913e+02 3.63300269e+03
      1.29845972e+03 0. 2.79125879e+03 4.19215234e+03 1.96781140e+03
      2.12626733e+03 7.47830200e+02 0. 0. 0. 0. 0. 0. 0. 0. 0. 0. 0. 0.
      0. 0. 0. 0. 0. 0. 0. 0. 0. 0. 0. 0. 0. 0. 0. 0. 0. 0. 0. 0. 0. 0.
      0. 0. 0. 0. 0. 0. 0. 0. 0. 0. 0. 0. 0. 0.</_>
    <_>
      2.47175366e+03 3.29365845e+03 2.82213110e+03 2.72158936e+03
      4.13862402e+03 4.21984741e+02 0. 6.86115234e+02 1734.
      1.62244434e+03 3.70951270e+03 2.11414136e+03 3.63801562e+03
      9.02229431e+02 7.76284729e+02 3.82334930e+02 0. 0. 0. 0. 0. 0. 0.
      0. 0. 0. 0. 0. 0. 0. 0. 0. 0. 0. 0. 0. 0. 0. 0. 0. 0. 0. 0. 0. 0.
      0. 0. 0. 0. 0. 0. 0. 0. 0. 0. 0. 0. 0. 0. 0. 0. 0. 0. 0.</_>
    <_>
      1.89886255e+03 2.51435278e+03 1.00854041e+03 1.71835266e+03
      4.89835254e+03 1.00854041e+03 2.51435278e+03 4.54862610e+02
      2.85041089e+03 1.61591309e+03 2.16113306e+03 8.59176331e+02
      4.03917627e+03 2.16113306e+03 1.61591309e+03 1.40641089e+03 0. 0.
      0. 0. 0. 0. 0. 0. 0. 0. 0. 0. 0. 0. 0. 0. 0. 0. 0. 0. 0. 0. 0. 0.
      0. 0. 0. 0. 0. 0. 0. 0. 0. 0. 0. 0. 0. 0. 0. 0. 0. 0. 0. 0. 0. 0.
      0. 0.</_>
    <_>
      4.63733496e+03 8.98439758e+02 7.79254395e+02 1.15771216e+03 3232.
      2.42939380e+03 1.17441125e+03 1.64206836e+03 2.88548242e+03
      9.67323120e+02 1.32328687e+03 3.18449371e+02 3.07228613e+03
      9.51242981e+02 3.58736664e+02 1.88969153e+03 0. 0. 0. 0. 0. 0. 0.
      0. 0. 0. 0. 0. 0. 0. 0. 0. 0. 0. 0. 0. 0. 0. 0. 0. 0. 0. 0. 0. 0.
      0. 0. 0. 0. 0. 0. 0. 0. 0. 0. 0. 0. 0. 0. 0. 0. 0. 0. 0.</_>
    <_>
      5.04654639e+03 8.95911133e+02 0. 1.49707251e+03 4.18907227e+03 0.
      8.95911133e+02 3.44254639e+03 5.04654639e+03 8.95911133e+02 0.
      1.49707251e+03 4.18907227e+03 0. 8.95911133e+02 3.44254639e+03 0.
      0. 0. 0. 0. 0. 0. 0. 0. 0. 0. 0. 0. 0. 0. 0. 0. 0. 0. 0. 0. 0. 0.
      0. 0. 0. 0. 0. 0. 0. 0. 0. 0. 0. 0. 0. 0. 0. 0. 0. 0. 0. 0. 0. 0.
      0. 0. 0.</_>
    <_>
      1.75633008e+03 1.96575684e+02 0. 1.85963416e+03 7.44363428e+03 0.
      1.96575684e+02 1.40433008e+03 1.59495850e+03 9.33594604e+02
      7.94010071e+02 1.68985107e+03 5.48985107e+03 7.94010071e+02
      9.33594604e+02 1.24295850e+03 0. 0. 0. 0. 0. 0. 0. 0. 0. 0. 0. 0.
      0. 0. 0. 0. 0. 0. 0. 0. 0. 0. 0. 0. 0. 0. 0. 0. 0. 0. 0. 0. 0. 0.
      0. 0. 0. 0. 0. 0. 0. 0. 0. 0. 0. 0. 0. 0.</_>
    <_>
      3.53296899e+03 0. 0. 7.55534241e+02 4.53419287e+03 8.46794434e+02
      2.05409814e+03 7.61289673e+02 1.31291455e+03 2.16930518e+03
      6.10552246e+02 6.28806152e+02 3.02958398e+03 2.71846069e+02 0.
      1.32766406e+03 0. 0. 0. 0. 0. 0. 0. 0. 0. 0. 0. 0. 0. 0. 0. 0. 0.
      0. 0. 0. 0. 0. 0. 0. 0. 0. 0. 0. 0. 0. 0. 0. 0. 0. 0. 0. 0. 0. 0.
      0. 0. 0. 0. 0. 0. 0. 0. 0.</_>
    <_>
      7.18809619e+03 7.45524414e+02 1.26017224e+03 0. 0. 0.
      2.78172607e+02 0. 5.44792627e+03 1.65974292e+03 9.03958008e+02
      2.92572681e+03 3.88598047e+03 6.47000793e+02 3.47968384e+02 0. 0.
      0. 0. 0. 0. 0. 0. 0. 0. 0. 0. 0. 0. 0. 0. 0. 0. 0. 0. 0. 0. 0. 0.
      0. 0. 0. 0. 0. 0. 0. 0. 0. 0. 0. 0. 0. 0. 0. 0. 0. 0. 0. 0. 0. 0.
      0. 0. 0.</_>
    <_>
      2.14676587e+03 1.65995288e+03 7.25196899e+02 1.99086597e+03
      3.96423389e+03 0. 0. 5.44683411e+02 2.94344824e+03 1.96575684e+02
      0. 2.71623779e+03 4.47582520e+03 1.32926331e+03 1.45622693e+03
      6.79924988e+02 0. 0. 0. 0. 0. 0. 0. 0. 0. 0. 0. 0. 0. 0. 0. 0. 0.
      0. 0. 0. 0. 0. 0. 0. 0. 0. 0. 0. 0. 0. 0. 0. 0. 0. 0. 0. 0. 0. 0.
      0. 0. 0. 0. 0. 0. 0. 0. 0.</_>
    <_>
      2.94229297e+03 6.26894287e+02 7.25196899e+02 7.76134033e+02
      2.58013403e+03 7.25196899e+02 6.26894287e+02 2.16229297e+03
      2.94229297e+03 6.26894287e+02 7.25196899e+02 7.76134033e+02
      2.58013403e+03 7.25196899e+02 6.26894287e+02 2.16229297e+03 0. 0.
      0. 0. 0. 0. 0. 0. 0. 0. 0. 0. 0. 0. 0. 0. 0. 0. 0. 0. 0. 0. 0. 0.
      0. 0. 0. 0. 0. 0. 0. 0. 0. 0. 0. 0. 0. 0. 0. 0. 0. 0. 0. 0. 0. 0.
      0. 0.</_>
    <_>
      3.34205469e+03 1.26121191e+03 5.44987183e+02 9.13898254e+02
      5.22929150e+03 1.05926367e+03 1.32053918e+03 4.30743530e+02
      2.96587109e+03 1.47210132e+03 1.50027966e+03 6.50246094e+02
      4.17468213e+03 7.94074280e+02 3.41505493e+02 2.90104565e+03 0. 0.
      0. 0. 0. 0. 0. 0. 0. 0. 0. 0. 0. 0. 0. 0. 0. 0. 0. 0. 0. 0. 0. 0.
      0. 0. 0. 0. 0. 0. 0. 0. 0. 0. 0. 0. 0. 0. 0. 0. 0. 0. 0. 0. 0. 0.
      0. 0.</_>
    <_>
      4.62236426e+03 7.65324768e+02 1.87228210e+03 6.91809235e+01
      5.01565479e+03 1.33614392e+03 2.20102686e+03 0. 1948.
      6.46623535e+02 1.19120056e+03 1.45077271e+03 5.07488965e+03
      6.92342407e+02 1.21897302e+03 1.99474805e+03 0. 0. 0. 0. 0. 0. 0.
      0. 0. 0. 0. 0. 0. 0. 0. 0. 0. 0. 0. 0. 0. 0. 0. 0. 0. 0. 0. 0. 0.
      0. 0. 0. 0. 0. 0. 0. 0. 0. 0. 0. 0. 0. 0. 0. 0. 0. 0. 0.</_>
    <_>
      7.51832471e+03 340. 1.28667664e+03 8.82281128e+02 3.85428125e+03
      1.28667664e+03 340. 1.33032471e+03 7.51832471e+03 340.
      1.28667664e+03 8.82281128e+02 3.85428125e+03 1.28667664e+03 340.
      1.33032471e+03 0. 0. 0. 0. 0. 0. 0. 0. 0. 0. 0. 0. 0. 0. 0. 0. 0.
      0. 0. 0. 0. 0. 0. 0. 0. 0. 0. 0. 0. 0. 0. 0. 0. 0. 0. 0. 0. 0. 0.
      0. 0. 0. 0. 0. 0. 0. 0. 0.</_></uncompressed_support_vectors>
  <decision_functions>
    <_>
      <sv_count>1</sv_count>
      <rho>-1.7656252517126983e-01</rho>
      <alpha>
        1.</alpha>
      <index>
        0</index></_>
    <_>
      <sv_count>1</sv_count>
      <rho>-9.5012997202784988e-01</rho>
      <alpha>
        1.</alpha>
      <index>
        1</index></_>
    <_>
      <sv_count>1</sv_count>
      <rho>-1.2544849365797448e+00</rho>
      <alpha>
        1.</alpha>
      <index>
        2</index></_>
    <_>
      <sv_count>1</sv_count>
      <rho>-4.7608201566311709e-01</rho>
      <alpha>
        1.</alpha>
      <index>
        3</index></_>
    <_>
      <sv_count>1</sv_count>
      <rho>-1.6655368233109076e+00</rho>
      <alpha>
        1.</alpha>
      <index>
        4</index></_>
    <_>
      <sv_count>1</sv_count>
      <rho>-1.2185152857552448e+00</rho>
      <alpha>
        1.</alpha>
      <index>
        5</index></_>
    <_>
      <sv_count>1</sv_count>
      <rho>-7.6209050244132076e-02</rho>
      <alpha>
        1.</alpha>
      <index>
        6</index></_>
    <_>
      <sv_count>1</sv_count>
      <rho>-1.9144337058574754e+00</rho>
      <alpha>
        1.</alpha>
      <index>
        7</index></_>
    <_>
      <sv_count>1</sv_count>
      <rho>-2.7288510595422970e+00</rho>
      <alpha>
        1.</alpha>
      <index>
        8</index></_>
    <_>
      <sv_count>1</sv_count>
      <rho>-1.1681139181057547e+00</rho>
      <alpha>
        1.</alpha>
      <index>
        9</index></_>
    <_>
      <sv_count>1</sv_count>
      <rho>3.6033867128302166e-01</rho>
      <alpha>
        1.</alpha>
      <index>
        10</index></_>
    <_>
      <sv_count>1</sv_count>
      <rho>5.9114234884259897e-01</rho>
      <alpha>
        1.</alpha>
      <index>
        11</index></_>
    <_>
      <sv_count>1</sv_count>
      <rho>9.9628220606671958e-01</rho>
      <alpha>
        1.</alpha>
      <index>
        12</index></_>
    <_>
      <sv_count>1</sv_count>
      <rho>7.8055990678132825e-01</rho>
      <alpha>
        1.</alpha>
      <index>
        13</index></_>
    <_>
      <sv_count>1</sv_count>
      <rho>1.4341096348727145e+00</rho>
      <alpha>
        1.</alpha>
      <index>
        14</index></_>
    <_>
      <sv_count>1</sv_count>
      <rho>2.0013929881988010e-01</rho>
      <alpha>
        1.</alpha>
      <index>
        15</index></_>
    <_>
      <sv_count>1</sv_count>
      <rho>9.1289015397556694e-01</rho>
      <alpha>
        1.</alpha>
      <index>
        16</index></_>
    <_>
      <sv_count>1</sv_count>
      <rho>1.1756793163290589e+00</rho>
      <alpha>
        1.</alpha>
      <index>
        17</index></_>
    <_>
      <sv_count>1</sv_count>
      <rho>-7.6028599166545796e-01</rho>
      <alpha>
        1.</alpha>
      <index>
        18</index></_>
    <_>
      <sv_count>1</sv_count>
      <rho>8.2663053573539713e-01</rho>
      <alpha>
        1.</alpha>
      <index>
        19</index></_>
    <_>
      <sv_count>1</sv_count>
      <rho>6.0517219687733248e-01</rho>
      <alpha>
        1.</alpha>
      <index>
        20</index></_>
    <_>
      <sv_count>1</sv_count>
      <rho>-2.7634434770410249e-01</rho>
      <alpha>
        1.</alpha>
      <index>
        21</index></_>
    <_>
      <sv_count>1</sv_count>
      <rho>1.0377243063636161e+00</rho>
      <alpha>
        1.</alpha>
      <index>
        22</index></_>
    <_>
      <sv_count>1</sv_count>
      <rho>-2.7242124013657315e-01</rho>
      <alpha>
        1.</alpha>
      <index>
        23</index></_>
    <_>
      <sv_count>1</sv_count>
      <rho>1.4434190121583830e+00</rho>
      <alpha>
        1.</alpha>
      <index>
        24</index></_>
    <_>
      <sv_count>1</sv_count>
      <rho>7.1856532194745271e-01</rho>
      <alpha>
        1.</alpha>
      <index>
        25</index></_>
    <_>
      <sv_count>1</sv_count>
      <rho>-1.6448524861586353e+00</rho>
      <alpha>
        1.</alpha>
      <index>
        26</index></_>
    <_>
      <sv_count>1</sv_count>
      <rho>5.6853544216779883e-01</rho>
      <alpha>
        1.</alpha>
      <index>
        27</index></_>
    <_>
      <sv_count>1</sv_count>
      <rho>-5.7415764635304944e-01</rho>
      <alpha>
        1.</alpha>
      <index>
        28</index></_>
    <_>
      <sv_count>1</sv_count>
      <rho>1.4740630801316277e+00</rho>
      <alpha>
        1.</alpha>
      <index>
        29</index></_>
    <_>
      <sv_count>1</sv_count>
      <rho>-2.9549320461998307e-01</rho>
      <alpha>
        1.</alpha>
      <index>
        30</index></_>
    <_>
      <sv_count>1</sv_count>
      <rho>2.5864259608707640e-01</rho>
      <alpha>
        1.</alpha>
      <index>
        31</index></_>
    <_>
      <sv_count>1</sv_count>
      <rho>2.1715411772916890e-01</rho>
      <alpha>
        1.</alpha>
      <index>
        32</index></_>
    <_>
      <sv_count>1</sv_count>
      <rho>-1.7043308387189420e+00</rho>
      <alpha>
        1.</alpha>
      <index>
        33</index></_>
    <_>
      <sv_count>1</sv_count>
      <rho>-3.9363253270669696e-01</rho>
      <alpha>
        1.</alpha>
      <index>
        34</index></_>
    <_>
      <sv_count>1</sv_count>
      <rho>5.2112615428474907e-01</rho>
      <alpha>
        1.</alpha>
      <index>
        35</index></_>
    <_>
      <sv_count>1</sv_count>
      <rho>-4.7933305155812478e-01</rho>
      <alpha>
        1.</alpha>
      <index>
        36</index></_>
    <_>
      <sv_count>1</sv_count>
      <rho>-3.4091904988828764e-01</rho>
      <alpha>
        1.</alpha>
      <index>
        37</index></_>
    <_>
      <sv_count>1</sv_count>
      <rho>-3.1760906580158677e-01</rho>
      <alpha>
        1.</alpha>
      <index>
        38</index></_>
    <_>
      <sv_count>1</sv_count>
      <rho>-9.9108435994825805e-01</rho>
      <alpha>
        1.</alpha>
      <index>
        39</index></_>
    <_>
      <sv_count>1</sv_count>
      <rho>2.2842374882760952e+00</rho>
      <alpha>
        1.</alpha>
      <index>
        40</index></_>
    <_>
      <sv_count>1</sv_count>
      <rho>-4.3989059322408447e-01</rho>
      <alpha>
        1.</alpha>
      <index>
        41</index></_>
    <_>
      <sv_count>1</sv_count>
      <rho>2.0505956604374611e+00</rho>
      <alpha>
        1.</alpha>
      <index>
        42</index></_>
    <_>
      <sv_count>1</sv_count>
      <rho>1.1143963932978362e+00</rho>
      <alpha>
        1.</alpha>
      <index>
        43</index></_>
    <_>
      <sv_count>1</sv_count>
      <rho>-1.9580960695376071e+00</rho>
      <alpha>
        1.</alpha>
      <index>
        44</index></_>
    <_>
      <sv_count>1</sv_count>
      <rho>-9.1410482133695359e-01</rho>
      <alpha>
        1.</alpha>
      <index>
        45</index></_>
    <_>
      <sv_count>1</sv_count>
      <rho>-2.4065011136416117e+00</rho>
      <alpha>
        1.</alpha>
      <index>
        46</index></_>
    <_>
      <sv_count>1</sv_count>
      <rho>-1.5863983347051540e+00</rho>
      <alpha>
        1.</alpha>
      <index>
        47</index></_>
    <_>
      <sv_count>1</sv_count>
      <rho>-1.6870340433751081e+00</rho>
      <alpha>
        1.</alpha>
      <index>
        48</index></_>
    <_>
      <sv_count>1</sv_count>
      <rho>7.6780092371645658e-01</rho>
      <alpha>
        1.</alpha>
      <index>
        49</index></_>
    <_>
      <sv_count>1</sv_count>
      <rho>6.7657187508602945e-01</rho>
      <alpha>
        1.</alpha>
      <index>
        50</index></_>
    <_>
      <sv_count>1</sv_count>
      <rho>-8.7676505906708979e-01</rho>
      <alpha>
        1.</alpha>
      <index>
        51</index></_>
    <_>
      <sv_count>1</sv_count>
      <rho>-2.9300775522207729e+00</rho>
      <alpha>
        1.</alpha>
      <index>
        52</index></_>
    <_>
      <sv_count>1</sv_count>
      <rho>-1.9969805716348457e+00</rho>
      <alpha>
        1.</alpha>
      <index>
        53</index></_>
    <_>
      <sv_count>1</sv_count>
      <rho>-1.6870340244110975e+00</rho>
      <alpha>
        1.</alpha>
      <index>
        54</index></_></decision_functions></opencv_ml_svm>
</opencv_storage>
