<?xml version="1.0"?>
<opencv_storage>
<opencv_ml_svm>
  <format>3</format>
  <svmType>C_SVC</svmType>
  <kernel>
    <type>LINEAR</type></kernel>
  <C>2.6699999999999999e+00</C>
  <term_criteria><epsilon>1.1920928955078125e-07</epsilon>
    <iterations>1000</iterations></term_criteria>
  <var_count>64</var_count>
  <class_count>11</class_count>
  <class_labels type_id="opencv-matrix">
    <rows>11</rows>
    <cols>1</cols>
    <dt>i</dt>
    <data>
      0 1 2 3 4 5 6 7 8 9 11</data></class_labels>
  <sv_total>55</sv_total>
  <support_vectors>
    <_>
      1.21158606e-04 -2.87252024e-05 7.74734435e-05 -1.38832575e-05
      1.19517710e-04 7.74734435e-05 -2.87252024e-05 -4.73292239e-05
      -3.00489948e-04 7.64896613e-05 1.76115893e-04 1.18003263e-04
      3.10949923e-04 5.22292758e-05 -2.65860144e-05 -5.21854190e-06 0.
      0. 0. 0. 0. 0. 0. 0. 0. 0. 0. 0. 0. 0. 0. 0. 0. 0. 0. 0. 0. 0. 0.
      0. 0. 0. 0. 0. 0. 0. 0. 0. 0. 0. 0. 0. 0. 0. 0. 0. 0. 0. 0. 0. 0.
      0. 0. 0.</_>
    <_>
      7.11155735e-05 -7.15818533e-05 -1.57212882e-04 -1.06343068e-04
      -1.15579023e-04 9.35457683e-06 8.21327776e-05 8.74821344e-05
      1.03289713e-04 -1.18274083e-05 -1.53153611e-04 -6.63217943e-05
      -6.64876570e-05 -2.48078086e-05 4.89548183e-05 8.37165135e-05 0.
      0. 0. 0. 0. 0. 0. 0. 0. 0. 0. 0. 0. 0. 0. 0. 0. 0. 0. 0. 0. 0. 0.
      0. 0. 0. 0. 0. 0. 0. 0. 0. 0. 0. 0. 0. 0. 0. 0. 0. 0. 0. 0. 0. 0.
      0. 0. 0.</_>
    <_>
      -4.71953608e-05 2.50362464e-05 -1.23595542e-04 4.27056548e-05
      -2.06011406e-04 -1.09110872e-04 -2.15280170e-06 1.92390740e-04
      2.38658802e-04 9.57451412e-05 -6.22614389e-05 -5.11148137e-05
      -2.08356621e-04 -5.53872960e-05 -3.32037416e-05 5.73907018e-05 0.
      0. 0. 0. 0. 0. 0. 0. 0. 0. 0. 0. 0. 0. 0. 0. 0. 0. 0. 0. 0. 0. 0.
      0. 0. 0. 0. 0. 0. 0. 0. 0. 0. 0. 0. 0. 0. 0. 0. 0. 0. 0. 0. 0. 0.
      0. 0. 0.</_>
    <_>
      -2.79128260e-04 -4.66447818e-04 -2.43583214e-04 -1.80558462e-04
      2.20076385e-04 2.23718715e-04 -8.94384648e-05 -9.84765065e-05
      1.48600593e-04 3.52033239e-04 -1.73961715e-04 9.95841692e-05
      1.29659427e-04 2.67084863e-04 1.64376674e-04 -3.11194563e-05 0. 0.
      0. 0. 0. 0. 0. 0. 0. 0. 0. 0. 0. 0. 0. 0. 0. 0. 0. 0. 0. 0. 0. 0.
      0. 0. 0. 0. 0. 0. 0. 0. 0. 0. 0. 0. 0. 0. 0. 0. 0. 0. 0. 0. 0. 0.
      0. 0.</_>
    <_>
      9.94423826e-05 2.16800399e-05 -8.32639998e-05 3.12794618e-05
      -2.97559105e-04 -2.45699252e-04 -3.57455538e-05 3.97868062e-05
      8.96995625e-05 -5.31496539e-07 -2.50669429e-04 -1.93616797e-04
      -1.15610019e-04 1.12227099e-04 4.67272075e-05 1.39572163e-04 0. 0.
      0. 0. 0. 0. 0. 0. 0. 0. 0. 0. 0. 0. 0. 0. 0. 0. 0. 0. 0. 0. 0. 0.
      0. 0. 0. 0. 0. 0. 0. 0. 0. 0. 0. 0. 0. 0. 0. 0. 0. 0. 0. 0. 0. 0.
      0. 0.</_>
    <_>
      1.75689311e-05 -7.85443044e-05 -7.16550931e-05 -2.20049973e-04
      -5.26380201e-04 -5.42963855e-04 -1.70326039e-05 2.16729648e-04
      3.50669259e-04 -2.37827717e-05 -3.63742205e-04 2.49271485e-04
      -2.95561593e-04 -6.46973131e-05 2.30310790e-04 -1.88593811e-04 0.
      0. 0. 0. 0. 0. 0. 0. 0. 0. 0. 0. 0. 0. 0. 0. 0. 0. 0. 0. 0. 0. 0.
      0. 0. 0. 0. 0. 0. 0. 0. 0. 0. 0. 0. 0. 0. 0. 0. 0. 0. 0. 0. 0. 0.
      0. 0. 0.</_>
    <_>
      -3.11327130e-05 -5.18519118e-05 2.58251657e-05 4.76746609e-05
      2.99063162e-04 1.06353218e-04 1.21310557e-04 1.08065382e-04
      -8.97752489e-06 -8.37054467e-05 5.66005201e-06 -1.30708664e-04
      -9.48501474e-05 4.92918916e-05 6.25838074e-05 8.30960344e-05 0. 0.
      0. 0. 0. 0. 0. 0. 0. 0. 0. 0. 0. 0. 0. 0. 0. 0. 0. 0. 0. 0. 0. 0.
      0. 0. 0. 0. 0. 0. 0. 0. 0. 0. 0. 0. 0. 0. 0. 0. 0. 0. 0. 0. 0. 0.
      0. 0.</_>
    <_>
      3.14780831e-04 -1.73871900e-04 -7.04810518e-05 -8.71745433e-05
      -2.26176606e-04 -7.04810518e-05 -1.73871900e-04 2.37140193e-04
      1.45615661e-04 2.91475294e-06 1.03947408e-04 -3.61459155e-04
      -5.00461203e-04 1.03947408e-04 2.91475294e-06 6.79749646e-05 0. 0.
      0. 0. 0. 0. 0. 0. 0. 0. 0. 0. 0. 0. 0. 0. 0. 0. 0. 0. 0. 0. 0. 0.
      0. 0. 0. 0. 0. 0. 0. 0. 0. 0. 0. 0. 0. 0. 0. 0. 0. 0. 0. 0. 0. 0.
      0. 0.</_>
    <_>
      -2.06156808e-04 -4.35960537e-05 -2.51928956e-04 6.76150407e-08
      -2.66018353e-04 6.74487164e-05 1.46843537e-04 4.59283001e-05
      4.21565928e-04 1.68285696e-05 -2.06288838e-04 -3.73633520e-04
      -5.36689069e-04 1.16153162e-04 -2.89553951e-04 3.19431711e-04 0.
      0. 0. 0. 0. 0. 0. 0. 0. 0. 0. 0. 0. 0. 0. 0. 0. 0. 0. 0. 0. 0. 0.
      0. 0. 0. 0. 0. 0. 0. 0. 0. 0. 0. 0. 0. 0. 0. 0. 0. 0. 0. 0. 0. 0.
      0. 0. 0.</_>
    <_>
      2.37459299e-05 4.46856984e-06 6.52330471e-07 7.39413190e-06
      -6.64250547e-05 6.52330471e-07 4.46856984e-06 1.60610853e-05
      2.37459299e-05 4.46856984e-06 6.52330471e-07 7.39413190e-06
      -6.64250547e-05 6.52330471e-07 4.46856984e-06 1.60610853e-05 0. 0.
      0. 0. 0. 0. 0. 0. 0. 0. 0. 0. 0. 0. 0. 0. 0. 0. 0. 0. 0. 0. 0. 0.
      0. 0. 0. 0. 0. 0. 0. 0. 0. 0. 0. 0. 0. 0. 0. 0. 0. 0. 0. 0. 0. 0.
      0. 0.</_>
    <_>
      5.43252390e-05 -2.26321590e-05 -5.59595064e-05 -3.51239287e-05
      -3.74516349e-05 9.84572944e-06 6.51009850e-06 1.36038707e-05
      1.38241696e-04 -3.29039540e-05 -6.96244606e-05 -4.09904533e-05
      -4.08566739e-05 -5.36466985e-07 -4.42970668e-06 1.77759466e-05 0.
      0. 0. 0. 0. 0. 0. 0. 0. 0. 0. 0. 0. 0. 0. 0. 0. 0. 0. 0. 0. 0. 0.
      0. 0. 0. 0. 0. 0. 0. 0. 0. 0. 0. 0. 0. 0. 0. 0. 0. 0. 0. 0. 0. 0.
      0. 0. 0.</_>
    <_>
      2.96779981e-05 -1.78187693e-05 -2.86715567e-05 6.25248958e-06
      -4.88221413e-05 -4.01926081e-05 -1.81088456e-06 3.10567193e-05
      1.90133011e-04 -1.02609401e-05 -4.52864442e-05 -3.26800982e-05
      -8.15732274e-05 -2.21153405e-05 -3.06828260e-05 1.38915202e-05 0.
      0. 0. 0. 0. 0. 0. 0. 0. 0. 0. 0. 0. 0. 0. 0. 0. 0. 0. 0. 0. 0. 0.
      0. 0. 0. 0. 0. 0. 0. 0. 0. 0. 0. 0. 0. 0. 0. 0. 0. 0. 0. 0. 0. 0.
      0. 0. 0.</_>
    <_>
      -1.58578740e-04 -1.27956999e-04 -1.15209397e-04 1.32713003e-05
      2.69114753e-05 4.65482262e-05 8.44410897e-05 1.05394050e-04
      3.27722984e-04 0. -6.13188895e-05 -1.07774049e-05 -1.31126391e-04
      3.08285453e-05 9.56604199e-05 1.00592379e-05 0. 0. 0. 0. 0. 0. 0.
      0. 0. 0. 0. 0. 0. 0. 0. 0. 0. 0. 0. 0. 0. 0. 0. 0. 0. 0. 0. 0. 0.
      0. 0. 0. 0. 0. 0. 0. 0. 0. 0. 0. 0. 0. 0. 0. 0. 0. 0. 0.</_>
    <_>
      8.62255984e-05 -8.28737029e-06 -1.69479135e-05 1.10936298e-06
      -6.37660269e-05 -5.12326442e-05 -8.71532029e-06 1.76800040e-05
      1.73641936e-04 -2.91522538e-05 -7.21032338e-05 -6.71389425e-05
      -6.68789871e-05 1.73269564e-05 4.27939858e-06 3.83799897e-06 0. 0.
      0. 0. 0. 0. 0. 0. 0. 0. 0. 0. 0. 0. 0. 0. 0. 0. 0. 0. 0. 0. 0. 0.
      0. 0. 0. 0. 0. 0. 0. 0. 0. 0. 0. 0. 0. 0. 0. 0. 0. 0. 0. 0. 0. 0.
      0. 0.</_>
    <_>
      7.05455750e-05 -5.44800332e-06 -1.10813899e-05 -9.99514396e-06
      -2.59413500e-05 -7.36235379e-05 -1.87513906e-05 4.46294725e-05
      2.47258577e-04 -4.56623457e-05 -5.83231194e-05 -1.49076759e-05
      -7.79589900e-05 -4.89222066e-06 1.97457011e-05 -4.82302676e-06 0.
      0. 0. 0. 0. 0. 0. 0. 0. 0. 0. 0. 0. 0. 0. 0. 0. 0. 0. 0. 0. 0. 0.
      0. 0. 0. 0. 0. 0. 0. 0. 0. 0. 0. 0. 0. 0. 0. 0. 0. 0. 0. 0. 0. 0.
      0. 0. 0.</_>
    <_>
      -5.30068864e-05 -3.98935408e-05 -7.86209421e-06 4.52075146e-05
      1.37212031e-04 3.83327169e-05 2.46595573e-05 4.42616547e-05
      1.30294822e-04 -1.37748211e-04 -4.56623311e-05 -1.16373769e-04
      -1.30886023e-04 1.07715459e-05 3.42173662e-05 -2.40669351e-06 0.
      0. 0. 0. 0. 0. 0. 0. 0. 0. 0. 0. 0. 0. 0. 0. 0. 0. 0. 0. 0. 0. 0.
      0. 0. 0. 0. 0. 0. 0. 0. 0. 0. 0. 0. 0. 0. 0. 0. 0. 0. 0. 0. 0. 0.
      0. 0. 0.</_>
    <_>
      9.97651441e-05 -4.49180698e-05 -9.27982001e-06 1.53814128e-07
      -1.73631779e-05 -9.27982001e-06 -4.49180698e-05 2.60313864e-05
      1.70386265e-04 -5.18784836e-05 -1.40665406e-05 -4.72924003e-05
      -7.63831922e-05 8.68786628e-06 -3.08469353e-05 5.81738732e-06 0.
      0. 0. 0. 0. 0. 0. 0. 0. 0. 0. 0. 0. 0. 0. 0. 0. 0. 0. 0. 0. 0. 0.
      0. 0. 0. 0. 0. 0. 0. 0. 0. 0. 0. 0. 0. 0. 0. 0. 0. 0. 0. 0. 0. 0.
      0. 0. 0.</_>
    <_>
      7.10281965e-05 -1.15610655e-05 -3.97266813e-05 8.09840822e-06
      -3.75832278e-05 -1.34031379e-05 9.29639737e-06 1.93930573e-05
      2.24270378e-04 -4.02676815e-05 -5.22569717e-05 -6.11082214e-05
      -1.34854621e-04 2.58906675e-05 -2.70124674e-05 3.59155601e-05 0.
      0. 0. 0. 0. 0. 0. 0. 0. 0. 0. 0. 0. 0. 0. 0. 0. 0. 0. 0. 0. 0. 0.
      0. 0. 0. 0. 0. 0. 0. 0. 0. 0. 0. 0. 0. 0. 0. 0. 0. 0. 0. 0. 0. 0.
      0. 0. 0.</_>
    <_>
      2.11721963e-05 2.65337189e-06 3.22400547e-06 3.60882427e-06
      -5.17338704e-05 3.22400547e-06 2.65337189e-06 1.74748754e-06
      3.63482177e-05 0. 0. 0. -5.61267880e-05 3.24372877e-06
      2.25290341e-06 4.42819146e-06 0. 0. 0. 0. 0. 0. 0. 0. 0. 0. 0. 0.
      0. 0. 0. 0. 0. 0. 0. 0. 0. 0. 0. 0. 0. 0. 0. 0. 0. 0. 0. 0. 0. 0.
      0. 0. 0. 0. 0. 0. 0. 0. 0. 0. 0. 0. 0. 0.</_>
    <_>
      -2.66861054e-04 7.77647801e-05 2.29159647e-04 1.81930838e-04
      1.19824348e-04 -4.42002929e-05 -1.15841300e-04 -2.94922684e-05
      5.67439201e-05 7.12832625e-05 1.57243165e-04 7.18081355e-05
      -5.27445445e-05 -2.39834862e-05 -9.38509038e-05 -2.68575859e-05 0.
      0. 0. 0. 0. 0. 0. 0. 0. 0. 0. 0. 0. 0. 0. 0. 0. 0. 0. 0. 0. 0. 0.
      0. 0. 0. 0. 0. 0. 0. 0. 0. 0. 0. 0. 0. 0. 0. 0. 0. 0. 0. 0. 0. 0.
      0. 0. 0.</_>
    <_>
      -1.13549402e-04 3.77216929e-05 7.84989315e-05 9.04785411e-05
      1.05379826e-04 1.49707630e-05 -6.03392691e-05 -9.17309517e-05
      -8.32345540e-05 7.70014303e-05 1.49149200e-04 8.64596514e-05
      6.51981536e-05 4.94092601e-05 1.18801131e-06 -8.10056081e-05 0. 0.
      0. 0. 0. 0. 0. 0. 0. 0. 0. 0. 0. 0. 0. 0. 0. 0. 0. 0. 0. 0. 0. 0.
      0. 0. 0. 0. 0. 0. 0. 0. 0. 0. 0. 0. 0. 0. 0. 0. 0. 0. 0. 0. 0. 0.
      0. 0.</_>
    <_>
      -1.59899646e-04 1.20654127e-04 3.07419483e-04 2.06920085e-04
      -6.17866681e-05 -1.37893832e-04 -7.14200723e-05 -1.70415340e-04
      -6.79221484e-05 -2.29573311e-06 -5.15098873e-06 -2.89524014e-05
      -3.15222351e-05 8.89632865e-05 -1.27324911e-05 -8.44641909e-05 0.
      0. 0. 0. 0. 0. 0. 0. 0. 0. 0. 0. 0. 0. 0. 0. 0. 0. 0. 0. 0. 0. 0.
      0. 0. 0. 0. 0. 0. 0. 0. 0. 0. 0. 0. 0. 0. 0. 0. 0. 0. 0. 0. 0. 0.
      0. 0. 0.</_>
    <_>
      -5.38080130e-05 8.62373126e-05 3.38667567e-04 1.73747485e-05
      1.20563978e-04 1.59706487e-05 -1.28864296e-04 -9.33670090e-05
      -1.63748176e-04 5.84154513e-05 1.22751604e-04 1.42480843e-04
      8.86153975e-06 -1.01419275e-04 -5.03571255e-06 -1.62805780e-04 0.
      0. 0. 0. 0. 0. 0. 0. 0. 0. 0. 0. 0. 0. 0. 0. 0. 0. 0. 0. 0. 0. 0.
      0. 0. 0. 0. 0. 0. 0. 0. 0. 0. 0. 0. 0. 0. 0. 0. 0. 0. 0. 0. 0. 0.
      0. 0. 0.</_>
    <_>
      -1.04676852e-04 2.54280239e-05 7.11408866e-05 8.22021466e-05
      1.25001883e-04 1.27455132e-05 -1.75679020e-06 1.06694306e-05
      -1.09000772e-04 -4.73859291e-05 6.34348035e-05 3.61729180e-05
      -3.21291191e-05 -2.08812253e-06 2.12491104e-05 1.15479406e-05 0.
      0. 0. 0. 0. 0. 0. 0. 0. 0. 0. 0. 0. 0. 0. 0. 0. 0. 0. 0. 0. 0. 0.
      0. 0. 0. 0. 0. 0. 0. 0. 0. 0. 0. 0. 0. 0. 0. 0. 0. 0. 0. 0. 0. 0.
      0. 0. 0.</_>
    <_>
      1.18484768e-05 5.67954885e-05 4.26224084e-04 1.69422405e-04
      1.22782396e-04 -1.47214480e-04 -1.86335354e-04 -1.43105281e-04
      -1.06345316e-04 1.08728418e-04 1.82593882e-04 -5.09238344e-05
      -5.86702954e-05 -5.24104598e-06 -1.08395856e-04 -1.15321149e-04 0.
      0. 0. 0. 0. 0. 0. 0. 0. 0. 0. 0. 0. 0. 0. 0. 0. 0. 0. 0. 0. 0. 0.
      0. 0. 0. 0. 0. 0. 0. 0. 0. 0. 0. 0. 0. 0. 0. 0. 0. 0. 0. 0. 0. 0.
      0. 0. 0.</_>
    <_>
      -5.21879228e-05 1.65067831e-05 2.73983955e-04 9.24432243e-05
      1.16028270e-04 -1.49539628e-05 -3.41639934e-05 -9.49716341e-05
      -1.26849845e-04 1.00673737e-04 2.35653308e-04 -5.96041864e-05
      -6.55014592e-05 1.41312976e-05 -1.16367140e-04 -4.18240488e-05 0.
      0. 0. 0. 0. 0. 0. 0. 0. 0. 0. 0. 0. 0. 0. 0. 0. 0. 0. 0. 0. 0. 0.
      0. 0. 0. 0. 0. 0. 0. 0. 0. 0. 0. 0. 0. 0. 0. 0. 0. 0. 0. 0. 0. 0.
      0. 0. 0.</_>
    <_>
      9.96636300e-06 4.61601212e-06 2.64709761e-05 1.70014355e-05
      -7.60932890e-05 3.65523192e-06 0. 0. 9.73709757e-06 8.77800539e-06
      1.15001967e-05 1.19883016e-05 -8.59687498e-05 8.51778805e-06 0.
      5.97220787e-06 0. 0. 0. 0. 0. 0. 0. 0. 0. 0. 0. 0. 0. 0. 0. 0. 0.
      0. 0. 0. 0. 0. 0. 0. 0. 0. 0. 0. 0. 0. 0. 0. 0. 0. 0. 0. 0. 0. 0.
      0. 0. 0. 0. 0. 0. 0. 0. 0.</_>
    <_>
      4.27889427e-06 -9.44497733e-05 3.37695128e-05 -4.95435270e-05
      1.80707677e-04 1.16050462e-04 2.07670073e-05 -1.72266256e-04
      -9.70294423e-05 2.90307034e-05 3.19309147e-05 5.58370702e-05
      1.65016652e-04 8.97082500e-05 6.32422307e-05 -5.85429625e-05 0. 0.
      0. 0. 0. 0. 0. 0. 0. 0. 0. 0. 0. 0. 0. 0. 0. 0. 0. 0. 0. 0. 0. 0.
      0. 0. 0. 0. 0. 0. 0. 0. 0. 0. 0. 0. 0. 0. 0. 0. 0. 0. 0. 0. 0. 0.
      0. 0.</_>
    <_>
      2.44995230e-04 -8.39870427e-06 1.57114293e-04 -3.72724717e-05
      -1.69896288e-04 -9.28954832e-05 6.33794043e-05 -2.76426377e-04
      -1.47929590e-04 -1.83730910e-04 -2.76871375e-04 -1.40999677e-04
      8.44548558e-05 2.00128881e-04 1.26262777e-04 3.27183043e-05 0. 0.
      0. 0. 0. 0. 0. 0. 0. 0. 0. 0. 0. 0. 0. 0. 0. 0. 0. 0. 0. 0. 0. 0.
      0. 0. 0. 0. 0. 0. 0. 0. 0. 0. 0. 0. 0. 0. 0. 0. 0. 0. 0. 0. 0. 0.
      0. 0.</_>
    <_>
      2.25443233e-04 -2.33760438e-05 3.39026708e-04 -1.50723776e-04
      -3.44817158e-06 2.65533417e-05 -3.03936904e-05 -2.22036280e-04
      -2.72319943e-04 -1.50882523e-04 -9.24464330e-05 5.59471155e-05
      3.42162850e-04 5.03599113e-05 1.52815337e-04 -1.47207655e-04 0. 0.
      0. 0. 0. 0. 0. 0. 0. 0. 0. 0. 0. 0. 0. 0. 0. 0. 0. 0. 0. 0. 0. 0.
      0. 0. 0. 0. 0. 0. 0. 0. 0. 0. 0. 0. 0. 0. 0. 0. 0. 0. 0. 0. 0. 0.
      0. 0.</_>
    <_>
      -7.25765203e-05 -9.62977538e-06 3.76194148e-05 2.65684976e-05
      1.83055818e-04 8.71447992e-05 2.65539456e-05 -6.42941268e-06
      -1.28819316e-04 -7.99491681e-05 1.53301407e-05 -2.92439599e-05
      1.07525320e-05 3.35675795e-05 6.11332725e-05 2.83370046e-05 0. 0.
      0. 0. 0. 0. 0. 0. 0. 0. 0. 0. 0. 0. 0. 0. 0. 0. 0. 0. 0. 0. 0. 0.
      0. 0. 0. 0. 0. 0. 0. 0. 0. 0. 0. 0. 0. 0. 0. 0. 0. 0. 0. 0. 0. 0.
      0. 0.</_>
    <_>
      4.27472696e-04 -1.83955097e-04 2.16713132e-04 -2.07163408e-04
      -1.89773129e-06 -5.75071681e-05 5.14481872e-05 -1.91986459e-04
      -2.64791190e-04 -6.35258111e-05 -9.52487098e-05 -2.57603708e-04
      3.36037992e-05 1.48951018e-04 3.65922060e-05 -1.13792121e-04 0. 0.
      0. 0. 0. 0. 0. 0. 0. 0. 0. 0. 0. 0. 0. 0. 0. 0. 0. 0. 0. 0. 0. 0.
      0. 0. 0. 0. 0. 0. 0. 0. 0. 0. 0. 0. 0. 0. 0. 0. 0. 0. 0. 0. 0. 0.
      0. 0.</_>
    <_>
      1.54806854e-04 -1.22059704e-04 2.92801997e-04 -2.32489285e-04
      1.62844415e-04 1.36886898e-04 1.33368972e-04 -2.22910123e-04
      -3.81378544e-04 -2.55871455e-05 4.52144595e-05 -2.28937060e-04
      -1.28365391e-05 1.62746946e-04 5.00976739e-06 -1.23444726e-04 0.
      0. 0. 0. 0. 0. 0. 0. 0. 0. 0. 0. 0. 0. 0. 0. 0. 0. 0. 0. 0. 0. 0.
      0. 0. 0. 0. 0. 0. 0. 0. 0. 0. 0. 0. 0. 0. 0. 0. 0. 0. 0. 0. 0. 0.
      0. 0. 0.</_>
    <_>
      2.37415406e-05 0. 1.24400567e-05 3.98446673e-06 -8.27683543e-05
      2.97229030e-06 8.77706407e-06 3.52497568e-06 5.93618324e-06
      5.88021840e-06 0. 8.20188598e-06 -8.29381970e-05 7.50750542e-06
      7.26021062e-06 7.13757345e-06 0. 0. 0. 0. 0. 0. 0. 0. 0. 0. 0. 0.
      0. 0. 0. 0. 0. 0. 0. 0. 0. 0. 0. 0. 0. 0. 0. 0. 0. 0. 0. 0. 0. 0.
      0. 0. 0. 0. 0. 0. 0. 0. 0. 0. 0. 0. 0. 0.</_>
    <_>
      1.22624202e-04 8.49193602e-05 5.19482637e-06 3.90016830e-05
      -2.19722890e-04 -2.01187431e-04 5.98121778e-06 9.77496529e-05
      3.04533551e-05 -8.61894223e-05 -1.16513176e-04 -1.42246208e-04
      -8.73142490e-05 -2.54003444e-05 -1.80549214e-05 8.10424826e-05 0.
      0. 0. 0. 0. 0. 0. 0. 0. 0. 0. 0. 0. 0. 0. 0. 0. 0. 0. 0. 0. 0. 0.
      0. 0. 0. 0. 0. 0. 0. 0. 0. 0. 0. 0. 0. 0. 0. 0. 0. 0. 0. 0. 0. 0.
      0. 0. 0.</_>
    <_>
      4.79908995e-05 2.15203574e-04 7.35570429e-05 4.48045685e-05
      -2.50649086e-04 -3.46574321e-04 -3.67387547e-05 1.94710330e-04
      7.93032887e-05 -2.52119731e-04 -5.85735434e-05 4.83642107e-05
      -1.18603850e-04 -1.84053963e-04 9.24358028e-06 4.20003016e-05 0.
      0. 0. 0. 0. 0. 0. 0. 0. 0. 0. 0. 0. 0. 0. 0. 0. 0. 0. 0. 0. 0. 0.
      0. 0. 0. 0. 0. 0. 0. 0. 0. 0. 0. 0. 0. 0. 0. 0. 0. 0. 0. 0. 0. 0.
      0. 0. 0.</_>
    <_>
      4.73976934e-06 7.77789610e-05 5.23725794e-05 3.68263318e-05
      1.56544716e-04 7.00936653e-06 1.75194273e-05 1.48211999e-04
      -7.16047289e-05 -1.50835695e-04 -6.08883347e-05 -1.33289272e-04
      -1.40325224e-04 -3.19385872e-05 2.63209004e-05 1.07716463e-04 0.
      0. 0. 0. 0. 0. 0. 0. 0. 0. 0. 0. 0. 0. 0. 0. 0. 0. 0. 0. 0. 0. 0.
      0. 0. 0. 0. 0. 0. 0. 0. 0. 0. 0. 0. 0. 0. 0. 0. 0. 0. 0. 0. 0. 0.
      0. 0. 0.</_>
    <_>
      2.23653769e-04 4.81075476e-05 5.52689926e-05 -1.21905268e-05
      -1.30836910e-04 -8.54730315e-05 -1.27447012e-04 1.36324859e-04
      3.10516552e-05 -1.63755700e-04 1.29784376e-05 -1.39111638e-04
      -1.91943211e-04 -5.28793316e-05 -9.57100783e-05 1.87162204e-05 0.
      0. 0. 0. 0. 0. 0. 0. 0. 0. 0. 0. 0. 0. 0. 0. 0. 0. 0. 0. 0. 0. 0.
      0. 0. 0. 0. 0. 0. 0. 0. 0. 0. 0. 0. 0. 0. 0. 0. 0. 0. 0. 0. 0. 0.
      0. 0. 0.</_>
    <_>
      -8.15620569e-06 1.96547509e-04 -6.61252807e-06 9.93940848e-05
      -2.41414687e-04 -1.25216990e-04 1.10199835e-04 -3.51164817e-05
      1.73825883e-05 -1.76018788e-04 -1.47884784e-05 -1.76403279e-04
      -3.39973631e-04 -2.39079964e-05 -2.42091672e-04 1.98056950e-04 0.
      0. 0. 0. 0. 0. 0. 0. 0. 0. 0. 0. 0. 0. 0. 0. 0. 0. 0. 0. 0. 0. 0.
      0. 0. 0. 0. 0. 0. 0. 0. 0. 0. 0. 0. 0. 0. 0. 0. 0. 0. 0. 0. 0. 0.
      0. 0. 0.</_>
    <_>
      2.09666559e-05 9.07944104e-06 5.85351927e-06 6.09123663e-06
      -6.40401922e-05 4.84086115e-07 5.06035758e-06 1.16507354e-05
      1.57030918e-05 0. 5.04248737e-06 2.96091730e-06 -6.30845971e-05 0.
      1.84863188e-06 1.08575059e-05 0. 0. 0. 0. 0. 0. 0. 0. 0. 0. 0. 0.
      0. 0. 0. 0. 0. 0. 0. 0. 0. 0. 0. 0. 0. 0. 0. 0. 0. 0. 0. 0. 0. 0.
      0. 0. 0. 0. 0. 0. 0. 0. 0. 0. 0. 0. 0. 0.</_>
    <_>
      -2.52882874e-05 -2.73706100e-05 1.83157754e-04 -1.34077738e-04
      2.28366145e-04 2.74022459e-04 -1.37894764e-04 9.33473129e-05
      -2.48061224e-05 1.11356567e-05 3.61782731e-04 4.26929008e-04
      5.60127228e-05 -2.10845566e-04 3.01845084e-05 -2.60768662e-04 0.
      0. 0. 0. 0. 0. 0. 0. 0. 0. 0. 0. 0. 0. 0. 0. 0. 0. 0. 0. 0. 0. 0.
      0. 0. 0. 0. 0. 0. 0. 0. 0. 0. 0. 0. 0. 0. 0. 0. 0. 0. 0. 0. 0. 0.
      0. 0. 0.</_>
    <_>
      -1.23426187e-04 -2.25325130e-05 1.66549653e-05 2.35673197e-05
      1.75944559e-04 8.03893709e-05 5.25742616e-05 4.67831633e-05
      -8.38673441e-05 -4.64958721e-05 3.21903171e-05 1.36463241e-05
      -2.51422480e-05 -3.11060430e-05 3.26833651e-05 3.08821254e-05 0.
      0. 0. 0. 0. 0. 0. 0. 0. 0. 0. 0. 0. 0. 0. 0. 0. 0. 0. 0. 0. 0. 0.
      0. 0. 0. 0. 0. 0. 0. 0. 0. 0. 0. 0. 0. 0. 0. 0. 0. 0. 0. 0. 0. 0.
      0. 0. 0.</_>
    <_>
      4.02738864e-04 -1.38052768e-04 9.23959378e-05 -3.55168333e-04
      1.26649975e-04 2.39830653e-04 -3.95104553e-06 1.53601199e-04
      -5.08560734e-05 2.53984443e-04 4.38840594e-04 -1.81637133e-05
      -3.48499343e-05 -2.10948725e-04 -1.79032359e-04 -6.00068342e-05 0.
      0. 0. 0. 0. 0. 0. 0. 0. 0. 0. 0. 0. 0. 0. 0. 0. 0. 0. 0. 0. 0. 0.
      0. 0. 0. 0. 0. 0. 0. 0. 0. 0. 0. 0. 0. 0. 0. 0. 0. 0. 0. 0. 0. 0.
      0. 0. 0.</_>
    <_>
      -9.13801487e-05 -4.49825420e-05 6.98914082e-05 -1.29758831e-04
      3.36215744e-04 2.69178447e-04 1.39417127e-04 -7.28121668e-05
      -5.54391627e-05 1.91068189e-04 4.17817879e-04 5.13278064e-05
      -2.07603181e-04 -2.38152879e-05 -1.62760422e-04 -7.36800866e-05 0.
      0. 0. 0. 0. 0. 0. 0. 0. 0. 0. 0. 0. 0. 0. 0. 0. 0. 0. 0. 0. 0. 0.
      0. 0. 0. 0. 0. 0. 0. 0. 0. 0. 0. 0. 0. 0. 0. 0. 0. 0. 0. 0. 0. 0.
      0. 0. 0.</_>
    <_>
      2.21889495e-05 0. 6.87095644e-06 3.72442173e-06 -8.49885691e-05
      5.81400354e-06 7.12299970e-06 1.51181821e-05 8.63843616e-06
      1.93757551e-05 1.59089686e-05 1.36571998e-05 -9.62673221e-05
      1.34240713e-06 5.33181856e-06 4.99007820e-06 0. 0. 0. 0. 0. 0. 0.
      0. 0. 0. 0. 0. 0. 0. 0. 0. 0. 0. 0. 0. 0. 0. 0. 0. 0. 0. 0. 0. 0.
      0. 0. 0. 0. 0. 0. 0. 0. 0. 0. 0. 0. 0. 0. 0. 0. 0. 0. 0.</_>
    <_>
      -9.80375407e-05 -4.85396158e-05 7.35408048e-06 6.66857231e-05
      1.61592019e-04 1.08732973e-04 5.12116021e-05 6.06550384e-05
      -1.19240300e-04 -8.52840822e-05 -1.39592419e-06 -6.19019702e-05
      -6.03929366e-05 1.21728272e-05 1.03886832e-05 9.17620855e-05 0. 0.
      0. 0. 0. 0. 0. 0. 0. 0. 0. 0. 0. 0. 0. 0. 0. 0. 0. 0. 0. 0. 0. 0.
      0. 0. 0. 0. 0. 0. 0. 0. 0. 0. 0. 0. 0. 0. 0. 0. 0. 0. 0. 0. 0. 0.
      0. 0.</_>
    <_>
      1.90457737e-04 -3.49346170e-04 -2.51276593e-04 4.37805575e-05
      -3.00164655e-04 -2.12874656e-04 -5.39985740e-06 1.98961643e-04
      7.38781164e-05 -6.70916925e-05 -7.74254877e-05 -4.11746005e-04
      -2.73594749e-04 1.74848697e-04 -4.64615994e-04 5.64150105e-04 0.
      0. 0. 0. 0. 0. 0. 0. 0. 0. 0. 0. 0. 0. 0. 0. 0. 0. 0. 0. 0. 0. 0.
      0. 0. 0. 0. 0. 0. 0. 0. 0. 0. 0. 0. 0. 0. 0. 0. 0. 0. 0. 0. 0. 0.
      0. 0. 0.</_>
    <_>
      -1.14753668e-04 -1.71030042e-04 -1.04734863e-04 5.83424444e-05
      1.29565684e-04 4.28401290e-05 1.71039996e-04 4.78716320e-05
      -1.33617490e-04 1.26895480e-04 1.99267233e-04 -3.92828457e-04
      -3.90050613e-04 2.89828080e-04 -3.32195166e-04 2.52530095e-04 0.
      0. 0. 0. 0. 0. 0. 0. 0. 0. 0. 0. 0. 0. 0. 0. 0. 0. 0. 0. 0. 0. 0.
      0. 0. 0. 0. 0. 0. 0. 0. 0. 0. 0. 0. 0. 0. 0. 0. 0. 0. 0. 0. 0. 0.
      0. 0. 0.</_>
    <_>
      1.33280628e-05 0. 2.14542160e-06 1.32994519e-05 -7.78784743e-05 0.
      5.94081894e-06 1.10067613e-05 1.37660863e-05 4.40722897e-06
      4.74104854e-06 9.92840614e-06 -8.67682102e-05 1.04864057e-05 0.
      1.58247803e-05 0. 0. 0. 0. 0. 0. 0. 0. 0. 0. 0. 0. 0. 0. 0. 0. 0.
      0. 0. 0. 0. 0. 0. 0. 0. 0. 0. 0. 0. 0. 0. 0. 0. 0. 0. 0. 0. 0. 0.
      0. 0. 0. 0. 0. 0. 0. 0. 0.</_>
    <_>
      1.57422459e-04 -4.45841260e-06 -1.79189465e-05 -3.86884094e-05
      -1.44521880e-04 -4.19062271e-05 -9.55241703e-05 -2.69772645e-05
      1.06060426e-04 4.87715188e-05 4.31735789e-05 -2.17521556e-05
      1.76041958e-05 1.81982632e-05 -7.36205184e-05 -5.93817203e-05 0.
      0. 0. 0. 0. 0. 0. 0. 0. 0. 0. 0. 0. 0. 0. 0. 0. 0. 0. 0. 0. 0. 0.
      0. 0. 0. 0. 0. 0. 0. 0. 0. 0. 0. 0. 0. 0. 0. 0. 0. 0. 0. 0. 0. 0.
      0. 0. 0.</_>
    <_>
      1.27011619e-04 2.00497889e-05 -3.21090283e-06 -7.21042015e-05
      -2.43443123e-04 -2.00749673e-05 -4.76125097e-05 -6.91859022e-05
      1.17796299e-04 7.73242791e-05 2.01831717e-05 4.93371408e-06
      -3.16024511e-06 8.89892726e-06 -8.70690055e-05 -8.56906699e-05 0.
      0. 0. 0. 0. 0. 0. 0. 0. 0. 0. 0. 0. 0. 0. 0. 0. 0. 0. 0. 0. 0. 0.
      0. 0. 0. 0. 0. 0. 0. 0. 0. 0. 0. 0. 0. 0. 0. 0. 0. 0. 0. 0. 0. 0.
      0. 0. 0.</_>
    <_>
      2.32579732e-05 1.20415743e-05 1.06610344e-06 0. -6.76981072e-05 0.
      0. 1.74583192e-06 2.20478141e-05 1.49177777e-05 7.44908220e-06
      1.59838555e-06 -4.72997563e-05 4.38510187e-06 0. 0. 0. 0. 0. 0. 0.
      0. 0. 0. 0. 0. 0. 0. 0. 0. 0. 0. 0. 0. 0. 0. 0. 0. 0. 0. 0. 0. 0.
      0. 0. 0. 0. 0. 0. 0. 0. 0. 0. 0. 0. 0. 0. 0. 0. 0. 0. 0. 0. 0.</_>
    <_>
      -6.39675767e-04 -2.91060715e-04 2.88786017e-04 -4.34884787e-05
      3.29794449e-04 1.75501016e-04 7.59411603e-04 -4.26434388e-04
      -5.77330822e-04 5.75874350e-04 3.77793738e-04 -3.87053406e-05
      -3.94039263e-04 -1.04103761e-04 -2.30601450e-04 -5.15063512e-05 0.
      0. 0. 0. 0. 0. 0. 0. 0. 0. 0. 0. 0. 0. 0. 0. 0. 0. 0. 0. 0. 0. 0.
      0. 0. 0. 0. 0. 0. 0. 0. 0. 0. 0. 0. 0. 0. 0. 0. 0. 0. 0. 0. 0. 0.
      0. 0. 0.</_>
    <_>
      1.63666609e-05 1.83182397e-06 0. 1.73293174e-05 -8.27159238e-05 0.
      1.83182397e-06 1.30864892e-05 1.48628924e-05 8.69986070e-06
      7.39911820e-06 1.57471641e-05 -1.00922589e-04 7.39911820e-06
      8.69986070e-06 1.15827206e-05 0. 0. 0. 0. 0. 0. 0. 0. 0. 0. 0. 0.
      0. 0. 0. 0. 0. 0. 0. 0. 0. 0. 0. 0. 0. 0. 0. 0. 0. 0. 0. 0. 0. 0.
      0. 0. 0. 0. 0. 0. 0. 0. 0. 0. 0. 0. 0. 0.</_>
    <_>
      1.37660863e-05 4.40722897e-06 4.74104854e-06 9.92840614e-06
      -8.67682102e-05 1.04864057e-05 0. 1.58247803e-05 1.33280628e-05 0.
      2.14542160e-06 1.32994519e-05 -7.78784743e-05 0. 5.94081894e-06
      1.10067613e-05 0. 0. 0. 0. 0. 0. 0. 0. 0. 0. 0. 0. 0. 0. 0. 0. 0.
      0. 0. 0. 0. 0. 0. 0. 0. 0. 0. 0. 0. 0. 0. 0. 0. 0. 0. 0. 0. 0. 0.
      0. 0. 0. 0. 0. 0. 0. 0. 0.</_></support_vectors>
  <uncompressed_sv_total>44</uncompressed_sv_total>
  <uncompressed_support_vectors>
    <_>
      4.78444922e+03 9.48937317e+02 0. 9.14532654e+02 2.82653271e+03 0.
      9.48937317e+02 4.59245312e+03 9.24400781e+03 0. 0. 0.
      1.70126880e+03 0. 9.36586365e+02 5.79385010e+03 0. 0. 0. 0. 0. 0.
      0. 0. 0. 0. 0. 0. 0. 0. 0. 0. 0. 0. 0. 0. 0. 0. 0. 0. 0. 0. 0. 0.
      0. 0. 0. 0. 0. 0. 0. 0. 0. 0. 0. 0. 0. 0. 0. 0. 0. 0. 0. 0.</_>
    <_>
      4.62236426e+03 7.65324768e+02 1.87228210e+03 6.91809235e+01
      5.01565479e+03 1.33614392e+03 2.20102686e+03 0. 1948.
      6.46623535e+02 1.19120056e+03 1.45077271e+03 5.07488965e+03
      6.92342407e+02 1.21897302e+03 1.99474805e+03 0. 0. 0. 0. 0. 0. 0.
      0. 0. 0. 0. 0. 0. 0. 0. 0. 0. 0. 0. 0. 0. 0. 0. 0. 0. 0. 0. 0. 0.
      0. 0. 0. 0. 0. 0. 0. 0. 0. 0. 0. 0. 0. 0. 0. 0. 0. 0. 0.</_>
    <_>
      7.90414648e+03 2.00327051e+03 1.51418823e+03 7.63468384e+02
      2.49362988e+03 0. 0. 2.55096924e+03 5.29676611e+03 0.
      5.59072449e+02 8.79659042e+01 2.42154614e+03 5.14861145e+02 0.
      2.16133789e+03 0. 0. 0. 0. 0. 0. 0. 0. 0. 0. 0. 0. 0. 0. 0. 0. 0.
      0. 0. 0. 0. 0. 0. 0. 0. 0. 0. 0. 0. 0. 0. 0. 0. 0. 0. 0. 0. 0. 0.
      0. 0. 0. 0. 0. 0. 0. 0. 0.</_>
    <_>
      3014. 1.20846130e+03 1.21418030e+03 6.45804932e+02 4.82133154e+03
      2.20287476e+03 1.57953467e+03 1.49274719e+03 3.08321362e+03
      1.35542114e+03 2.23266113e+03 2.02744983e+03 3.71356567e+03 0.
      1.06931555e+03 8.46249390e+02 0. 0. 0. 0. 0. 0. 0. 0. 0. 0. 0. 0.
      0. 0. 0. 0. 0. 0. 0. 0. 0. 0. 0. 0. 0. 0. 0. 0. 0. 0. 0. 0. 0. 0.
      0. 0. 0. 0. 0. 0. 0. 0. 0. 0. 0. 0. 0. 0.</_>
    <_>
      6.56339453e+03 2.62363818e+03 4.44288208e+02 0. 0. 0.
      1.02449989e+02 4.28098114e+02 8.05417969e+03 4.40672705e+03
      9.41107056e+02 1.48487354e+03 4.49913184e+03 0. 0. 3.01673853e+03
      0. 0. 0. 0. 0. 0. 0. 0. 0. 0. 0. 0. 0. 0. 0. 0. 0. 0. 0. 0. 0. 0.
      0. 0. 0. 0. 0. 0. 0. 0. 0. 0. 0. 0. 0. 0. 0. 0. 0. 0. 0. 0. 0. 0.
      0. 0. 0. 0.</_>
    <_>
      2.37622681e+03 2.34233008e+03 9.89909546e+02 9.13898254e+02
      3.41389819e+03 9.89909546e+02 2.34233008e+03 9.28226746e+02
      2.85071582e+03 1.84646362e+03 5.00657562e+02 1.68323535e+03
      4.18323535e+03 5.00657562e+02 1.84646362e+03 1.40271594e+03 0. 0.
      0. 0. 0. 0. 0. 0. 0. 0. 0. 0. 0. 0. 0. 0. 0. 0. 0. 0. 0. 0. 0. 0.
      0. 0. 0. 0. 0. 0. 0. 0. 0. 0. 0. 0. 0. 0. 0. 0. 0. 0. 0. 0. 0. 0.
      0. 0.</_>
    <_>
      4.72036230e+03 1.05068176e+03 1.39069116e+03 6.83264221e+02
      3.54882422e+03 7.94074280e+02 5.67850342e+02 2.90104565e+03
      3.29405469e+03 9.02319214e+02 1.19985461e+03 1.36068457e+03
      4.26597510e+03 0. 1.63751270e+03 1.34609717e+03 0. 0. 0. 0. 0. 0.
      0. 0. 0. 0. 0. 0. 0. 0. 0. 0. 0. 0. 0. 0. 0. 0. 0. 0. 0. 0. 0. 0.
      0. 0. 0. 0. 0. 0. 0. 0. 0. 0. 0. 0. 0. 0. 0. 0. 0. 0. 0. 0.</_>
    <_>
      5592. 6.62397156e+02 9.31632996e+02 9.42274902e+02 2.85427490e+03
      9.31632996e+02 6.62397156e+02 0. 9.48702344e+03 0. 0. 0.
      1.70859412e+03 9.37332397e+02 5.48032837e+02 6.42535828e+02 0. 0.
      0. 0. 0. 0. 0. 0. 0. 0. 0. 0. 0. 0. 0. 0. 0. 0. 0. 0. 0. 0. 0. 0.
      0. 0. 0. 0. 0. 0. 0. 0. 0. 0. 0. 0. 0. 0. 0. 0. 0. 0. 0. 0. 0. 0.
      0. 0.</_>
    <_>
      1.34131091e+03 6.21240417e+02 3.56256421e+03 2.28811768e+03
      6.07907666e+03 4.91934967e+02 0. 0. 1.31045544e+03 1.18137720e+03
      1.54773999e+03 1.61343103e+03 4750. 1.14635620e+03 0.
      8.03762390e+02 0. 0. 0. 0. 0. 0. 0. 0. 0. 0. 0. 0. 0. 0. 0. 0. 0.
      0. 0. 0. 0. 0. 0. 0. 0. 0. 0. 0. 0. 0. 0. 0. 0. 0. 0. 0. 0. 0. 0.
      0. 0. 0. 0. 0. 0. 0. 0. 0.</_>
    <_>
      3.19556909e+03 0. 1.67440955e+03 5.36302124e+02 5.17952686e+03
      4.00065002e+02 1.18137720e+03 4.74455475e+02 7.98999695e+02
      7.91466980e+02 0. 1.10395923e+03 5.15666602e+03 1.01049689e+03
      9.77211426e+02 9.60704712e+02 0. 0. 0. 0. 0. 0. 0. 0. 0. 0. 0. 0.
      0. 0. 0. 0. 0. 0. 0. 0. 0. 0. 0. 0. 0. 0. 0. 0. 0. 0. 0. 0. 0. 0.
      0. 0. 0. 0. 0. 0. 0. 0. 0. 0. 0. 0. 0. 0.</_>
    <_>
      4.43314404e+03 3.90608350e+03 1.84071045e+03 1.05536720e+02 1802.
      2.81684235e+02 1.18908582e+03 1.81479028e+03 2.80507104e+03
      6.90323486e+02 0. 0. 1.97134570e+03 0. 1.65958362e+03
      5.53398621e+02 0. 0. 0. 0. 0. 0. 0. 0. 0. 0. 0. 0. 0. 0. 0. 0. 0.
      0. 0. 0. 0. 0. 0. 0. 0. 0. 0. 0. 0. 0. 0. 0. 0. 0. 0. 0. 0. 0. 0.
      0. 0. 0. 0. 0. 0. 0. 0. 0.</_>
    <_>
      2.42478711e+03 0. 7.50851501e+02 4.07001221e+02 7.03253125e+03
      6.35348694e+02 7.78394531e+02 1.65210034e+03 944. 2.11736377e+03
      1.73851685e+03 1.49244568e+03 5800. 1.46696960e+02 5.82656006e+02
      5.45310913e+02 0. 0. 0. 0. 0. 0. 0. 0. 0. 0. 0. 0. 0. 0. 0. 0. 0.
      0. 0. 0. 0. 0. 0. 0. 0. 0. 0. 0. 0. 0. 0. 0. 0. 0. 0. 0. 0. 0. 0.
      0. 0. 0. 0. 0. 0. 0. 0. 0.</_>
    <_>
      1.80112524e+03 0. 2.89927582e+02 1.79725891e+03 5.79567285e+03 0.
      8.02829285e+02 1.48742969e+03 1.86031885e+03 5.95583313e+02
      6.40694946e+02 1.34170312e+03 4.59433350e+03 1.41710999e+03 0.
      2.13852612e+03 0. 0. 0. 0. 0. 0. 0. 0. 0. 0. 0. 0. 0. 0. 0. 0. 0.
      0. 0. 0. 0. 0. 0. 0. 0. 0. 0. 0. 0. 0. 0. 0. 0. 0. 0. 0. 0. 0. 0.
      0. 0. 0. 0. 0. 0. 0. 0. 0.</_>
    <_>
      5.60680566e+03 2.90286548e+03 2.57005829e+02 0. 0. 0. 0.
      4.20868164e+02 5.31507227e+03 3.59623267e+03 1.79575220e+03
      3.85323242e+02 4.91743506e+03 1.05711768e+03 0. 0. 0. 0. 0. 0. 0.
      0. 0. 0. 0. 0. 0. 0. 0. 0. 0. 0. 0. 0. 0. 0. 0. 0. 0. 0. 0. 0. 0.
      0. 0. 0. 0. 0. 0. 0. 0. 0. 0. 0. 0. 0. 0. 0. 0. 0. 0. 0. 0. 0.</_>
    <_>
      1.29026599e+03 0. 1.47457996e+03 1.37186609e+03 4.85986621e+03
      1.47457996e+03 0. 1.11826599e+03 1.39639917e+03 1.37593597e+02
      4.69160950e+02 2.74569385e+03 5.21769385e+03 4.69160950e+02
      1.37593597e+02 1.22439917e+03 0. 0. 0. 0. 0. 0. 0. 0. 0. 0. 0. 0.
      0. 0. 0. 0. 0. 0. 0. 0. 0. 0. 0. 0. 0. 0. 0. 0. 0. 0. 0. 0. 0. 0.
      0. 0. 0. 0. 0. 0. 0. 0. 0. 0. 0. 0. 0. 0.</_>
    <_>
      1.86031885e+03 5.95583313e+02 6.40694946e+02 1.34170312e+03
      4.59433350e+03 1.41710999e+03 0. 2.13852612e+03 1.80112524e+03 0.
      2.89927582e+02 1.79725891e+03 5.79567285e+03 0. 8.02829285e+02
      1.48742969e+03 0. 0. 0. 0. 0. 0. 0. 0. 0. 0. 0. 0. 0. 0. 0. 0. 0.
      0. 0. 0. 0. 0. 0. 0. 0. 0. 0. 0. 0. 0. 0. 0. 0. 0. 0. 0. 0. 0. 0.
      0. 0. 0. 0. 0. 0. 0. 0. 0.</_>
    <_>
      3.17942407e+03 7.14382751e+02 3.86657471e+02 1.15054297e+03
      3.13854297e+03 3.86657471e+02 7.14382751e+02 2.08742407e+03
      3.17942407e+03 7.14382751e+02 3.86657471e+02 1.15054297e+03
      3.13854297e+03 3.86657471e+02 7.14382751e+02 2.08742407e+03 0. 0.
      0. 0. 0. 0. 0. 0. 0. 0. 0. 0. 0. 0. 0. 0. 0. 0. 0. 0. 0. 0. 0. 0.
      0. 0. 0. 0. 0. 0. 0. 0. 0. 0. 0. 0. 0. 0. 0. 0. 0. 0. 0. 0. 0. 0.
      0. 0.</_>
    <_>
      1276. 2.01012744e+03 6.63887024e+02 2.20744434e+03 4.91885986e+03
      8.96109375e+02 2.01853125e+03 7.17641724e+02 2.28459619e+03
      1.00506372e+03 0. 2.00201465e+03 5.08962451e+03 1.74227832e+03
      2.71594067e+03 0. 0. 0. 0. 0. 0. 0. 0. 0. 0. 0. 0. 0. 0. 0. 0. 0.
      0. 0. 0. 0. 0. 0. 0. 0. 0. 0. 0. 0. 0. 0. 0. 0. 0. 0. 0. 0. 0. 0.
      0. 0. 0. 0. 0. 0. 0. 0. 0. 0.</_>
    <_>
      2.21609082e+03 1.21004321e+03 1.42511792e+03 2.72000024e+03
      3.65677954e+03 7.09378601e+02 1.11961816e+03 2.35440018e+02
      3.39825903e+03 1.10088904e+03 1.63734033e+03 0. 4.25047656e+03
      2.27086719e+03 4.39351074e+02 1.70268970e+03 0. 0. 0. 0. 0. 0. 0.
      0. 0. 0. 0. 0. 0. 0. 0. 0. 0. 0. 0. 0. 0. 0. 0. 0. 0. 0. 0. 0. 0.
      0. 0. 0. 0. 0. 0. 0. 0. 0. 0. 0. 0. 0. 0. 0. 0. 0. 0. 0.</_>
    <_>
      2.71657202e+03 1.71458179e+03 0. 1.01944312e+03 2794.
      2.53357642e+03 1.19166907e+03 1.48542651e+03 2.53816284e+03
      2.11019141e+03 2.29844067e+03 0. 4.09186792e+03 7.32280090e+02
      1.34026611e+03 2.59780054e+03 0. 0. 0. 0. 0. 0. 0. 0. 0. 0. 0. 0.
      0. 0. 0. 0. 0. 0. 0. 0. 0. 0. 0. 0. 0. 0. 0. 0. 0. 0. 0. 0. 0. 0.
      0. 0. 0. 0. 0. 0. 0. 0. 0. 0. 0. 0. 0. 0.</_>
    <_>
      7.38893750e+03 0. 1.06780017e+03 0. 3.06424365e+03 9.40376526e+02
      2.96450610e+03 1.62830554e+03 3.85230542e+03 2.96450610e+03
      9.40376526e+02 7.92243652e+02 2272. 1.06780017e+03 0.
      1.42093750e+03 0. 0. 0. 0. 0. 0. 0. 0. 0. 0. 0. 0. 0. 0. 0. 0. 0.
      0. 0. 0. 0. 0. 0. 0. 0. 0. 0. 0. 0. 0. 0. 0. 0. 0. 0. 0. 0. 0. 0.
      0. 0. 0. 0. 0. 0. 0. 0. 0.</_>
    <_>
      3.37006665e+03 3.44095117e+03 1.35642981e+03 0. 2280.
      1.35642981e+03 3.44095117e+03 9.06066589e+02 3.37006665e+03
      3.44095117e+03 1.35642981e+03 0. 2280. 1.35642981e+03
      3.44095117e+03 9.06066589e+02 0. 0. 0. 0. 0. 0. 0. 0. 0. 0. 0. 0.
      0. 0. 0. 0. 0. 0. 0. 0. 0. 0. 0. 0. 0. 0. 0. 0. 0. 0. 0. 0. 0. 0.
      0. 0. 0. 0. 0. 0. 0. 0. 0. 0. 0. 0. 0. 0.</_>
    <_>
      0. 0. 0. 0. 16320. 0. 0. 0. 0. 0. 0. 0. 16320. 0. 0. 0. 0. 0. 0.
      0. 0. 0. 0. 0. 0. 0. 0. 0. 0. 0. 0. 0. 0. 0. 0. 0. 0. 0. 0. 0. 0.
      0. 0. 0. 0. 0. 0. 0. 0. 0. 0. 0. 0. 0. 0. 0. 0. 0. 0. 0. 0. 0. 0.
      0.</_>
    <_>
      3.69255664e+03 0. 4.88405176e+03 2.82096899e+03 5.63601123e+03
      4.66476135e+01 8.65970886e+02 0. 2.11293115e+03 1.84928064e+03
      3.54027588e+03 2.17839551e+03 3.75038403e+03 9.42559265e+02
      1.04212073e+03 0. 0. 0. 0. 0. 0. 0. 0. 0. 0. 0. 0. 0. 0. 0. 0. 0.
      0. 0. 0. 0. 0. 0. 0. 0. 0. 0. 0. 0. 0. 0. 0. 0. 0. 0. 0. 0. 0. 0.
      0. 0. 0. 0. 0. 0. 0. 0. 0. 0.</_>
    <_>
      3.37683521e+03 7.76284729e+02 1.20324438e+03 1.19045520e+03
      5.01000879e+03 2.53186865e+03 3.21126129e+02 1.35634863e+03
      3.03095312e+03 4.52835510e+02 2.59251099e+03 2.48173193e+03
      3.53450903e+03 6.46914185e+02 0. 2.22040015e+03 0. 0. 0. 0. 0. 0.
      0. 0. 0. 0. 0. 0. 0. 0. 0. 0. 0. 0. 0. 0. 0. 0. 0. 0. 0. 0. 0. 0.
      0. 0. 0. 0. 0. 0. 0. 0. 0. 0. 0. 0. 0. 0. 0. 0. 0. 0. 0. 0.</_>
    <_>
      1.89886255e+03 2.51435278e+03 1.00854041e+03 1.71835266e+03
      4.89835254e+03 1.00854041e+03 2.51435278e+03 4.54862610e+02
      2.85041089e+03 1.61591309e+03 2.16113306e+03 8.59176331e+02
      4.03917627e+03 2.16113306e+03 1.61591309e+03 1.40641089e+03 0. 0.
      0. 0. 0. 0. 0. 0. 0. 0. 0. 0. 0. 0. 0. 0. 0. 0. 0. 0. 0. 0. 0. 0.
      0. 0. 0. 0. 0. 0. 0. 0. 0. 0. 0. 0. 0. 0. 0. 0. 0. 0. 0. 0. 0. 0.
      0. 0.</_>
    <_>
      4.41955029e+03 1.35519690e+03 6.21514282e+02 1.49805640e+03
      4.20001318e+03 0. 1.20251038e+03 1.53394913e+02 3.63300269e+03
      1.29845972e+03 7.13741089e+02 2.26073999e+03 4.36402979e+03
      1.11086792e+03 1.61542920e+03 1.41143091e+03 0. 0. 0. 0. 0. 0. 0.
      0. 0. 0. 0. 0. 0. 0. 0. 0. 0. 0. 0. 0. 0. 0. 0. 0. 0. 0. 0. 0. 0.
      0. 0. 0. 0. 0. 0. 0. 0. 0. 0. 0. 0. 0. 0. 0. 0. 0. 0. 0.</_>
    <_>
      4792. 1.55256946e+03 1.80445886e+03 9.01346313e+02 4.47296045e+03
      2.53186865e+03 3.21126129e+02 0. 2218. 2.88617401e+02
      1.80513770e+03 1.11372620e+03 4.35670020e+03 2.02068555e+03
      1.96385522e+03 2.26106171e+02 0. 0. 0. 0. 0. 0. 0. 0. 0. 0. 0. 0.
      0. 0. 0. 0. 0. 0. 0. 0. 0. 0. 0. 0. 0. 0. 0. 0. 0. 0. 0. 0. 0. 0.
      0. 0. 0. 0. 0. 0. 0. 0. 0. 0. 0. 0. 0. 0.</_>
    <_>
      7.02008008e+03 9.41387268e+02 0. 8.61895569e+02 2.64589551e+03 0.
      9.41387268e+02 6.63608398e+03 7.26800830e+03 0. 0. 0. 764.
      6.61254883e+02 1.20893677e+03 3.68029614e+03 0. 0. 0. 0. 0. 0. 0.
      0. 0. 0. 0. 0. 0. 0. 0. 0. 0. 0. 0. 0. 0. 0. 0. 0. 0. 0. 0. 0. 0.
      0. 0. 0. 0. 0. 0. 0. 0. 0. 0. 0. 0. 0. 0. 0. 0. 0. 0. 0.</_>
    <_>
      2.90539380e+03 2.44131250e+03 9.92380981e+02 1.49805640e+03
      4.28471289e+03 0. 1.20251038e+03 1.53394913e+02 3.63300269e+03
      1.29845972e+03 0. 2.79125879e+03 4.19215234e+03 1.96781140e+03
      2.12626733e+03 7.47830200e+02 0. 0. 0. 0. 0. 0. 0. 0. 0. 0. 0. 0.
      0. 0. 0. 0. 0. 0. 0. 0. 0. 0. 0. 0. 0. 0. 0. 0. 0. 0. 0. 0. 0. 0.
      0. 0. 0. 0. 0. 0. 0. 0. 0. 0. 0. 0. 0. 0.</_>
    <_>
      2.47175366e+03 3.29365845e+03 2.82213110e+03 2.72158936e+03
      4.13862402e+03 4.21984741e+02 0. 6.86115234e+02 1734.
      1.62244434e+03 3.70951270e+03 2.11414136e+03 3.63801562e+03
      9.02229431e+02 7.76284729e+02 3.82334930e+02 0. 0. 0. 0. 0. 0. 0.
      0. 0. 0. 0. 0. 0. 0. 0. 0. 0. 0. 0. 0. 0. 0. 0. 0. 0. 0. 0. 0. 0.
      0. 0. 0. 0. 0. 0. 0. 0. 0. 0. 0. 0. 0. 0. 0. 0. 0. 0. 0.</_>
    <_>
      4.63733496e+03 8.98439758e+02 7.79254395e+02 1.15771216e+03 3232.
      2.42939380e+03 1.17441125e+03 1.64206836e+03 2.88548242e+03
      9.67323120e+02 1.32328687e+03 3.18449371e+02 3.07228613e+03
      9.51242981e+02 3.58736664e+02 1.88969153e+03 0. 0. 0. 0. 0. 0. 0.
      0. 0. 0. 0. 0. 0. 0. 0. 0. 0. 0. 0. 0. 0. 0. 0. 0. 0. 0. 0. 0. 0.
      0. 0. 0. 0. 0. 0. 0. 0. 0. 0. 0. 0. 0. 0. 0. 0. 0. 0. 0.</_>
    <_>
      5.04654639e+03 8.95911133e+02 0. 1.49707251e+03 4.18907227e+03 0.
      8.95911133e+02 3.44254639e+03 5.04654639e+03 8.95911133e+02 0.
      1.49707251e+03 4.18907227e+03 0. 8.95911133e+02 3.44254639e+03 0.
      0. 0. 0. 0. 0. 0. 0. 0. 0. 0. 0. 0. 0. 0. 0. 0. 0. 0. 0. 0. 0. 0.
      0. 0. 0. 0. 0. 0. 0. 0. 0. 0. 0. 0. 0. 0. 0. 0. 0. 0. 0. 0. 0. 0.
      0. 0. 0.</_>
    <_>
      3.53296899e+03 0. 0. 7.55534241e+02 4.53419287e+03 8.46794434e+02
      2.05409814e+03 7.61289673e+02 1.31291455e+03 2.16930518e+03
      6.10552246e+02 6.28806152e+02 3.02958398e+03 2.71846069e+02 0.
      1.32766406e+03 0. 0. 0. 0. 0. 0. 0. 0. 0. 0. 0. 0. 0. 0. 0. 0. 0.
      0. 0. 0. 0. 0. 0. 0. 0. 0. 0. 0. 0. 0. 0. 0. 0. 0. 0. 0. 0. 0. 0.
      0. 0. 0. 0. 0. 0. 0. 0. 0.</_>
    <_>
      1.75633008e+03 1.96575684e+02 0. 1.85963416e+03 7.44363428e+03 0.
      1.96575684e+02 1.40433008e+03 1.59495850e+03 9.33594604e+02
      7.94010071e+02 1.68985107e+03 5.48985107e+03 7.94010071e+02
      9.33594604e+02 1.24295850e+03 0. 0. 0. 0. 0. 0. 0. 0. 0. 0. 0. 0.
      0. 0. 0. 0. 0. 0. 0. 0. 0. 0. 0. 0. 0. 0. 0. 0. 0. 0. 0. 0. 0. 0.
      0. 0. 0. 0. 0. 0. 0. 0. 0. 0. 0. 0. 0. 0.</_>
    <_>
      7.18809619e+03 7.45524414e+02 1.26017224e+03 0. 0. 0.
      2.78172607e+02 0. 5.44792627e+03 1.65974292e+03 9.03958008e+02
      2.92572681e+03 3.88598047e+03 6.47000793e+02 3.47968384e+02 0. 0.
      0. 0. 0. 0. 0. 0. 0. 0. 0. 0. 0. 0. 0. 0. 0. 0. 0. 0. 0. 0. 0. 0.
      0. 0. 0. 0. 0. 0. 0. 0. 0. 0. 0. 0. 0. 0. 0. 0. 0. 0. 0. 0. 0. 0.
      0. 0. 0.</_>
    <_>
      2.14676587e+03 1.65995288e+03 7.25196899e+02 1.99086597e+03
      3.96423389e+03 0. 0. 5.44683411e+02 2.94344824e+03 1.96575684e+02
      0. 2.71623779e+03 4.47582520e+03 1.32926331e+03 1.45622693e+03
      6.79924988e+02 0. 0. 0. 0. 0. 0. 0. 0. 0. 0. 0. 0. 0. 0. 0. 0. 0.
      0. 0. 0. 0. 0. 0. 0. 0. 0. 0. 0. 0. 0. 0. 0. 0. 0. 0. 0. 0. 0. 0.
      0. 0. 0. 0. 0. 0. 0. 0. 0.</_>
    <_>
      3.34205469e+03 1.26121191e+03 5.44987183e+02 9.13898254e+02
      5.22929150e+03 1.05926367e+03 1.32053918e+03 4.30743530e+02
      2.96587109e+03 1.47210132e+03 1.50027966e+03 6.50246094e+02
      4.17468213e+03 7.94074280e+02 3.41505493e+02 2.90104565e+03 0. 0.
      0. 0. 0. 0. 0. 0. 0. 0. 0. 0. 0. 0. 0. 0. 0. 0. 0. 0. 0. 0. 0. 0.
      0. 0. 0. 0. 0. 0. 0. 0. 0. 0. 0. 0. 0. 0. 0. 0. 0. 0. 0. 0. 0. 0.
      0. 0.</_>
    <_>
      3.29405469e+03 9.02319214e+02 1.27351184e+03 9.13898254e+02
      5.09276172e+03 0. 1.58713806e+03 1.30435413e+03 3.37066821e+03
      2.09475830e+03 1.55779395e+03 6.50246094e+02 3.78249561e+03
      7.94074280e+02 3.41505493e+02 2.90104565e+03 0. 0. 0. 0. 0. 0. 0.
      0. 0. 0. 0. 0. 0. 0. 0. 0. 0. 0. 0. 0. 0. 0. 0. 0. 0. 0. 0. 0. 0.
      0. 0. 0. 0. 0. 0. 0. 0. 0. 0. 0. 0. 0. 0. 0. 0. 0. 0. 0.</_>
    <_>
      7.51832471e+03 340. 1.28667664e+03 8.82281128e+02 3.85428125e+03
      1.28667664e+03 340. 1.33032471e+03 7.51832471e+03 340.
      1.28667664e+03 8.82281128e+02 3.85428125e+03 1.28667664e+03 340.
      1.33032471e+03 0. 0. 0. 0. 0. 0. 0. 0. 0. 0. 0. 0. 0. 0. 0. 0. 0.
      0. 0. 0. 0. 0. 0. 0. 0. 0. 0. 0. 0. 0. 0. 0. 0. 0. 0. 0. 0. 0. 0.
      0. 0. 0. 0. 0. 0. 0. 0. 0.</_>
    <_>
      5744. 6.50053833e+02 8.97067444e+02 8.79422546e+02 2.66342261e+03
      8.97067444e+02 6.50053833e+02 0. 9.46988672e+03 0. 0. 0.
      1.52514038e+03 0. 1.32563623e+03 7.83205078e+02 0. 0. 0. 0. 0. 0.
      0. 0. 0. 0. 0. 0. 0. 0. 0. 0. 0. 0. 0. 0. 0. 0. 0. 0. 0. 0. 0. 0.
      0. 0. 0. 0. 0. 0. 0. 0. 0. 0. 0. 0. 0. 0. 0. 0. 0. 0. 0. 0.</_>
    <_>
      4.53927832e+03 1.96569775e+03 1.26728613e+03 1.31875195e+03
      2.45530688e+03 1.04804581e+02 1.09556677e+03 2.52238281e+03
      3.39971753e+03 0. 1.09169788e+03 6.41038208e+02 2.66219287e+03 0.
      4.00228577e+02 2.35064868e+03 0. 0. 0. 0. 0. 0. 0. 0. 0. 0. 0. 0.
      0. 0. 0. 0. 0. 0. 0. 0. 0. 0. 0. 0. 0. 0. 0. 0. 0. 0. 0. 0. 0. 0.
      0. 0. 0. 0. 0. 0. 0. 0. 0. 0. 0. 0. 0. 0.</_>
    <_>
      2.94229297e+03 6.26894287e+02 7.25196899e+02 7.76134033e+02
      2.58013403e+03 7.25196899e+02 6.26894287e+02 2.16229297e+03
      2.94229297e+03 6.26894287e+02 7.25196899e+02 7.76134033e+02
      2.58013403e+03 7.25196899e+02 6.26894287e+02 2.16229297e+03 0. 0.
      0. 0. 0. 0. 0. 0. 0. 0. 0. 0. 0. 0. 0. 0. 0. 0. 0. 0. 0. 0. 0. 0.
      0. 0. 0. 0. 0. 0. 0. 0. 0. 0. 0. 0. 0. 0. 0. 0. 0. 0. 0. 0. 0. 0.
      0. 0.</_>
    <_>
      3.89745044e+03 0. 1.43376709e+03 1.40680847e+03 4.65597900e+03
      9.08715942e+02 7.90061768e+02 1.05109467e+02 396. 5.01184601e+02
      6.82068909e+02 9.81014038e+02 5.29680859e+03 1.59479504e+03 0.
      1.41117114e+03 0. 0. 0. 0. 0. 0. 0. 0. 0. 0. 0. 0. 0. 0. 0. 0. 0.
      0. 0. 0. 0. 0. 0. 0. 0. 0. 0. 0. 0. 0. 0. 0. 0. 0. 0. 0. 0. 0. 0.
      0. 0. 0. 0. 0. 0. 0. 0. 0.</_></uncompressed_support_vectors>
  <decision_functions>
    <_>
      <sv_count>1</sv_count>
      <rho>-1.7656265982216793e-01</rho>
      <alpha>
        1.</alpha>
      <index>
        0</index></_>
    <_>
      <sv_count>1</sv_count>
      <rho>-9.5012996029676966e-01</rho>
      <alpha>
        1.</alpha>
      <index>
        1</index></_>
    <_>
      <sv_count>1</sv_count>
      <rho>-1.2544849480234330e+00</rho>
      <alpha>
        1.</alpha>
      <index>
        2</index></_>
    <_>
      <sv_count>1</sv_count>
      <rho>-7.9637808484945660e-01</rho>
      <alpha>
        1.</alpha>
      <index>
        3</index></_>
    <_>
      <sv_count>1</sv_count>
      <rho>-1.6655367893698947e+00</rho>
      <alpha>
        1.</alpha>
      <index>
        4</index></_>
    <_>
      <sv_count>1</sv_count>
      <rho>-2.6406054243311896e+00</rho>
      <alpha>
        1.</alpha>
      <index>
        5</index></_>
    <_>
      <sv_count>1</sv_count>
      <rho>-7.6209043426300985e-02</rho>
      <alpha>
        1.</alpha>
      <index>
        6</index></_>
    <_>
      <sv_count>1</sv_count>
      <rho>-1.9144337425994529e+00</rho>
      <alpha>
        1.</alpha>
      <index>
        7</index></_>
    <_>
      <sv_count>1</sv_count>
      <rho>-2.7288516165838139e+00</rho>
      <alpha>
        1.</alpha>
      <index>
        8</index></_>
    <_>
      <sv_count>1</sv_count>
      <rho>-1.1681138856198445e+00</rho>
      <alpha>
        1.</alpha>
      <index>
        9</index></_>
    <_>
      <sv_count>1</sv_count>
      <rho>3.6033866697457184e-01</rho>
      <alpha>
        1.</alpha>
      <index>
        10</index></_>
    <_>
      <sv_count>1</sv_count>
      <rho>5.9114234830564638e-01</rho>
      <alpha>
        1.</alpha>
      <index>
        11</index></_>
    <_>
      <sv_count>1</sv_count>
      <rho>1.0826131489981690e+00</rho>
      <alpha>
        1.</alpha>
      <index>
        12</index></_>
    <_>
      <sv_count>1</sv_count>
      <rho>7.8055997820290612e-01</rho>
      <alpha>
        1.</alpha>
      <index>
        13</index></_>
    <_>
      <sv_count>1</sv_count>
      <rho>1.4317698369698217e+00</rho>
      <alpha>
        1.</alpha>
      <index>
        14</index></_>
    <_>
      <sv_count>1</sv_count>
      <rho>1.9590226496622029e-01</rho>
      <alpha>
        1.</alpha>
      <index>
        15</index></_>
    <_>
      <sv_count>1</sv_count>
      <rho>9.1260125490796451e-01</rho>
      <alpha>
        1.</alpha>
      <index>
        16</index></_>
    <_>
      <sv_count>1</sv_count>
      <rho>1.1763382092409669e+00</rho>
      <alpha>
        1.</alpha>
      <index>
        17</index></_>
    <_>
      <sv_count>1</sv_count>
      <rho>-7.6028597943672149e-01</rho>
      <alpha>
        1.</alpha>
      <index>
        18</index></_>
    <_>
      <sv_count>1</sv_count>
      <rho>8.4790366550743135e-01</rho>
      <alpha>
        1.</alpha>
      <index>
        19</index></_>
    <_>
      <sv_count>1</sv_count>
      <rho>6.5924472381792854e-01</rho>
      <alpha>
        1.</alpha>
      <index>
        20</index></_>
    <_>
      <sv_count>1</sv_count>
      <rho>-2.7634434770410249e-01</rho>
      <alpha>
        1.</alpha>
      <index>
        21</index></_>
    <_>
      <sv_count>1</sv_count>
      <rho>1.0377243142783446e+00</rho>
      <alpha>
        1.</alpha>
      <index>
        22</index></_>
    <_>
      <sv_count>1</sv_count>
      <rho>-2.7242124013657315e-01</rho>
      <alpha>
        1.</alpha>
      <index>
        23</index></_>
    <_>
      <sv_count>1</sv_count>
      <rho>1.4434189782845483e+00</rho>
      <alpha>
        1.</alpha>
      <index>
        24</index></_>
    <_>
      <sv_count>1</sv_count>
      <rho>7.1856525099467916e-01</rho>
      <alpha>
        1.</alpha>
      <index>
        25</index></_>
    <_>
      <sv_count>1</sv_count>
      <rho>-1.6448524861586353e+00</rho>
      <alpha>
        1.</alpha>
      <index>
        26</index></_>
    <_>
      <sv_count>1</sv_count>
      <rho>9.2309247864374733e-01</rho>
      <alpha>
        1.</alpha>
      <index>
        27</index></_>
    <_>
      <sv_count>1</sv_count>
      <rho>-5.7415701306938871e-01</rho>
      <alpha>
        1.</alpha>
      <index>
        28</index></_>
    <_>
      <sv_count>1</sv_count>
      <rho>1.6067444667741975e+00</rho>
      <alpha>
        1.</alpha>
      <index>
        29</index></_>
    <_>
      <sv_count>1</sv_count>
      <rho>-2.9549320978514643e-01</rho>
      <alpha>
        1.</alpha>
      <index>
        30</index></_>
    <_>
      <sv_count>1</sv_count>
      <rho>2.5864249151221519e-01</rho>
      <alpha>
        1.</alpha>
      <index>
        31</index></_>
    <_>
      <sv_count>1</sv_count>
      <rho>2.1715431582818592e-01</rho>
      <alpha>
        1.</alpha>
      <index>
        32</index></_>
    <_>
      <sv_count>1</sv_count>
      <rho>-1.7043308387189418e+00</rho>
      <alpha>
        1.</alpha>
      <index>
        33</index></_>
    <_>
      <sv_count>1</sv_count>
      <rho>-6.8991016968409280e-01</rho>
      <alpha>
        1.</alpha>
      <index>
        34</index></_>
    <_>
      <sv_count>1</sv_count>
      <rho>-3.8433657493504186e-01</rho>
      <alpha>
        1.</alpha>
      <index>
        35</index></_>
    <_>
      <sv_count>1</sv_count>
      <rho>-4.7933305453229069e-01</rho>
      <alpha>
        1.</alpha>
      <index>
        36</index></_>
    <_>
      <sv_count>1</sv_count>
      <rho>-4.3695000845850790e-01</rho>
      <alpha>
        1.</alpha>
      <index>
        37</index></_>
    <_>
      <sv_count>1</sv_count>
      <rho>-1.7082251610342589e+00</rho>
      <alpha>
        1.</alpha>
      <index>
        38</index></_>
    <_>
      <sv_count>1</sv_count>
      <rho>-1.0746764968064277e+00</rho>
      <alpha>
        1.</alpha>
      <index>
        39</index></_>
    <_>
      <sv_count>1</sv_count>
      <rho>2.2842374944515567e+00</rho>
      <alpha>
        1.</alpha>
      <index>
        40</index></_>
    <_>
      <sv_count>1</sv_count>
      <rho>-4.3989059322408447e-01</rho>
      <alpha>
        1.</alpha>
      <index>
        41</index></_>
    <_>
      <sv_count>1</sv_count>
      <rho>2.0505956043952516e+00</rho>
      <alpha>
        1.</alpha>
      <index>
        42</index></_>
    <_>
      <sv_count>1</sv_count>
      <rho>1.1143963932978362e+00</rho>
      <alpha>
        1.</alpha>
      <index>
        43</index></_>
    <_>
      <sv_count>1</sv_count>
      <rho>-1.9580960695376071e+00</rho>
      <alpha>
        1.</alpha>
      <index>
        44</index></_>
    <_>
      <sv_count>1</sv_count>
      <rho>-9.1410480877876876e-01</rho>
      <alpha>
        1.</alpha>
      <index>
        45</index></_>
    <_>
      <sv_count>1</sv_count>
      <rho>-2.4065011886824950e+00</rho>
      <alpha>
        1.</alpha>
      <index>
        46</index></_>
    <_>
      <sv_count>1</sv_count>
      <rho>-1.5863983393313672e+00</rho>
      <alpha>
        1.</alpha>
      <index>
        47</index></_>
    <_>
      <sv_count>1</sv_count>
      <rho>-1.6870340358116085e+00</rho>
      <alpha>
        1.</alpha>
      <index>
        48</index></_>
    <_>
      <sv_count>1</sv_count>
      <rho>7.6780093998619348e-01</rho>
      <alpha>
        1.</alpha>
      <index>
        49</index></_>
    <_>
      <sv_count>1</sv_count>
      <rho>6.7657187508602945e-01</rho>
      <alpha>
        1.</alpha>
      <index>
        50</index></_>
    <_>
      <sv_count>1</sv_count>
      <rho>-8.7676505906708979e-01</rho>
      <alpha>
        1.</alpha>
      <index>
        51</index></_>
    <_>
      <sv_count>1</sv_count>
      <rho>-2.9300776229862198e+00</rho>
      <alpha>
        1.</alpha>
      <index>
        52</index></_>
    <_>
      <sv_count>1</sv_count>
      <rho>-1.9969805271847498e+00</rho>
      <alpha>
        1.</alpha>
      <index>
        53</index></_>
    <_>
      <sv_count>1</sv_count>
      <rho>-1.6870340244110975e+00</rho>
      <alpha>
        1.</alpha>
      <index>
        54</index></_></decision_functions></opencv_ml_svm>
</opencv_storage>
