<?xml version="1.0"?>
<opencv_storage>
<opencv_ml_svm>
  <format>3</format>
  <svmType>C_SVC</svmType>
  <kernel>
    <type>LINEAR</type></kernel>
  <C>1.</C>
  <term_criteria><epsilon>1.1920928955078125e-07</epsilon>
    <iterations>1000</iterations></term_criteria>
  <var_count>64</var_count>
  <class_count>11</class_count>
  <class_labels type_id="opencv-matrix">
    <rows>11</rows>
    <cols>1</cols>
    <dt>i</dt>
    <data>
      0 1 2 3 4 5 6 7 8 9 11</data></class_labels>
  <sv_total>55</sv_total>
  <support_vectors>
    <_>
      1.82134288e-04 -3.85804415e-05 4.84119919e-05 -2.69925681e-06
      1.08062042e-04 4.84119919e-05 -3.85804415e-05 7.16957657e-05
      -2.87505682e-04 4.52442364e-05 1.38593125e-04 1.07502863e-04
      2.42329625e-04 4.78602924e-05 -2.72536145e-05 -1.54488371e-05 0.
      0. 0. 0. 0. 0. 0. 0. 0. 0. 0. 0. 0. 0. 0. 0. 0. 0. 0. 0. 0. 0. 0.
      0. 0. 0. 0. 0. 0. 0. 0. 0. 0. 0. 0. 0. 0. 0. 0. 0. 0. 0. 0. 0. 0.
      0. 0. 0.</_>
    <_>
      8.41358924e-05 7.63219487e-06 -1.69868174e-04 -6.11156793e-05
      -1.49695683e-04 -3.40552151e-06 3.29170980e-05 1.07696971e-04
      9.27748333e-05 -2.71327590e-05 -6.89701701e-05 -2.64525170e-05
      -7.85919692e-05 -3.82680300e-05 3.21156040e-05 6.98854346e-05 0.
      0. 0. 0. 0. 0. 0. 0. 0. 0. 0. 0. 0. 0. 0. 0. 0. 0. 0. 0. 0. 0. 0.
      0. 0. 0. 0. 0. 0. 0. 0. 0. 0. 0. 0. 0. 0. 0. 0. 0. 0. 0. 0. 0. 0.
      0. 0. 0.</_>
    <_>
      -5.20009999e-05 3.59691185e-05 -1.37394920e-04 8.34714374e-05
      -1.98171052e-04 -4.15942704e-05 -9.65129584e-05 1.84003657e-04
      2.05676421e-04 -2.51665119e-06 -1.26061041e-05 -1.23683903e-05
      -1.99655726e-04 -4.55844820e-05 -3.94722556e-05 6.41642837e-05 0.
      0. 0. 0. 0. 0. 0. 0. 0. 0. 0. 0. 0. 0. 0. 0. 0. 0. 0. 0. 0. 0. 0.
      0. 0. 0. 0. 0. 0. 0. 0. 0. 0. 0. 0. 0. 0. 0. 0. 0. 0. 0. 0. 0. 0.
      0. 0. 0.</_>
    <_>
      -2.49034376e-04 -2.68186413e-04 -1.05280575e-04 5.34454120e-05
      1.90634775e-04 1.29353997e-04 5.53598984e-05 -1.07015207e-04
      1.33808702e-04 6.53631287e-05 5.99159575e-05 1.46286999e-04
      1.96919733e-04 6.58538556e-05 4.59235416e-05 -2.93862522e-05 0. 0.
      0. 0. 0. 0. 0. 0. 0. 0. 0. 0. 0. 0. 0. 0. 0. 0. 0. 0. 0. 0. 0. 0.
      0. 0. 0. 0. 0. 0. 0. 0. 0. 0. 0. 0. 0. 0. 0. 0. 0. 0. 0. 0. 0. 0.
      0. 0.</_>
    <_>
      8.42645968e-05 -7.25173595e-05 -9.97183961e-05 6.48180867e-05
      -2.18645699e-04 -2.34166626e-04 -1.22978003e-04 7.00893215e-05
      7.48525417e-05 -9.25017812e-05 -2.38217151e-04 -1.23065751e-04
      -6.80054582e-05 6.53926836e-05 -5.35955332e-05 1.58003735e-04 0.
      0. 0. 0. 0. 0. 0. 0. 0. 0. 0. 0. 0. 0. 0. 0. 0. 0. 0. 0. 0. 0. 0.
      0. 0. 0. 0. 0. 0. 0. 0. 0. 0. 0. 0. 0. 0. 0. 0. 0. 0. 0. 0. 0. 0.
      0. 0. 0.</_>
    <_>
      -6.21561412e-05 5.18644811e-05 -1.65655685e-04 -2.29573561e-05
      -3.89961031e-04 -1.61904929e-04 -2.18562593e-04 7.53828936e-05
      3.35061457e-04 -2.55076535e-04 -3.16237129e-04 2.13253355e-04
      -1.70829444e-04 -1.89538085e-04 1.64909477e-04 2.74122667e-05 0.
      0. 0. 0. 0. 0. 0. 0. 0. 0. 0. 0. 0. 0. 0. 0. 0. 0. 0. 0. 0. 0. 0.
      0. 0. 0. 0. 0. 0. 0. 0. 0. 0. 0. 0. 0. 0. 0. 0. 0. 0. 0. 0. 0. 0.
      0. 0. 0.</_>
    <_>
      -9.47868284e-06 -1.28478190e-04 3.32593409e-05 5.49253418e-05
      1.96966808e-04 5.07024051e-05 2.55734558e-05 6.74341209e-05
      -2.40088484e-05 -1.85594123e-04 -3.39527978e-05 1.46847424e-05
      -6.79232762e-05 1.04007722e-05 2.73363330e-05 3.89360903e-05 0. 0.
      0. 0. 0. 0. 0. 0. 0. 0. 0. 0. 0. 0. 0. 0. 0. 0. 0. 0. 0. 0. 0. 0.
      0. 0. 0. 0. 0. 0. 0. 0. 0. 0. 0. 0. 0. 0. 0. 0. 0. 0. 0. 0. 0. 0.
      0. 0.</_>
    <_>
      2.20467162e-04 -1.76062385e-04 -1.45859769e-04 1.85913705e-05
      -1.39572832e-04 -1.45859769e-04 -1.76062385e-04 2.13447041e-04
      1.50415799e-04 -1.17666161e-04 -2.02279134e-05 -1.66614307e-04
      -2.64224567e-04 -2.02279134e-05 -1.17666161e-04 1.43395664e-04 0.
      0. 0. 0. 0. 0. 0. 0. 0. 0. 0. 0. 0. 0. 0. 0. 0. 0. 0. 0. 0. 0. 0.
      0. 0. 0. 0. 0. 0. 0. 0. 0. 0. 0. 0. 0. 0. 0. 0. 0. 0. 0. 0. 0. 0.
      0. 0. 0.</_>
    <_>
      -1.23710968e-04 -9.97289899e-05 -2.85577029e-04 1.29784472e-04
      -1.23014164e-04 -1.52298206e-04 7.25628415e-05 -2.14680840e-04
      2.95743521e-04 -2.50684207e-05 -2.11406325e-04 -9.19361701e-05
      -3.95592855e-04 1.54093344e-04 -2.81934743e-04 2.73483747e-04 0.
      0. 0. 0. 0. 0. 0. 0. 0. 0. 0. 0. 0. 0. 0. 0. 0. 0. 0. 0. 0. 0. 0.
      0. 0. 0. 0. 0. 0. 0. 0. 0. 0. 0. 0. 0. 0. 0. 0. 0. 0. 0. 0. 0. 0.
      0. 0. 0.</_>
    <_>
      2.37459280e-05 4.46856984e-06 6.52330471e-07 7.39413144e-06
      -6.64250547e-05 6.52330471e-07 4.46856984e-06 1.60610853e-05
      2.37459280e-05 4.46856984e-06 6.52330471e-07 7.39413144e-06
      -6.64250547e-05 6.52330471e-07 4.46856984e-06 1.60610853e-05 0. 0.
      0. 0. 0. 0. 0. 0. 0. 0. 0. 0. 0. 0. 0. 0. 0. 0. 0. 0. 0. 0. 0. 0.
      0. 0. 0. 0. 0. 0. 0. 0. 0. 0. 0. 0. 0. 0. 0. 0. 0. 0. 0. 0. 0. 0.
      0. 0.</_>
    <_>
      4.44215366e-05 9.29993621e-06 -6.57385826e-05 -3.16567202e-05
      -5.21661204e-05 1.40777302e-05 4.18160546e-08 0. 1.36688657e-04
      -3.05450812e-05 -5.54088583e-05 -3.69340196e-05 -4.11870569e-05
      -9.69943130e-07 -4.45070827e-06 8.15696239e-06 0. 0. 0. 0. 0. 0.
      0. 0. 0. 0. 0. 0. 0. 0. 0. 0. 0. 0. 0. 0. 0. 0. 0. 0. 0. 0. 0. 0.
      0. 0. 0. 0. 0. 0. 0. 0. 0. 0. 0. 0. 0. 0. 0. 0. 0. 0. 0. 0.</_>
    <_>
      1.99611677e-05 -1.24359019e-06 -2.68397816e-05 2.10222242e-05
      -5.24616371e-05 -1.38564765e-05 -3.60110462e-05 2.00170853e-05
      1.81508352e-04 -1.56588576e-05 -2.88465217e-05 -3.51324088e-05
      -8.15512976e-05 1.84721898e-06 -1.45541326e-05 -1.02926460e-05 0.
      0. 0. 0. 0. 0. 0. 0. 0. 0. 0. 0. 0. 0. 0. 0. 0. 0. 0. 0. 0. 0. 0.
      0. 0. 0. 0. 0. 0. 0. 0. 0. 0. 0. 0. 0. 0. 0. 0. 0. 0. 0. 0. 0. 0.
      0. 0. 0.</_>
    <_>
      -1.78752947e-04 -8.41563233e-05 -6.38549027e-05 1.14928298e-05
      2.39096153e-05 3.95409552e-05 5.26363619e-05 -5.55137194e-05
      2.79850356e-04 0. -3.81760838e-05 -6.00672365e-06 -4.88730038e-05
      4.62572461e-06 4.74632652e-05 2.94096026e-05 0. 0. 0. 0. 0. 0. 0.
      0. 0. 0. 0. 0. 0. 0. 0. 0. 0. 0. 0. 0. 0. 0. 0. 0. 0. 0. 0. 0. 0.
      0. 0. 0. 0. 0. 0. 0. 0. 0. 0. 0. 0. 0. 0. 0. 0. 0. 0. 0.</_>
    <_>
      6.82470418e-05 -1.37158968e-05 -1.40163938e-05 8.26570522e-06
      -5.61995257e-05 -4.21744080e-05 -2.42840651e-05 -1.30872468e-05
      1.80823365e-04 -3.86023894e-05 -6.35861797e-05 -5.77417668e-05
      -5.71485216e-05 2.06892564e-05 -1.23564696e-05 2.72053367e-05 0.
      0. 0. 0. 0. 0. 0. 0. 0. 0. 0. 0. 0. 0. 0. 0. 0. 0. 0. 0. 0. 0. 0.
      0. 0. 0. 0. 0. 0. 0. 0. 0. 0. 0. 0. 0. 0. 0. 0. 0. 0. 0. 0. 0. 0.
      0. 0. 0.</_>
    <_>
      3.70190937e-05 -7.86164401e-06 -1.68633851e-05 2.50769176e-06
      -3.43109932e-05 -2.56094281e-05 -2.86376635e-05 -1.37780830e-06
      2.31455007e-04 -6.41584993e-05 -5.89604642e-05 -5.71086503e-06
      -5.68602081e-05 -3.62370406e-06 1.14003224e-05 1.05281506e-05 0.
      0. 0. 0. 0. 0. 0. 0. 0. 0. 0. 0. 0. 0. 0. 0. 0. 0. 0. 0. 0. 0. 0.
      0. 0. 0. 0. 0. 0. 0. 0. 0. 0. 0. 0. 0. 0. 0. 0. 0. 0. 0. 0. 0. 0.
      0. 0. 0.</_>
    <_>
      -4.17196352e-05 -7.90116101e-05 1.11030658e-05 3.82080107e-05
      1.16349780e-04 2.79353790e-05 2.67281939e-05 3.25382134e-05
      7.52982378e-05 -1.74363377e-04 -4.45103651e-05 -5.29041972e-05
      -1.17086798e-04 2.06252789e-05 2.66265361e-05 -1.96172277e-05 0.
      0. 0. 0. 0. 0. 0. 0. 0. 0. 0. 0. 0. 0. 0. 0. 0. 0. 0. 0. 0. 0. 0.
      0. 0. 0. 0. 0. 0. 0. 0. 0. 0. 0. 0. 0. 0. 0. 0. 0. 0. 0. 0. 0. 0.
      0. 0. 0.</_>
    <_>
      8.27001350e-05 -4.42328637e-05 -8.70072927e-06 5.72854788e-07
      -1.56725946e-05 -8.70072927e-06 -4.42328637e-05 9.30775968e-06
      1.81500407e-04 -5.10146783e-05 -1.38323257e-05 -4.65049525e-05
      -6.84259212e-05 4.93056450e-06 -3.29161812e-05 1.82040894e-05 0.
      0. 0. 0. 0. 0. 0. 0. 0. 0. 0. 0. 0. 0. 0. 0. 0. 0. 0. 0. 0. 0. 0.
      0. 0. 0. 0. 0. 0. 0. 0. 0. 0. 0. 0. 0. 0. 0. 0. 0. 0. 0. 0. 0. 0.
      0. 0. 0.</_>
    <_>
      2.06041150e-05 -1.02530294e-05 -3.07728587e-05 9.23830703e-06
      -2.62724061e-05 -8.55475992e-06 7.72768362e-06 -4.06127619e-05
      2.27059310e-04 -3.36025005e-05 -4.46827617e-05 -5.06720935e-05
      -9.53447889e-05 2.11452552e-05 -3.48679678e-05 4.94266133e-05 0.
      0. 0. 0. 0. 0. 0. 0. 0. 0. 0. 0. 0. 0. 0. 0. 0. 0. 0. 0. 0. 0. 0.
      0. 0. 0. 0. 0. 0. 0. 0. 0. 0. 0. 0. 0. 0. 0. 0. 0. 0. 0. 0. 0. 0.
      0. 0. 0.</_>
    <_>
      2.11721981e-05 2.65337167e-06 3.22400592e-06 3.60882427e-06
      -5.17338740e-05 3.22400592e-06 2.65337167e-06 1.74748516e-06
      3.63482213e-05 0. 0. 0. -5.61267880e-05 3.24372922e-06
      2.25290319e-06 4.42818873e-06 0. 0. 0. 0. 0. 0. 0. 0. 0. 0. 0. 0.
      0. 0. 0. 0. 0. 0. 0. 0. 0. 0. 0. 0. 0. 0. 0. 0. 0. 0. 0. 0. 0. 0.
      0. 0. 0. 0. 0. 0. 0. 0. 0. 0. 0. 0. 0. 0.</_>
    <_>
      -2.16509274e-04 7.25380814e-05 2.20467133e-04 2.04547730e-04
      1.05034393e-04 1.07270389e-05 -1.37941475e-04 -5.53989812e-05
      5.97192520e-05 4.55271984e-05 1.80719202e-04 5.94876001e-05
      -4.74836597e-05 1.58633793e-05 -1.14102419e-04 -1.83250941e-05 0.
      0. 0. 0. 0. 0. 0. 0. 0. 0. 0. 0. 0. 0. 0. 0. 0. 0. 0. 0. 0. 0. 0.
      0. 0. 0. 0. 0. 0. 0. 0. 0. 0. 0. 0. 0. 0. 0. 0. 0. 0. 0. 0. 0. 0.
      0. 0. 0.</_>
    <_>
      -7.55608417e-05 -9.77167001e-05 6.99556185e-05 6.90779052e-05
      1.18294796e-04 1.56961244e-06 -1.88744471e-05 -5.70322845e-05
      -4.43778627e-05 2.63162365e-05 6.98776566e-05 5.50068071e-05
      6.74655821e-05 2.91892029e-05 -2.85374099e-05 -9.96735798e-06 0.
      0. 0. 0. 0. 0. 0. 0. 0. 0. 0. 0. 0. 0. 0. 0. 0. 0. 0. 0. 0. 0. 0.
      0. 0. 0. 0. 0. 0. 0. 0. 0. 0. 0. 0. 0. 0. 0. 0. 0. 0. 0. 0. 0. 0.
      0. 0. 0.</_>
    <_>
      -1.16103380e-04 1.38444711e-05 2.98963598e-04 1.99228103e-04
      -2.15207147e-05 -8.08917248e-05 -1.06417123e-04 -1.72197440e-04
      -3.54298500e-05 -6.47063716e-05 -1.96465990e-05 -2.00895511e-06
      -4.24216450e-05 1.11578629e-04 -7.12818874e-05 8.08551431e-06 0.
      0. 0. 0. 0. 0. 0. 0. 0. 0. 0. 0. 0. 0. 0. 0. 0. 0. 0. 0. 0. 0. 0.
      0. 0. 0. 0. 0. 0. 0. 0. 0. 0. 0. 0. 0. 0. 0. 0. 0. 0. 0. 0. 0. 0.
      0. 0. 0.</_>
    <_>
      -7.39235838e-05 5.11475773e-05 3.60828068e-04 6.74969851e-05
      4.04112689e-05 3.93958835e-05 -9.70869951e-05 -1.51085522e-04
      -7.71355117e-05 5.24516618e-05 8.85850313e-05 4.04990933e-05
      2.37917702e-05 -2.11400111e-05 -4.93945845e-06 -1.59439733e-04 0.
      0. 0. 0. 0. 0. 0. 0. 0. 0. 0. 0. 0. 0. 0. 0. 0. 0. 0. 0. 0. 0. 0.
      0. 0. 0. 0. 0. 0. 0. 0. 0. 0. 0. 0. 0. 0. 0. 0. 0. 0. 0. 0. 0. 0.
      0. 0. 0.</_>
    <_>
      -5.86866772e-05 -5.70479096e-05 8.84043038e-05 5.59791806e-05
      1.23344958e-04 4.39070254e-06 1.18245916e-05 -8.95829999e-06
      -7.42818374e-05 -4.22808589e-05 2.19285121e-05 3.38550562e-05
      -1.72133714e-05 -8.83321889e-07 1.42298686e-05 6.13316251e-06 0.
      0. 0. 0. 0. 0. 0. 0. 0. 0. 0. 0. 0. 0. 0. 0. 0. 0. 0. 0. 0. 0. 0.
      0. 0. 0. 0. 0. 0. 0. 0. 0. 0. 0. 0. 0. 0. 0. 0. 0. 0. 0. 0. 0. 0.
      0. 0. 0.</_>
    <_>
      -2.23208190e-05 -1.84189284e-05 3.99620913e-04 1.46842882e-04
      2.17268345e-04 -1.52594948e-04 -1.30141576e-04 -1.66769343e-04
      -9.07148278e-05 1.11194931e-04 1.06393927e-04 -1.05978746e-04
      -2.31096856e-05 3.42098683e-05 -1.01261590e-04 -8.50673023e-05 0.
      0. 0. 0. 0. 0. 0. 0. 0. 0. 0. 0. 0. 0. 0. 0. 0. 0. 0. 0. 0. 0. 0.
      0. 0. 0. 0. 0. 0. 0. 0. 0. 0. 0. 0. 0. 0. 0. 0. 0. 0. 0. 0. 0. 0.
      0. 0. 0.</_>
    <_>
      -4.39768301e-05 1.98203770e-06 2.42154259e-04 7.87255776e-05
      1.23509410e-04 -7.65511868e-05 -1.82742554e-07 -1.77655573e-04
      -4.11859692e-05 9.77156014e-05 1.04054147e-04 -1.51096983e-05
      -8.62557936e-05 9.51006659e-05 -6.68705979e-05 -5.66709205e-05 0.
      0. 0. 0. 0. 0. 0. 0. 0. 0. 0. 0. 0. 0. 0. 0. 0. 0. 0. 0. 0. 0. 0.
      0. 0. 0. 0. 0. 0. 0. 0. 0. 0. 0. 0. 0. 0. 0. 0. 0. 0. 0. 0. 0. 0.
      0. 0. 0.</_>
    <_>
      9.96636300e-06 4.61601257e-06 2.64709761e-05 1.70014355e-05
      -7.60932890e-05 3.65523192e-06 0. 0. 9.73709757e-06 8.77800539e-06
      1.15001967e-05 1.19883016e-05 -8.59687498e-05 8.51778805e-06 0.
      5.97220833e-06 0. 0. 0. 0. 0. 0. 0. 0. 0. 0. 0. 0. 0. 0. 0. 0. 0.
      0. 0. 0. 0. 0. 0. 0. 0. 0. 0. 0. 0. 0. 0. 0. 0. 0. 0. 0. 0. 0. 0.
      0. 0. 0. 0. 0. 0. 0. 0. 0.</_>
    <_>
      -4.48656829e-05 -1.32536006e-04 6.05174318e-06 -1.06732823e-05
      1.53010347e-04 5.57585881e-05 6.69154979e-05 -1.02000085e-04
      -8.28070843e-05 8.33411741e-06 4.96839093e-05 7.15551869e-05
      1.50847889e-04 2.81009507e-05 1.82646397e-06 4.71023995e-05 0. 0.
      0. 0. 0. 0. 0. 0. 0. 0. 0. 0. 0. 0. 0. 0. 0. 0. 0. 0. 0. 0. 0. 0.
      0. 0. 0. 0. 0. 0. 0. 0. 0. 0. 0. 0. 0. 0. 0. 0. 0. 0. 0. 0. 0. 0.
      0. 0.</_>
    <_>
      2.07336998e-04 -5.30793805e-05 1.54598121e-04 -3.25454166e-05
      -1.73501190e-04 -1.19651762e-04 8.37737462e-05 -2.54198065e-04
      -1.38415824e-04 -2.02268289e-04 -2.97293853e-04 -9.95675509e-05
      6.00331150e-05 1.59617382e-04 5.13934647e-05 1.33676018e-04 0. 0.
      0. 0. 0. 0. 0. 0. 0. 0. 0. 0. 0. 0. 0. 0. 0. 0. 0. 0. 0. 0. 0. 0.
      0. 0. 0. 0. 0. 0. 0. 0. 0. 0. 0. 0. 0. 0. 0. 0. 0. 0. 0. 0. 0. 0.
      0. 0.</_>
    <_>
      1.86505727e-04 -7.09483429e-05 2.53575243e-04 -2.04026117e-04
      1.62523520e-05 2.30979185e-05 9.89330292e-05 -2.13330946e-04
      -2.45436298e-04 -1.12646929e-04 -1.48375329e-04 1.06007181e-04
      2.25785887e-04 -3.38360405e-05 1.93120330e-04 -2.04690587e-04 0.
      0. 0. 0. 0. 0. 0. 0. 0. 0. 0. 0. 0. 0. 0. 0. 0. 0. 0. 0. 0. 0. 0.
      0. 0. 0. 0. 0. 0. 0. 0. 0. 0. 0. 0. 0. 0. 0. 0. 0. 0. 0. 0. 0. 0.
      0. 0. 0.</_>
    <_>
      -2.92654822e-05 -6.35448232e-05 4.80189447e-05 2.05661104e-06
      1.49105428e-04 3.97208969e-05 6.54321411e-05 -1.25115721e-05
      -1.00096353e-04 -8.76860067e-05 -1.79721155e-05 3.16736914e-05
      4.68082590e-06 -1.08440418e-05 3.62376377e-05 5.92998840e-05 0. 0.
      0. 0. 0. 0. 0. 0. 0. 0. 0. 0. 0. 0. 0. 0. 0. 0. 0. 0. 0. 0. 0. 0.
      0. 0. 0. 0. 0. 0. 0. 0. 0. 0. 0. 0. 0. 0. 0. 0. 0. 0. 0. 0. 0. 0.
      0. 0.</_>
    <_>
      4.06648964e-04 -1.93359301e-04 9.87614403e-05 -1.92198160e-04
      1.54783251e-04 -1.60137264e-04 8.61669541e-05 -1.33638809e-04
      -2.24237592e-04 -1.06202388e-05 -1.12089539e-04 -2.33058629e-04
      8.44471870e-05 5.43084789e-05 4.79202681e-05 -3.33489152e-05 0. 0.
      0. 0. 0. 0. 0. 0. 0. 0. 0. 0. 0. 0. 0. 0. 0. 0. 0. 0. 0. 0. 0. 0.
      0. 0. 0. 0. 0. 0. 0. 0. 0. 0. 0. 0. 0. 0. 0. 0. 0. 0. 0. 0. 0. 0.
      0. 0.</_>
    <_>
      1.17478012e-04 -9.66094012e-05 1.39659416e-04 -1.17174139e-04
      1.53689543e-04 -9.82759739e-05 2.08660451e-04 -3.46126704e-04
      -2.10624581e-04 7.57675953e-05 -5.40267101e-05 -7.81081180e-05
      -2.24611995e-05 1.58580093e-04 -9.32958665e-06 -3.92173934e-05 0.
      0. 0. 0. 0. 0. 0. 0. 0. 0. 0. 0. 0. 0. 0. 0. 0. 0. 0. 0. 0. 0. 0.
      0. 0. 0. 0. 0. 0. 0. 0. 0. 0. 0. 0. 0. 0. 0. 0. 0. 0. 0. 0. 0. 0.
      0. 0. 0.</_>
    <_>
      2.37415406e-05 0. 1.24400567e-05 3.98446673e-06 -8.27683543e-05
      2.97229030e-06 8.77706407e-06 3.52497568e-06 5.93618324e-06
      5.88021840e-06 0. 8.20188598e-06 -8.29381970e-05 7.50750542e-06
      7.26021062e-06 7.13757345e-06 0. 0. 0. 0. 0. 0. 0. 0. 0. 0. 0. 0.
      0. 0. 0. 0. 0. 0. 0. 0. 0. 0. 0. 0. 0. 0. 0. 0. 0. 0. 0. 0. 0. 0.
      0. 0. 0. 0. 0. 0. 0. 0. 0. 0. 0. 0. 0. 0.</_>
    <_>
      1.15208168e-04 1.34536371e-04 3.23931235e-05 -2.41937432e-05
      -1.64869212e-04 -1.12076923e-04 -3.40232291e-05 2.56323619e-05
      8.93567722e-06 -4.46898630e-05 -1.21440069e-04 -1.14448296e-04
      -9.46252621e-05 5.11546887e-06 1.70857165e-05 -6.81600852e-07 0.
      0. 0. 0. 0. 0. 0. 0. 0. 0. 0. 0. 0. 0. 0. 0. 0. 0. 0. 0. 0. 0. 0.
      0. 0. 0. 0. 0. 0. 0. 0. 0. 0. 0. 0. 0. 0. 0. 0. 0. 0. 0. 0. 0. 0.
      0. 0. 0.</_>
    <_>
      1.22438229e-04 2.33895553e-04 4.47281927e-05 -4.98371046e-05
      -1.32842702e-04 -1.29489927e-04 -9.63697457e-05 2.27954047e-06
      1.15970623e-04 -1.59203875e-04 -1.60043346e-04 3.38290170e-06
      -9.50895774e-05 -5.01798095e-05 6.89902663e-05 -7.45953002e-05 0.
      0. 0. 0. 0. 0. 0. 0. 0. 0. 0. 0. 0. 0. 0. 0. 0. 0. 0. 0. 0. 0. 0.
      0. 0. 0. 0. 0. 0. 0. 0. 0. 0. 0. 0. 0. 0. 0. 0. 0. 0. 0. 0. 0. 0.
      0. 0. 0.</_>
    <_>
      2.73179994e-05 4.08495816e-06 7.88470279e-05 2.44316670e-05
      1.20609940e-04 7.88855778e-06 3.28251008e-05 9.89222535e-05
      -8.35126557e-05 -1.86300167e-04 -8.11131540e-05 -2.42557362e-05
      -1.50773369e-04 -3.99546589e-05 4.64765872e-05 6.23026499e-05 0.
      0. 0. 0. 0. 0. 0. 0. 0. 0. 0. 0. 0. 0. 0. 0. 0. 0. 0. 0. 0. 0. 0.
      0. 0. 0. 0. 0. 0. 0. 0. 0. 0. 0. 0. 0. 0. 0. 0. 0. 0. 0. 0. 0. 0.
      0. 0. 0.</_>
    <_>
      1.74378787e-04 1.32569956e-04 7.21281467e-05 -6.85302657e-05
      -1.36651506e-04 -6.00410494e-05 -9.77683158e-05 7.51599873e-05
      -3.86961619e-06 -9.80138138e-05 -4.24441278e-05 -1.42699224e-04
      -1.87516838e-04 -4.24441278e-05 -1.58430812e-05 -7.20023745e-05 0.
      0. 0. 0. 0. 0. 0. 0. 0. 0. 0. 0. 0. 0. 0. 0. 0. 0. 0. 0. 0. 0. 0.
      0. 0. 0. 0. 0. 0. 0. 0. 0. 0. 0. 0. 0. 0. 0. 0. 0. 0. 0. 0. 0. 0.
      0. 0. 0.</_>
    <_>
      1.43533296e-04 2.36650201e-04 3.59377882e-05 -3.39545659e-05
      -1.68878934e-04 -7.42606062e-05 1.19383240e-05 -8.93987308e-05
      6.99831653e-05 -6.00008643e-05 -1.11712812e-04 -1.54548179e-04
      -2.45224888e-04 2.62701142e-05 -8.20984278e-05 -1.06074431e-05 0.
      0. 0. 0. 0. 0. 0. 0. 0. 0. 0. 0. 0. 0. 0. 0. 0. 0. 0. 0. 0. 0. 0.
      0. 0. 0. 0. 0. 0. 0. 0. 0. 0. 0. 0. 0. 0. 0. 0. 0. 0. 0. 0. 0. 0.
      0. 0. 0.</_>
    <_>
      2.09906902e-05 1.54278823e-05 7.62276613e-06 8.55387100e-07
      -6.12866643e-05 1.02325555e-06 4.31951275e-06 8.16959346e-06
      1.34644970e-05 2.50769222e-06 3.45644054e-07 5.43845253e-08
      -6.07160582e-05 3.18310612e-07 6.02865885e-06 3.34653168e-06 0. 0.
      0. 0. 0. 0. 0. 0. 0. 0. 0. 0. 0. 0. 0. 0. 0. 0. 0. 0. 0. 0. 0. 0.
      0. 0. 0. 0. 0. 0. 0. 0. 0. 0. 0. 0. 0. 0. 0. 0. 0. 0. 0. 0. 0. 0.
      0. 0.</_>
    <_>
      -1.03651713e-04 3.37896490e-05 9.16853751e-05 -1.48104751e-04
      1.69120976e-04 2.26920994e-04 1.82918629e-05 5.09523998e-05
      -2.02859019e-06 4.98816989e-05 1.92940963e-04 3.07239592e-04
      9.30310052e-05 -2.28482648e-04 1.73396838e-04 -3.86529806e-04 0.
      0. 0. 0. 0. 0. 0. 0. 0. 0. 0. 0. 0. 0. 0. 0. 0. 0. 0. 0. 0. 0. 0.
      0. 0. 0. 0. 0. 0. 0. 0. 0. 0. 0. 0. 0. 0. 0. 0. 0. 0. 0. 0. 0. 0.
      0. 0. 0.</_>
    <_>
      -8.64485919e-05 -5.64943439e-05 3.19138417e-05 2.15322452e-05
      1.60751471e-04 7.34476271e-05 5.26643998e-05 3.57382887e-05
      -7.44139979e-05 -7.47125086e-05 1.45672948e-05 5.47513228e-05
      -4.01390571e-05 -3.52461175e-05 3.56528180e-05 2.82154087e-05 0.
      0. 0. 0. 0. 0. 0. 0. 0. 0. 0. 0. 0. 0. 0. 0. 0. 0. 0. 0. 0. 0. 0.
      0. 0. 0. 0. 0. 0. 0. 0. 0. 0. 0. 0. 0. 0. 0. 0. 0. 0. 0. 0. 0. 0.
      0. 0. 0.</_>
    <_>
      3.31486255e-04 -1.51506523e-04 -3.29408613e-05 -2.33930681e-04
      2.75092141e-04 1.79506809e-04 -7.13005693e-06 2.02869458e-04
      9.01400563e-05 1.53628556e-04 3.35172634e-04 1.37483869e-06
      -9.83940336e-05 -2.90310651e-04 -3.12037228e-05 -1.69423874e-04 0.
      0. 0. 0. 0. 0. 0. 0. 0. 0. 0. 0. 0. 0. 0. 0. 0. 0. 0. 0. 0. 0. 0.
      0. 0. 0. 0. 0. 0. 0. 0. 0. 0. 0. 0. 0. 0. 0. 0. 0. 0. 0. 0. 0. 0.
      0. 0. 0.</_>
    <_>
      -1.05403298e-04 1.39597150e-05 1.45912672e-05 -9.28353984e-05
      2.97877210e-04 1.54876543e-04 2.39026383e-04 -2.21249022e-04
      -1.01875967e-05 2.41478949e-04 2.98207917e-04 7.00514865e-05
      -1.66101585e-04 8.48648961e-06 -6.45386826e-05 -1.43452708e-04 0.
      0. 0. 0. 0. 0. 0. 0. 0. 0. 0. 0. 0. 0. 0. 0. 0. 0. 0. 0. 0. 0. 0.
      0. 0. 0. 0. 0. 0. 0. 0. 0. 0. 0. 0. 0. 0. 0. 0. 0. 0. 0. 0. 0. 0.
      0. 0. 0.</_>
    <_>
      2.21889513e-05 0. 6.87095689e-06 3.72442196e-06 -8.49885691e-05
      5.81400354e-06 7.12299970e-06 1.51181821e-05 8.63843616e-06
      1.93757533e-05 1.59089705e-05 1.36572007e-05 -9.62673221e-05
      1.34240736e-06 5.33181901e-06 4.99007820e-06 0. 0. 0. 0. 0. 0. 0.
      0. 0. 0. 0. 0. 0. 0. 0. 0. 0. 0. 0. 0. 0. 0. 0. 0. 0. 0. 0. 0. 0.
      0. 0. 0. 0. 0. 0. 0. 0. 0. 0. 0. 0. 0. 0. 0. 0. 0. 0. 0.</_>
    <_>
      -4.93660373e-05 -9.28702721e-05 4.73806140e-05 3.89886045e-05
      1.55846952e-04 6.68988578e-05 7.80748305e-05 7.63974458e-05
      -1.25438062e-04 -7.44378267e-05 -8.15797762e-07 -1.78530299e-05
      -8.54905375e-05 -1.72215623e-05 1.66212048e-05 8.75543410e-05 0.
      0. 0. 0. 0. 0. 0. 0. 0. 0. 0. 0. 0. 0. 0. 0. 0. 0. 0. 0. 0. 0. 0.
      0. 0. 0. 0. 0. 0. 0. 0. 0. 0. 0. 0. 0. 0. 0. 0. 0. 0. 0. 0. 0. 0.
      0. 0. 0.</_>
    <_>
      3.19815561e-04 -2.55794643e-04 -2.84522626e-04 -2.09999580e-05
      1.87016572e-04 -2.96124315e-04 -4.28433414e-05 1.58268449e-04
      5.83307301e-05 5.32438280e-05 -9.23821208e-05 -3.01765773e-04
      -1.21529876e-04 -2.12786508e-05 -2.41932343e-04 3.55133612e-04 0.
      0. 0. 0. 0. 0. 0. 0. 0. 0. 0. 0. 0. 0. 0. 0. 0. 0. 0. 0. 0. 0. 0.
      0. 0. 0. 0. 0. 0. 0. 0. 0. 0. 0. 0. 0. 0. 0. 0. 0. 0. 0. 0. 0. 0.
      0. 0. 0.</_>
    <_>
      -6.03628578e-05 -9.70217079e-05 -6.49655412e-05 8.28639095e-05
      1.33493289e-04 -8.22852671e-05 2.36112930e-04 -1.94676541e-04
      -9.70645924e-05 2.03477975e-04 1.07848202e-04 -2.26593169e-04
      -2.84449517e-04 2.61198729e-04 -2.71695520e-04 1.51013461e-04 0.
      0. 0. 0. 0. 0. 0. 0. 0. 0. 0. 0. 0. 0. 0. 0. 0. 0. 0. 0. 0. 0. 0.
      0. 0. 0. 0. 0. 0. 0. 0. 0. 0. 0. 0. 0. 0. 0. 0. 0. 0. 0. 0. 0. 0.
      0. 0. 0.</_>
    <_>
      1.33280628e-05 0. 2.14542160e-06 1.32994519e-05 -7.78784743e-05 0.
      5.94081848e-06 1.10067604e-05 1.37660863e-05 4.40722897e-06
      4.74104809e-06 9.92840705e-06 -8.67682102e-05 1.04864066e-05 0.
      1.58247803e-05 0. 0. 0. 0. 0. 0. 0. 0. 0. 0. 0. 0. 0. 0. 0. 0. 0.
      0. 0. 0. 0. 0. 0. 0. 0. 0. 0. 0. 0. 0. 0. 0. 0. 0. 0. 0. 0. 0. 0.
      0. 0. 0. 0. 0. 0. 0. 0. 0.</_>
    <_>
      1.31260167e-04 2.27748569e-05 -2.97782735e-05 -3.71321767e-05
      -1.38708536e-04 -4.02205587e-05 -9.51701368e-05 -2.06142540e-05
      1.00128134e-04 7.10940585e-05 5.26203949e-05 -5.27348639e-05
      2.98309114e-05 2.26092743e-05 -7.50228137e-05 -5.69931071e-05 0.
      0. 0. 0. 0. 0. 0. 0. 0. 0. 0. 0. 0. 0. 0. 0. 0. 0. 0. 0. 0. 0. 0.
      0. 0. 0. 0. 0. 0. 0. 0. 0. 0. 0. 0. 0. 0. 0. 0. 0. 0. 0. 0. 0. 0.
      0. 0. 0.</_>
    <_>
      3.99745913e-05 8.35251558e-05 -5.11241124e-05 -3.08121453e-05
      -1.60036012e-04 -3.58091784e-05 -2.56074964e-05 -1.11844849e-04
      9.11388051e-05 1.21483383e-04 2.68723015e-05 -4.39844116e-05
      2.93778921e-05 4.76712521e-05 -7.38444578e-05 -6.07029287e-05 0.
      0. 0. 0. 0. 0. 0. 0. 0. 0. 0. 0. 0. 0. 0. 0. 0. 0. 0. 0. 0. 0. 0.
      0. 0. 0. 0. 0. 0. 0. 0. 0. 0. 0. 0. 0. 0. 0. 0. 0. 0. 0. 0. 0. 0.
      0. 0. 0.</_>
    <_>
      2.32579714e-05 1.20415734e-05 1.06610332e-06 0. -6.76980999e-05 0.
      0. 1.74583192e-06 2.20478123e-05 1.49177777e-05 7.44908175e-06
      1.59838555e-06 -4.72997563e-05 4.38510187e-06 0. 0. 0. 0. 0. 0. 0.
      0. 0. 0. 0. 0. 0. 0. 0. 0. 0. 0. 0. 0. 0. 0. 0. 0. 0. 0. 0. 0. 0.
      0. 0. 0. 0. 0. 0. 0. 0. 0. 0. 0. 0. 0. 0. 0. 0. 0. 0. 0. 0. 0.</_>
    <_>
      -1.94063818e-04 -8.82209570e-05 3.88567365e-04 -2.77132822e-05
      1.23993209e-06 -1.60162381e-05 2.22132614e-04 -5.49671298e-04
      -7.29807143e-05 2.33757935e-04 9.63839921e-05 3.93464405e-04
      -3.99281998e-04 2.47462856e-04 -1.84589779e-04 -1.20152479e-04 0.
      0. 0. 0. 0. 0. 0. 0. 0. 0. 0. 0. 0. 0. 0. 0. 0. 0. 0. 0. 0. 0. 0.
      0. 0. 0. 0. 0. 0. 0. 0. 0. 0. 0. 0. 0. 0. 0. 0. 0. 0. 0. 0. 0. 0.
      0. 0. 0.</_>
    <_>
      9.37666118e-06 0. 1.07161122e-05 9.96966901e-06 -8.32834412e-05
      1.07161122e-05 0. 8.12669805e-06 1.01479554e-05 9.99924509e-07
      3.40950101e-06 1.99535916e-05 -8.06830212e-05 3.40950101e-06
      9.99924509e-07 8.89799139e-06 0. 0. 0. 0. 0. 0. 0. 0. 0. 0. 0. 0.
      0. 0. 0. 0. 0. 0. 0. 0. 0. 0. 0. 0. 0. 0. 0. 0. 0. 0. 0. 0. 0. 0.
      0. 0. 0. 0. 0. 0. 0. 0. 0. 0. 0. 0. 0. 0.</_>
    <_>
      1.37660863e-05 4.40722897e-06 4.74104809e-06 9.92840705e-06
      -8.67682102e-05 1.04864066e-05 0. 1.58247803e-05 1.33280628e-05 0.
      2.14542160e-06 1.32994519e-05 -7.78784743e-05 0. 5.94081848e-06
      1.10067604e-05 0. 0. 0. 0. 0. 0. 0. 0. 0. 0. 0. 0. 0. 0. 0. 0. 0.
      0. 0. 0. 0. 0. 0. 0. 0. 0. 0. 0. 0. 0. 0. 0. 0. 0. 0. 0. 0. 0. 0.
      0. 0. 0. 0. 0. 0. 0. 0. 0.</_></support_vectors>
  <uncompressed_sv_total>26</uncompressed_sv_total>
  <uncompressed_support_vectors>
    <_>
      4.78444922e+03 9.48937317e+02 0. 9.14532654e+02 2.82653271e+03 0.
      9.48937317e+02 4.59245313e+03 9.24400781e+03 0. 0. 0.
      1.70126880e+03 0. 9.36586365e+02 5.79385010e+03 0. 0. 0. 0. 0. 0.
      0. 0. 0. 0. 0. 0. 0. 0. 0. 0. 0. 0. 0. 0. 0. 0. 0. 0. 0. 0. 0. 0.
      0. 0. 0. 0. 0. 0. 0. 0. 0. 0. 0. 0. 0. 0. 0. 0. 0. 0. 0. 0.</_>
    <_>
      3.69255664e+03 0. 4.88405176e+03 2.82096899e+03 5.63601123e+03
      4.66476135e+01 8.65970886e+02 0. 2.11293115e+03 1.84928064e+03
      3.54027588e+03 2.17839526e+03 3.75038403e+03 9.42559326e+02
      1.04212073e+03 0. 0. 0. 0. 0. 0. 0. 0. 0. 0. 0. 0. 0. 0. 0. 0. 0.
      0. 0. 0. 0. 0. 0. 0. 0. 0. 0. 0. 0. 0. 0. 0. 0. 0. 0. 0. 0. 0. 0.
      0. 0. 0. 0. 0. 0. 0. 0. 0. 0.</_>
    <_>
      4.62236426e+03 7.65324768e+02 1.87228210e+03 6.91809235e+01
      5.01565479e+03 1.33614392e+03 2.20102686e+03 0. 1948.
      6.46623535e+02 1.19120056e+03 1.45077271e+03 5.07488965e+03
      6.92342407e+02 1.21897302e+03 1.99474805e+03 0. 0. 0. 0. 0. 0. 0.
      0. 0. 0. 0. 0. 0. 0. 0. 0. 0. 0. 0. 0. 0. 0. 0. 0. 0. 0. 0. 0. 0.
      0. 0. 0. 0. 0. 0. 0. 0. 0. 0. 0. 0. 0. 0. 0. 0. 0. 0. 0.</_>
    <_>
      7.90414648e+03 2.00327051e+03 1.51418823e+03 7.63468384e+02
      2.49362988e+03 0. 0. 2.55096924e+03 5.29676611e+03 0.
      5.59072449e+02 8.79659042e+01 2.42154614e+03 5.14861145e+02 0.
      2.16133789e+03 0. 0. 0. 0. 0. 0. 0. 0. 0. 0. 0. 0. 0. 0. 0. 0. 0.
      0. 0. 0. 0. 0. 0. 0. 0. 0. 0. 0. 0. 0. 0. 0. 0. 0. 0. 0. 0. 0. 0.
      0. 0. 0. 0. 0. 0. 0. 0. 0.</_>
    <_>
      3014. 1.20846130e+03 1.21418030e+03 6.45804932e+02 4.82133154e+03
      2.20287476e+03 1.57953467e+03 1.49274719e+03 3.08321362e+03
      1.35542114e+03 2.23266113e+03 2.02744983e+03 3.71356567e+03 0.
      1.06931555e+03 8.46249390e+02 0. 0. 0. 0. 0. 0. 0. 0. 0. 0. 0. 0.
      0. 0. 0. 0. 0. 0. 0. 0. 0. 0. 0. 0. 0. 0. 0. 0. 0. 0. 0. 0. 0. 0.
      0. 0. 0. 0. 0. 0. 0. 0. 0. 0. 0. 0. 0. 0.</_>
    <_>
      3.34205493e+03 1.26121191e+03 5.44987183e+02 9.13898254e+02
      5.22929150e+03 1.05926367e+03 1.32053918e+03 4.30743530e+02
      2.96587109e+03 1.47210132e+03 1.50027966e+03 6.50246094e+02
      4.17468164e+03 7.94074280e+02 3.41505493e+02 2.90104565e+03 0. 0.
      0. 0. 0. 0. 0. 0. 0. 0. 0. 0. 0. 0. 0. 0. 0. 0. 0. 0. 0. 0. 0. 0.
      0. 0. 0. 0. 0. 0. 0. 0. 0. 0. 0. 0. 0. 0. 0. 0. 0. 0. 0. 0. 0. 0.
      0. 0.</_>
    <_>
      6.56339453e+03 2.62363818e+03 4.44288208e+02 0. 0. 0.
      1.02449989e+02 4.28098114e+02 8.05417969e+03 4.40672705e+03
      9.41107056e+02 1.48487354e+03 4.49913184e+03 0. 0. 3.01673853e+03
      0. 0. 0. 0. 0. 0. 0. 0. 0. 0. 0. 0. 0. 0. 0. 0. 0. 0. 0. 0. 0. 0.
      0. 0. 0. 0. 0. 0. 0. 0. 0. 0. 0. 0. 0. 0. 0. 0. 0. 0. 0. 0. 0. 0.
      0. 0. 0. 0.</_>
    <_>
      2.37622681e+03 2.34233008e+03 9.89909546e+02 9.13898193e+02
      3.41389819e+03 9.89909546e+02 2.34233008e+03 9.28226746e+02
      2.85071582e+03 1.84646362e+03 5.00657593e+02 1.68323523e+03
      4.18323535e+03 5.00657593e+02 1.84646362e+03 1.40271594e+03 0. 0.
      0. 0. 0. 0. 0. 0. 0. 0. 0. 0. 0. 0. 0. 0. 0. 0. 0. 0. 0. 0. 0. 0.
      0. 0. 0. 0. 0. 0. 0. 0. 0. 0. 0. 0. 0. 0. 0. 0. 0. 0. 0. 0. 0. 0.
      0. 0.</_>
    <_>
      4.72036279e+03 1.05068176e+03 1.39069116e+03 6.83264221e+02
      3.54882422e+03 7.94074280e+02 5.67850342e+02 2.90104565e+03
      3.29405469e+03 9.02319214e+02 1.19985461e+03 1.36068457e+03
      4.26597510e+03 0. 1.63751270e+03 1.34609717e+03 0. 0. 0. 0. 0. 0.
      0. 0. 0. 0. 0. 0. 0. 0. 0. 0. 0. 0. 0. 0. 0. 0. 0. 0. 0. 0. 0. 0.
      0. 0. 0. 0. 0. 0. 0. 0. 0. 0. 0. 0. 0. 0. 0. 0. 0. 0. 0. 0.</_>
    <_>
      5592. 6.62397156e+02 9.31632996e+02 9.42274902e+02 2.85427490e+03
      9.31632996e+02 6.62397156e+02 0. 9.48702344e+03 0. 0. 0.
      1.70859412e+03 9.37332397e+02 5.48032837e+02 6.42535828e+02 0. 0.
      0. 0. 0. 0. 0. 0. 0. 0. 0. 0. 0. 0. 0. 0. 0. 0. 0. 0. 0. 0. 0. 0.
      0. 0. 0. 0. 0. 0. 0. 0. 0. 0. 0. 0. 0. 0. 0. 0. 0. 0. 0. 0. 0. 0.
      0. 0.</_>
    <_>
      1.34131091e+03 6.21240479e+02 3.56256421e+03 2.28811768e+03
      6.07907666e+03 4.91934967e+02 0. 0. 1.31045544e+03 1.18137720e+03
      1.54773999e+03 1.61343103e+03 4750. 1.14635620e+03 0.
      8.03762451e+02 0. 0. 0. 0. 0. 0. 0. 0. 0. 0. 0. 0. 0. 0. 0. 0. 0.
      0. 0. 0. 0. 0. 0. 0. 0. 0. 0. 0. 0. 0. 0. 0. 0. 0. 0. 0. 0. 0. 0.
      0. 0. 0. 0. 0. 0. 0. 0. 0.</_>
    <_>
      3.19556909e+03 0. 1.67440955e+03 5.36302124e+02 5.17952686e+03
      4.00065002e+02 1.18137720e+03 4.74455475e+02 7.98999695e+02
      7.91466980e+02 0. 1.10395923e+03 5.15666602e+03 1.01049689e+03
      9.77211426e+02 9.60704712e+02 0. 0. 0. 0. 0. 0. 0. 0. 0. 0. 0. 0.
      0. 0. 0. 0. 0. 0. 0. 0. 0. 0. 0. 0. 0. 0. 0. 0. 0. 0. 0. 0. 0. 0.
      0. 0. 0. 0. 0. 0. 0. 0. 0. 0. 0. 0. 0. 0.</_>
    <_>
      4.43314404e+03 3.90608350e+03 1.84071045e+03 1.05536720e+02 1802.
      2.81684235e+02 1.18908582e+03 1.81479028e+03 2.80507104e+03
      6.90323486e+02 0. 0. 1.97134570e+03 0. 1.65958362e+03
      5.53398621e+02 0. 0. 0. 0. 0. 0. 0. 0. 0. 0. 0. 0. 0. 0. 0. 0. 0.
      0. 0. 0. 0. 0. 0. 0. 0. 0. 0. 0. 0. 0. 0. 0. 0. 0. 0. 0. 0. 0. 0.
      0. 0. 0. 0. 0. 0. 0. 0. 0.</_>
    <_>
      2.42478711e+03 0. 7.50851501e+02 4.07001221e+02 7.03253125e+03
      6.35348694e+02 7.78394531e+02 1.65210034e+03 944. 2.11736353e+03
      1.73851685e+03 1.49244568e+03 5800. 1.46696976e+02 5.82656006e+02
      5.45310913e+02 0. 0. 0. 0. 0. 0. 0. 0. 0. 0. 0. 0. 0. 0. 0. 0. 0.
      0. 0. 0. 0. 0. 0. 0. 0. 0. 0. 0. 0. 0. 0. 0. 0. 0. 0. 0. 0. 0. 0.
      0. 0. 0. 0. 0. 0. 0. 0. 0.</_>
    <_>
      1.80112524e+03 0. 2.89927582e+02 1.79725891e+03 5.79567285e+03 0.
      8.02829224e+02 1.48742957e+03 1.86031885e+03 5.95583313e+02
      6.40694885e+02 1.34170325e+03 4.59433350e+03 1.41711011e+03 0.
      2.13852612e+03 0. 0. 0. 0. 0. 0. 0. 0. 0. 0. 0. 0. 0. 0. 0. 0. 0.
      0. 0. 0. 0. 0. 0. 0. 0. 0. 0. 0. 0. 0. 0. 0. 0. 0. 0. 0. 0. 0. 0.
      0. 0. 0. 0. 0. 0. 0. 0. 0.</_>
    <_>
      5.60680566e+03 2.90286548e+03 2.57005829e+02 0. 0. 0. 0.
      4.20868164e+02 5.31507227e+03 3.59623267e+03 1.79575220e+03
      3.85323242e+02 4.91743457e+03 1.05711768e+03 0. 0. 0. 0. 0. 0. 0.
      0. 0. 0. 0. 0. 0. 0. 0. 0. 0. 0. 0. 0. 0. 0. 0. 0. 0. 0. 0. 0. 0.
      0. 0. 0. 0. 0. 0. 0. 0. 0. 0. 0. 0. 0. 0. 0. 0. 0. 0. 0. 0. 0.</_>
    <_>
      1.29026599e+03 0. 1.47457983e+03 1.37186621e+03 4.85986621e+03
      1.47457983e+03 0. 1.11826611e+03 1.39639917e+03 1.37593597e+02
      4.69160950e+02 2.74569385e+03 5.21769385e+03 4.69160950e+02
      1.37593597e+02 1.22439917e+03 0. 0. 0. 0. 0. 0. 0. 0. 0. 0. 0. 0.
      0. 0. 0. 0. 0. 0. 0. 0. 0. 0. 0. 0. 0. 0. 0. 0. 0. 0. 0. 0. 0. 0.
      0. 0. 0. 0. 0. 0. 0. 0. 0. 0. 0. 0. 0. 0.</_>
    <_>
      1.86031885e+03 5.95583313e+02 6.40694885e+02 1.34170325e+03
      4.59433350e+03 1.41711011e+03 0. 2.13852612e+03 1.80112524e+03 0.
      2.89927582e+02 1.79725891e+03 5.79567285e+03 0. 8.02829224e+02
      1.48742957e+03 0. 0. 0. 0. 0. 0. 0. 0. 0. 0. 0. 0. 0. 0. 0. 0. 0.
      0. 0. 0. 0. 0. 0. 0. 0. 0. 0. 0. 0. 0. 0. 0. 0. 0. 0. 0. 0. 0. 0.
      0. 0. 0. 0. 0. 0. 0. 0. 0.</_>
    <_>
      3.17942407e+03 7.14382751e+02 3.86657471e+02 1.15054285e+03
      3.13854297e+03 3.86657471e+02 7.14382751e+02 2.08742407e+03
      3.17942407e+03 7.14382751e+02 3.86657471e+02 1.15054297e+03
      3.13854297e+03 3.86657471e+02 7.14382751e+02 2.08742407e+03 0. 0.
      0. 0. 0. 0. 0. 0. 0. 0. 0. 0. 0. 0. 0. 0. 0. 0. 0. 0. 0. 0. 0. 0.
      0. 0. 0. 0. 0. 0. 0. 0. 0. 0. 0. 0. 0. 0. 0. 0. 0. 0. 0. 0. 0. 0.
      0. 0.</_>
    <_>
      1.89886255e+03 2.51435303e+03 1.00854047e+03 1.71835266e+03
      4.89835254e+03 1.00854047e+03 2.51435303e+03 4.54862579e+02
      2.85041089e+03 1.61591309e+03 2.16113306e+03 8.59176331e+02
      4.03917627e+03 2.16113306e+03 1.61591309e+03 1.40641089e+03 0. 0.
      0. 0. 0. 0. 0. 0. 0. 0. 0. 0. 0. 0. 0. 0. 0. 0. 0. 0. 0. 0. 0. 0.
      0. 0. 0. 0. 0. 0. 0. 0. 0. 0. 0. 0. 0. 0. 0. 0. 0. 0. 0. 0. 0. 0.
      0. 0.</_>
    <_>
      4.54133496e+03 8.98439758e+02 1.27962500e+03 8.41493896e+02
      3.36365601e+03 1.44388281e+03 1.68509473e+03 2.06975977e+03
      2.60773364e+03 1.98963574e+03 1.77814478e+03 0. 3.07228613e+03
      6.85423462e+02 3.58736664e+02 1.88969165e+03 0. 0. 0. 0. 0. 0. 0.
      0. 0. 0. 0. 0. 0. 0. 0. 0. 0. 0. 0. 0. 0. 0. 0. 0. 0. 0. 0. 0. 0.
      0. 0. 0. 0. 0. 0. 0. 0. 0. 0. 0. 0. 0. 0. 0. 0. 0. 0. 0.</_>
    <_>
      4.54133496e+03 8.98439758e+02 1.27962500e+03 8.41493896e+02
      3.36365601e+03 1.44388281e+03 1.68509473e+03 2.06976001e+03
      2.60773364e+03 1.98963574e+03 1.77814478e+03 0. 3.07228613e+03
      6.85423462e+02 3.58736664e+02 1.88969153e+03 0. 0. 0. 0. 0. 0. 0.
      0. 0. 0. 0. 0. 0. 0. 0. 0. 0. 0. 0. 0. 0. 0. 0. 0. 0. 0. 0. 0. 0.
      0. 0. 0. 0. 0. 0. 0. 0. 0. 0. 0. 0. 0. 0. 0. 0. 0. 0. 0.</_>
    <_>
      5.04654639e+03 8.95911133e+02 0. 1.49707251e+03 4.18907227e+03 0.
      8.95911133e+02 3.44254639e+03 5.04654639e+03 8.95911133e+02 0.
      1.49707251e+03 4.18907227e+03 0. 8.95911133e+02 3.44254639e+03 0.
      0. 0. 0. 0. 0. 0. 0. 0. 0. 0. 0. 0. 0. 0. 0. 0. 0. 0. 0. 0. 0. 0.
      0. 0. 0. 0. 0. 0. 0. 0. 0. 0. 0. 0. 0. 0. 0. 0. 0. 0. 0. 0. 0. 0.
      0. 0. 0.</_>
    <_>
      0. 0. 0. 0. 16320. 0. 0. 0. 0. 0. 0. 0. 16320. 0. 0. 0. 0. 0. 0.
      0. 0. 0. 0. 0. 0. 0. 0. 0. 0. 0. 0. 0. 0. 0. 0. 0. 0. 0. 0. 0. 0.
      0. 0. 0. 0. 0. 0. 0. 0. 0. 0. 0. 0. 0. 0. 0. 0. 0. 0. 0. 0. 0. 0.
      0.</_>
    <_>
      4.72036230e+03 1.05068176e+03 1.39069116e+03 6.83264221e+02
      3.54882422e+03 7.94074280e+02 5.67850342e+02 2.90104565e+03
      3.29405469e+03 9.02319214e+02 1.19985461e+03 1.36068457e+03
      4.26597510e+03 0. 1.63751270e+03 1.34609717e+03 0. 0. 0. 0. 0. 0.
      0. 0. 0. 0. 0. 0. 0. 0. 0. 0. 0. 0. 0. 0. 0. 0. 0. 0. 0. 0. 0. 0.
      0. 0. 0. 0. 0. 0. 0. 0. 0. 0. 0. 0. 0. 0. 0. 0. 0. 0. 0. 0.</_>
    <_>
      7.51832471e+03 340. 1.28667664e+03 8.82281128e+02 3.85428101e+03
      1.28667664e+03 340. 1.33032471e+03 7.51832471e+03 340.
      1.28667664e+03 8.82281067e+02 3.85428101e+03 1.28667664e+03 340.
      1.33032471e+03 0. 0. 0. 0. 0. 0. 0. 0. 0. 0. 0. 0. 0. 0. 0. 0. 0.
      0. 0. 0. 0. 0. 0. 0. 0. 0. 0. 0. 0. 0. 0. 0. 0. 0. 0. 0. 0. 0. 0.
      0. 0. 0. 0. 0. 0. 0. 0. 0.</_></uncompressed_support_vectors>
  <decision_functions>
    <_>
      <sv_count>1</sv_count>
      <rho>6.9952126721595551e-02</rho>
      <alpha>
        1.</alpha>
      <index>
        0</index></_>
    <_>
      <sv_count>1</sv_count>
      <rho>-9.6001216569888737e-01</rho>
      <alpha>
        1.</alpha>
      <index>
        1</index></_>
    <_>
      <sv_count>1</sv_count>
      <rho>-1.3251128920969917e+00</rho>
      <alpha>
        1.</alpha>
      <index>
        2</index></_>
    <_>
      <sv_count>1</sv_count>
      <rho>-2.1952286737649343e-01</rho>
      <alpha>
        1.</alpha>
      <index>
        3</index></_>
    <_>
      <sv_count>1</sv_count>
      <rho>-1.4246063166508842e+00</rho>
      <alpha>
        1.</alpha>
      <index>
        4</index></_>
    <_>
      <sv_count>1</sv_count>
      <rho>-1.9645768177993010e+00</rho>
      <alpha>
        1.</alpha>
      <index>
        5</index></_>
    <_>
      <sv_count>1</sv_count>
      <rho>-5.6254530415963377e-01</rho>
      <alpha>
        1.</alpha>
      <index>
        6</index></_>
    <_>
      <sv_count>1</sv_count>
      <rho>-1.0616732826168189e+00</rho>
      <alpha>
        1.</alpha>
      <index>
        7</index></_>
    <_>
      <sv_count>1</sv_count>
      <rho>-2.3446058338291631e+00</rho>
      <alpha>
        1.</alpha>
      <index>
        8</index></_>
    <_>
      <sv_count>1</sv_count>
      <rho>-1.1681138762248633e+00</rho>
      <alpha>
        1.</alpha>
      <index>
        9</index></_>
    <_>
      <sv_count>1</sv_count>
      <rho>2.5602790110617629e-01</rho>
      <alpha>
        1.</alpha>
      <index>
        10</index></_>
    <_>
      <sv_count>1</sv_count>
      <rho>4.8887815626372805e-01</rho>
      <alpha>
        1.</alpha>
      <index>
        11</index></_>
    <_>
      <sv_count>1</sv_count>
      <rho>6.5664430121929152e-01</rho>
      <alpha>
        1.</alpha>
      <index>
        12</index></_>
    <_>
      <sv_count>1</sv_count>
      <rho>7.9943026264350781e-01</rho>
      <alpha>
        1.</alpha>
      <index>
        13</index></_>
    <_>
      <sv_count>1</sv_count>
      <rho>1.1559785973090939e+00</rho>
      <alpha>
        1.</alpha>
      <index>
        14</index></_>
    <_>
      <sv_count>1</sv_count>
      <rho>-3.2783976736536780e-01</rho>
      <alpha>
        1.</alpha>
      <index>
        15</index></_>
    <_>
      <sv_count>1</sv_count>
      <rho>9.4671975857963675e-01</rho>
      <alpha>
        1.</alpha>
      <index>
        16</index></_>
    <_>
      <sv_count>1</sv_count>
      <rho>1.0343041504557664e+00</rho>
      <alpha>
        1.</alpha>
      <index>
        17</index></_>
    <_>
      <sv_count>1</sv_count>
      <rho>-7.6028599166545796e-01</rho>
      <alpha>
        1.</alpha>
      <index>
        18</index></_>
    <_>
      <sv_count>1</sv_count>
      <rho>9.3754191801909692e-01</rho>
      <alpha>
        1.</alpha>
      <index>
        19</index></_>
    <_>
      <sv_count>1</sv_count>
      <rho>4.8086646528307908e-01</rho>
      <alpha>
        1.</alpha>
      <index>
        20</index></_>
    <_>
      <sv_count>1</sv_count>
      <rho>-2.0431762085844858e-02</rho>
      <alpha>
        1.</alpha>
      <index>
        21</index></_>
    <_>
      <sv_count>1</sv_count>
      <rho>7.6153466344043363e-01</rho>
      <alpha>
        1.</alpha>
      <index>
        22</index></_>
    <_>
      <sv_count>1</sv_count>
      <rho>-5.5718090246790246e-02</rho>
      <alpha>
        1.</alpha>
      <index>
        23</index></_>
    <_>
      <sv_count>1</sv_count>
      <rho>1.8312479959043324e+00</rho>
      <alpha>
        1.</alpha>
      <index>
        24</index></_>
    <_>
      <sv_count>1</sv_count>
      <rho>5.5012425477057680e-01</rho>
      <alpha>
        1.</alpha>
      <index>
        25</index></_>
    <_>
      <sv_count>1</sv_count>
      <rho>-1.6448524895981762e+00</rho>
      <alpha>
        1.</alpha>
      <index>
        26</index></_>
    <_>
      <sv_count>1</sv_count>
      <rho>5.7925532255145062e-01</rho>
      <alpha>
        1.</alpha>
      <index>
        27</index></_>
    <_>
      <sv_count>1</sv_count>
      <rho>-7.9528552846933553e-01</rho>
      <alpha>
        1.</alpha>
      <index>
        28</index></_>
    <_>
      <sv_count>1</sv_count>
      <rho>9.7419338797318800e-01</rho>
      <alpha>
        1.</alpha>
      <index>
        29</index></_>
    <_>
      <sv_count>1</sv_count>
      <rho>-1.9734545538432502e-01</rho>
      <alpha>
        1.</alpha>
      <index>
        30</index></_>
    <_>
      <sv_count>1</sv_count>
      <rho>1.1980703509590021e+00</rho>
      <alpha>
        1.</alpha>
      <index>
        31</index></_>
    <_>
      <sv_count>1</sv_count>
      <rho>1.8849913554837841e-01</rho>
      <alpha>
        1.</alpha>
      <index>
        32</index></_>
    <_>
      <sv_count>1</sv_count>
      <rho>-1.7043308387189422e+00</rho>
      <alpha>
        1.</alpha>
      <index>
        33</index></_>
    <_>
      <sv_count>1</sv_count>
      <rho>-3.9363245749047482e-01</rho>
      <alpha>
        1.</alpha>
      <index>
        34</index></_>
    <_>
      <sv_count>1</sv_count>
      <rho>2.4832456003596706e-01</rho>
      <alpha>
        1.</alpha>
      <index>
        35</index></_>
    <_>
      <sv_count>1</sv_count>
      <rho>-8.2559256840357986e-01</rho>
      <alpha>
        1.</alpha>
      <index>
        36</index></_>
    <_>
      <sv_count>1</sv_count>
      <rho>-3.4091906099249741e-01</rho>
      <alpha>
        1.</alpha>
      <index>
        37</index></_>
    <_>
      <sv_count>1</sv_count>
      <rho>-3.2069014847398131e-01</rho>
      <alpha>
        1.</alpha>
      <index>
        38</index></_>
    <_>
      <sv_count>1</sv_count>
      <rho>-9.9108435994825805e-01</rho>
      <alpha>
        1.</alpha>
      <index>
        39</index></_>
    <_>
      <sv_count>1</sv_count>
      <rho>1.4831547683233464e+00</rho>
      <alpha>
        1.</alpha>
      <index>
        40</index></_>
    <_>
      <sv_count>1</sv_count>
      <rho>-4.7703622537614104e-01</rho>
      <alpha>
        1.</alpha>
      <index>
        41</index></_>
    <_>
      <sv_count>1</sv_count>
      <rho>2.3333848557968588e+00</rho>
      <alpha>
        1.</alpha>
      <index>
        42</index></_>
    <_>
      <sv_count>1</sv_count>
      <rho>7.7804809016783505e-01</rho>
      <alpha>
        1.</alpha>
      <index>
        43</index></_>
    <_>
      <sv_count>1</sv_count>
      <rho>-1.9580961675147051e+00</rho>
      <alpha>
        1.</alpha>
      <index>
        44</index></_>
    <_>
      <sv_count>1</sv_count>
      <rho>-8.8339639510075318e-01</rho>
      <alpha>
        1.</alpha>
      <index>
        45</index></_>
    <_>
      <sv_count>1</sv_count>
      <rho>5.8781523503500643e-01</rho>
      <alpha>
        1.</alpha>
      <index>
        46</index></_>
    <_>
      <sv_count>1</sv_count>
      <rho>-1.2130221864453843e+00</rho>
      <alpha>
        1.</alpha>
      <index>
        47</index></_>
    <_>
      <sv_count>1</sv_count>
      <rho>-1.6870340433750945e+00</rho>
      <alpha>
        1.</alpha>
      <index>
        48</index></_>
    <_>
      <sv_count>1</sv_count>
      <rho>8.1835759328731472e-01</rho>
      <alpha>
        1.</alpha>
      <index>
        49</index></_>
    <_>
      <sv_count>1</sv_count>
      <rho>5.5383812697529988e-01</rho>
      <alpha>
        1.</alpha>
      <index>
        50</index></_>
    <_>
      <sv_count>1</sv_count>
      <rho>-8.7676506209774419e-01</rho>
      <alpha>
        1.</alpha>
      <index>
        51</index></_>
    <_>
      <sv_count>1</sv_count>
      <rho>-2.4316459202965865e+00</rho>
      <alpha>
        1.</alpha>
      <index>
        52</index></_>
    <_>
      <sv_count>1</sv_count>
      <rho>-1.6759327353324214e+00</rho>
      <alpha>
        1.</alpha>
      <index>
        53</index></_>
    <_>
      <sv_count>1</sv_count>
      <rho>-1.6870340244110975e+00</rho>
      <alpha>
        1.</alpha>
      <index>
        54</index></_></decision_functions></opencv_ml_svm>
</opencv_storage>
