<?xml version="1.0"?>
<opencv_storage>
<opencv_ml_svm>
  <format>3</format>
  <svmType>C_SVC</svmType>
  <kernel>
    <type>LINEAR</type></kernel>
  <C>1.</C>
  <term_criteria><epsilon>1.1920928955078125e-07</epsilon>
    <iterations>1000</iterations></term_criteria>
  <var_count>64</var_count>
  <class_count>11</class_count>
  <class_labels type_id="opencv-matrix">
    <rows>11</rows>
    <cols>1</cols>
    <dt>i</dt>
    <data>
      0 1 2 3 4 5 6 7 8 9 11</data></class_labels>
  <sv_total>55</sv_total>
  <support_vectors>
    <_>
      2.56057800e-04 -1.01863843e-05 0. 1.20272576e-04 2.44300973e-05 0.
      -1.01863843e-05 1.20272576e-04 -3.98882577e-04 1.44184552e-04 0.
      1.20272576e-04 3.51900293e-04 0. -1.01863843e-05 1.20272576e-04 0.
      0. 0. 0. 0. 0. 0. 0. 0. 0. 0. 0. 0. 0. 0. 0. 0. 0. 0. 0. 0. 0. 0.
      0. 0. 0. 0. 0. 0. 0. 0. 0. 0. 0. 0. 0. 0. 0. 0. 0. 0. 0. 0. 0. 0.
      0. 0. 0.</_>
    <_>
      1.37743045e-04 -9.73990318e-05 -6.16005564e-05 4.35581751e-05
      -1.10194436e-04 0. -1.94798067e-05 4.35581751e-05 1.92840263e-04
      -1.16878837e-04 0. 4.35581751e-05 -6.66362539e-05 0.
      -1.94798067e-05 4.35581751e-05 0. 0. 0. 0. 0. 0. 0. 0. 0. 0. 0. 0.
      0. 0. 0. 0. 0. 0. 0. 0. 0. 0. 0. 0. 0. 0. 0. 0. 0. 0. 0. 0. 0. 0.
      0. 0. 0. 0. 0. 0. 0. 0. 0. 0. 0. 0. 0. 0.</_>
    <_>
      7.28685991e-05 -8.66036062e-05 0. 1.38270443e-05 -5.47202035e-05
      0. -8.65927359e-05 2.71050543e-20 2.74064892e-04 -4.32963679e-05
      0. 5.53324862e-05 -1.10052693e-04 0. -1.36094473e-04
      5.53324862e-05 0. 0. 0. 0. 0. 0. 0. 0. 0. 0. 0. 0. 0. 0. 0. 0. 0.
      0. 0. 0. 0. 0. 0. 0. 0. 0. 0. 0. 0. 0. 0. 0. 0. 0. 0. 0. 0. 0. 0.
      0. 0. 0. 0. 0. 0. 0. 0. 0.</_>
    <_>
      -8.52384765e-05 -3.31766438e-04 0. 4.13200360e-05 2.12267751e-05
      0. 7.55334040e-05 -5.15755528e-05 1.80760006e-04 1.78939463e-05 0.
      4.13200360e-05 -2.21478713e-05 0. 3.03601682e-05 -9.87704407e-05
      0. 0. 0. 0. 0. 0. 0. 0. 0. 0. 0. 0. 0. 0. 0. 0. 0. 0. 0. 0. 0. 0.
      0. 0. 0. 0. 0. 0. 0. 0. 0. 0. 0. 0. 0. 0. 0. 0. 0. 0. 0. 0. 0. 0.
      0. 0. 0. 0.</_>
    <_>
      1.00865516e-04 -2.39974639e-07 0. 3.07684058e-05 -1.87212150e-04
      0. -1.33930429e-04 -8.88079667e-05 1.54517431e-04 2.64981099e-05
      -1.69106526e-04 3.07684058e-05 -1.43262499e-04 0. 2.64981099e-05
      3.07684058e-05 0. 0. 0. 0. 0. 0. 0. 0. 0. 0. 0. 0. 0. 0. 0. 0. 0.
      0. 0. 0. 0. 0. 0. 0. 0. 0. 0. 0. 0. 0. 0. 0. 0. 0. 0. 0. 0. 0. 0.
      0. 0. 0. 0. 0. 0. 0. 0. 0.</_>
    <_>
      -5.33099046e-05 -4.51084488e-05 0. 3.64374973e-05 -1.33759182e-04
      -1.29180538e-04 -2.38529930e-04 -5.49069337e-05 3.65181477e-04
      -1.87882120e-04 -1.29180538e-04 -1.58652201e-05 -9.82960501e-06
      -3.69836089e-05 4.82877222e-05 3.64374973e-05 0. 0. 0. 0. 0. 0. 0.
      0. 0. 0. 0. 0. 0. 0. 0. 0. 0. 0. 0. 0. 0. 0. 0. 0. 0. 0. 0. 0. 0.
      0. 0. 0. 0. 0. 0. 0. 0. 0. 0. 0. 0. 0. 0. 0. 0. 0. 0. 0.</_>
    <_>
      -1.09036620e-04 3.05902940e-05 0. 1.09956622e-04 4.45706100e-04 0.
      1.59841264e-04 1.09956622e-04 3.54703734e-05 -9.86606829e-05 0.
      1.09956622e-04 -2.47166347e-04 0. 3.05902940e-05 1.09956622e-04 0.
      0. 0. 0. 0. 0. 0. 0. 0. 0. 0. 0. 0. 0. 0. 0. 0. 0. 0. 0. 0. 0. 0.
      0. 0. 0. 0. 0. 0. 0. 0. 0. 0. 0. 0. 0. 0. 0. 0. 0. 0. 0. 0. 0. 0.
      0. 0. 0.</_>
    <_>
      3.78862169e-04 -1.12211186e-04 0. 0. -3.78862169e-04 0.
      -1.12211186e-04 0. 3.78862169e-04 -2.67896045e-04 0. 0.
      -3.78862169e-04 0. -2.67896045e-04 0. 0. 0. 0. 0. 0. 0. 0. 0. 0.
      0. 0. 0. 0. 0. 0. 0. 0. 0. 0. 0. 0. 0. 0. 0. 0. 0. 0. 0. 0. 0. 0.
      0. 0. 0. 0. 0. 0. 0. 0. 0. 0. 0. 0. 0. 0. 0. 0. 0.</_>
    <_>
      1.37119059e-04 -7.99055488e-05 -1.54742054e-04 -8.61512453e-05
      1.10323170e-04 -3.31431627e-04 8.98436119e-05 5.43064052e-05
      3.62335886e-05 -1.12831724e-04 0. -5.51127487e-05 -3.15167941e-04
      0. -2.88451101e-05 -5.51127487e-05 0. 0. 0. 0. 0. 0. 0. 0. 0. 0.
      0. 0. 0. 0. 0. 0. 0. 0. 0. 0. 0. 0. 0. 0. 0. 0. 0. 0. 0. 0. 0. 0.
      0. 0. 0. 0. 0. 0. 0. 0. 0. 0. 0. 0. 0. 0. 0. 0.</_>
    <_>
      1.69825304e-04 1.25334391e-05 0. 2.80256227e-05 6.34755488e-05 0.
      1.25334391e-05 2.80256227e-05 1.69825304e-04 1.25334391e-05 0.
      2.80256227e-05 6.34755488e-05 0. 1.25334391e-05 2.80256227e-05 0.
      0. 0. 0. 0. 0. 0. 0. 0. 0. 0. 0. 0. 0. 0. 0. 0. 0. 0. 0. 0. 0. 0.
      0. 0. 0. 0. 0. 0. 0. 0. 0. 0. 0. 0. 0. 0. 0. 0. 0. 0. 0. 0. 0. 0.
      0. 0. 0.</_>
    <_>
      8.04185256e-05 -3.35792902e-05 -2.92612112e-05 -1.28053841e-06
      -3.65456945e-05 0. 9.82588335e-06 -1.28053841e-06 1.86255726e-04
      -6.12459844e-05 0. -1.28053841e-06 -5.39638131e-05 0.
      8.68053485e-06 0. 0. 0. 0. 0. 0. 0. 0. 0. 0. 0. 0. 0. 0. 0. 0. 0.
      0. 0. 0. 0. 0. 0. 0. 0. 0. 0. 0. 0. 0. 0. 0. 0. 0. 0. 0. 0. 0. 0.
      0. 0. 0. 0. 0. 0. 0. 0. 0. 0.</_>
    <_>
      1.20363820e-05 -2.10536600e-05 0. -1.11546924e-05 -2.00657432e-05
      0. -3.21302578e-05 -2.31289323e-05 2.11328821e-04 -2.64087030e-05
      0. 0. -8.70787408e-05 0. -4.17408010e-05 0. 0. 0. 0. 0. 0. 0. 0.
      0. 0. 0. 0. 0. 0. 0. 0. 0. 0. 0. 0. 0. 0. 0. 0. 0. 0. 0. 0. 0. 0.
      0. 0. 0. 0. 0. 0. 0. 0. 0. 0. 0. 0. 0. 0. 0. 0. 0. 0. 0.</_>
    <_>
      -8.84355832e-05 -1.72442014e-04 0. 0. -7.01997487e-06 0.
      2.93877292e-05 -4.66132951e-05 1.74729517e-04 -3.05153444e-05 0.
      0. -9.46395667e-05 0. 6.94870369e-06 -6.92748436e-05 0. 0. 0. 0.
      0. 0. 0. 0. 0. 0. 0. 0. 0. 0. 0. 0. 0. 0. 0. 0. 0. 0. 0. 0. 0. 0.
      0. 0. 0. 0. 0. 0. 0. 0. 0. 0. 0. 0. 0. 0. 0. 0. 0. 0. 0. 0. 0. 0.</_>
    <_>
      0. -1.33628491e-05 0. 0. -1.16454270e-04 0. -8.01771093e-05
      -5.97604885e-05 1.40201097e-04 -2.67257055e-05 -8.45140967e-05 0.
      -1.51183413e-04 0. 0. 0. 0. 0. 0. 0. 0. 0. 0. 0. 0. 0. 0. 0. 0. 0.
      0. 0. 0. 0. 0. 0. 0. 0. 0. 0. 0. 0. 0. 0. 0. 0. 0. 0. 0. 0. 0. 0.
      0. 0. 0. 0. 0. 0. 0. 0. 0. 0. 0. 0.</_>
    <_>
      -5.15768916e-05 -3.66722015e-05 0. 0. -1.09008884e-04
      -2.89919244e-05 -8.95817939e-05 -2.05003871e-05 1.92247084e-04
      -1.07321430e-04 -2.89919244e-05 -3.29811483e-05 -1.24510494e-04
      -2.33211940e-05 -1.09612929e-05 0. 0. 0. 0. 0. 0. 0. 0. 0. 0. 0.
      0. 0. 0. 0. 0. 0. 0. 0. 0. 0. 0. 0. 0. 0. 0. 0. 0. 0. 0. 0. 0. 0.
      0. 0. 0. 0. 0. 0. 0. 0. 0. 0. 0. 0. 0. 0. 0. 0.</_>
    <_>
      -1.19841789e-04 2.53844519e-05 0. 0. 2.02261668e-04 0.
      8.58123603e-05 0. 1.85780082e-04 -9.12655596e-05 0. 0.
      -2.27264012e-04 0. 2.93486337e-05 -1.66477332e-06 0. 0. 0. 0. 0.
      0. 0. 0. 0. 0. 0. 0. 0. 0. 0. 0. 0. 0. 0. 0. 0. 0. 0. 0. 0. 0. 0.
      0. 0. 0. 0. 0. 0. 0. 0. 0. 0. 0. 0. 0. 0. 0. 0. 0. 0. 0. 0. 0.</_>
    <_>
      -1.43000689e-05 -5.38891691e-05 -1.86600882e-05 0. -9.97980023e-05
      -1.86600882e-05 -5.38891691e-05 -1.31946745e-05 1.40417833e-04
      -1.17475873e-04 0. 0. -1.87249709e-04 0. -8.41185247e-05 0. 0. 0.
      0. 0. 0. 0. 0. 0. 0. 0. 0. 0. 0. 0. 0. 0. 0. 0. 0. 0. 0. 0. 0. 0.
      0. 0. 0. 0. 0. 0. 0. 0. 0. 0. 0. 0. 0. 0. 0. 0. 0. 0. 0. 0. 0. 0.
      0. 0.</_>
    <_>
      -3.05812137e-05 -5.69821968e-05 -5.26301592e-05 -5.39606408e-05
      -1.05907820e-05 -1.17101175e-04 3.74440742e-06 0. 1.05323146e-04
      -1.07347514e-04 0. -3.72151444e-05 -2.49632139e-04 0.
      -4.07750485e-05 -3.72151444e-05 0. 0. 0. 0. 0. 0. 0. 0. 0. 0. 0.
      0. 0. 0. 0. 0. 0. 0. 0. 0. 0. 0. 0. 0. 0. 0. 0. 0. 0. 0. 0. 0. 0.
      0. 0. 0. 0. 0. 0. 0. 0. 0. 0. 0. 0. 0. 0. 0.</_>
    <_>
      9.52257324e-05 1.83640259e-05 0. 0. 4.32844245e-05 0.
      1.83640259e-05 0. 1.47167040e-04 6.12134181e-06 0. 0.
      1.73137687e-05 0. 1.83640259e-05 0. 0. 0. 0. 0. 0. 0. 0. 0. 0. 0.
      0. 0. 0. 0. 0. 0. 0. 0. 0. 0. 0. 0. 0. 0. 0. 0. 0. 0. 0. 0. 0. 0.
      0. 0. 0. 0. 0. 0. 0. 0. 0. 0. 0. 0. 0. 0. 0. 0.</_>
    <_>
      -1.50434411e-04 1.05699750e-04 1.92693013e-04 -1.18175943e-04
      2.56224099e-04 0. -1.09444838e-04 -1.36254544e-04 1.01952828e-04
      2.80419423e-04 0. 0. -1.62849956e-05 0. -2.59909488e-04 0. 0. 0.
      0. 0. 0. 0. 0. 0. 0. 0. 0. 0. 0. 0. 0. 0. 0. 0. 0. 0. 0. 0. 0. 0.
      0. 0. 0. 0. 0. 0. 0. 0. 0. 0. 0. 0. 0. 0. 0. 0. 0. 0. 0. 0. 0. 0.
      0. 0.</_>
    <_>
      -2.02856318e-04 -1.79445822e-04 1.09699809e-04 1.51856811e-05
      1.30954169e-04 0. -6.79124287e-06 1.51856811e-05 -4.87566831e-05
      2.41363057e-04 0. 1.51856811e-05 6.03065528e-05 0. -2.78988773e-05
      -1.55138958e-04 0. 0. 0. 0. 0. 0. 0. 0. 0. 0. 0. 0. 0. 0. 0. 0. 0.
      0. 0. 0. 0. 0. 0. 0. 0. 0. 0. 0. 0. 0. 0. 0. 0. 0. 0. 0. 0. 0. 0.
      0. 0. 0. 0. 0. 0. 0. 0. 0.</_>
    <_>
      3.45230583e-05 1.68025115e-04 1.32835528e-04 0. -1.18811717e-04 0.
      -1.68025144e-04 -9.39289093e-05 -2.48828001e-05 1.68025115e-04
      -1.32835528e-04 0. -2.97029299e-04 0. 0. 0. 0. 0. 0. 0. 0. 0. 0.
      0. 0. 0. 0. 0. 0. 0. 0. 0. 0. 0. 0. 0. 0. 0. 0. 0. 0. 0. 0. 0. 0.
      0. 0. 0. 0. 0. 0. 0. 0. 0. 0. 0. 0. 0. 0. 0. 0. 0. 0. 0.</_>
    <_>
      -1.07508335e-04 1.60912619e-04 1.69518869e-04 2.04464232e-08
      -2.59143533e-04 0. -1.60828858e-04 2.04464232e-08 -1.51583488e-04
      1.52212000e-04 0. -2.39715431e-04 -7.57852758e-05 -1.69518869e-04
      9.14392029e-09 0. 0. 0. 0. 0. 0. 0. 0. 0. 0. 0. 0. 0. 0. 0. 0. 0.
      0. 0. 0. 0. 0. 0. 0. 0. 0. 0. 0. 0. 0. 0. 0. 0. 0. 0. 0. 0. 0. 0.
      0. 0. 0. 0. 0. 0. 0. 0. 0. 0.</_>
    <_>
      -1.35947950e-04 5.23470553e-05 3.44875007e-05 1.91947174e-06
      1.21076453e-04 0. 2.09533955e-05 1.91947174e-06 -1.44130638e-04
      4.13018533e-05 0. 1.91947174e-06 -2.19583853e-05 0. 8.58413955e-07
      0. 0. 0. 0. 0. 0. 0. 0. 0. 0. 0. 0. 0. 0. 0. 0. 0. 0. 0. 0. 0. 0.
      0. 0. 0. 0. 0. 0. 0. 0. 0. 0. 0. 0. 0. 0. 0. 0. 0. 0. 0. 0. 0. 0.
      0. 0. 0. 0. 0.</_>
    <_>
      1.95704124e-05 2.51383666e-04 3.47571040e-05 0. 1.60134528e-04
      -3.01618886e-04 -1.74102010e-04 -2.13276770e-04 -6.80166486e-05
      8.43891248e-05 0. 0. -3.47495399e-04 0. -4.47468017e-04 0. 0. 0.
      0. 0. 0. 0. 0. 0. 0. 0. 0. 0. 0. 0. 0. 0. 0. 0. 0. 0. 0. 0. 0. 0.
      0. 0. 0. 0. 0. 0. 0. 0. 0. 0. 0. 0. 0. 0. 0. 0. 0. 0. 0. 0. 0. 0.
      0. 0.</_>
    <_>
      0. 7.15572241e-05 1.23132777e-04 -1.74136032e-04 3.20013751e-05
      -1.23132777e-04 0. 0. -1.88265229e-04 1.55752001e-04 0. 0.
      -2.75333237e-04 0. -1.16814008e-04 0. 0. 0. 0. 0. 0. 0. 0. 0. 0.
      0. 0. 0. 0. 0. 0. 0. 0. 0. 0. 0. 0. 0. 0. 0. 0. 0. 0. 0. 0. 0. 0.
      0. 0. 0. 0. 0. 0. 0. 0. 0. 0. 0. 0. 0. 0. 0. 0. 0.</_>
    <_>
      1.04072307e-04 9.63824423e-05 5.07980112e-05 0. 1.72225002e-04 0.
      3.21274820e-05 0. 5.86371825e-05 1.12446192e-04 0. 0.
      1.36305374e-04 0. 3.21274820e-05 0. 0. 0. 0. 0. 0. 0. 0. 0. 0. 0.
      0. 0. 0. 0. 0. 0. 0. 0. 0. 0. 0. 0. 0. 0. 0. 0. 0. 0. 0. 0. 0. 0.
      0. 0. 0. 0. 0. 0. 0. 0. 0. 0. 0. 0. 0. 0. 0. 0.</_>
    <_>
      -4.94497399e-05 -3.28042021e-04 0. 5.49943616e-05 5.84263762e-06
      0. 1.24970160e-04 8.70582808e-05 -1.13279566e-04 4.30182590e-05 0.
      0. 1.15963616e-04 0. 1.45479775e-04 -1.74116562e-04 0. 0. 0. 0. 0.
      0. 0. 0. 0. 0. 0. 0. 0. 0. 0. 0. 0. 0. 0. 0. 0. 0. 0. 0. 0. 0. 0.
      0. 0. 0. 0. 0. 0. 0. 0. 0. 0. 0. 0. 0. 0. 0. 0. 0. 0. 0. 0. 0.</_>
    <_>
      2.09463717e-04 9.60933321e-05 0. 4.78609982e-05 -2.26678996e-04 0.
      -4.40734511e-05 -2.95534192e-05 -1.55364687e-04 1.84551736e-05
      -1.72503554e-04 0. -1.68948434e-04 0. 1.91977451e-04 0. 0. 0. 0.
      0. 0. 0. 0. 0. 0. 0. 0. 0. 0. 0. 0. 0. 0. 0. 0. 0. 0. 0. 0. 0. 0.
      0. 0. 0. 0. 0. 0. 0. 0. 0. 0. 0. 0. 0. 0. 0. 0. 0. 0. 0. 0. 0. 0.
      0.</_>
    <_>
      1.08179585e-04 4.91640967e-05 0. 2.71483568e-05 -1.87986559e-04
      -7.09401502e-05 6.48581272e-06 7.14643975e-05 -3.36728262e-04
      -1.25456500e-04 -7.09401502e-05 -1.42928795e-04 1.46157719e-04
      -1.01065918e-04 2.34776599e-04 0. 0. 0. 0. 0. 0. 0. 0. 0. 0. 0. 0.
      0. 0. 0. 0. 0. 0. 0. 0. 0. 0. 0. 0. 0. 0. 0. 0. 0. 0. 0. 0. 0. 0.
      0. 0. 0. 0. 0. 0. 0. 0. 0. 0. 0. 0. 0. 0. 0.</_>
    <_>
      -6.50940856e-05 4.71534622e-05 0. 1.45166487e-05 1.40390694e-04 0.
      9.63572165e-05 3.36179110e-05 -2.01088391e-04 -4.44174020e-06 0.
      0. 1.28196907e-05 0. 7.72222265e-05 0. 0. 0. 0. 0. 0. 0. 0. 0. 0.
      0. 0. 0. 0. 0. 0. 0. 0. 0. 0. 0. 0. 0. 0. 0. 0. 0. 0. 0. 0. 0. 0.
      0. 0. 0. 0. 0. 0. 0. 0. 0. 0. 0. 0. 0. 0. 0. 0. 0.</_>
    <_>
      3.11987445e-04 7.09591914e-05 -2.50005396e-04 1.54997368e-04
      -1.96909605e-04 -2.50005396e-04 6.28001872e-05 2.38012908e-05
      -2.20479225e-04 -3.25019384e-04 0. 0. -2.19939422e-04 0.
      1.34062448e-05 0. 0. 0. 0. 0. 0. 0. 0. 0. 0. 0. 0. 0. 0. 0. 0. 0.
      0. 0. 0. 0. 0. 0. 0. 0. 0. 0. 0. 0. 0. 0. 0. 0. 0. 0. 0. 0. 0. 0.
      0. 0. 0. 0. 0. 0. 0. 0. 0. 0.</_>
    <_>
      1.77233189e-04 1.44086534e-05 0. -1.20806311e-04 -1.14299459e-04
      -1.36951756e-04 1.07617612e-04 9.68395179e-05 -2.60759640e-04
      -1.11531044e-05 0. 0. -2.62446702e-04 0. 6.47444831e-05 0. 0. 0.
      0. 0. 0. 0. 0. 0. 0. 0. 0. 0. 0. 0. 0. 0. 0. 0. 0. 0. 0. 0. 0. 0.
      0. 0. 0. 0. 0. 0. 0. 0. 0. 0. 0. 0. 0. 0. 0. 0. 0. 0. 0. 0. 0. 0.
      0. 0.</_>
    <_>
      1.77207417e-04 1.00243647e-04 0. 5.60379049e-05 1.41765937e-04 0.
      7.51827320e-05 5.60379049e-05 3.54414842e-05 5.01218237e-05 0. 0.
      1.97803834e-04 0. 1.50365464e-04 0. 0. 0. 0. 0. 0. 0. 0. 0. 0. 0.
      0. 0. 0. 0. 0. 0. 0. 0. 0. 0. 0. 0. 0. 0. 0. 0. 0. 0. 0. 0. 0. 0.
      0. 0. 0. 0. 0. 0. 0. 0. 0. 0. 0. 0. 0. 0. 0. 0.</_>
    <_>
      7.06115170e-05 1.87090991e-04 0. 0. -1.18437034e-04 0.
      -9.40617174e-05 -5.66457420e-05 -3.79649791e-05 -1.80634779e-05
      -8.01091737e-05 0. -1.38847885e-04 0. 1.07942014e-05
      8.07823162e-05 0. 0. 0. 0. 0. 0. 0. 0. 0. 0. 0. 0. 0. 0. 0. 0. 0.
      0. 0. 0. 0. 0. 0. 0. 0. 0. 0. 0. 0. 0. 0. 0. 0. 0. 0. 0. 0. 0. 0.
      0. 0. 0. 0. 0. 0. 0. 0. 0.</_>
    <_>
      2.14915508e-05 2.29785350e-04 0. 0. -1.66352998e-04
      -2.98949144e-05 -1.42484379e-04 4.62978278e-06 -5.75935082e-05
      -1.03586688e-04 -2.98949144e-05 -7.18301308e-05 -6.00599524e-05
      -5.07915756e-05 -6.68687198e-06 1.14107926e-04 0. 0. 0. 0. 0. 0.
      0. 0. 0. 0. 0. 0. 0. 0. 0. 0. 0. 0. 0. 0. 0. 0. 0. 0. 0. 0. 0. 0.
      0. 0. 0. 0. 0. 0. 0. 0. 0. 0. 0. 0. 0. 0. 0. 0. 0. 0. 0. 0.</_>
    <_>
      4.80070339e-05 2.47948134e-04 0. 0. 1.59037023e-04 0.
      1.54278205e-05 9.31149043e-05 -1.02754333e-04 -5.23195195e-05 0.
      0. -3.39256840e-05 0. 1.30581557e-05 8.46241601e-05 0. 0. 0. 0. 0.
      0. 0. 0. 0. 0. 0. 0. 0. 0. 0. 0. 0. 0. 0. 0. 0. 0. 0. 0. 0. 0. 0.
      0. 0. 0. 0. 0. 0. 0. 0. 0. 0. 0. 0. 0. 0. 0. 0. 0. 0. 0. 0. 0.</_>
    <_>
      1.12844275e-04 2.16754997e-04 -5.49038778e-05 0. -8.75246988e-05
      -5.49038778e-05 -8.95511112e-05 -3.88229055e-05 -5.86263195e-05
      -1.29922832e-04 0. 0. -1.52887267e-04 0. -1.02481652e-04
      1.22720710e-04 0. 0. 0. 0. 0. 0. 0. 0. 0. 0. 0. 0. 0. 0. 0. 0. 0.
      0. 0. 0. 0. 0. 0. 0. 0. 0. 0. 0. 0. 0. 0. 0. 0. 0. 0. 0. 0. 0. 0.
      0. 0. 0. 0. 0. 0. 0. 0. 0.</_>
    <_>
      1.09084111e-04 1.99543530e-04 -3.43675856e-05 -8.03817093e-05
      -2.02624815e-05 -1.08389831e-04 -2.06803197e-05 3.29115646e-05
      -1.23966267e-04 -5.62713285e-05 0. -2.43015529e-05 -1.68903891e-04
      0. -5.17219523e-05 8.03817093e-05 0. 0. 0. 0. 0. 0. 0. 0. 0. 0. 0.
      0. 0. 0. 0. 0. 0. 0. 0. 0. 0. 0. 0. 0. 0. 0. 0. 0. 0. 0. 0. 0. 0.
      0. 0. 0. 0. 0. 0. 0. 0. 0. 0. 0. 0. 0. 0. 0.</_>
    <_>
      1.38114134e-04 1.34164322e-04 0. 0. 8.04532901e-05 0.
      2.03861855e-05 0. 6.00001113e-05 2.03861855e-05 0. 0.
      7.44153222e-05 0. 3.05792782e-05 4.55848967e-05 0. 0. 0. 0. 0. 0.
      0. 0. 0. 0. 0. 0. 0. 0. 0. 0. 0. 0. 0. 0. 0. 0. 0. 0. 0. 0. 0. 0.
      0. 0. 0. 0. 0. 0. 0. 0. 0. 0. 0. 0. 0. 0. 0. 0. 0. 0. 0. 0.</_>
    <_>
      -1.31070061e-04 -6.21684449e-05 0. 0. 8.82563472e-06
      -5.67674651e-05 8.20969144e-05 2.09798731e-04 2.47642856e-05
      -1.90584979e-04 2.96700193e-04 -2.38604698e-04 3.31374031e-04
      -1.68718994e-04 -1.33831327e-05 0. 0. 0. 0. 0. 0. 0. 0. 0. 0. 0.
      0. 0. 0. 0. 0. 0. 0. 0. 0. 0. 0. 0. 0. 0. 0. 0. 0. 0. 0. 0. 0. 0.
      0. 0. 0. 0. 0. 0. 0. 0. 0. 0. 0. 0. 0. 0. 0. 0.</_>
    <_>
      -6.10288444e-05 2.32075508e-05 0. 0. 1.98917551e-04 0.
      1.11404792e-04 5.44915274e-05 -5.74109981e-05 -1.27655749e-05
      7.70626575e-05 0. 4.53113462e-05 0. 1.16037772e-05 0. 0. 0. 0. 0.
      0. 0. 0. 0. 0. 0. 0. 0. 0. 0. 0. 0. 0. 0. 0. 0. 0. 0. 0. 0. 0. 0.
      0. 0. 0. 0. 0. 0. 0. 0. 0. 0. 0. 0. 0. 0. 0. 0. 0. 0. 0. 0. 0. 0.</_>
    <_>
      -4.73441396e-05 -1.64371872e-04 -1.31236302e-04 0. 2.06128025e-04
      -1.31236302e-04 1.08620516e-04 9.02048923e-05 -5.53916470e-05
      -2.35583764e-04 2.58805288e-04 0. 1.50440144e-04 0.
      -2.81176326e-04 0. 0. 0. 0. 0. 0. 0. 0. 0. 0. 0. 0. 0. 0. 0. 0. 0.
      0. 0. 0. 0. 0. 0. 0. 0. 0. 0. 0. 0. 0. 0. 0. 0. 0. 0. 0. 0. 0. 0.
      0. 0. 0. 0. 0. 0. 0. 0. 0. 0.</_>
    <_>
      3.48466074e-06 -1.04833467e-04 0. -2.36433727e-04 2.03585238e-04
      -1.67183884e-04 2.25696102e-04 1.28818312e-04 -1.80174538e-04
      1.78957248e-11 1.82176605e-04 0. -6.70494592e-06 0.
      -1.53863453e-04 0. 0. 0. 0. 0. 0. 0. 0. 0. 0. 0. 0. 0. 0. 0. 0. 0.
      0. 0. 0. 0. 0. 0. 0. 0. 0. 0. 0. 0. 0. 0. 0. 0. 0. 0. 0. 0. 0. 0.
      0. 0. 0. 0. 0. 0. 0. 0. 0. 0.</_>
    <_>
      5.77129395e-05 2.04046046e-05 0. 0. 1.38238916e-04 0.
      6.12138174e-05 2.28130411e-05 4.32847046e-05 3.06069087e-05
      3.22625128e-05 0. 1.58710580e-04 0. 2.04046046e-05 0. 0. 0. 0. 0.
      0. 0. 0. 0. 0. 0. 0. 0. 0. 0. 0. 0. 0. 0. 0. 0. 0. 0. 0. 0. 0. 0.
      0. 0. 0. 0. 0. 0. 0. 0. 0. 0. 0. 0. 0. 0. 0. 0. 0. 0. 0. 0. 0. 0.</_>
    <_>
      -2.32219668e-06 5.82699213e-05 0. 0. 2.35331332e-04 3.23296517e-05
      1.49879197e-04 2.28605168e-05 -7.66818339e-05 6.41609076e-05
      3.23296517e-05 3.19858591e-05 -5.87811428e-06 2.26174197e-05
      3.06706024e-05 0. 0. 0. 0. 0. 0. 0. 0. 0. 0. 0. 0. 0. 0. 0. 0. 0.
      0. 0. 0. 0. 0. 0. 0. 0. 0. 0. 0. 0. 0. 0. 0. 0. 0. 0. 0. 0. 0. 0.
      0. 0. 0. 0. 0. 0. 0. 0. 0. 0.</_>
    <_>
      2.52245110e-04 -1.24758721e-04 -1.22582685e-04 0. 1.35407259e-04
      5.63203275e-06 1.45556158e-04 3.98244856e-06 -1.55035319e-04
      -6.66139313e-05 1.28214713e-04 2.27084121e-04 -3.18814651e-04
      1.60572716e-04 -3.85713909e-04 0. 0. 0. 0. 0. 0. 0. 0. 0. 0. 0. 0.
      0. 0. 0. 0. 0. 0. 0. 0. 0. 0. 0. 0. 0. 0. 0. 0. 0. 0. 0. 0. 0. 0.
      0. 0. 0. 0. 0. 0. 0. 0. 0. 0. 0. 0. 0. 0. 0.</_>
    <_>
      1.15721872e-04 -2.83862155e-05 -3.24323883e-05 -1.50389722e-04
      2.16457702e-04 -1.25603707e-04 1.63277407e-04 2.07793692e-05
      -1.08673383e-04 5.97782491e-05 2.93864650e-05 1.08830980e-04
      -2.05525430e-04 9.31713148e-05 -8.83900721e-05 -2.29331599e-05 0.
      0. 0. 0. 0. 0. 0. 0. 0. 0. 0. 0. 0. 0. 0. 0. 0. 0. 0. 0. 0. 0. 0.
      0. 0. 0. 0. 0. 0. 0. 0. 0. 0. 0. 0. 0. 0. 0. 0. 0. 0. 0. 0. 0. 0.
      0. 0. 0.</_>
    <_>
      8.72593664e-05 3.08508424e-05 0. 0. 1.59975505e-04 0.
      5.14180756e-05 0. 6.66245469e-05 4.28032581e-05 0. 4.59897237e-05
      1.01802594e-04 3.25196452e-05 2.05672295e-05 0. 0. 0. 0. 0. 0. 0.
      0. 0. 0. 0. 0. 0. 0. 0. 0. 0. 0. 0. 0. 0. 0. 0. 0. 0. 0. 0. 0. 0.
      0. 0. 0. 0. 0. 0. 0. 0. 0. 0. 0. 0. 0. 0. 0. 0. 0. 0. 0. 0.</_>
    <_>
      9.41431790e-05 -6.89553417e-05 -2.77576728e-05 0. -2.30505611e-04
      -2.77576728e-05 -1.06570034e-04 -1.96276396e-05 7.17163057e-05
      -6.93310722e-05 0. 0. -5.36926891e-05 0. -1.06945765e-04 0. 0. 0.
      0. 0. 0. 0. 0. 0. 0. 0. 0. 0. 0. 0. 0. 0. 0. 0. 0. 0. 0. 0. 0. 0.
      0. 0. 0. 0. 0. 0. 0. 0. 0. 0. 0. 0. 0. 0. 0. 0. 0. 0. 0. 0. 0. 0.
      0. 0.</_>
    <_>
      1.02638151e-04 -1.01340185e-04 -1.05316649e-04 -7.44701174e-05
      -2.35495187e-04 -2.10633298e-04 -9.99121476e-05 0. -1.88243757e-05
      -3.67696412e-05 0. -7.44701174e-05 -1.23999140e-04 0.
      -1.08532811e-04 -5.51937374e-05 0. 0. 0. 0. 0. 0. 0. 0. 0. 0. 0.
      0. 0. 0. 0. 0. 0. 0. 0. 0. 0. 0. 0. 0. 0. 0. 0. 0. 0. 0. 0. 0. 0.
      0. 0. 0. 0. 0. 0. 0. 0. 0. 0. 0. 0. 0. 0. 0.</_>
    <_>
      1.32657922e-04 1.36506542e-05 0. 0. 0. 0. 0. 0. 1.17396026e-04
      2.73013084e-05 0. 0. 7.31767141e-05 0. 1.36506542e-05 0. 0. 0. 0.
      0. 0. 0. 0. 0. 0. 0. 0. 0. 0. 0. 0. 0. 0. 0. 0. 0. 0. 0. 0. 0. 0.
      0. 0. 0. 0. 0. 0. 0. 0. 0. 0. 0. 0. 0. 0. 0. 0. 0. 0. 0. 0. 0. 0.
      0.</_>
    <_>
      1.03021841e-04 -1.00887394e-06 1.21116267e-04 -3.65879619e-04
      1.57612303e-04 -1.76025031e-04 2.26470409e-04 1.39983778e-04
      -2.19930924e-04 2.83858069e-04 0. -5.43416390e-05 -2.51204852e-04
      0. 1.93138665e-04 -5.43416390e-05 0. 0. 0. 0. 0. 0. 0. 0. 0. 0. 0.
      0. 0. 0. 0. 0. 0. 0. 0. 0. 0. 0. 0. 0. 0. 0. 0. 0. 0. 0. 0. 0. 0.
      0. 0. 0. 0. 0. 0. 0. 0. 0. 0. 0. 0. 0. 0. 0.</_>
    <_>
      8.05605523e-05 4.77207759e-05 5.03021147e-05 0. 1.34974747e-04
      5.03021147e-05 4.77207759e-05 3.55689663e-05 4.49915824e-05
      9.54415518e-05 0. 0. 1.79966330e-04 0. 9.54415518e-05 0. 0. 0. 0.
      0. 0. 0. 0. 0. 0. 0. 0. 0. 0. 0. 0. 0. 0. 0. 0. 0. 0. 0. 0. 0. 0.
      0. 0. 0. 0. 0. 0. 0. 0. 0. 0. 0. 0. 0. 0. 0. 0. 0. 0. 0. 0. 0. 0.
      0.</_>
    <_>
      6.66245469e-05 4.28032581e-05 0. 4.59897237e-05 1.01802594e-04
      3.25196452e-05 2.05672295e-05 0. 8.72593664e-05 3.08508424e-05 0.
      0. 1.59975505e-04 0. 5.14180756e-05 0. 0. 0. 0. 0. 0. 0. 0. 0. 0.
      0. 0. 0. 0. 0. 0. 0. 0. 0. 0. 0. 0. 0. 0. 0. 0. 0. 0. 0. 0. 0. 0.
      0. 0. 0. 0. 0. 0. 0. 0. 0. 0. 0. 0. 0. 0. 0. 0. 0.</_></support_vectors>
  <uncompressed_sv_total>22</uncompressed_sv_total>
  <uncompressed_support_vectors>
    <_>
      4590. 5.82851270e+03 1.14039465e+03 8.06380798e+02 5.61000049e+03
      0. 3.60624451e+02 8.06380798e+02 2.84638086e+03 6.13061572e+03 0.
      8.06380798e+02 4080. 0. 1.08187341e+03 0. 0. 0. 0. 0. 0. 0. 0. 0.
      0. 0. 0. 0. 0. 0. 0. 0. 0. 0. 0. 0. 0. 0. 0. 0. 0. 0. 0. 0. 0. 0.
      0. 0. 0. 0. 0. 0. 0. 0. 0. 0. 0. 0. 0. 0. 0. 0. 0. 0.</_>
    <_>
      7650. 2.16374683e+03 0. 0. 4.37638086e+03 0. 3.24562012e+03
      8.06380798e+02 2040. 1.80312231e+03 0. 0. 5.18276172e+03 0.
      2.88499561e+03 0. 0. 0. 0. 0. 0. 0. 0. 0. 0. 0. 0. 0. 0. 0. 0. 0.
      0. 0. 0. 0. 0. 0. 0. 0. 0. 0. 0. 0. 0. 0. 0. 0. 0. 0. 0. 0. 0. 0.
      0. 0. 0. 0. 0. 0. 0. 0. 0. 0.</_>
    <_>
      1.10891426e+04 5.52640918e+03 0. 0. 2550. 0. 0. 2.41914233e+03
      7650. 1.50101904e+03 0. 0. 3.94914258e+03 0. 7.21248901e+02
      1.61276160e+03 0. 0. 0. 0. 0. 0. 0. 0. 0. 0. 0. 0. 0. 0. 0. 0. 0.
      0. 0. 0. 0. 0. 0. 0. 0. 0. 0. 0. 0. 0. 0. 0. 0. 0. 0. 0. 0. 0. 0.
      0. 0. 0. 0. 0. 0. 0. 0. 0.</_>
    <_>
      5610. 1.44249780e+03 0. 0. 5.69276172e+03 0. 3.24562012e+03
      1.61276160e+03 4.88638086e+03 1.08187341e+03 2.28078931e+03 0.
      5100. 0. 1.08187341e+03 0. 0. 0. 0. 0. 0. 0. 0. 0. 0. 0. 0. 0. 0.
      0. 0. 0. 0. 0. 0. 0. 0. 0. 0. 0. 0. 0. 0. 0. 0. 0. 0. 0. 0. 0. 0.
      0. 0. 0. 0. 0. 0. 0. 0. 0. 0. 0. 0. 0.</_>
    <_>
      1.13027617e+04 2.28078931e+03 0. 0. 0. 0. 0. 0. 1.10063809e+04
      4.08391162e+03 0. 0. 4590. 0. 3.60624451e+02 8.06380798e+02 0. 0.
      0. 0. 0. 0. 0. 0. 0. 0. 0. 0. 0. 0. 0. 0. 0. 0. 0. 0. 0. 0. 0. 0.
      0. 0. 0. 0. 0. 0. 0. 0. 0. 0. 0. 0. 0. 0. 0. 0. 0. 0. 0. 0. 0. 0.
      0. 0.</_>
    <_>
      6120. 3.30414160e+03 0. 0. 5610. 0. 3.30414160e+03 0. 6120.
      2.88499561e+03 0. 0. 5.61000049e+03 0. 2.88499561e+03 0. 0. 0. 0.
      0. 0. 0. 0. 0. 0. 0. 0. 0. 0. 0. 0. 0. 0. 0. 0. 0. 0. 0. 0. 0. 0.
      0. 0. 0. 0. 0. 0. 0. 0. 0. 0. 0. 0. 0. 0. 0. 0. 0. 0. 0. 0. 0. 0.
      0.</_>
    <_>
      7.00914258e+03 2.22226807e+03 1.14039465e+03 8.06380798e+02 2550.
      2.28078931e+03 1.08187341e+03 0. 7650. 2.52437109e+03 0.
      8.06380798e+02 5.39638086e+03 0. 1.80312231e+03 8.06380798e+02 0.
      0. 0. 0. 0. 0. 0. 0. 0. 0. 0. 0. 0. 0. 0. 0. 0. 0. 0. 0. 0. 0. 0.
      0. 0. 0. 0. 0. 0. 0. 0. 0. 0. 0. 0. 0. 0. 0. 0. 0. 0. 0. 0. 0. 0.
      0. 0. 0.</_>
    <_>
      5610. 1.08187341e+03 0. 0. 2550. 0. 1.08187341e+03 0. 8670.
      3.60624451e+02 0. 0. 1020. 0. 1.08187341e+03 0. 0. 0. 0. 0. 0. 0.
      0. 0. 0. 0. 0. 0. 0. 0. 0. 0. 0. 0. 0. 0. 0. 0. 0. 0. 0. 0. 0. 0.
      0. 0. 0. 0. 0. 0. 0. 0. 0. 0. 0. 0. 0. 0. 0. 0. 0. 0. 0. 0.</_>
    <_>
      2.33638086e+03 2.16374658e+03 1.14039465e+03 0. 3.86638086e+03 0.
      7.21248901e+02 0. 1.31638086e+03 2.52437109e+03 0. 0. 3060. 0.
      7.21248901e+02 0. 0. 0. 0. 0. 0. 0. 0. 0. 0. 0. 0. 0. 0. 0. 0. 0.
      0. 0. 0. 0. 0. 0. 0. 0. 0. 0. 0. 0. 0. 0. 0. 0. 0. 0. 0. 0. 0. 0.
      0. 0. 0. 0. 0. 0. 0. 0. 0. 0.</_>
    <_>
      2550. 1.44249780e+03 0. 8.06380798e+02 2040. 0. 1.08187329e+03
      8.06380798e+02 510. 7.21248901e+02 0. 0. 2.84638086e+03 0.
      2.16374658e+03 0. 0. 0. 0. 0. 0. 0. 0. 0. 0. 0. 0. 0. 0. 0. 0. 0.
      0. 0. 0. 0. 0. 0. 0. 0. 0. 0. 0. 0. 0. 0. 0. 0. 0. 0. 0. 0. 0. 0.
      0. 0. 0. 0. 0. 0. 0. 0. 0. 0.</_>
    <_>
      4.88638086e+03 4.74663916e+03 0. 0. 2.84638086e+03 0.
      7.21248901e+02 0. 2.12276172e+03 7.21248901e+02 0. 0.
      2.63276172e+03 0. 1.08187329e+03 1.61276160e+03 0. 0. 0. 0. 0. 0.
      0. 0. 0. 0. 0. 0. 0. 0. 0. 0. 0. 0. 0. 0. 0. 0. 0. 0. 0. 0. 0. 0.
      0. 0. 0. 0. 0. 0. 0. 0. 0. 0. 0. 0. 0. 0. 0. 0. 0. 0. 0. 0.</_>
    <_>
      2040. 7.21248901e+02 0. 0. 4.88638086e+03 0. 2.16374683e+03
      8.06380798e+02 1530. 1.08187341e+03 1.14039465e+03 0. 5610. 0.
      7.21248901e+02 0. 0. 0. 0. 0. 0. 0. 0. 0. 0. 0. 0. 0. 0. 0. 0. 0.
      0. 0. 0. 0. 0. 0. 0. 0. 0. 0. 0. 0. 0. 0. 0. 0. 0. 0. 0. 0. 0. 0.
      0. 0. 0. 0. 0. 0. 0. 0. 0. 0.</_>
    <_>
      3060. 1.08187329e+03 0. 0. 5610. 0. 1.80312231e+03 0.
      2.33638086e+03 1.50101904e+03 0. 1.61276160e+03 3570.
      1.14039465e+03 7.21248901e+02 0. 0. 0. 0. 0. 0. 0. 0. 0. 0. 0. 0.
      0. 0. 0. 0. 0. 0. 0. 0. 0. 0. 0. 0. 0. 0. 0. 0. 0. 0. 0. 0. 0. 0.
      0. 0. 0. 0. 0. 0. 0. 0. 0. 0. 0. 0. 0. 0. 0.</_>
    <_>
      7.00914258e+03 7.21248901e+02 0. 0. 0. 0. 0. 0. 6.20276172e+03
      1.44249780e+03 0. 0. 3.86638086e+03 0. 7.21248901e+02 0. 0. 0. 0.
      0. 0. 0. 0. 0. 0. 0. 0. 0. 0. 0. 0. 0. 0. 0. 0. 0. 0. 0. 0. 0. 0.
      0. 0. 0. 0. 0. 0. 0. 0. 0. 0. 0. 0. 0. 0. 0. 0. 0. 0. 0. 0. 0. 0.
      0.</_>
    <_>
      1.82638086e+03 1.08187329e+03 1.14039465e+03 0. 3060.
      1.14039465e+03 1.08187329e+03 8.06380798e+02 1020. 2.16374658e+03
      0. 0. 4080. 0. 2.16374658e+03 0. 0. 0. 0. 0. 0. 0. 0. 0. 0. 0. 0.
      0. 0. 0. 0. 0. 0. 0. 0. 0. 0. 0. 0. 0. 0. 0. 0. 0. 0. 0. 0. 0. 0.
      0. 0. 0. 0. 0. 0. 0. 0. 0. 0. 0. 0. 0. 0. 0.</_>
    <_>
      2.33638086e+03 1.50101904e+03 0. 1.61276160e+03 3570.
      1.14039465e+03 7.21248901e+02 0. 3060. 1.08187329e+03 0. 0. 5610.
      0. 1.80312231e+03 0. 0. 0. 0. 0. 0. 0. 0. 0. 0. 0. 0. 0. 0. 0. 0.
      0. 0. 0. 0. 0. 0. 0. 0. 0. 0. 0. 0. 0. 0. 0. 0. 0. 0. 0. 0. 0. 0.
      0. 0. 0. 0. 0. 0. 0. 0. 0. 0. 0.</_>
    <_>
      4.88638086e+03 3.60624451e+02 0. 8.06380798e+02 1.82638086e+03 0.
      3.60624451e+02 8.06380798e+02 4.88638086e+03 3.60624451e+02 0.
      8.06380798e+02 1.82638086e+03 0. 3.60624451e+02 8.06380798e+02 0.
      0. 0. 0. 0. 0. 0. 0. 0. 0. 0. 0. 0. 0. 0. 0. 0. 0. 0. 0. 0. 0. 0.
      0. 0. 0. 0. 0. 0. 0. 0. 0. 0. 0. 0. 0. 0. 0. 0. 0. 0. 0. 0. 0. 0.
      0. 0. 0.</_>
    <_>
      8160. 2.88499561e+03 0. 0. 5610. 0. 2.88499561e+03 0. 8160.
      3.30414160e+03 0. 0. 5610. 0. 3.30414160e+03 0. 0. 0. 0. 0. 0. 0.
      0. 0. 0. 0. 0. 0. 0. 0. 0. 0. 0. 0. 0. 0. 0. 0. 0. 0. 0. 0. 0. 0.
      0. 0. 0. 0. 0. 0. 0. 0. 0. 0. 0. 0. 0. 0. 0. 0. 0. 0. 0. 0.</_>
    <_>
      9690. 2.52437109e+03 0. 0. 4.37638086e+03 1.14039465e+03
      4.02539014e+03 8.06380798e+02 6.20276172e+03 3.66476587e+03
      1.14039465e+03 0. 3.86638086e+03 0. 1.80312231e+03 0. 0. 0. 0. 0.
      0. 0. 0. 0. 0. 0. 0. 0. 0. 0. 0. 0. 0. 0. 0. 0. 0. 0. 0. 0. 0. 0.
      0. 0. 0. 0. 0. 0. 0. 0. 0. 0. 0. 0. 0. 0. 0. 0. 0. 0. 0. 0. 0. 0.</_>
    <_>
      11220. 2.58289258e+03 0. 0. 4590. 0. 2.58289258e+03 0. 11220.
      2.58289258e+03 0. 0. 4590. 0. 2.58289258e+03 0. 0. 0. 0. 0. 0. 0.
      0. 0. 0. 0. 0. 0. 0. 0. 0. 0. 0. 0. 0. 0. 0. 0. 0. 0. 0. 0. 0. 0.
      0. 0. 0. 0. 0. 0. 0. 0. 0. 0. 0. 0. 0. 0. 0. 0. 0. 0. 0. 0.</_>
    <_>
      0. 0. 0. 0. 0. 0. 0. 0. 0. 0. 0. 0. 0. 0. 0. 0. 0. 0. 0. 0. 0. 0.
      0. 0. 0. 0. 0. 0. 0. 0. 0. 0. 0. 0. 0. 0. 0. 0. 0. 0. 0. 0. 0. 0.
      0. 0. 0. 0. 0. 0. 0. 0. 0. 0. 0. 0. 0. 0. 0. 0. 0. 0. 0. 0.</_>
    <_>
      9180. 2.58289258e+03 0. 0. 4590. 0. 2.58289258e+03 0. 9180.
      2.58289258e+03 0. 0. 4590. 0. 2.58289258e+03 0. 0. 0. 0. 0. 0. 0.
      0. 0. 0. 0. 0. 0. 0. 0. 0. 0. 0. 0. 0. 0. 0. 0. 0. 0. 0. 0. 0. 0.
      0. 0. 0. 0. 0. 0. 0. 0. 0. 0. 0. 0. 0. 0. 0. 0. 0. 0. 0. 0.</_></uncompressed_support_vectors>
  <decision_functions>
    <_>
      <sv_count>1</sv_count>
      <rho>-5.8165591102535297e-01</rho>
      <alpha>
        1.</alpha>
      <index>
        0</index></_>
    <_>
      <sv_count>1</sv_count>
      <rho>3.4156989902948942e-01</rho>
      <alpha>
        1.</alpha>
      <index>
        1</index></_>
    <_>
      <sv_count>1</sv_count>
      <rho>3.6754737673007604e-01</rho>
      <alpha>
        1.</alpha>
      <index>
        2</index></_>
    <_>
      <sv_count>1</sv_count>
      <rho>-6.6452665540626932e-01</rho>
      <alpha>
        1.</alpha>
      <index>
        3</index></_>
    <_>
      <sv_count>1</sv_count>
      <rho>-3.8212718470388168e-01</rho>
      <alpha>
        1.</alpha>
      <index>
        4</index></_>
    <_>
      <sv_count>1</sv_count>
      <rho>1.1074386443323024e-01</rho>
      <alpha>
        1.</alpha>
      <index>
        5</index></_>
    <_>
      <sv_count>1</sv_count>
      <rho>-5.9806942983352995e-01</rho>
      <alpha>
        1.</alpha>
      <index>
        6</index></_>
    <_>
      <sv_count>1</sv_count>
      <rho>5.1440270522442388e-01</rho>
      <alpha>
        1.</alpha>
      <index>
        7</index></_>
    <_>
      <sv_count>1</sv_count>
      <rho>-6.8912706415424485e-01</rho>
      <alpha>
        1.</alpha>
      <index>
        8</index></_>
    <_>
      <sv_count>1</sv_count>
      <rho>1.0000000000000002e+00</rho>
      <alpha>
        1.</alpha>
      <index>
        9</index></_>
    <_>
      <sv_count>1</sv_count>
      <rho>8.7935666511212507e-01</rho>
      <alpha>
        1.</alpha>
      <index>
        10</index></_>
    <_>
      <sv_count>1</sv_count>
      <rho>6.4753685728713462e-01</rho>
      <alpha>
        1.</alpha>
      <index>
        11</index></_>
    <_>
      <sv_count>1</sv_count>
      <rho>-2.5390550653600658e-01</rho>
      <alpha>
        1.</alpha>
      <index>
        12</index></_>
    <_>
      <sv_count>1</sv_count>
      <rho>-3.4645842485858425e-01</rho>
      <alpha>
        1.</alpha>
      <index>
        13</index></_>
    <_>
      <sv_count>1</sv_count>
      <rho>-2.1469018560452371e-01</rho>
      <alpha>
        1.</alpha>
      <index>
        14</index></_>
    <_>
      <sv_count>1</sv_count>
      <rho>3.4149816128434712e-01</rho>
      <alpha>
        1.</alpha>
      <index>
        15</index></_>
    <_>
      <sv_count>1</sv_count>
      <rho>-5.5825335627027883e-01</rho>
      <alpha>
        1.</alpha>
      <index>
        16</index></_>
    <_>
      <sv_count>1</sv_count>
      <rho>-6.8046255030168512e-01</rho>
      <alpha>
        1.</alpha>
      <index>
        17</index></_>
    <_>
      <sv_count>1</sv_count>
      <rho>1.</rho>
      <alpha>
        1.</alpha>
      <index>
        18</index></_>
    <_>
      <sv_count>1</sv_count>
      <rho>6.1350427980157518e-01</rho>
      <alpha>
        1.</alpha>
      <index>
        19</index></_>
    <_>
      <sv_count>1</sv_count>
      <rho>-5.2617957720322739e-01</rho>
      <alpha>
        1.</alpha>
      <index>
        20</index></_>
    <_>
      <sv_count>1</sv_count>
      <rho>-1.5023587619912473e+00</rho>
      <alpha>
        1.</alpha>
      <index>
        21</index></_>
    <_>
      <sv_count>1</sv_count>
      <rho>-1.8748312221072083e+00</rho>
      <alpha>
        1.</alpha>
      <index>
        22</index></_>
    <_>
      <sv_count>1</sv_count>
      <rho>-8.3383386910415280e-01</rho>
      <alpha>
        1.</alpha>
      <index>
        23</index></_>
    <_>
      <sv_count>1</sv_count>
      <rho>-1.1397161270792691e+00</rho>
      <alpha>
        1.</alpha>
      <index>
        24</index></_>
    <_>
      <sv_count>1</sv_count>
      <rho>-1.3624435080954449e+00</rho>
      <alpha>
        1.</alpha>
      <index>
        25</index></_>
    <_>
      <sv_count>1</sv_count>
      <rho>1.0000000000000002e+00</rho>
      <alpha>
        1.</alpha>
      <index>
        26</index></_>
    <_>
      <sv_count>1</sv_count>
      <rho>-7.1951502846708892e-01</rho>
      <alpha>
        1.</alpha>
      <index>
        27</index></_>
    <_>
      <sv_count>1</sv_count>
      <rho>-9.5402337215013910e-01</rho>
      <alpha>
        1.</alpha>
      <index>
        28</index></_>
    <_>
      <sv_count>1</sv_count>
      <rho>-2.8837833540154073e-01</rho>
      <alpha>
        1.</alpha>
      <index>
        29</index></_>
    <_>
      <sv_count>1</sv_count>
      <rho>-5.7069264993819180e-01</rho>
      <alpha>
        1.</alpha>
      <index>
        30</index></_>
    <_>
      <sv_count>1</sv_count>
      <rho>-1.2355350810051975e+00</rho>
      <alpha>
        1.</alpha>
      <index>
        31</index></_>
    <_>
      <sv_count>1</sv_count>
      <rho>-1.4113035028527126e+00</rho>
      <alpha>
        1.</alpha>
      <index>
        32</index></_>
    <_>
      <sv_count>1</sv_count>
      <rho>1.</rho>
      <alpha>
        1.</alpha>
      <index>
        33</index></_>
    <_>
      <sv_count>1</sv_count>
      <rho>-4.8908197132154613e-01</rho>
      <alpha>
        1.</alpha>
      <index>
        34</index></_>
    <_>
      <sv_count>1</sv_count>
      <rho>-5.5884453002817747e-01</rho>
      <alpha>
        1.</alpha>
      <index>
        35</index></_>
    <_>
      <sv_count>1</sv_count>
      <rho>6.8073768005697066e-01</rho>
      <alpha>
        1.</alpha>
      <index>
        36</index></_>
    <_>
      <sv_count>1</sv_count>
      <rho>-2.6708398397183919e-01</rho>
      <alpha>
        1.</alpha>
      <index>
        37</index></_>
    <_>
      <sv_count>1</sv_count>
      <rho>-2.6714286369885182e-01</rho>
      <alpha>
        1.</alpha>
      <index>
        38</index></_>
    <_>
      <sv_count>1</sv_count>
      <rho>1.</rho>
      <alpha>
        1.</alpha>
      <index>
        39</index></_>
    <_>
      <sv_count>1</sv_count>
      <rho>1.0971308885196021e+00</rho>
      <alpha>
        1.</alpha>
      <index>
        40</index></_>
    <_>
      <sv_count>1</sv_count>
      <rho>3.9801752967990334e-01</rho>
      <alpha>
        1.</alpha>
      <index>
        41</index></_>
    <_>
      <sv_count>1</sv_count>
      <rho>6.9654278835100580e-01</rho>
      <alpha>
        1.</alpha>
      <index>
        42</index></_>
    <_>
      <sv_count>1</sv_count>
      <rho>3.0201622106367931e-01</rho>
      <alpha>
        1.</alpha>
      <index>
        43</index></_>
    <_>
      <sv_count>1</sv_count>
      <rho>1.</rho>
      <alpha>
        1.</alpha>
      <index>
        44</index></_>
    <_>
      <sv_count>1</sv_count>
      <rho>6.4205741522287763e-01</rho>
      <alpha>
        1.</alpha>
      <index>
        45</index></_>
    <_>
      <sv_count>1</sv_count>
      <rho>-6.7023873281466395e-01</rho>
      <alpha>
        1.</alpha>
      <index>
        46</index></_>
    <_>
      <sv_count>1</sv_count>
      <rho>1.5225501882574571e-01</rho>
      <alpha>
        1.</alpha>
      <index>
        47</index></_>
    <_>
      <sv_count>1</sv_count>
      <rho>1.</rho>
      <alpha>
        1.</alpha>
      <index>
        48</index></_>
    <_>
      <sv_count>1</sv_count>
      <rho>-3.2977279690588618e-01</rho>
      <alpha>
        1.</alpha>
      <index>
        49</index></_>
    <_>
      <sv_count>1</sv_count>
      <rho>-1.0811968106665200e+00</rho>
      <alpha>
        1.</alpha>
      <index>
        50</index></_>
    <_>
      <sv_count>1</sv_count>
      <rho>1.</rho>
      <alpha>
        1.</alpha>
      <index>
        51</index></_>
    <_>
      <sv_count>1</sv_count>
      <rho>-2.5251063482999497e-01</rho>
      <alpha>
        1.</alpha>
      <index>
        52</index></_>
    <_>
      <sv_count>1</sv_count>
      <rho>1.</rho>
      <alpha>
        1.</alpha>
      <index>
        53</index></_>
    <_>
      <sv_count>1</sv_count>
      <rho>1.</rho>
      <alpha>
        1.</alpha>
      <index>
        54</index></_></decision_functions></opencv_ml_svm>
</opencv_storage>
