<?xml version="1.0"?>
<opencv_storage>
<opencv_ml_svm>
  <format>3</format>
  <svmType>C_SVC</svmType>
  <kernel>
    <type>LINEAR</type></kernel>
  <C>2.6699999999999999e+00</C>
  <term_criteria><epsilon>1.1920928955078125e-07</epsilon>
    <iterations>1000</iterations></term_criteria>
  <var_count>64</var_count>
  <class_count>11</class_count>
  <class_labels type_id="opencv-matrix">
    <rows>11</rows>
    <cols>1</cols>
    <dt>i</dt>
    <data>
      0 1 2 3 4 5 6 7 8 9 11</data></class_labels>
  <sv_total>55</sv_total>
  <support_vectors>
    <_>
      3.25342757e-04 1.73445515e-04 6.27910704e-05 -1.60475087e-04
      -3.91808135e-05 -5.65902592e-05 9.47451117e-05 2.16322383e-04
      -2.97415303e-04 2.89978168e-04 1.70266721e-04 1.79756797e-04
      2.00536102e-04 1.28868662e-04 1.42992736e-04 -1.57805276e-04 0. 0.
      0. 0. 0. 0. 0. 0. 0. 0. 0. 0. 0. 0. 0. 0. 0. 0. 0. 0. 0. 0. 0. 0.
      0. 0. 0. 0. 0. 0. 0. 0. 0. 0. 0. 0. 0. 0. 0. 0. 0. 0. 0. 0. 0. 0.
      0. 0.</_>
    <_>
      7.20336830e-05 -1.23092803e-04 -8.91098534e-05 -2.04629352e-04
      -6.04079796e-05 -5.58867259e-06 7.70898259e-05 2.01176197e-04
      1.45185317e-04 -4.52185159e-05 -1.71779277e-04 -1.86086239e-04
      -5.64072652e-05 -2.40619047e-05 5.62388050e-06 1.46426064e-05 0.
      0. 0. 0. 0. 0. 0. 0. 0. 0. 0. 0. 0. 0. 0. 0. 0. 0. 0. 0. 0. 0. 0.
      0. 0. 0. 0. 0. 0. 0. 0. 0. 0. 0. 0. 0. 0. 0. 0. 0. 0. 0. 0. 0. 0.
      0. 0. 0.</_>
    <_>
      1.74042623e-04 1.75321053e-04 1.63769946e-04 2.37557470e-04
      -1.32574583e-04 -1.68491664e-04 -1.84364835e-04 2.99632607e-04
      1.17674004e-04 2.84563634e-04 -1.17160671e-04 6.37099074e-05
      -2.78528052e-04 -3.19074927e-04 -1.07187654e-04 8.44308306e-05 0.
      0. 0. 0. 0. 0. 0. 0. 0. 0. 0. 0. 0. 0. 0. 0. 0. 0. 0. 0. 0. 0. 0.
      0. 0. 0. 0. 0. 0. 0. 0. 0. 0. 0. 0. 0. 0. 0. 0. 0. 0. 0. 0. 0. 0.
      0. 0. 0.</_>
    <_>
      2.84431771e-05 -6.41034683e-04 -3.16649384e-04 -6.78090073e-05
      2.37085078e-05 2.16737026e-04 -1.22109253e-04 -1.85221979e-05
      3.75372906e-06 3.53403680e-04 -1.27262145e-04 3.51532144e-05
      2.27040917e-04 3.43020074e-05 6.83018705e-04 -9.19609229e-05 0. 0.
      0. 0. 0. 0. 0. 0. 0. 0. 0. 0. 0. 0. 0. 0. 0. 0. 0. 0. 0. 0. 0. 0.
      0. 0. 0. 0. 0. 0. 0. 0. 0. 0. 0. 0. 0. 0. 0. 0. 0. 0. 0. 0. 0. 0.
      0. 0.</_>
    <_>
      1.85857949e-04 1.75040968e-05 3.56170895e-05 2.39152560e-05
      -1.24898652e-04 -3.63366213e-04 2.54665956e-05 2.43487782e-04
      1.62964541e-04 -3.58654943e-05 -3.06870556e-04 -2.17412759e-04
      -3.25521819e-06 3.31398187e-05 4.33285913e-06 1.55866728e-04 0. 0.
      0. 0. 0. 0. 0. 0. 0. 0. 0. 0. 0. 0. 0. 0. 0. 0. 0. 0. 0. 0. 0. 0.
      0. 0. 0. 0. 0. 0. 0. 0. 0. 0. 0. 0. 0. 0. 0. 0. 0. 0. 0. 0. 0. 0.
      0. 0.</_>
    <_>
      2.53508944e-04 -1.07296022e-04 -1.21469071e-04 -1.31169538e-04
      -1.20470628e-04 -2.08752419e-04 2.05521763e-04 3.27215093e-04
      2.74823979e-04 -1.92822321e-04 -7.79234397e-04 4.79702256e-04
      -2.06509387e-04 -3.24319350e-04 2.19353897e-04 1.53169058e-05 0.
      0. 0. 0. 0. 0. 0. 0. 0. 0. 0. 0. 0. 0. 0. 0. 0. 0. 0. 0. 0. 0. 0.
      0. 0. 0. 0. 0. 0. 0. 0. 0. 0. 0. 0. 0. 0. 0. 0. 0. 0. 0. 0. 0. 0.
      0. 0. 0.</_>
    <_>
      3.20373438e-05 -1.30884859e-04 4.04916755e-05 3.77243559e-05
      2.05790420e-04 3.84125451e-05 1.15111565e-04 4.62824537e-05
      -8.35406809e-06 -1.72645392e-04 -6.81699239e-05 -5.83467272e-06
      -1.63815188e-04 1.95264602e-05 7.52626147e-05 -7.89642309e-06 0.
      0. 0. 0. 0. 0. 0. 0. 0. 0. 0. 0. 0. 0. 0. 0. 0. 0. 0. 0. 0. 0. 0.
      0. 0. 0. 0. 0. 0. 0. 0. 0. 0. 0. 0. 0. 0. 0. 0. 0. 0. 0. 0. 0. 0.
      0. 0. 0.</_>
    <_>
      6.73007569e-04 4.43341676e-04 -3.84093000e-04 -1.73057400e-04
      1.97946021e-04 -6.35628181e-04 -1.56434849e-04 5.31950442e-04
      4.45571750e-05 7.70693223e-05 -1.02991267e-04 -5.09634730e-04
      -1.17157069e-04 -3.35211749e-04 -2.30397403e-04 2.30946549e-04 0.
      0. 0. 0. 0. 0. 0. 0. 0. 0. 0. 0. 0. 0. 0. 0. 0. 0. 0. 0. 0. 0. 0.
      0. 0. 0. 0. 0. 0. 0. 0. 0. 0. 0. 0. 0. 0. 0. 0. 0. 0. 0. 0. 0. 0.
      0. 0. 0.</_>
    <_>
      2.08456739e-04 -3.70418013e-04 -5.09781181e-04 2.69286364e-04
      5.85080881e-04 3.52212664e-04 4.21315839e-04 2.70383025e-04
      2.32092309e-04 -3.54554562e-04 -7.12094014e-04 -2.73025304e-04
      -9.29839152e-04 3.30163399e-04 2.11888648e-04 5.98809915e-04 0. 0.
      0. 0. 0. 0. 0. 0. 0. 0. 0. 0. 0. 0. 0. 0. 0. 0. 0. 0. 0. 0. 0. 0.
      0. 0. 0. 0. 0. 0. 0. 0. 0. 0. 0. 0. 0. 0. 0. 0. 0. 0. 0. 0. 0. 0.
      0. 0.</_>
    <_>
      1.92835323e-05 9.31583691e-06 1.40192151e-05 5.81569657e-06
      -6.41545848e-05 2.54215934e-06 1.24874077e-05 2.06351469e-05
      1.98627604e-05 8.63954392e-06 2.10992744e-06 5.38583981e-06
      -7.59530303e-05 5.09999973e-06 1.15911798e-05 2.89903301e-06 0. 0.
      0. 0. 0. 0. 0. 0. 0. 0. 0. 0. 0. 0. 0. 0. 0. 0. 0. 0. 0. 0. 0. 0.
      0. 0. 0. 0. 0. 0. 0. 0. 0. 0. 0. 0. 0. 0. 0. 0. 0. 0. 0. 0. 0. 0.
      0. 0.</_>
    <_>
      3.90730384e-05 -2.83901791e-05 -3.46662928e-05 -3.57651443e-05
      -2.44134080e-05 1.07913202e-05 -1.18317388e-07 9.87882322e-06
      1.69404680e-04 -3.39811886e-05 -5.27575212e-05 -6.40871804e-05
      -3.77150900e-05 -2.36837809e-06 -9.76665797e-06 2.50589710e-06 0.
      0. 0. 0. 0. 0. 0. 0. 0. 0. 0. 0. 0. 0. 0. 0. 0. 0. 0. 0. 0. 0. 0.
      0. 0. 0. 0. 0. 0. 0. 0. 0. 0. 0. 0. 0. 0. 0. 0. 0. 0. 0. 0. 0. 0.
      0. 0. 0.</_>
    <_>
      8.95620178e-05 -4.42596547e-06 -9.39709662e-06 3.01380333e-05
      -6.78308934e-05 -9.63101502e-06 -5.67358111e-05 -2.49691420e-05
      1.92472653e-04 -1.43924235e-05 -2.67059058e-05 -2.43495342e-05
      -8.06449680e-05 -4.41438642e-05 -4.55906047e-05 4.04300881e-05 0.
      0. 0. 0. 0. 0. 0. 0. 0. 0. 0. 0. 0. 0. 0. 0. 0. 0. 0. 0. 0. 0. 0.
      0. 0. 0. 0. 0. 0. 0. 0. 0. 0. 0. 0. 0. 0. 0. 0. 0. 0. 0. 0. 0. 0.
      0. 0. 0.</_>
    <_>
      -6.08244809e-05 -1.44571546e-04 -5.40175242e-05 -2.15998425e-05
      2.30030309e-05 5.52235651e-05 -3.24052598e-05 -8.07503311e-05
      3.37367266e-04 -1.22052188e-05 -4.78411894e-05 -5.80369815e-05
      -8.51189616e-05 -1.60086165e-05 3.61017883e-05 8.26829346e-05 0.
      0. 0. 0. 0. 0. 0. 0. 0. 0. 0. 0. 0. 0. 0. 0. 0. 0. 0. 0. 0. 0. 0.
      0. 0. 0. 0. 0. 0. 0. 0. 0. 0. 0. 0. 0. 0. 0. 0. 0. 0. 0. 0. 0. 0.
      0. 0. 0.</_>
    <_>
      7.59795075e-05 -9.58493001e-06 -7.95418146e-06 -1.20919658e-05
      -3.28165952e-05 -6.08909249e-05 -1.09141001e-05 -1.43634870e-05
      1.98907845e-04 -3.71305541e-05 -4.77091671e-05 -6.82337486e-05
      -2.52010068e-05 -5.74559863e-06 -3.37896090e-05 2.40146619e-05 0.
      0. 0. 0. 0. 0. 0. 0. 0. 0. 0. 0. 0. 0. 0. 0. 0. 0. 0. 0. 0. 0. 0.
      0. 0. 0. 0. 0. 0. 0. 0. 0. 0. 0. 0. 0. 0. 0. 0. 0. 0. 0. 0. 0. 0.
      0. 0. 0.</_>
    <_>
      7.70120532e-05 -5.29072668e-06 -1.97576064e-05 -1.58387811e-05
      -5.77382816e-05 -1.45207423e-05 -3.05925169e-05 -1.97675745e-05
      2.19415189e-04 -8.41760266e-05 -5.61114939e-05 -6.72461192e-06
      -5.77846222e-05 -2.00040395e-05 -2.59803201e-05 3.36847952e-05 0.
      0. 0. 0. 0. 0. 0. 0. 0. 0. 0. 0. 0. 0. 0. 0. 0. 0. 0. 0. 0. 0. 0.
      0. 0. 0. 0. 0. 0. 0. 0. 0. 0. 0. 0. 0. 0. 0. 0. 0. 0. 0. 0. 0. 0.
      0. 0. 0.</_>
    <_>
      -4.08277883e-05 -7.91255225e-05 1.08665436e-05 3.77156794e-05
      1.14846160e-04 2.78216867e-05 2.65563631e-05 3.18395942e-05
      7.38328308e-05 -1.75034424e-04 -4.41165284e-05 -5.35622530e-05
      -1.18627082e-04 1.31755614e-05 3.33963762e-05 -2.08502952e-05 0.
      0. 0. 0. 0. 0. 0. 0. 0. 0. 0. 0. 0. 0. 0. 0. 0. 0. 0. 0. 0. 0. 0.
      0. 0. 0. 0. 0. 0. 0. 0. 0. 0. 0. 0. 0. 0. 0. 0. 0. 0. 0. 0. 0. 0.
      0. 0. 0.</_>
    <_>
      2.13956650e-04 1.92687239e-05 -6.32100127e-05 6.36495606e-05
      -2.40198315e-05 9.48406341e-06 -1.21552519e-04 -4.89775484e-05
      2.11627266e-04 -1.27546868e-04 -4.44894540e-05 -1.33410198e-04
      -5.84571317e-05 -5.52158926e-05 -1.15198876e-04 8.19341440e-05 0.
      0. 0. 0. 0. 0. 0. 0. 0. 0. 0. 0. 0. 0. 0. 0. 0. 0. 0. 0. 0. 0. 0.
      0. 0. 0. 0. 0. 0. 0. 0. 0. 0. 0. 0. 0. 0. 0. 0. 0. 0. 0. 0. 0. 0.
      0. 0. 0.</_>
    <_>
      -2.92625991e-05 -4.55957743e-05 3.67204916e-06 -2.71279896e-05
      2.28562712e-05 -6.73480690e-06 -1.05392373e-05 -1.56587230e-05
      2.76035105e-04 -8.20357745e-05 -8.15694366e-05 -5.09829624e-05
      -8.57143532e-05 -6.15118461e-06 -1.16114716e-05 2.45748215e-05 0.
      0. 0. 0. 0. 0. 0. 0. 0. 0. 0. 0. 0. 0. 0. 0. 0. 0. 0. 0. 0. 0. 0.
      0. 0. 0. 0. 0. 0. 0. 0. 0. 0. 0. 0. 0. 0. 0. 0. 0. 0. 0. 0. 0. 0.
      0. 0. 0.</_>
    <_>
      2.11721981e-05 2.65337167e-06 3.22400592e-06 3.60882427e-06
      -5.17338740e-05 3.22400592e-06 2.65337167e-06 1.74748516e-06
      3.63482213e-05 0. 0. 0. -5.61267880e-05 3.24372922e-06
      2.25290319e-06 4.42818873e-06 0. 0. 0. 0. 0. 0. 0. 0. 0. 0. 0. 0.
      0. 0. 0. 0. 0. 0. 0. 0. 0. 0. 0. 0. 0. 0. 0. 0. 0. 0. 0. 0. 0. 0.
      0. 0. 0. 0. 0. 0. 0. 0. 0. 0. 0. 0. 0. 0.</_>
    <_>
      -1.17690281e-04 1.32238027e-04 1.65200909e-04 3.08621238e-04
      3.43059874e-05 -8.37767293e-05 -1.75021472e-04 -6.20905703e-05
      -5.04843456e-06 1.05226383e-04 2.10171071e-04 2.10511265e-04
      -5.61985325e-05 -8.08371697e-05 -1.06191452e-04 -6.56122802e-06 0.
      0. 0. 0. 0. 0. 0. 0. 0. 0. 0. 0. 0. 0. 0. 0. 0. 0. 0. 0. 0. 0. 0.
      0. 0. 0. 0. 0. 0. 0. 0. 0. 0. 0. 0. 0. 0. 0. 0. 0. 0. 0. 0. 0. 0.
      0. 0. 0.</_>
    <_>
      -1.27061590e-04 -7.20905373e-05 3.06196707e-05 1.33284266e-04
      1.65746431e-04 2.32776274e-05 -9.27823421e-05 -9.61043188e-05
      -1.06697415e-04 1.01853744e-04 1.56630398e-04 1.87506055e-04
      -2.07312278e-05 -1.21654364e-06 3.18792008e-05 -1.90958890e-05 0.
      0. 0. 0. 0. 0. 0. 0. 0. 0. 0. 0. 0. 0. 0. 0. 0. 0. 0. 0. 0. 0. 0.
      0. 0. 0. 0. 0. 0. 0. 0. 0. 0. 0. 0. 0. 0. 0. 0. 0. 0. 0. 0. 0. 0.
      0. 0. 0.</_>
    <_>
      -9.46475848e-05 2.07456076e-04 2.33859973e-04 2.88226060e-04
      -8.73532044e-05 -2.60602043e-04 -9.85024017e-05 -2.04564611e-04
      -3.94947820e-05 3.72284376e-05 1.96415149e-05 1.12437912e-04
      5.82248613e-05 3.80597266e-05 -1.14713068e-04 1.13191425e-04 0. 0.
      0. 0. 0. 0. 0. 0. 0. 0. 0. 0. 0. 0. 0. 0. 0. 0. 0. 0. 0. 0. 0. 0.
      0. 0. 0. 0. 0. 0. 0. 0. 0. 0. 0. 0. 0. 0. 0. 0. 0. 0. 0. 0. 0. 0.
      0. 0.</_>
    <_>
      -1.06265470e-04 1.82768956e-04 2.46287265e-04 3.41056933e-04
      -2.51211823e-05 -7.20440994e-07 -1.50978565e-04 -2.92063603e-04
      1.41506089e-05 -6.38188940e-05 2.80955835e-04 2.18440968e-04
      1.26650921e-05 -1.40162461e-04 -1.54612972e-05 -5.29172803e-06 0.
      0. 0. 0. 0. 0. 0. 0. 0. 0. 0. 0. 0. 0. 0. 0. 0. 0. 0. 0. 0. 0. 0.
      0. 0. 0. 0. 0. 0. 0. 0. 0. 0. 0. 0. 0. 0. 0. 0. 0. 0. 0. 0. 0. 0.
      0. 0. 0.</_>
    <_>
      -5.98897568e-05 -3.68657747e-05 4.07957923e-05 9.70775582e-05
      1.30886619e-04 1.46671091e-05 2.68325039e-05 -1.88339927e-05
      -1.22935118e-04 -7.29011808e-05 1.18492189e-05 8.54155587e-05
      -4.01983707e-05 -3.70793805e-06 3.36561716e-05 5.19312853e-05 0.
      0. 0. 0. 0. 0. 0. 0. 0. 0. 0. 0. 0. 0. 0. 0. 0. 0. 0. 0. 0. 0. 0.
      0. 0. 0. 0. 0. 0. 0. 0. 0. 0. 0. 0. 0. 0. 0. 0. 0. 0. 0. 0. 0. 0.
      0. 0. 0.</_>
    <_>
      1.85914178e-04 1.00967518e-04 3.55527416e-04 3.05103575e-04
      7.20904718e-05 -2.39084533e-04 -2.20929549e-04 -2.48384633e-04
      -1.76233283e-04 2.29713114e-04 1.28007305e-04 1.25638733e-04
      -1.48807623e-04 -7.63038624e-05 -8.72825694e-05 -5.86031128e-05 0.
      0. 0. 0. 0. 0. 0. 0. 0. 0. 0. 0. 0. 0. 0. 0. 0. 0. 0. 0. 0. 0. 0.
      0. 0. 0. 0. 0. 0. 0. 0. 0. 0. 0. 0. 0. 0. 0. 0. 0. 0. 0. 0. 0. 0.
      0. 0. 0.</_>
    <_>
      -1.42799356e-04 5.49109973e-05 1.00558420e-04 1.75910114e-04
      9.85378065e-05 -7.74335494e-05 4.36305927e-05 -2.39879620e-04
      -2.72746373e-04 1.16729752e-04 2.28183635e-04 1.75038149e-04
      -1.86692821e-04 -2.73658443e-05 -9.30149836e-05 4.65808153e-05 0.
      0. 0. 0. 0. 0. 0. 0. 0. 0. 0. 0. 0. 0. 0. 0. 0. 0. 0. 0. 0. 0. 0.
      0. 0. 0. 0. 0. 0. 0. 0. 0. 0. 0. 0. 0. 0. 0. 0. 0. 0. 0. 0. 0. 0.
      0. 0. 0.</_>
    <_>
      9.96636300e-06 4.61601212e-06 2.64709761e-05 1.70014355e-05
      -7.60932890e-05 3.65523192e-06 0. 0. 9.73709757e-06 8.77800539e-06
      1.15001967e-05 1.19883016e-05 -8.59687498e-05 8.51778805e-06 0.
      5.97220787e-06 0. 0. 0. 0. 0. 0. 0. 0. 0. 0. 0. 0. 0. 0. 0. 0. 0.
      0. 0. 0. 0. 0. 0. 0. 0. 0. 0. 0. 0. 0. 0. 0. 0. 0. 0. 0. 0. 0. 0.
      0. 0. 0. 0. 0. 0. 0. 0. 0.</_>
    <_>
      -1.41482786e-04 -1.82064439e-04 -7.52310516e-05 -9.46639120e-05
      2.81924498e-04 1.55481262e-04 -8.08761433e-06 -5.69630538e-05
      -9.06082932e-05 2.31946287e-05 3.98901284e-05 -9.95537630e-06
      9.26103676e-05 9.75380899e-05 1.09130437e-04 1.46846751e-05 0. 0.
      0. 0. 0. 0. 0. 0. 0. 0. 0. 0. 0. 0. 0. 0. 0. 0. 0. 0. 0. 0. 0. 0.
      0. 0. 0. 0. 0. 0. 0. 0. 0. 0. 0. 0. 0. 0. 0. 0. 0. 0. 0. 0. 0. 0.
      0. 0.</_>
    <_>
      -1.06784373e-05 7.74676082e-05 2.16097149e-04 -2.11559585e-04
      -1.90134291e-04 -2.04235854e-04 1.23054546e-04 -2.13482199e-04
      8.17290711e-05 -2.20780581e-04 -3.46848072e-04 -3.02328408e-04
      2.31813625e-04 1.85318917e-04 1.17376214e-04 1.83068740e-04 0. 0.
      0. 0. 0. 0. 0. 0. 0. 0. 0. 0. 0. 0. 0. 0. 0. 0. 0. 0. 0. 0. 0. 0.
      0. 0. 0. 0. 0. 0. 0. 0. 0. 0. 0. 0. 0. 0. 0. 0. 0. 0. 0. 0. 0. 0.
      0. 0.</_>
    <_>
      -2.41959951e-05 -1.78955845e-04 1.68299914e-04 -4.40532487e-04
      8.90358388e-06 3.24377994e-04 2.92958139e-04 -4.17025178e-04
      2.50304220e-05 -5.32049104e-04 -2.23285955e-04 -2.62420595e-04
      3.14947189e-04 1.34840445e-06 2.47806369e-04 -8.00140624e-05 0. 0.
      0. 0. 0. 0. 0. 0. 0. 0. 0. 0. 0. 0. 0. 0. 0. 0. 0. 0. 0. 0. 0. 0.
      0. 0. 0. 0. 0. 0. 0. 0. 0. 0. 0. 0. 0. 0. 0. 0. 0. 0. 0. 0. 0. 0.
      0. 0.</_>
    <_>
      -6.15633762e-05 -5.72086356e-05 4.27954692e-05 1.06302205e-05
      1.59825824e-04 6.20778883e-05 4.52264685e-05 1.31340539e-05
      -8.92515964e-05 -1.13493588e-04 -1.75267742e-05 1.07355640e-06
      -2.66728312e-05 4.45898149e-05 5.74016485e-05 3.61597777e-05 0. 0.
      0. 0. 0. 0. 0. 0. 0. 0. 0. 0. 0. 0. 0. 0. 0. 0. 0. 0. 0. 0. 0. 0.
      0. 0. 0. 0. 0. 0. 0. 0. 0. 0. 0. 0. 0. 0. 0. 0. 0. 0. 0. 0. 0. 0.
      0. 0.</_>
    <_>
      1.96626366e-04 1.31498728e-05 -6.21944724e-04 -6.55920827e-04
      8.31713842e-04 1.57375092e-04 8.54982136e-05 -3.78123746e-04
      -3.06453381e-04 -3.72834533e-04 -7.03997677e-04 -6.48252026e-04
      -2.88576324e-04 -1.45980041e-04 3.91211506e-04 -1.61237440e-05 0.
      0. 0. 0. 0. 0. 0. 0. 0. 0. 0. 0. 0. 0. 0. 0. 0. 0. 0. 0. 0. 0. 0.
      0. 0. 0. 0. 0. 0. 0. 0. 0. 0. 0. 0. 0. 0. 0. 0. 0. 0. 0. 0. 0. 0.
      0. 0. 0.</_>
    <_>
      -3.88467197e-05 -2.38608569e-04 -2.09986742e-04 -2.84815411e-04
      1.12604845e-04 3.84760824e-05 5.01305447e-04 -2.58814282e-04
      -3.41607607e-04 -1.97788147e-04 4.05524224e-05 -4.22291923e-04
      -9.46373912e-05 3.46464891e-04 2.33524770e-06 5.70251359e-05 0. 0.
      0. 0. 0. 0. 0. 0. 0. 0. 0. 0. 0. 0. 0. 0. 0. 0. 0. 0. 0. 0. 0. 0.
      0. 0. 0. 0. 0. 0. 0. 0. 0. 0. 0. 0. 0. 0. 0. 0. 0. 0. 0. 0. 0. 0.
      0. 0.</_>
    <_>
      2.37415406e-05 0. 1.24400567e-05 3.98446673e-06 -8.27683543e-05
      2.97229030e-06 8.77706407e-06 3.52497568e-06 5.93618324e-06
      5.88021840e-06 0. 8.20188598e-06 -8.29381970e-05 7.50750542e-06
      7.26021062e-06 7.13757345e-06 0. 0. 0. 0. 0. 0. 0. 0. 0. 0. 0. 0.
      0. 0. 0. 0. 0. 0. 0. 0. 0. 0. 0. 0. 0. 0. 0. 0. 0. 0. 0. 0. 0. 0.
      0. 0. 0. 0. 0. 0. 0. 0. 0. 0. 0. 0. 0. 0.</_>
    <_>
      1.34059388e-04 1.56506823e-04 4.71843850e-05 5.48660910e-06
      -1.70866129e-04 -2.10119775e-04 5.57372878e-05 4.10767534e-05
      1.09084016e-04 -8.22077272e-05 -1.09413355e-04 -1.08533888e-04
      2.63872289e-06 2.84659691e-05 -5.82675457e-05 -7.98008273e-07 0.
      0. 0. 0. 0. 0. 0. 0. 0. 0. 0. 0. 0. 0. 0. 0. 0. 0. 0. 0. 0. 0. 0.
      0. 0. 0. 0. 0. 0. 0. 0. 0. 0. 0. 0. 0. 0. 0. 0. 0. 0. 0. 0. 0. 0.
      0. 0. 0.</_>
    <_>
      1.67782040e-04 2.42125243e-04 6.52752060e-05 -5.22240555e-07
      -2.47193122e-04 -8.91028394e-05 -5.22676710e-05 -4.43783392e-05
      1.49224667e-04 -2.95756268e-04 -1.76560643e-04 1.45837359e-04
      -4.83105259e-06 -5.73956386e-05 -5.55661354e-05 -1.94836557e-05 0.
      0. 0. 0. 0. 0. 0. 0. 0. 0. 0. 0. 0. 0. 0. 0. 0. 0. 0. 0. 0. 0. 0.
      0. 0. 0. 0. 0. 0. 0. 0. 0. 0. 0. 0. 0. 0. 0. 0. 0. 0. 0. 0. 0. 0.
      0. 0. 0.</_>
    <_>
      -1.34496704e-05 5.05837197e-05 1.26700688e-04 2.06006425e-05
      1.42769131e-04 7.02499528e-06 8.04115480e-05 4.36516893e-05
      -4.48098435e-05 -2.43656032e-04 -7.36433794e-05 -1.53233741e-05
      -1.55072092e-04 -1.59931351e-05 4.83709409e-05 3.88578701e-05 0.
      0. 0. 0. 0. 0. 0. 0. 0. 0. 0. 0. 0. 0. 0. 0. 0. 0. 0. 0. 0. 0. 0.
      0. 0. 0. 0. 0. 0. 0. 0. 0. 0. 0. 0. 0. 0. 0. 0. 0. 0. 0. 0. 0. 0.
      0. 0. 0.</_>
    <_>
      2.75500701e-04 2.86998373e-04 7.25692053e-06 1.28849846e-04
      -1.48565494e-04 -1.66179132e-04 1.10537312e-05 2.20622300e-04
      2.36942324e-05 -2.02402749e-04 -4.01937868e-05 -3.75416639e-05
      -4.29261963e-05 -6.52878298e-05 -2.08562589e-04 -7.02254110e-05 0.
      0. 0. 0. 0. 0. 0. 0. 0. 0. 0. 0. 0. 0. 0. 0. 0. 0. 0. 0. 0. 0. 0.
      0. 0. 0. 0. 0. 0. 0. 0. 0. 0. 0. 0. 0. 0. 0. 0. 0. 0. 0. 0. 0. 0.
      0. 0. 0.</_>
    <_>
      1.04903367e-04 2.95712322e-04 2.56166502e-04 -1.21743222e-04
      -1.23239442e-04 -2.53749982e-04 2.58084823e-04 1.63835575e-04
      4.20127762e-05 -4.21603239e-04 -2.02159630e-04 1.99777733e-05
      -2.01247894e-04 5.25299765e-05 -2.01799776e-04 -7.67131060e-05 0.
      0. 0. 0. 0. 0. 0. 0. 0. 0. 0. 0. 0. 0. 0. 0. 0. 0. 0. 0. 0. 0. 0.
      0. 0. 0. 0. 0. 0. 0. 0. 0. 0. 0. 0. 0. 0. 0. 0. 0. 0. 0. 0. 0. 0.
      0. 0. 0.</_>
    <_>
      2.48786346e-05 1.25640399e-05 1.13827027e-05 4.15428121e-06
      -6.70968584e-05 0. 8.36778236e-06 6.24820268e-06 1.47924093e-05
      7.39904124e-07 3.71279407e-06 3.27759699e-06 -5.95808306e-05
      4.46043578e-06 2.98075406e-06 5.47749551e-06 0. 0. 0. 0. 0. 0. 0.
      0. 0. 0. 0. 0. 0. 0. 0. 0. 0. 0. 0. 0. 0. 0. 0. 0. 0. 0. 0. 0. 0.
      0. 0. 0. 0. 0. 0. 0. 0. 0. 0. 0. 0. 0. 0. 0. 0. 0. 0. 0.</_>
    <_>
      -3.73075636e-06 -1.55795016e-04 -1.84475619e-04 -1.58239942e-04
      1.56935945e-04 5.34935331e-04 -1.83943630e-04 -4.74644439e-05
      -1.61348187e-04 -1.25584847e-04 3.52368806e-04 4.21253033e-04
      1.83076718e-05 -3.59560159e-04 1.79281691e-04 -2.17363966e-04 0.
      0. 0. 0. 0. 0. 0. 0. 0. 0. 0. 0. 0. 0. 0. 0. 0. 0. 0. 0. 0. 0. 0.
      0. 0. 0. 0. 0. 0. 0. 0. 0. 0. 0. 0. 0. 0. 0. 0. 0. 0. 0. 0. 0. 0.
      0. 0. 0.</_>
    <_>
      -8.21721042e-05 -6.74267067e-05 3.02395329e-05 3.11456206e-05
      1.49338070e-04 8.21638532e-05 4.65119301e-05 3.03492288e-05
      -7.70412735e-05 -8.48902928e-05 9.26357916e-06 5.70826305e-05
      -5.29490826e-05 -2.25391268e-05 4.35462352e-05 2.66427796e-05 0.
      0. 0. 0. 0. 0. 0. 0. 0. 0. 0. 0. 0. 0. 0. 0. 0. 0. 0. 0. 0. 0. 0.
      0. 0. 0. 0. 0. 0. 0. 0. 0. 0. 0. 0. 0. 0. 0. 0. 0. 0. 0. 0. 0. 0.
      0. 0. 0.</_>
    <_>
      3.68863257e-04 -7.25289065e-05 -3.75265925e-04 1.44260266e-04
      4.33068111e-04 5.07486577e-04 -1.68050201e-06 5.83986657e-05
      -7.45367070e-05 3.65741260e-04 1.65233607e-04 2.94539117e-04
      -1.85876517e-04 -3.11684271e-04 1.26906743e-04 -3.78554425e-04 0.
      0. 0. 0. 0. 0. 0. 0. 0. 0. 0. 0. 0. 0. 0. 0. 0. 0. 0. 0. 0. 0. 0.
      0. 0. 0. 0. 0. 0. 0. 0. 0. 0. 0. 0. 0. 0. 0. 0. 0. 0. 0. 0. 0. 0.
      0. 0. 0.</_>
    <_>
      -2.26612101e-04 -1.25518956e-04 -1.29835636e-04 -2.89059117e-05
      2.63482187e-04 3.71905975e-04 1.86599180e-04 -2.12245104e-05
      -2.39387475e-04 2.92794808e-04 4.28160769e-04 4.60010087e-05
      -3.49885377e-04 -4.16188632e-05 -7.47573176e-06 -1.14442235e-04 0.
      0. 0. 0. 0. 0. 0. 0. 0. 0. 0. 0. 0. 0. 0. 0. 0. 0. 0. 0. 0. 0. 0.
      0. 0. 0. 0. 0. 0. 0. 0. 0. 0. 0. 0. 0. 0. 0. 0. 0. 0. 0. 0. 0. 0.
      0. 0. 0.</_>
    <_>
      2.21889495e-05 0. 6.87095644e-06 3.72442173e-06 -8.49885691e-05
      5.81400354e-06 7.12299970e-06 1.51181821e-05 8.63843616e-06
      1.93757551e-05 1.59089686e-05 1.36571998e-05 -9.62673221e-05
      1.34240713e-06 5.33181856e-06 4.99007820e-06 0. 0. 0. 0. 0. 0. 0.
      0. 0. 0. 0. 0. 0. 0. 0. 0. 0. 0. 0. 0. 0. 0. 0. 0. 0. 0. 0. 0. 0.
      0. 0. 0. 0. 0. 0. 0. 0. 0. 0. 0. 0. 0. 0. 0. 0. 0. 0. 0.</_>
    <_>
      -7.21372999e-05 -8.67026756e-05 5.77480823e-05 4.90220918e-05
      1.74441986e-04 4.07237385e-05 9.97613752e-05 7.29087187e-05
      -1.14028822e-04 -8.03987423e-05 -2.05926381e-06 -1.76781086e-05
      -7.80867340e-05 3.82064354e-06 3.79197045e-05 6.04118832e-05 0. 0.
      0. 0. 0. 0. 0. 0. 0. 0. 0. 0. 0. 0. 0. 0. 0. 0. 0. 0. 0. 0. 0. 0.
      0. 0. 0. 0. 0. 0. 0. 0. 0. 0. 0. 0. 0. 0. 0. 0. 0. 0. 0. 0. 0. 0.
      0. 0.</_>
    <_>
      5.16748172e-04 -1.20265380e-04 -4.44066158e-04 4.33034817e-04
      3.36166588e-04 -3.75261676e-04 -1.87559257e-04 2.95158505e-04
      -5.20921487e-04 5.51036384e-04 7.94314328e-05 -8.27651820e-04
      1.38168616e-04 -6.24268665e-04 -2.40330584e-04 -3.74232011e-04 0.
      0. 0. 0. 0. 0. 0. 0. 0. 0. 0. 0. 0. 0. 0. 0. 0. 0. 0. 0. 0. 0. 0.
      0. 0. 0. 0. 0. 0. 0. 0. 0. 0. 0. 0. 0. 0. 0. 0. 0. 0. 0. 0. 0. 0.
      0. 0. 0.</_>
    <_>
      -2.46570882e-04 -3.09537078e-04 -5.90009695e-05 9.74715222e-05
      1.83816461e-04 5.12366460e-05 3.09240801e-04 3.80370466e-06
      -4.07521264e-04 3.22510314e-04 3.43166263e-04 -3.39077553e-04
      -4.01744968e-04 2.08721656e-04 -1.75886380e-04 7.44285499e-05 0.
      0. 0. 0. 0. 0. 0. 0. 0. 0. 0. 0. 0. 0. 0. 0. 0. 0. 0. 0. 0. 0. 0.
      0. 0. 0. 0. 0. 0. 0. 0. 0. 0. 0. 0. 0. 0. 0. 0. 0. 0. 0. 0. 0. 0.
      0. 0. 0.</_>
    <_>
      1.33280628e-05 0. 2.14542160e-06 1.32994528e-05 -7.78784815e-05 0.
      5.94081894e-06 1.10067613e-05 1.37660863e-05 4.40722943e-06
      4.74104854e-06 9.92840614e-06 -8.67682102e-05 1.04864066e-05 0.
      1.58247803e-05 0. 0. 0. 0. 0. 0. 0. 0. 0. 0. 0. 0. 0. 0. 0. 0. 0.
      0. 0. 0. 0. 0. 0. 0. 0. 0. 0. 0. 0. 0. 0. 0. 0. 0. 0. 0. 0. 0. 0.
      0. 0. 0. 0. 0. 0. 0. 0. 0.</_>
    <_>
      1.27774518e-04 1.06106971e-04 -6.21279978e-05 -4.31759327e-05
      -1.46452541e-04 -5.48894532e-05 -1.01191756e-04 -2.48805391e-05
      3.56893252e-05 1.15535207e-04 4.44779362e-05 -4.23579731e-05
      6.64803883e-05 -1.12606040e-05 -6.41993611e-05 -5.34757201e-05 0.
      0. 0. 0. 0. 0. 0. 0. 0. 0. 0. 0. 0. 0. 0. 0. 0. 0. 0. 0. 0. 0. 0.
      0. 0. 0. 0. 0. 0. 0. 0. 0. 0. 0. 0. 0. 0. 0. 0. 0. 0. 0. 0. 0. 0.
      0. 0. 0.</_>
    <_>
      -2.37076838e-05 1.25572420e-04 -6.40597355e-05 -1.60769210e-04
      -2.43105707e-04 -7.03834085e-05 -1.05006045e-04 -5.41787849e-05
      1.15962648e-04 1.77445982e-04 4.17134470e-05 -1.84043984e-05
      1.39961601e-04 8.35575702e-06 -8.80981825e-05 -8.52905214e-05 0.
      0. 0. 0. 0. 0. 0. 0. 0. 0. 0. 0. 0. 0. 0. 0. 0. 0. 0. 0. 0. 0. 0.
      0. 0. 0. 0. 0. 0. 0. 0. 0. 0. 0. 0. 0. 0. 0. 0. 0. 0. 0. 0. 0. 0.
      0. 0. 0.</_>
    <_>
      2.32579714e-05 1.20415734e-05 1.06610332e-06 0. -6.76980999e-05 0.
      0. 1.74583192e-06 2.20478123e-05 1.49177777e-05 7.44908175e-06
      1.59838555e-06 -4.72997563e-05 4.38510187e-06 0. 0. 0. 0. 0. 0. 0.
      0. 0. 0. 0. 0. 0. 0. 0. 0. 0. 0. 0. 0. 0. 0. 0. 0. 0. 0. 0. 0. 0.
      0. 0. 0. 0. 0. 0. 0. 0. 0. 0. 0. 0. 0. 0. 0. 0. 0. 0. 0. 0. 0.</_>
    <_>
      -7.48111401e-04 -3.75634787e-04 -4.58697978e-05 -4.39343276e-05
      -9.36052456e-05 4.03891288e-04 5.84884721e-04 -3.56057688e-04
      -2.65075854e-04 1.30987857e-04 1.24394850e-04 2.56143627e-04
      -7.60996365e-04 3.96530231e-04 -7.11135726e-05 1.36715811e-04 0.
      0. 0. 0. 0. 0. 0. 0. 0. 0. 0. 0. 0. 0. 0. 0. 0. 0. 0. 0. 0. 0. 0.
      0. 0. 0. 0. 0. 0. 0. 0. 0. 0. 0. 0. 0. 0. 0. 0. 0. 0. 0. 0. 0. 0.
      0. 0. 0.</_>
    <_>
      9.37666118e-06 0. 1.07161131e-05 9.96966810e-06 -8.32834412e-05
      1.07161131e-05 0. 8.12669714e-06 1.01479554e-05 9.99924509e-07
      3.40950123e-06 1.99535916e-05 -8.06830285e-05 3.40950123e-06
      9.99924509e-07 8.89799230e-06 0. 0. 0. 0. 0. 0. 0. 0. 0. 0. 0. 0.
      0. 0. 0. 0. 0. 0. 0. 0. 0. 0. 0. 0. 0. 0. 0. 0. 0. 0. 0. 0. 0. 0.
      0. 0. 0. 0. 0. 0. 0. 0. 0. 0. 0. 0. 0. 0.</_>
    <_>
      1.42336412e-05 4.53559733e-06 5.53980726e-06 9.53634026e-06
      -8.63058522e-05 9.99948679e-06 5.25657299e-07 1.56865390e-05
      1.39263475e-05 6.43583860e-07 2.04580238e-06 1.34012507e-05
      -7.82913557e-05 3.63688855e-07 6.46337776e-06 1.06562802e-05 0. 0.
      0. 0. 0. 0. 0. 0. 0. 0. 0. 0. 0. 0. 0. 0. 0. 0. 0. 0. 0. 0. 0. 0.
      0. 0. 0. 0. 0. 0. 0. 0. 0. 0. 0. 0. 0. 0. 0. 0. 0. 0. 0. 0. 0. 0.
      0. 0.</_></support_vectors>
  <uncompressed_sv_total>64</uncompressed_sv_total>
  <uncompressed_support_vectors>
    <_>
      4.78444922e+03 9.48937317e+02 0. 9.14532654e+02 2.82653271e+03 0.
      9.48937317e+02 4.59245312e+03 9.24400781e+03 0. 0. 0.
      1.70126880e+03 0. 9.36586365e+02 5.79385010e+03 0. 0. 0. 0. 0. 0.
      0. 0. 0. 0. 0. 0. 0. 0. 0. 0. 0. 0. 0. 0. 0. 0. 0. 0. 0. 0. 0. 0.
      0. 0. 0. 0. 0. 0. 0. 0. 0. 0. 0. 0. 0. 0. 0. 0. 0. 0. 0. 0.</_>
    <_>
      3.69255664e+03 0. 4.88405176e+03 2.82096899e+03 5.63601123e+03
      4.66476135e+01 8.65970886e+02 0. 2.11293115e+03 1.84928064e+03
      3.54027588e+03 2.17839551e+03 3.75038403e+03 9.42559265e+02
      1.04212073e+03 0. 0. 0. 0. 0. 0. 0. 0. 0. 0. 0. 0. 0. 0. 0. 0. 0.
      0. 0. 0. 0. 0. 0. 0. 0. 0. 0. 0. 0. 0. 0. 0. 0. 0. 0. 0. 0. 0. 0.
      0. 0. 0. 0. 0. 0. 0. 0. 0. 0.</_>
    <_>
      4.62236426e+03 7.65324768e+02 1.87228210e+03 6.91809235e+01
      5.01565479e+03 1.33614392e+03 2.20102686e+03 0. 1948.
      6.46623535e+02 1.19120056e+03 1.45077271e+03 5.07488965e+03
      6.92342407e+02 1.21897302e+03 1.99474805e+03 0. 0. 0. 0. 0. 0. 0.
      0. 0. 0. 0. 0. 0. 0. 0. 0. 0. 0. 0. 0. 0. 0. 0. 0. 0. 0. 0. 0. 0.
      0. 0. 0. 0. 0. 0. 0. 0. 0. 0. 0. 0. 0. 0. 0. 0. 0. 0. 0.</_>
    <_>
      7.90414648e+03 2.00327051e+03 1.51418823e+03 7.63468384e+02
      2.49362988e+03 0. 0. 2.55096924e+03 5.29676611e+03 0.
      5.59072449e+02 8.79659042e+01 2.42154614e+03 5.14861145e+02 0.
      2.16133789e+03 0. 0. 0. 0. 0. 0. 0. 0. 0. 0. 0. 0. 0. 0. 0. 0. 0.
      0. 0. 0. 0. 0. 0. 0. 0. 0. 0. 0. 0. 0. 0. 0. 0. 0. 0. 0. 0. 0. 0.
      0. 0. 0. 0. 0. 0. 0. 0. 0.</_>
    <_>
      3014. 1.20846130e+03 1.21418030e+03 6.45804932e+02 4.82133154e+03
      2.20287476e+03 1.57953467e+03 1.49274719e+03 3.08321362e+03
      1.35542114e+03 2.23266113e+03 2.02744983e+03 3.71356567e+03 0.
      1.06931555e+03 8.46249390e+02 0. 0. 0. 0. 0. 0. 0. 0. 0. 0. 0. 0.
      0. 0. 0. 0. 0. 0. 0. 0. 0. 0. 0. 0. 0. 0. 0. 0. 0. 0. 0. 0. 0. 0.
      0. 0. 0. 0. 0. 0. 0. 0. 0. 0. 0. 0. 0. 0.</_>
    <_>
      3.29405469e+03 9.02319214e+02 1.27351184e+03 9.13898254e+02
      5.09276172e+03 0. 1.58713806e+03 1.30435413e+03 3.37066821e+03
      2.09475830e+03 1.55779395e+03 6.50246094e+02 3.78249561e+03
      7.94074280e+02 3.41505493e+02 2.90104565e+03 0. 0. 0. 0. 0. 0. 0.
      0. 0. 0. 0. 0. 0. 0. 0. 0. 0. 0. 0. 0. 0. 0. 0. 0. 0. 0. 0. 0. 0.
      0. 0. 0. 0. 0. 0. 0. 0. 0. 0. 0. 0. 0. 0. 0. 0. 0. 0. 0.</_>
    <_>
      6.56339453e+03 2.62363818e+03 4.44288208e+02 0. 0. 0.
      1.02449989e+02 4.28098114e+02 8.05417969e+03 4.40672705e+03
      9.41107056e+02 1.48487354e+03 4.49913184e+03 0. 0. 3.01673853e+03
      0. 0. 0. 0. 0. 0. 0. 0. 0. 0. 0. 0. 0. 0. 0. 0. 0. 0. 0. 0. 0. 0.
      0. 0. 0. 0. 0. 0. 0. 0. 0. 0. 0. 0. 0. 0. 0. 0. 0. 0. 0. 0. 0. 0.
      0. 0. 0. 0.</_>
    <_>
      2.37622681e+03 2.34233008e+03 9.89909546e+02 9.13898254e+02
      3.41389819e+03 9.89909546e+02 2.34233008e+03 9.28226746e+02
      2.85071582e+03 1.84646362e+03 5.00657562e+02 1.68323535e+03
      4.18323535e+03 5.00657562e+02 1.84646362e+03 1.40271594e+03 0. 0.
      0. 0. 0. 0. 0. 0. 0. 0. 0. 0. 0. 0. 0. 0. 0. 0. 0. 0. 0. 0. 0. 0.
      0. 0. 0. 0. 0. 0. 0. 0. 0. 0. 0. 0. 0. 0. 0. 0. 0. 0. 0. 0. 0. 0.
      0. 0.</_>
    <_>
      4.72036230e+03 1.05068176e+03 1.39069116e+03 6.83264221e+02
      3.54882422e+03 7.94074280e+02 5.67850342e+02 2.90104565e+03
      3.29405469e+03 9.02319214e+02 1.19985461e+03 1.36068457e+03
      4.26597510e+03 0. 1.63751270e+03 1.34609717e+03 0. 0. 0. 0. 0. 0.
      0. 0. 0. 0. 0. 0. 0. 0. 0. 0. 0. 0. 0. 0. 0. 0. 0. 0. 0. 0. 0. 0.
      0. 0. 0. 0. 0. 0. 0. 0. 0. 0. 0. 0. 0. 0. 0. 0. 0. 0. 0. 0.</_>
    <_>
      5592. 6.62397156e+02 9.31632996e+02 9.42274902e+02 2.85427490e+03
      9.31632996e+02 6.62397156e+02 0. 9.48702344e+03 0. 0. 0.
      1.70859412e+03 9.37332397e+02 5.48032837e+02 6.42535828e+02 0. 0.
      0. 0. 0. 0. 0. 0. 0. 0. 0. 0. 0. 0. 0. 0. 0. 0. 0. 0. 0. 0. 0. 0.
      0. 0. 0. 0. 0. 0. 0. 0. 0. 0. 0. 0. 0. 0. 0. 0. 0. 0. 0. 0. 0. 0.
      0. 0.</_>
    <_>
      1.34131091e+03 6.21240417e+02 3.56256421e+03 2.28811768e+03
      6.07907666e+03 4.91934967e+02 0. 0. 1.31045544e+03 1.18137720e+03
      1.54773999e+03 1.61343103e+03 4750. 1.14635620e+03 0.
      8.03762390e+02 0. 0. 0. 0. 0. 0. 0. 0. 0. 0. 0. 0. 0. 0. 0. 0. 0.
      0. 0. 0. 0. 0. 0. 0. 0. 0. 0. 0. 0. 0. 0. 0. 0. 0. 0. 0. 0. 0. 0.
      0. 0. 0. 0. 0. 0. 0. 0. 0.</_>
    <_>
      3.19556909e+03 0. 1.67440955e+03 5.36302124e+02 5.17952686e+03
      4.00065002e+02 1.18137720e+03 4.74455475e+02 7.98999695e+02
      7.91466980e+02 0. 1.10395923e+03 5.15666602e+03 1.01049689e+03
      9.77211426e+02 9.60704712e+02 0. 0. 0. 0. 0. 0. 0. 0. 0. 0. 0. 0.
      0. 0. 0. 0. 0. 0. 0. 0. 0. 0. 0. 0. 0. 0. 0. 0. 0. 0. 0. 0. 0. 0.
      0. 0. 0. 0. 0. 0. 0. 0. 0. 0. 0. 0. 0. 0.</_>
    <_>
      4.43314404e+03 3.90608350e+03 1.84071045e+03 1.05536720e+02 1802.
      2.81684235e+02 1.18908582e+03 1.81479028e+03 2.80507104e+03
      6.90323486e+02 0. 0. 1.97134570e+03 0. 1.65958362e+03
      5.53398621e+02 0. 0. 0. 0. 0. 0. 0. 0. 0. 0. 0. 0. 0. 0. 0. 0. 0.
      0. 0. 0. 0. 0. 0. 0. 0. 0. 0. 0. 0. 0. 0. 0. 0. 0. 0. 0. 0. 0. 0.
      0. 0. 0. 0. 0. 0. 0. 0. 0.</_>
    <_>
      2.42478711e+03 0. 7.50851501e+02 4.07001221e+02 7.03253125e+03
      6.35348694e+02 7.78394531e+02 1.65210034e+03 944. 2.11736377e+03
      1.73851685e+03 1.49244568e+03 5800. 1.46696960e+02 5.82656006e+02
      5.45310913e+02 0. 0. 0. 0. 0. 0. 0. 0. 0. 0. 0. 0. 0. 0. 0. 0. 0.
      0. 0. 0. 0. 0. 0. 0. 0. 0. 0. 0. 0. 0. 0. 0. 0. 0. 0. 0. 0. 0. 0.
      0. 0. 0. 0. 0. 0. 0. 0. 0.</_>
    <_>
      1.80112524e+03 0. 2.89927582e+02 1.79725891e+03 5.79567285e+03 0.
      8.02829285e+02 1.48742969e+03 1.86031885e+03 5.95583313e+02
      6.40694946e+02 1.34170312e+03 4.59433350e+03 1.41710999e+03 0.
      2.13852612e+03 0. 0. 0. 0. 0. 0. 0. 0. 0. 0. 0. 0. 0. 0. 0. 0. 0.
      0. 0. 0. 0. 0. 0. 0. 0. 0. 0. 0. 0. 0. 0. 0. 0. 0. 0. 0. 0. 0. 0.
      0. 0. 0. 0. 0. 0. 0. 0. 0.</_>
    <_>
      5.60680566e+03 2.90286548e+03 2.57005829e+02 0. 0. 0. 0.
      4.20868164e+02 5.31507227e+03 3.59623267e+03 1.79575220e+03
      3.85323242e+02 4.91743506e+03 1.05711768e+03 0. 0. 0. 0. 0. 0. 0.
      0. 0. 0. 0. 0. 0. 0. 0. 0. 0. 0. 0. 0. 0. 0. 0. 0. 0. 0. 0. 0. 0.
      0. 0. 0. 0. 0. 0. 0. 0. 0. 0. 0. 0. 0. 0. 0. 0. 0. 0. 0. 0. 0.</_>
    <_>
      1.29026599e+03 0. 1.47457996e+03 1.37186609e+03 4.85986621e+03
      1.47457996e+03 0. 1.11826599e+03 1.39639917e+03 1.37593597e+02
      4.69160950e+02 2.74569385e+03 5.21769385e+03 4.69160950e+02
      1.37593597e+02 1.22439917e+03 0. 0. 0. 0. 0. 0. 0. 0. 0. 0. 0. 0.
      0. 0. 0. 0. 0. 0. 0. 0. 0. 0. 0. 0. 0. 0. 0. 0. 0. 0. 0. 0. 0. 0.
      0. 0. 0. 0. 0. 0. 0. 0. 0. 0. 0. 0. 0. 0.</_>
    <_>
      1.86031885e+03 5.95583313e+02 6.40694946e+02 1.34170312e+03
      4.59433350e+03 1.41710999e+03 0. 2.13852612e+03 1.80112524e+03 0.
      2.89927582e+02 1.79725891e+03 5.79567285e+03 0. 8.02829285e+02
      1.48742969e+03 0. 0. 0. 0. 0. 0. 0. 0. 0. 0. 0. 0. 0. 0. 0. 0. 0.
      0. 0. 0. 0. 0. 0. 0. 0. 0. 0. 0. 0. 0. 0. 0. 0. 0. 0. 0. 0. 0. 0.
      0. 0. 0. 0. 0. 0. 0. 0. 0.</_>
    <_>
      3.17942407e+03 7.14382751e+02 3.86657471e+02 1.15054297e+03
      3.13854297e+03 3.86657471e+02 7.14382751e+02 2.08742407e+03
      3.17942407e+03 7.14382751e+02 3.86657471e+02 1.15054297e+03
      3.13854297e+03 3.86657471e+02 7.14382751e+02 2.08742407e+03 0. 0.
      0. 0. 0. 0. 0. 0. 0. 0. 0. 0. 0. 0. 0. 0. 0. 0. 0. 0. 0. 0. 0. 0.
      0. 0. 0. 0. 0. 0. 0. 0. 0. 0. 0. 0. 0. 0. 0. 0. 0. 0. 0. 0. 0. 0.
      0. 0.</_>
    <_>
      1.89886255e+03 2.51435278e+03 1.00854041e+03 1.71835266e+03
      4.89835254e+03 1.00854041e+03 2.51435278e+03 4.54862610e+02
      2.85041089e+03 1.61591309e+03 2.16113306e+03 8.59176331e+02
      4.03917627e+03 2.16113306e+03 1.61591309e+03 1.40641089e+03 0. 0.
      0. 0. 0. 0. 0. 0. 0. 0. 0. 0. 0. 0. 0. 0. 0. 0. 0. 0. 0. 0. 0. 0.
      0. 0. 0. 0. 0. 0. 0. 0. 0. 0. 0. 0. 0. 0. 0. 0. 0. 0. 0. 0. 0. 0.
      0. 0.</_>
    <_>
      4.54133496e+03 8.98439758e+02 1.27962500e+03 8.41493896e+02
      3.36365601e+03 1.44388281e+03 1.68509473e+03 2.06975977e+03
      2.60773364e+03 1.98963574e+03 1.77814478e+03 0. 3.07228613e+03
      6.85423462e+02 3.58736664e+02 1.88969153e+03 0. 0. 0. 0. 0. 0. 0.
      0. 0. 0. 0. 0. 0. 0. 0. 0. 0. 0. 0. 0. 0. 0. 0. 0. 0. 0. 0. 0. 0.
      0. 0. 0. 0. 0. 0. 0. 0. 0. 0. 0. 0. 0. 0. 0. 0. 0. 0. 0.</_>
    <_>
      0. 0. 0. 0. 16320. 0. 0. 0. 0. 0. 0. 0. 16320. 0. 0. 0. 0. 0. 0.
      0. 0. 0. 0. 0. 0. 0. 0. 0. 0. 0. 0. 0. 0. 0. 0. 0. 0. 0. 0. 0. 0.
      0. 0. 0. 0. 0. 0. 0. 0. 0. 0. 0. 0. 0. 0. 0. 0. 0. 0. 0. 0. 0. 0.
      0.</_>
    <_>
      3.34327979e+03 2.43463721e+03 1.23190625e+03 2.93149658e+03
      3.98820166e+03 4.56830505e+02 8.11906128e+02 0. 1674.
      2.03823877e+03 1.76506836e+03 3.00273657e+03 3.46106665e+03
      9.42559265e+02 1.10058582e+03 1.61748267e+03 0. 0. 0. 0. 0. 0. 0.
      0. 0. 0. 0. 0. 0. 0. 0. 0. 0. 0. 0. 0. 0. 0. 0. 0. 0. 0. 0. 0. 0.
      0. 0. 0. 0. 0. 0. 0. 0. 0. 0. 0. 0. 0. 0. 0. 0. 0. 0. 0.</_>
    <_>
      1.43365869e+03 1.34453772e+03 1.52801904e+03 7.13330200e+02
      5.10287256e+03 2.17400317e+03 2.34327710e+03 3.06887604e+02
      2.91064331e+03 1.20058875e+03 5.26636475e+02 2.85296326e+02
      3.47546997e+03 2.83004712e+03 8.36337280e+02 1.64666260e+03 0. 0.
      0. 0. 0. 0. 0. 0. 0. 0. 0. 0. 0. 0. 0. 0. 0. 0. 0. 0. 0. 0. 0. 0.
      0. 0. 0. 0. 0. 0. 0. 0. 0. 0. 0. 0. 0. 0. 0. 0. 0. 0. 0. 0. 0. 0.
      0. 0.</_>
    <_>
      6.82284131e+03 2.46985815e+03 4.15308398e+03 0. 1250. 0.
      1.12724280e+03 2.61093842e+02 0. 0. 1.09261108e+03 0.
      4.41520459e+03 7.13943970e+02 7.53100098e+02 2.00002930e+03 0. 0.
      0. 0. 0. 0. 0. 0. 0. 0. 0. 0. 0. 0. 0. 0. 0. 0. 0. 0. 0. 0. 0. 0.
      0. 0. 0. 0. 0. 0. 0. 0. 0. 0. 0. 0. 0. 0. 0. 0. 0. 0. 0. 0. 0. 0.
      0. 0.</_>
    <_>
      4.51071729e+03 1.20846130e+03 1.81686267e+03 6.45804932e+02
      5.74333154e+03 2.20287476e+03 2.17914282e+03 4.57735718e+02 1470.
      1.68932043e+03 2.23266113e+03 1.68838696e+03 3.23156567e+03 0.
      1.06931555e+03 8.46249390e+02 0. 0. 0. 0. 0. 0. 0. 0. 0. 0. 0. 0.
      0. 0. 0. 0. 0. 0. 0. 0. 0. 0. 0. 0. 0. 0. 0. 0. 0. 0. 0. 0. 0. 0.
      0. 0. 0. 0. 0. 0. 0. 0. 0. 0. 0. 0. 0. 0.</_>
    <_>
      2346. 8.35694946e+02 8.70220337e+02 1.84619055e+03 3.47385449e+03
      2.48651636e+03 1.67851904e+03 3.09520728e+03 2.44565186e+03
      2.55122510e+03 1.05985474e+03 0. 3.40067920e+03 1.62428687e+03
      1.46607800e+03 1.63381665e+03 0. 0. 0. 0. 0. 0. 0. 0. 0. 0. 0. 0.
      0. 0. 0. 0. 0. 0. 0. 0. 0. 0. 0. 0. 0. 0. 0. 0. 0. 0. 0. 0. 0. 0.
      0. 0. 0. 0. 0. 0. 0. 0. 0. 0. 0. 0. 0. 0.</_>
    <_>
      2.95722583e+03 6.23149121e+03 1.70469940e+02 0. 7.51446960e+02 0.
      0. 1.38056055e+03 5.30567041e+03 6.70853857e+03 1.70469940e+02
      8.91078003e+02 3.20505933e+03 1.01213904e+03 5.96417664e+02 0. 0.
      0. 0. 0. 0. 0. 0. 0. 0. 0. 0. 0. 0. 0. 0. 0. 0. 0. 0. 0. 0. 0. 0.
      0. 0. 0. 0. 0. 0. 0. 0. 0. 0. 0. 0. 0. 0. 0. 0. 0. 0. 0. 0. 0. 0.
      0. 0. 0.</_>
    <_>
      2.61250952e+03 1.45642981e+03 1.55816467e+03 3.06887604e+02
      3.96214453e+03 2.24964185e+03 7.14821655e+02 1.27789319e+03
      3.81089111e+03 1.53153519e+02 2.99034277e+03 4.11526428e+02
      3.06571777e+03 1.44504980e+03 1.70301245e+03 1.38044348e+03 0. 0.
      0. 0. 0. 0. 0. 0. 0. 0. 0. 0. 0. 0. 0. 0. 0. 0. 0. 0. 0. 0. 0. 0.
      0. 0. 0. 0. 0. 0. 0. 0. 0. 0. 0. 0. 0. 0. 0. 0. 0. 0. 0. 0. 0. 0.
      0. 0.</_>
    <_>
      6.69174951e+03 1.21897302e+03 7.90793274e+02 1.67137817e+03
      2.11356567e+03 6.65230774e+02 1.06931555e+03 8.46249390e+02 4308.
      1.89157910e+03 1.54566479e+03 6.19909668e+02 3.35289771e+03
      9.42559265e+02 7.65324768e+02 4.99289490e+02 0. 0. 0. 0. 0. 0. 0.
      0. 0. 0. 0. 0. 0. 0. 0. 0. 0. 0. 0. 0. 0. 0. 0. 0. 0. 0. 0. 0. 0.
      0. 0. 0. 0. 0. 0. 0. 0. 0. 0. 0. 0. 0. 0. 0. 0. 0. 0. 0.</_>
    <_>
      3.61597607e+03 2.22008789e+03 1.45908838e+03 0. 3.86343311e+03
      4.77529053e+02 1.66667651e+03 1.58523254e+03 7.49323242e+03
      1.66667651e+03 4.77529053e+02 7.77432983e+02 3086. 1.45908838e+03
      2.22008789e+03 1.37597595e+03 0. 0. 0. 0. 0. 0. 0. 0. 0. 0. 0. 0.
      0. 0. 0. 0. 0. 0. 0. 0. 0. 0. 0. 0. 0. 0. 0. 0. 0. 0. 0. 0. 0. 0.
      0. 0. 0. 0. 0. 0. 0. 0. 0. 0. 0. 0. 0. 0.</_>
    <_>
      2.63826538e+03 6.35107849e+02 1.90569275e+03 1.94262573e+03
      2.61901123e+03 1.89232239e+03 1.74573376e+03 5.56420715e+02
      3.34140161e+03 1.18512708e+03 1.64476929e+03 3.33565582e+02
      3.93608008e+03 2.39881738e+03 0. 1.72849109e+03 0. 0. 0. 0. 0. 0.
      0. 0. 0. 0. 0. 0. 0. 0. 0. 0. 0. 0. 0. 0. 0. 0. 0. 0. 0. 0. 0. 0.
      0. 0. 0. 0. 0. 0. 0. 0. 0. 0. 0. 0. 0. 0. 0. 0. 0. 0. 0. 0.</_>
    <_>
      3.26824268e+03 1.04212073e+03 1.55816467e+03 6.40453186e+02
      3.59749829e+03 1.96089453e+03 7.14821655e+02 1.27789319e+03
      3.36667041e+03 1.53153519e+02 3.16296973e+03 0. 2.89171777e+03
      1.44504980e+03 1.99317163e+03 1.44696802e+03 0. 0. 0. 0. 0. 0. 0.
      0. 0. 0. 0. 0. 0. 0. 0. 0. 0. 0. 0. 0. 0. 0. 0. 0. 0. 0. 0. 0. 0.
      0. 0. 0. 0. 0. 0. 0. 0. 0. 0. 0. 0. 0. 0. 0. 0. 0. 0. 0.</_>
    <_>
      3.25565845e+03 1.64401947e+02 1.77862195e+03 0. 2.99321167e+03
      6.45525208e+02 2.00471326e+03 1.54357227e+03 7.28899414e+03
      1.70800757e+03 1.22613213e+02 1.78076562e+03 2.21704980e+03
      1.01548047e+03 1.92834265e+03 4.82501801e+02 0. 0. 0. 0. 0. 0. 0.
      0. 0. 0. 0. 0. 0. 0. 0. 0. 0. 0. 0. 0. 0. 0. 0. 0. 0. 0. 0. 0. 0.
      0. 0. 0. 0. 0. 0. 0. 0. 0. 0. 0. 0. 0. 0. 0. 0. 0. 0. 0.</_>
    <_>
      2.33235571e+03 1.26607800e+03 1.72027966e+03 1.91049728e+02
      4.40645557e+03 3.97836639e+02 2.26817603e+03 1.54357227e+03
      2.73221411e+03 2.57624609e+03 8.39890442e+02 1.59999304e+03
      3.20104980e+03 1.85537097e+03 1.31125903e+03 1.00285742e+03 0. 0.
      0. 0. 0. 0. 0. 0. 0. 0. 0. 0. 0. 0. 0. 0. 0. 0. 0. 0. 0. 0. 0. 0.
      0. 0. 0. 0. 0. 0. 0. 0. 0. 0. 0. 0. 0. 0. 0. 0. 0. 0. 0. 0. 0. 0.
      0. 0.</_>
    <_>
      8.29761621e+03 1.73701807e+03 1.07424390e+03 1.30402161e+03
      2.40268286e+03 0. 6.79536621e+02 3.08492554e+03 4.30092529e+03
      6.79536621e+02 0. 2.34682770e+02 3.47202148e+03 1.07424390e+03
      1.73701807e+03 1.57761597e+03 0. 0. 0. 0. 0. 0. 0. 0. 0. 0. 0. 0.
      0. 0. 0. 0. 0. 0. 0. 0. 0. 0. 0. 0. 0. 0. 0. 0. 0. 0. 0. 0. 0. 0.
      0. 0. 0. 0. 0. 0. 0. 0. 0. 0. 0. 0. 0. 0.</_>
    <_>
      6.92778467e+03 2.68678125e+03 1.21194604e+03 1.54012985e+02
      3.67751416e+03 5.43323120e+02 9.23953491e+02 2.03873169e+03
      2.88673169e+03 9.23953491e+02 5.43323120e+02 1.50951416e+03
      2.32201294e+03 1.21194604e+03 2.68678125e+03 5.75784668e+02 0. 0.
      0. 0. 0. 0. 0. 0. 0. 0. 0. 0. 0. 0. 0. 0. 0. 0. 0. 0. 0. 0. 0. 0.
      0. 0. 0. 0. 0. 0. 0. 0. 0. 0. 0. 0. 0. 0. 0. 0. 0. 0. 0. 0. 0. 0.
      0. 0.</_>
    <_>
      4.64026025e+03 8.79320190e+02 5.31683057e+03 1.65914209e+03
      3.90062378e+03 0. 4.29196930e+02 3.83275360e+02 1902.
      3.21126129e+02 4.00309985e+03 2.71251172e+03 3.33840332e+03
      9.02229431e+02 8.89510193e+02 0. 0. 0. 0. 0. 0. 0. 0. 0. 0. 0. 0.
      0. 0. 0. 0. 0. 0. 0. 0. 0. 0. 0. 0. 0. 0. 0. 0. 0. 0. 0. 0. 0. 0.
      0. 0. 0. 0. 0. 0. 0. 0. 0. 0. 0. 0. 0. 0. 0.</_>
    <_>
      5744. 6.50053833e+02 8.97067444e+02 8.79422546e+02 2.66342261e+03
      8.97067444e+02 6.50053833e+02 0. 9.46988672e+03 0. 0. 0.
      1.52514038e+03 0. 1.32563623e+03 7.83205078e+02 0. 0. 0. 0. 0. 0.
      0. 0. 0. 0. 0. 0. 0. 0. 0. 0. 0. 0. 0. 0. 0. 0. 0. 0. 0. 0. 0. 0.
      0. 0. 0. 0. 0. 0. 0. 0. 0. 0. 0. 0. 0. 0. 0. 0. 0. 0. 0. 0.</_>
    <_>
      1870. 1.55256946e+03 2.76169604e+03 6.33018188e+02 4.54066895e+03
      2.07001880e+03 2.40831348e+03 0. 2.26375488e+03 1.69238916e+03
      9.02229431e+02 1.44574426e+03 4.95564697e+03 2.83979858e+03
      1.87160925e+03 7.91784058e+02 0. 0. 0. 0. 0. 0. 0. 0. 0. 0. 0. 0.
      0. 0. 0. 0. 0. 0. 0. 0. 0. 0. 0. 0. 0. 0. 0. 0. 0. 0. 0. 0. 0. 0.
      0. 0. 0. 0. 0. 0. 0. 0. 0. 0. 0. 0. 0. 0.</_>
    <_>
      3.31603345e+03 1.63713708e+03 1.59261975e+03 1.28546216e+03
      3.95626099e+03 0. 2.61986328e+03 1.87784448e+03 3.56796777e+03
      2.01796814e+03 1.67422949e+03 0. 3.47761157e+03 1.70132715e+03
      1.37388416e+03 4.46508667e+02 0. 0. 0. 0. 0. 0. 0. 0. 0. 0. 0. 0.
      0. 0. 0. 0. 0. 0. 0. 0. 0. 0. 0. 0. 0. 0. 0. 0. 0. 0. 0. 0. 0. 0.
      0. 0. 0. 0. 0. 0. 0. 0. 0. 0. 0. 0. 0. 0.</_>
    <_>
      1460. 1.11013782e+03 1.15091064e+03 7.12062256e+02 4.47623389e+03
      1.38537415e+03 2.39823535e+03 3.06887604e+02 3.72064331e+03
      1.06081567e+03 1.20748596e+03 6.26917847e+02 3.22756152e+03
      1.28895117e+03 3.40332080e+03 1.69201135e+03 0. 0. 0. 0. 0. 0. 0.
      0. 0. 0. 0. 0. 0. 0. 0. 0. 0. 0. 0. 0. 0. 0. 0. 0. 0. 0. 0. 0. 0.
      0. 0. 0. 0. 0. 0. 0. 0. 0. 0. 0. 0. 0. 0. 0. 0. 0. 0. 0.</_>
    <_>
      5.03260742e+03 1.54809912e+03 1.80486731e+03 2.70681592e+03
      3.01299048e+03 8.74538757e+02 0. 7.20406799e+02 3480.
      1.00114465e+03 9.02229431e+02 1.46420044e+03 4.69673584e+03
      1.85211780e+03 1.25373193e+03 7.19077026e+02 0. 0. 0. 0. 0. 0. 0.
      0. 0. 0. 0. 0. 0. 0. 0. 0. 0. 0. 0. 0. 0. 0. 0. 0. 0. 0. 0. 0. 0.
      0. 0. 0. 0. 0. 0. 0. 0. 0. 0. 0. 0. 0. 0. 0. 0. 0. 0. 0.</_>
    <_>
      3.19989795e+03 2.06915576e+03 8.11947021e+02 6.38811401e+02
      3.55491797e+03 4.29662659e+02 4.15740295e+02 4.72534375e+03
      7.04934375e+03 4.15740295e+02 4.29662659e+02 7.86918030e+02
      3.40681152e+03 8.11947021e+02 2.06915576e+03 1.33189807e+03 0. 0.
      0. 0. 0. 0. 0. 0. 0. 0. 0. 0. 0. 0. 0. 0. 0. 0. 0. 0. 0. 0. 0. 0.
      0. 0. 0. 0. 0. 0. 0. 0. 0. 0. 0. 0. 0. 0. 0. 0. 0. 0. 0. 0. 0. 0.
      0. 0.</_>
    <_>
      2.96773096e+03 8.77366699e+02 9.05319824e+02 1.85605969e+03
      3.22645068e+03 3.19041431e+03 6.69727234e+02 9.99547913e+02
      2.88918994e+03 1.09615649e+03 1.03259033e+03 2.36903271e+03 1620.
      1.71615967e+03 2.20205884e+03 5.83660889e+02 0. 0. 0. 0. 0. 0. 0.
      0. 0. 0. 0. 0. 0. 0. 0. 0. 0. 0. 0. 0. 0. 0. 0. 0. 0. 0. 0. 0. 0.
      0. 0. 0. 0. 0. 0. 0. 0. 0. 0. 0. 0. 0. 0. 0. 0. 0. 0. 0.</_>
    <_>
      4.02049487e+03 2.85087793e+03 9.72210876e+02 1.62932397e+03 2676.
      0. 2.33403076e+03 2.23102637e+03 5.80163574e+03 2.90193054e+02
      5.37447693e+02 1.28548523e+03 2.96234717e+03 1.14907812e+03
      5.35817200e+02 4.66566193e+02 0. 0. 0. 0. 0. 0. 0. 0. 0. 0. 0. 0.
      0. 0. 0. 0. 0. 0. 0. 0. 0. 0. 0. 0. 0. 0. 0. 0. 0. 0. 0. 0. 0. 0.
      0. 0. 0. 0. 0. 0. 0. 0. 0. 0. 0. 0. 0. 0.</_>
    <_>
      3.20584375e+03 9.64598450e+02 2.95135083e+03 1.99699768e+02
      5.98903906e+03 0. 1.52261975e+03 1.72798938e+03 3.52560205e+03
      1.86420593e+03 0. 2.08363208e+03 4.64947803e+03 1.05346167e+03
      2.31267847e+03 4.65192444e+02 0. 0. 0. 0. 0. 0. 0. 0. 0. 0. 0. 0.
      0. 0. 0. 0. 0. 0. 0. 0. 0. 0. 0. 0. 0. 0. 0. 0. 0. 0. 0. 0. 0. 0.
      0. 0. 0. 0. 0. 0. 0. 0. 0. 0. 0. 0. 0. 0.</_>
    <_>
      2024. 4.22755420e+03 1.09250745e+03 2.76799561e+02 4.73355225e+03
      7.30020569e+02 5.70816956e+02 1.88730884e+03 3.94230859e+03
      2.57271289e+03 1.61058990e+02 8.89640381e+02 4.08023633e+03
      1.12323853e+03 1.13653491e+03 2.07185376e+03 0. 0. 0. 0. 0. 0. 0.
      0. 0. 0. 0. 0. 0. 0. 0. 0. 0. 0. 0. 0. 0. 0. 0. 0. 0. 0. 0. 0. 0.
      0. 0. 0. 0. 0. 0. 0. 0. 0. 0. 0. 0. 0. 0. 0. 0. 0. 0. 0.</_>
    <_>
      6.33174951e+03 1.21897302e+03 5.78752136e+02 1.44999622e+03
      2.13547314e+03 1.82173572e+03 5.95063049e+02 0. 4.05199609e+03
      3.12371582e+02 2.19384814e+03 1.87414246e+03 2.98880298e+03
      9.42559265e+02 7.65324768e+02 4.99289490e+02 0. 0. 0. 0. 0. 0. 0.
      0. 0. 0. 0. 0. 0. 0. 0. 0. 0. 0. 0. 0. 0. 0. 0. 0. 0. 0. 0. 0. 0.
      0. 0. 0. 0. 0. 0. 0. 0. 0. 0. 0. 0. 0. 0. 0. 0. 0. 0. 0.</_>
    <_>
      3.25920312e+03 1.57451465e+03 2.36945532e+03 9.82939026e+02
      5.47692285e+03 4.29662659e+02 2.11055713e+03 3.48764600e+03
      3.35710107e+03 1.46021118e+03 3.56609039e+02 9.10286865e+02
      3.48281152e+03 8.61975647e+02 1.95908142e+03 4.89979584e+02 0. 0.
      0. 0. 0. 0. 0. 0. 0. 0. 0. 0. 0. 0. 0. 0. 0. 0. 0. 0. 0. 0. 0. 0.
      0. 0. 0. 0. 0. 0. 0. 0. 0. 0. 0. 0. 0. 0. 0. 0. 0. 0. 0. 0. 0. 0.
      0. 0.</_>
    <_>
      4.70623828e+03 4.22612354e+03 2.29956641e+03 0. 1760.
      1.40655609e+02 1.39064819e+03 4.01183258e+02 4.37837061e+03
      2.50007996e+02 8.59592957e+02 9.49210205e+01 2.84411523e+03
      9.12452515e+02 9.18131897e+02 0. 0. 0. 0. 0. 0. 0. 0. 0. 0. 0. 0.
      0. 0. 0. 0. 0. 0. 0. 0. 0. 0. 0. 0. 0. 0. 0. 0. 0. 0. 0. 0. 0. 0.
      0. 0. 0. 0. 0. 0. 0. 0. 0. 0. 0. 0. 0. 0. 0.</_>
    <_>
      2.96459399e+03 8.61872253e+02 1.14813379e+03 1.74046399e+03
      4.34717529e+03 1.47836072e+03 1.48822632e+03 1.87784448e+03
      4.04396777e+03 2.37785962e+03 1.35870459e+03 0. 3.02039307e+03
      1.59876733e+03 2.15686475e+03 0. 0. 0. 0. 0. 0. 0. 0. 0. 0. 0. 0.
      0. 0. 0. 0. 0. 0. 0. 0. 0. 0. 0. 0. 0. 0. 0. 0. 0. 0. 0. 0. 0. 0.
      0. 0. 0. 0. 0. 0. 0. 0. 0. 0. 0. 0. 0. 0. 0.</_>
    <_>
      4.09967773e+03 1.80132422e+03 2.82524219e+03 3.86432404e+02
      4.25263623e+03 1.12305627e+03 1.33739526e+03 8.44773315e+02
      8.39578613e+02 3.59010645e+03 2.74200653e+02 1.49044019e+03
      3.32744043e+03 1.91705359e+03 1.44387891e+03 0. 0. 0. 0. 0. 0. 0.
      0. 0. 0. 0. 0. 0. 0. 0. 0. 0. 0. 0. 0. 0. 0. 0. 0. 0. 0. 0. 0. 0.
      0. 0. 0. 0. 0. 0. 0. 0. 0. 0. 0. 0. 0. 0. 0. 0. 0. 0. 0. 0.</_>
    <_>
      3.41064014e+03 8.04767029e+02 1.51824231e+03 2.18183716e+03
      4.48323584e+03 1.71908313e+03 7.76284729e+02 1.31277637e+03
      2.49081958e+03 7.35447449e+02 7.76176514e+02 6.98765564e+02
      3.96254663e+03 2.87678979e+03 8.04767029e+02 3.00085522e+03 0. 0.
      0. 0. 0. 0. 0. 0. 0. 0. 0. 0. 0. 0. 0. 0. 0. 0. 0. 0. 0. 0. 0. 0.
      0. 0. 0. 0. 0. 0. 0. 0. 0. 0. 0. 0. 0. 0. 0. 0. 0. 0. 0. 0. 0. 0.
      0. 0.</_>
    <_>
      4.41185596e+03 1.63755933e+03 1.84260596e+03 5.84837280e+02
      4.37896045e+03 2.53186865e+03 3.21126129e+02 0. 2.06240332e+03
      2.04401566e+02 1.71702832e+03 0. 3.98618213e+03 2.87589331e+03
      1.58286536e+03 1.13151440e+03 0. 0. 0. 0. 0. 0. 0. 0. 0. 0. 0. 0.
      0. 0. 0. 0. 0. 0. 0. 0. 0. 0. 0. 0. 0. 0. 0. 0. 0. 0. 0. 0. 0. 0.
      0. 0. 0. 0. 0. 0. 0. 0. 0. 0. 0. 0. 0. 0.</_>
    <_>
      4.89928174e+03 1.54071826e+03 2.81257874e+02 8.58261047e+02
      4.00626099e+03 2.81257874e+02 1.54071826e+03 2.83928174e+03
      4.89928174e+03 1.54071826e+03 2.81257874e+02 8.58261047e+02
      4.00626099e+03 2.81257874e+02 1.54071826e+03 2.83928174e+03 0. 0.
      0. 0. 0. 0. 0. 0. 0. 0. 0. 0. 0. 0. 0. 0. 0. 0. 0. 0. 0. 0. 0. 0.
      0. 0. 0. 0. 0. 0. 0. 0. 0. 0. 0. 0. 0. 0. 0. 0. 0. 0. 0. 0. 0. 0.
      0. 0.</_>
    <_>
      4.63414014e+03 3.12371582e+02 9.34392822e+02 1.64829175e+03
      5.58008008e+03 1.61965259e+03 1.97737598e+03 4.57735718e+02 1410.
      4.22291382e+02 2.75502075e+03 1.44678809e+03 3.02147314e+03
      1.15650500e+03 1.34167810e+03 7.58377197e+02 0. 0. 0. 0. 0. 0. 0.
      0. 0. 0. 0. 0. 0. 0. 0. 0. 0. 0. 0. 0. 0. 0. 0. 0. 0. 0. 0. 0. 0.
      0. 0. 0. 0. 0. 0. 0. 0. 0. 0. 0. 0. 0. 0. 0. 0. 0. 0. 0.</_>
    <_>
      2.86515820e+03 8.46300903e+02 9.52253113e+02 0. 4.86193506e+03
      9.40952698e+02 2.39754443e+03 2.04182751e+03 3.79358472e+03
      3.70475372e+02 7.48113464e+02 7.19904175e+02 4.13530518e+03
      2.04445557e+03 1.86988049e+03 7.12699097e+02 0. 0. 0. 0. 0. 0. 0.
      0. 0. 0. 0. 0. 0. 0. 0. 0. 0. 0. 0. 0. 0. 0. 0. 0. 0. 0. 0. 0. 0.
      0. 0. 0. 0. 0. 0. 0. 0. 0. 0. 0. 0. 0. 0. 0. 0. 0. 0. 0.</_>
    <_>
      2.96483789e+03 2.84477612e+03 1.38568555e+03 1.90568433e+03
      2.04756555e+03 7.78781128e+02 1.06931555e+03 8.46249390e+02
      3.92536255e+03 1.20846130e+03 1.21418030e+03 0. 4.58925391e+03
      9.34392822e+02 1.28469751e+03 2.65660425e+03 0. 0. 0. 0. 0. 0. 0.
      0. 0. 0. 0. 0. 0. 0. 0. 0. 0. 0. 0. 0. 0. 0. 0. 0. 0. 0. 0. 0. 0.
      0. 0. 0. 0. 0. 0. 0. 0. 0. 0. 0. 0. 0. 0. 0. 0. 0. 0. 0.</_>
    <_>
      5.95316553e+03 7.40121582e+02 8.80708496e+02 1.09650061e+03
      3.96828125e+03 1.61072913e+03 5.77672913e+02 1.86570532e+03
      4.72770508e+03 1.31779443e+03 8.80708496e+02 1.09650061e+03
      4.29650049e+03 5.56656067e+02 1.65779443e+03 1.93886426e+03 0. 0.
      0. 0. 0. 0. 0. 0. 0. 0. 0. 0. 0. 0. 0. 0. 0. 0. 0. 0. 0. 0. 0. 0.
      0. 0. 0. 0. 0. 0. 0. 0. 0. 0. 0. 0. 0. 0. 0. 0. 0. 0. 0. 0. 0. 0.
      0. 0.</_>
    <_>
      2.50666846e+03 1.63161096e+03 5.32805786e+02 1.03417993e+03
      3.55919458e+03 8.59102600e+02 2.25084058e+03 0. 6.39673145e+03
      4.15611237e+02 1.81419641e+03 4.55034058e+02 2.86222900e+03
      2.84347583e+03 1.74759436e+03 4.03150085e+02 0. 0. 0. 0. 0. 0. 0.
      0. 0. 0. 0. 0. 0. 0. 0. 0. 0. 0. 0. 0. 0. 0. 0. 0. 0. 0. 0. 0. 0.
      0. 0. 0. 0. 0. 0. 0. 0. 0. 0. 0. 0. 0. 0. 0. 0. 0. 0. 0.</_>
    <_>
      6.43586670e+03 8.30963318e+02 1.41289478e+03 3.01705139e+02
      3.09599927e+03 0. 1.87059094e+03 9.94339966e+02 8.62233984e+03
      1.87059094e+03 0. 1.16599939e+03 2.23170508e+03 1.41289478e+03
      8.30963318e+02 8.03866882e+02 0. 0. 0. 0. 0. 0. 0. 0. 0. 0. 0. 0.
      0. 0. 0. 0. 0. 0. 0. 0. 0. 0. 0. 0. 0. 0. 0. 0. 0. 0. 0. 0. 0. 0.
      0. 0. 0. 0. 0. 0. 0. 0. 0. 0. 0. 0. 0. 0.</_>
    <_>
      6.29277344e+03 7.64944458e+02 1.72831836e+03 0. 3.44229834e+03 0.
      5.28239111e+03 0. 2420. 5.28239111e+03 0. 1.12829846e+03 2314.
      1.72831836e+03 7.64944458e+02 8.44773315e+02 0. 0. 0. 0. 0. 0. 0.
      0. 0. 0. 0. 0. 0. 0. 0. 0. 0. 0. 0. 0. 0. 0. 0. 0. 0. 0. 0. 0. 0.
      0. 0. 0. 0. 0. 0. 0. 0. 0. 0. 0. 0. 0. 0. 0. 0. 0. 0. 0.</_>
    <_>
      10148. 7.76284729e+02 9.02229431e+02 3.16509094e+02 1.54450903e+03
      9.02229431e+02 7.76284729e+02 0. 10148. 7.76284729e+02
      9.02229431e+02 3.16509094e+02 1.54450903e+03 9.02229431e+02
      7.76284729e+02 0. 0. 0. 0. 0. 0. 0. 0. 0. 0. 0. 0. 0. 0. 0. 0. 0.
      0. 0. 0. 0. 0. 0. 0. 0. 0. 0. 0. 0. 0. 0. 0. 0. 0. 0. 0. 0. 0. 0.
      0. 0. 0. 0. 0. 0. 0. 0. 0. 0.</_></uncompressed_support_vectors>
  <decision_functions>
    <_>
      <sv_count>1</sv_count>
      <rho>3.5850782521799185e-01</rho>
      <alpha>
        1.</alpha>
      <index>
        0</index></_>
    <_>
      <sv_count>1</sv_count>
      <rho>-8.4851689184046086e-01</rho>
      <alpha>
        1.</alpha>
      <index>
        1</index></_>
    <_>
      <sv_count>1</sv_count>
      <rho>-2.6469376916846937e-01</rho>
      <alpha>
        1.</alpha>
      <index>
        2</index></_>
    <_>
      <sv_count>1</sv_count>
      <rho>-2.5819246010222391e-01</rho>
      <alpha>
        1.</alpha>
      <index>
        3</index></_>
    <_>
      <sv_count>1</sv_count>
      <rho>9.3438028049581026e-02</rho>
      <alpha>
        1.</alpha>
      <index>
        4</index></_>
    <_>
      <sv_count>1</sv_count>
      <rho>3.0431113805161225e-01</rho>
      <alpha>
        1.</alpha>
      <index>
        5</index></_>
    <_>
      <sv_count>1</sv_count>
      <rho>-7.4527715124116212e-01</rho>
      <alpha>
        1.</alpha>
      <index>
        6</index></_>
    <_>
      <sv_count>1</sv_count>
      <rho>1.8737360943056396e+00</rho>
      <alpha>
        1.</alpha>
      <index>
        7</index></_>
    <_>
      <sv_count>1</sv_count>
      <rho>8.5456847211508546e-01</rho>
      <alpha>
        1.</alpha>
      <index>
        8</index></_>
    <_>
      <sv_count>1</sv_count>
      <rho>-1.2865562557953021e+00</rho>
      <alpha>
        1.</alpha>
      <index>
        9</index></_>
    <_>
      <sv_count>1</sv_count>
      <rho>6.1073087499113499e-01</rho>
      <alpha>
        1.</alpha>
      <index>
        10</index></_>
    <_>
      <sv_count>1</sv_count>
      <rho>9.2519883625194921e-01</rho>
      <alpha>
        1.</alpha>
      <index>
        11</index></_>
    <_>
      <sv_count>1</sv_count>
      <rho>1.7021521130877326e+00</rho>
      <alpha>
        1.</alpha>
      <index>
        12</index></_>
    <_>
      <sv_count>1</sv_count>
      <rho>1.0776111072142007e+00</rho>
      <alpha>
        1.</alpha>
      <index>
        13</index></_>
    <_>
      <sv_count>1</sv_count>
      <rho>1.1667440695554459e+00</rho>
      <alpha>
        1.</alpha>
      <index>
        14</index></_>
    <_>
      <sv_count>1</sv_count>
      <rho>-3.4872289368274212e-01</rho>
      <alpha>
        1.</alpha>
      <index>
        15</index></_>
    <_>
      <sv_count>1</sv_count>
      <rho>1.9156472072201178e+00</rho>
      <alpha>
        1.</alpha>
      <index>
        16</index></_>
    <_>
      <sv_count>1</sv_count>
      <rho>1.3119642335180999e+00</rho>
      <alpha>
        1.</alpha>
      <index>
        17</index></_>
    <_>
      <sv_count>1</sv_count>
      <rho>-7.6028599166545796e-01</rho>
      <alpha>
        1.</alpha>
      <index>
        18</index></_>
    <_>
      <sv_count>1</sv_count>
      <rho>8.0407544795027286e-01</rho>
      <alpha>
        1.</alpha>
      <index>
        19</index></_>
    <_>
      <sv_count>1</sv_count>
      <rho>2.2424504807785819e-01</rho>
      <alpha>
        1.</alpha>
      <index>
        20</index></_>
    <_>
      <sv_count>1</sv_count>
      <rho>4.5055033229108832e-01</rho>
      <alpha>
        1.</alpha>
      <index>
        21</index></_>
    <_>
      <sv_count>1</sv_count>
      <rho>1.1013975039338402e+00</rho>
      <alpha>
        1.</alpha>
      <index>
        22</index></_>
    <_>
      <sv_count>1</sv_count>
      <rho>-5.0322878051972053e-01</rho>
      <alpha>
        1.</alpha>
      <index>
        23</index></_>
    <_>
      <sv_count>1</sv_count>
      <rho>1.1972763113226503e+00</rho>
      <alpha>
        1.</alpha>
      <index>
        24</index></_>
    <_>
      <sv_count>1</sv_count>
      <rho>-3.0041187257757396e-01</rho>
      <alpha>
        1.</alpha>
      <index>
        25</index></_>
    <_>
      <sv_count>1</sv_count>
      <rho>-1.6448524861586353e+00</rho>
      <alpha>
        1.</alpha>
      <index>
        26</index></_>
    <_>
      <sv_count>1</sv_count>
      <rho>2.3465837157588992e-01</rho>
      <alpha>
        1.</alpha>
      <index>
        27</index></_>
    <_>
      <sv_count>1</sv_count>
      <rho>-5.7814514114952786e-01</rho>
      <alpha>
        1.</alpha>
      <index>
        28</index></_>
    <_>
      <sv_count>1</sv_count>
      <rho>3.9227505387680062e-01</rho>
      <alpha>
        1.</alpha>
      <index>
        29</index></_>
    <_>
      <sv_count>1</sv_count>
      <rho>-4.9232972946258080e-01</rho>
      <alpha>
        1.</alpha>
      <index>
        30</index></_>
    <_>
      <sv_count>1</sv_count>
      <rho>-4.5881366197683210e-01</rho>
      <alpha>
        1.</alpha>
      <index>
        31</index></_>
    <_>
      <sv_count>1</sv_count>
      <rho>-1.5369457183937849e+00</rho>
      <alpha>
        1.</alpha>
      <index>
        32</index></_>
    <_>
      <sv_count>1</sv_count>
      <rho>-1.7043308387189418e+00</rho>
      <alpha>
        1.</alpha>
      <index>
        33</index></_>
    <_>
      <sv_count>1</sv_count>
      <rho>2.2409784544886602e-01</rho>
      <alpha>
        1.</alpha>
      <index>
        34</index></_>
    <_>
      <sv_count>1</sv_count>
      <rho>2.9832766136669964e-01</rho>
      <alpha>
        1.</alpha>
      <index>
        35</index></_>
    <_>
      <sv_count>1</sv_count>
      <rho>-9.0966201875913533e-01</rho>
      <alpha>
        1.</alpha>
      <index>
        36</index></_>
    <_>
      <sv_count>1</sv_count>
      <rho>9.2546053749632518e-01</rho>
      <alpha>
        1.</alpha>
      <index>
        37</index></_>
    <_>
      <sv_count>1</sv_count>
      <rho>3.1230519660973288e-01</rho>
      <alpha>
        1.</alpha>
      <index>
        38</index></_>
    <_>
      <sv_count>1</sv_count>
      <rho>-1.0673799438974032e+00</rho>
      <alpha>
        1.</alpha>
      <index>
        39</index></_>
    <_>
      <sv_count>1</sv_count>
      <rho>8.7241047254282378e-01</rho>
      <alpha>
        1.</alpha>
      <index>
        40</index></_>
    <_>
      <sv_count>1</sv_count>
      <rho>-5.9624388347915380e-01</rho>
      <alpha>
        1.</alpha>
      <index>
        41</index></_>
    <_>
      <sv_count>1</sv_count>
      <rho>3.3091250374138843e+00</rho>
      <alpha>
        1.</alpha>
      <index>
        42</index></_>
    <_>
      <sv_count>1</sv_count>
      <rho>-3.5453227792761410e-01</rho>
      <alpha>
        1.</alpha>
      <index>
        43</index></_>
    <_>
      <sv_count>1</sv_count>
      <rho>-1.9580960698935650e+00</rho>
      <alpha>
        1.</alpha>
      <index>
        44</index></_>
    <_>
      <sv_count>1</sv_count>
      <rho>-8.9628061567153505e-01</rho>
      <alpha>
        1.</alpha>
      <index>
        45</index></_>
    <_>
      <sv_count>1</sv_count>
      <rho>6.6387797163150991e-02</rho>
      <alpha>
        1.</alpha>
      <index>
        46</index></_>
    <_>
      <sv_count>1</sv_count>
      <rho>-2.2276176036758053e+00</rho>
      <alpha>
        1.</alpha>
      <index>
        47</index></_>
    <_>
      <sv_count>1</sv_count>
      <rho>-1.6870340626796458e+00</rho>
      <alpha>
        1.</alpha>
      <index>
        48</index></_>
    <_>
      <sv_count>1</sv_count>
      <rho>9.8172412554856103e-01</rho>
      <alpha>
        1.</alpha>
      <index>
        49</index></_>
    <_>
      <sv_count>1</sv_count>
      <rho>1.2117162131693420e+00</rho>
      <alpha>
        1.</alpha>
      <index>
        50</index></_>
    <_>
      <sv_count>1</sv_count>
      <rho>-8.7676504550507184e-01</rho>
      <alpha>
        1.</alpha>
      <index>
        51</index></_>
    <_>
      <sv_count>1</sv_count>
      <rho>-5.5681540345443610e+00</rho>
      <alpha>
        1.</alpha>
      <index>
        52</index></_>
    <_>
      <sv_count>1</sv_count>
      <rho>-1.6759327990771062e+00</rho>
      <alpha>
        1.</alpha>
      <index>
        53</index></_>
    <_>
      <sv_count>1</sv_count>
      <rho>-1.6862265591177117e+00</rho>
      <alpha>
        1.</alpha>
      <index>
        54</index></_></decision_functions></opencv_ml_svm>
</opencv_storage>
