<?xml version="1.0"?>
<opencv_storage>
<opencv_ml_svm>
  <format>3</format>
  <svmType>C_SVC</svmType>
  <kernel>
    <type>LINEAR</type></kernel>
  <C>2.6699999999999999e+00</C>
  <term_criteria><epsilon>1.1920928955078125e-07</epsilon>
    <iterations>1000</iterations></term_criteria>
  <var_count>64</var_count>
  <class_count>11</class_count>
  <class_labels type_id="opencv-matrix">
    <rows>11</rows>
    <cols>1</cols>
    <dt>i</dt>
    <data>
      0 1 2 3 4 5 6 7 8 9 11</data></class_labels>
  <sv_total>55</sv_total>
  <support_vectors>
    <_>
      2.52494821e-04 2.34217339e-04 1.00211510e-04 -1.83543714e-04
      -7.79840848e-05 -3.35609293e-05 7.01749059e-06 6.18306367e-05
      -2.73280195e-04 3.42908723e-04 2.65562674e-04 2.96507293e-04
      4.69510182e-04 7.46992519e-05 1.81948635e-04 -3.52119503e-04 0. 0.
      0. 0. 0. 0. 0. 0. 0. 0. 0. 0. 0. 0. 0. 0. 0. 0. 0. 0. 0. 0. 0. 0.
      0. 0. 0. 0. 0. 0. 0. 0. 0. 0. 0. 0. 0. 0. 0. 0. 0. 0. 0. 0. 0. 0.
      0. 0.</_>
    <_>
      8.27024123e-05 -1.17589370e-04 -1.17946322e-04 -2.00829469e-04
      -3.68404180e-05 -3.21688708e-06 7.63501157e-05 1.99651244e-04
      1.54344627e-04 -3.73069379e-05 -1.65531950e-04 -1.95712928e-04
      -4.41517986e-05 -3.40371844e-05 -1.98836165e-06 1.43113948e-05 0.
      0. 0. 0. 0. 0. 0. 0. 0. 0. 0. 0. 0. 0. 0. 0. 0. 0. 0. 0. 0. 0. 0.
      0. 0. 0. 0. 0. 0. 0. 0. 0. 0. 0. 0. 0. 0. 0. 0. 0. 0. 0. 0. 0. 0.
      0. 0. 0.</_>
    <_>
      1.74042623e-04 1.75320994e-04 1.63769917e-04 2.37557499e-04
      -1.32574569e-04 -1.68491650e-04 -1.84364879e-04 2.99632578e-04
      1.17674012e-04 2.84563692e-04 -1.17160707e-04 6.37098783e-05
      -2.78528023e-04 -3.19074898e-04 -1.07187603e-04 8.44307797e-05 0.
      0. 0. 0. 0. 0. 0. 0. 0. 0. 0. 0. 0. 0. 0. 0. 0. 0. 0. 0. 0. 0. 0.
      0. 0. 0. 0. 0. 0. 0. 0. 0. 0. 0. 0. 0. 0. 0. 0. 0. 0. 0. 0. 0. 0.
      0. 0. 0.</_>
    <_>
      2.84431717e-05 -6.41034683e-04 -3.16649384e-04 -6.78090146e-05
      2.37085114e-05 2.16737040e-04 -1.22109268e-04 -1.85221907e-05
      3.75373816e-06 3.53403680e-04 -1.27262145e-04 3.51532108e-05
      2.27040902e-04 3.43020001e-05 6.83018705e-04 -9.19609156e-05 0. 0.
      0. 0. 0. 0. 0. 0. 0. 0. 0. 0. 0. 0. 0. 0. 0. 0. 0. 0. 0. 0. 0. 0.
      0. 0. 0. 0. 0. 0. 0. 0. 0. 0. 0. 0. 0. 0. 0. 0. 0. 0. 0. 0. 0. 0.
      0. 0.</_>
    <_>
      1.85857964e-04 1.75040641e-05 3.56170713e-05 2.39152760e-05
      -1.24898637e-04 -3.63366213e-04 2.54665574e-05 2.43487768e-04
      1.62964512e-04 -3.58654797e-05 -3.06870585e-04 -2.17412759e-04
      -3.25521069e-06 3.31398551e-05 4.33288051e-06 1.55866728e-04 0. 0.
      0. 0. 0. 0. 0. 0. 0. 0. 0. 0. 0. 0. 0. 0. 0. 0. 0. 0. 0. 0. 0. 0.
      0. 0. 0. 0. 0. 0. 0. 0. 0. 0. 0. 0. 0. 0. 0. 0. 0. 0. 0. 0. 0. 0.
      0. 0.</_>
    <_>
      2.53508886e-04 -1.07295993e-04 -1.21469056e-04 -1.31169552e-04
      -1.20470628e-04 -2.08752448e-04 2.05521734e-04 3.27215035e-04
      2.74824037e-04 -1.92822292e-04 -7.79234397e-04 4.79702256e-04
      -2.06509401e-04 -3.24319350e-04 2.19353926e-04 1.53169221e-05 0.
      0. 0. 0. 0. 0. 0. 0. 0. 0. 0. 0. 0. 0. 0. 0. 0. 0. 0. 0. 0. 0. 0.
      0. 0. 0. 0. 0. 0. 0. 0. 0. 0. 0. 0. 0. 0. 0. 0. 0. 0. 0. 0. 0. 0.
      0. 0. 0.</_>
    <_>
      3.20373401e-05 -1.30884859e-04 4.04916791e-05 3.77243559e-05
      2.05790420e-04 3.84125451e-05 1.15111565e-04 4.62824573e-05
      -8.35405353e-06 -1.72645392e-04 -6.81699312e-05 -5.83466681e-06
      -1.63815188e-04 1.95264547e-05 7.52626147e-05 -7.89640580e-06 0.
      0. 0. 0. 0. 0. 0. 0. 0. 0. 0. 0. 0. 0. 0. 0. 0. 0. 0. 0. 0. 0. 0.
      0. 0. 0. 0. 0. 0. 0. 0. 0. 0. 0. 0. 0. 0. 0. 0. 0. 0. 0. 0. 0. 0.
      0. 0. 0.</_>
    <_>
      6.73007569e-04 4.43341676e-04 -3.84093000e-04 -1.73057400e-04
      1.97946021e-04 -6.35628181e-04 -1.56434864e-04 5.31950442e-04
      4.45571713e-05 7.70693223e-05 -1.02991267e-04 -5.09634730e-04
      -1.17157069e-04 -3.35211749e-04 -2.30397403e-04 2.30946549e-04 0.
      0. 0. 0. 0. 0. 0. 0. 0. 0. 0. 0. 0. 0. 0. 0. 0. 0. 0. 0. 0. 0. 0.
      0. 0. 0. 0. 0. 0. 0. 0. 0. 0. 0. 0. 0. 0. 0. 0. 0. 0. 0. 0. 0. 0.
      0. 0. 0.</_>
    <_>
      2.10119892e-04 -3.76227224e-04 -4.96896508e-04 2.50468525e-04
      5.92033553e-04 3.55559110e-04 4.09506814e-04 2.67652096e-04
      2.34901934e-04 -3.53794865e-04 -7.09412096e-04 -2.87161034e-04
      -9.43958468e-04 3.23350250e-04 1.97615562e-04 5.97836100e-04 0. 0.
      0. 0. 0. 0. 0. 0. 0. 0. 0. 0. 0. 0. 0. 0. 0. 0. 0. 0. 0. 0. 0. 0.
      0. 0. 0. 0. 0. 0. 0. 0. 0. 0. 0. 0. 0. 0. 0. 0. 0. 0. 0. 0. 0. 0.
      0. 0.</_>
    <_>
      1.92835323e-05 9.31583691e-06 1.40192151e-05 5.81569657e-06
      -6.41545848e-05 2.54215934e-06 1.24874077e-05 2.06351469e-05
      1.98627586e-05 8.63954392e-06 2.10992744e-06 5.38583981e-06
      -7.59530230e-05 5.09999973e-06 1.15911798e-05 2.89903301e-06 0. 0.
      0. 0. 0. 0. 0. 0. 0. 0. 0. 0. 0. 0. 0. 0. 0. 0. 0. 0. 0. 0. 0. 0.
      0. 0. 0. 0. 0. 0. 0. 0. 0. 0. 0. 0. 0. 0. 0. 0. 0. 0. 0. 0. 0. 0.
      0. 0.</_>
    <_>
      4.96588364e-05 -2.82618785e-05 -3.88186309e-05 -3.69241025e-05
      -2.61378027e-05 8.91023228e-06 6.21534241e-07 3.20785184e-05
      1.63521603e-04 -3.46545748e-05 -5.47856980e-05 -6.59479556e-05
      -4.37286071e-05 -1.29051568e-06 -7.63816388e-06 4.57032229e-06 0.
      0. 0. 0. 0. 0. 0. 0. 0. 0. 0. 0. 0. 0. 0. 0. 0. 0. 0. 0. 0. 0. 0.
      0. 0. 0. 0. 0. 0. 0. 0. 0. 0. 0. 0. 0. 0. 0. 0. 0. 0. 0. 0. 0. 0.
      0. 0. 0.</_>
    <_>
      1.15536539e-04 -3.51504218e-06 -1.20375416e-05 3.30776274e-05
      -7.51641055e-05 -1.17792897e-05 -5.91344069e-05 5.46466254e-06
      1.80353178e-04 -1.33954263e-05 -2.73317746e-05 -2.59440058e-05
      -9.91983834e-05 -4.36063092e-05 -3.99880046e-05 3.35512232e-05 0.
      0. 0. 0. 0. 0. 0. 0. 0. 0. 0. 0. 0. 0. 0. 0. 0. 0. 0. 0. 0. 0. 0.
      0. 0. 0. 0. 0. 0. 0. 0. 0. 0. 0. 0. 0. 0. 0. 0. 0. 0. 0. 0. 0. 0.
      0. 0. 0.</_>
    <_>
      -4.26995721e-05 -1.90712337e-04 -1.05637431e-04 -1.93012966e-05
      2.57549691e-05 6.36686600e-05 1.18967932e-07 8.00634225e-05
      3.80710524e-04 -1.25073184e-05 -7.02043544e-05 -6.28058551e-05
      -1.69660256e-04 1.01597852e-05 8.55646140e-05 5.87135473e-05 0. 0.
      0. 0. 0. 0. 0. 0. 0. 0. 0. 0. 0. 0. 0. 0. 0. 0. 0. 0. 0. 0. 0. 0.
      0. 0. 0. 0. 0. 0. 0. 0. 0. 0. 0. 0. 0. 0. 0. 0. 0. 0. 0. 0. 0. 0.
      0. 0.</_>
    <_>
      9.66268708e-05 -8.96089114e-06 -1.13594306e-05 -1.40579214e-05
      -3.51753588e-05 -6.79124205e-05 -9.98728228e-06 1.86275647e-05
      1.91517523e-04 -3.89146189e-05 -4.94433189e-05 -7.20389799e-05
      -3.33301068e-05 -4.62383423e-06 -3.26037734e-05 2.47345179e-05 0.
      0. 0. 0. 0. 0. 0. 0. 0. 0. 0. 0. 0. 0. 0. 0. 0. 0. 0. 0. 0. 0. 0.
      0. 0. 0. 0. 0. 0. 0. 0. 0. 0. 0. 0. 0. 0. 0. 0. 0. 0. 0. 0. 0. 0.
      0. 0. 0.</_>
    <_>
      9.70114925e-05 -4.70862824e-06 -2.59426870e-05 -1.52508737e-05
      -4.40483491e-05 -3.60618542e-05 -3.38650789e-05 2.02814699e-05
      2.20290298e-04 -8.97852151e-05 -6.47507841e-05 0. -6.95792114e-05
      -1.23149393e-05 -1.84258224e-05 3.33611206e-05 0. 0. 0. 0. 0. 0.
      0. 0. 0. 0. 0. 0. 0. 0. 0. 0. 0. 0. 0. 0. 0. 0. 0. 0. 0. 0. 0. 0.
      0. 0. 0. 0. 0. 0. 0. 0. 0. 0. 0. 0. 0. 0. 0. 0. 0. 0. 0. 0.</_>
    <_>
      -3.65833439e-05 -7.94314474e-05 1.11623722e-05 3.76890021e-05
      1.14726266e-04 2.79672386e-05 2.66131374e-05 3.44432847e-05
      7.31542314e-05 -1.74425004e-04 -4.48511892e-05 -5.26614676e-05
      -1.20364763e-04 1.39634976e-05 3.33380885e-05 -2.22999224e-05 0.
      0. 0. 0. 0. 0. 0. 0. 0. 0. 0. 0. 0. 0. 0. 0. 0. 0. 0. 0. 0. 0. 0.
      0. 0. 0. 0. 0. 0. 0. 0. 0. 0. 0. 0. 0. 0. 0. 0. 0. 0. 0. 0. 0. 0.
      0. 0. 0.</_>
    <_>
      2.42777096e-04 2.28023837e-05 -6.77752032e-05 6.60806327e-05
      -2.55172199e-05 9.05180605e-06 -1.22726502e-04 -2.23855586e-05
      1.88174687e-04 -1.32193629e-04 -4.17101000e-05 -1.38217016e-04
      -6.97499927e-05 -4.50969492e-05 -1.13545699e-04 6.23092419e-05 0.
      0. 0. 0. 0. 0. 0. 0. 0. 0. 0. 0. 0. 0. 0. 0. 0. 0. 0. 0. 0. 0. 0.
      0. 0. 0. 0. 0. 0. 0. 0. 0. 0. 0. 0. 0. 0. 0. 0. 0. 0. 0. 0. 0. 0.
      0. 0. 0.</_>
    <_>
      -1.02090044e-05 -4.70709565e-05 -7.85877546e-06 -3.43023748e-05
      2.34618528e-05 -5.21906850e-06 -1.40342700e-05 5.58013853e-05
      2.71216035e-04 -1.08115950e-04 -8.49262578e-05 -4.37795352e-05
      -1.14818038e-04 -5.94552284e-06 -4.31698300e-06 4.80156086e-05 0.
      0. 0. 0. 0. 0. 0. 0. 0. 0. 0. 0. 0. 0. 0. 0. 0. 0. 0. 0. 0. 0. 0.
      0. 0. 0. 0. 0. 0. 0. 0. 0. 0. 0. 0. 0. 0. 0. 0. 0. 0. 0. 0. 0. 0.
      0. 0. 0.</_>
    <_>
      2.11722017e-05 2.65337098e-06 3.22400865e-06 3.60882450e-06
      -5.17338740e-05 3.22400865e-06 2.65337098e-06 1.74747299e-06
      3.63482213e-05 0. 0. 0. -5.61267916e-05 3.24373195e-06
      2.25290228e-06 4.42817509e-06 0. 0. 0. 0. 0. 0. 0. 0. 0. 0. 0. 0.
      0. 0. 0. 0. 0. 0. 0. 0. 0. 0. 0. 0. 0. 0. 0. 0. 0. 0. 0. 0. 0. 0.
      0. 0. 0. 0. 0. 0. 0. 0. 0. 0. 0. 0. 0. 0.</_>
    <_>
      -1.52372479e-04 1.18040196e-04 1.93934815e-04 3.00404790e-04
      4.82085261e-06 -1.42759673e-04 -1.38004572e-04 -4.85967757e-05
      -2.68959066e-05 1.20175398e-04 1.86955687e-04 2.20985807e-04
      -9.13444237e-05 -8.09751000e-05 -1.20680772e-04 3.01883429e-05 0.
      0. 0. 0. 0. 0. 0. 0. 0. 0. 0. 0. 0. 0. 0. 0. 0. 0. 0. 0. 0. 0. 0.
      0. 0. 0. 0. 0. 0. 0. 0. 0. 0. 0. 0. 0. 0. 0. 0. 0. 0. 0. 0. 0. 0.
      0. 0. 0.</_>
    <_>
      -1.52493783e-04 -7.84077929e-05 6.90619781e-05 1.24823899e-04
      1.34378657e-04 2.50483517e-05 -9.57317825e-05 -9.48960369e-05
      -1.14221388e-04 9.92106288e-05 1.21839410e-04 2.22784627e-04
      -6.68319626e-05 3.66798195e-05 6.49943322e-05 -2.99162421e-05 0.
      0. 0. 0. 0. 0. 0. 0. 0. 0. 0. 0. 0. 0. 0. 0. 0. 0. 0. 0. 0. 0. 0.
      0. 0. 0. 0. 0. 0. 0. 0. 0. 0. 0. 0. 0. 0. 0. 0. 0. 0. 0. 0. 0. 0.
      0. 0. 0.</_>
    <_>
      -9.46475848e-05 2.07456076e-04 2.33859973e-04 2.88226060e-04
      -8.73532117e-05 -2.60602043e-04 -9.85024017e-05 -2.04564611e-04
      -3.94947820e-05 3.72284303e-05 1.96415149e-05 1.12437912e-04
      5.82248576e-05 3.80597266e-05 -1.14713075e-04 1.13191425e-04 0. 0.
      0. 0. 0. 0. 0. 0. 0. 0. 0. 0. 0. 0. 0. 0. 0. 0. 0. 0. 0. 0. 0. 0.
      0. 0. 0. 0. 0. 0. 0. 0. 0. 0. 0. 0. 0. 0. 0. 0. 0. 0. 0. 0. 0. 0.
      0. 0.</_>
    <_>
      -1.06265477e-04 1.82768956e-04 2.46287236e-04 3.41056933e-04
      -2.51211768e-05 -7.20444007e-07 -1.50978565e-04 -2.92063603e-04
      1.41506143e-05 -6.38189013e-05 2.80955835e-04 2.18440953e-04
      1.26650948e-05 -1.40162461e-04 -1.54613008e-05 -5.29172121e-06 0.
      0. 0. 0. 0. 0. 0. 0. 0. 0. 0. 0. 0. 0. 0. 0. 0. 0. 0. 0. 0. 0. 0.
      0. 0. 0. 0. 0. 0. 0. 0. 0. 0. 0. 0. 0. 0. 0. 0. 0. 0. 0. 0. 0. 0.
      0. 0. 0.</_>
    <_>
      -5.96771351e-05 -3.72621435e-05 4.25644976e-05 9.60213947e-05
      1.28453627e-04 1.47227865e-05 2.68884432e-05 -1.90357223e-05
      -1.24230079e-04 -7.38032977e-05 9.71451573e-06 8.59422216e-05
      -4.15895192e-05 -2.09450923e-06 3.50104347e-05 5.21284164e-05 0.
      0. 0. 0. 0. 0. 0. 0. 0. 0. 0. 0. 0. 0. 0. 0. 0. 0. 0. 0. 0. 0. 0.
      0. 0. 0. 0. 0. 0. 0. 0. 0. 0. 0. 0. 0. 0. 0. 0. 0. 0. 0. 0. 0. 0.
      0. 0. 0.</_>
    <_>
      1.85914178e-04 1.00967518e-04 3.55527445e-04 3.05103575e-04
      7.20904791e-05 -2.39084533e-04 -2.20929564e-04 -2.48384633e-04
      -1.76233283e-04 2.29713114e-04 1.28007305e-04 1.25638719e-04
      -1.48807623e-04 -7.63038552e-05 -8.72825694e-05 -5.86031092e-05 0.
      0. 0. 0. 0. 0. 0. 0. 0. 0. 0. 0. 0. 0. 0. 0. 0. 0. 0. 0. 0. 0. 0.
      0. 0. 0. 0. 0. 0. 0. 0. 0. 0. 0. 0. 0. 0. 0. 0. 0. 0. 0. 0. 0. 0.
      0. 0. 0.</_>
    <_>
      -7.73927895e-05 5.32655649e-05 1.51103188e-04 1.92069740e-04
      9.35053395e-05 -3.55255142e-05 9.35352546e-06 -1.49575848e-04
      -3.31383606e-04 1.83893193e-04 2.74518010e-04 1.21862104e-04
      -1.96452820e-04 -8.93757824e-05 -1.29376538e-04 9.64790015e-05 0.
      0. 0. 0. 0. 0. 0. 0. 0. 0. 0. 0. 0. 0. 0. 0. 0. 0. 0. 0. 0. 0. 0.
      0. 0. 0. 0. 0. 0. 0. 0. 0. 0. 0. 0. 0. 0. 0. 0. 0. 0. 0. 0. 0. 0.
      0. 0. 0.</_>
    <_>
      9.96636300e-06 4.61601212e-06 2.64709761e-05 1.70014355e-05
      -7.60932890e-05 3.65523192e-06 0. 0. 9.73709757e-06 8.77800539e-06
      1.15001967e-05 1.19883016e-05 -8.59687498e-05 8.51778805e-06 0.
      5.97220787e-06 0. 0. 0. 0. 0. 0. 0. 0. 0. 0. 0. 0. 0. 0. 0. 0. 0.
      0. 0. 0. 0. 0. 0. 0. 0. 0. 0. 0. 0. 0. 0. 0. 0. 0. 0. 0. 0. 0. 0.
      0. 0. 0. 0. 0. 0. 0. 0. 0.</_>
    <_>
      -1.33264708e-04 -1.84285702e-04 -7.22341647e-05 -8.98321014e-05
      2.79973552e-04 1.59590636e-04 -1.83963966e-05 -5.19476089e-05
      -9.48463494e-05 2.17246125e-05 4.43590216e-05 1.02802305e-05
      1.00272366e-04 8.72043820e-05 1.28415719e-04 -1.93429805e-05 0. 0.
      0. 0. 0. 0. 0. 0. 0. 0. 0. 0. 0. 0. 0. 0. 0. 0. 0. 0. 0. 0. 0. 0.
      0. 0. 0. 0. 0. 0. 0. 0. 0. 0. 0. 0. 0. 0. 0. 0. 0. 0. 0. 0. 0. 0.
      0. 0.</_>
    <_>
      3.34380202e-05 1.61712465e-04 2.56957166e-04 -2.10487080e-04
      -1.82452524e-04 -1.57601477e-04 2.37399563e-05 -2.87128467e-04
      1.21569450e-04 -2.50387791e-04 -3.00557440e-04 -3.21241125e-04
      3.50558024e-04 2.23711977e-04 1.95766945e-04 8.33320519e-05 0. 0.
      0. 0. 0. 0. 0. 0. 0. 0. 0. 0. 0. 0. 0. 0. 0. 0. 0. 0. 0. 0. 0. 0.
      0. 0. 0. 0. 0. 0. 0. 0. 0. 0. 0. 0. 0. 0. 0. 0. 0. 0. 0. 0. 0. 0.
      0. 0.</_>
    <_>
      -2.41960006e-05 -1.78955845e-04 1.68299899e-04 -4.40532487e-04
      8.90358933e-06 3.24377994e-04 2.92958139e-04 -4.17025149e-04
      2.50304329e-05 -5.32049104e-04 -2.23285955e-04 -2.62420595e-04
      3.14947189e-04 1.34840900e-06 2.47806369e-04 -8.00140551e-05 0. 0.
      0. 0. 0. 0. 0. 0. 0. 0. 0. 0. 0. 0. 0. 0. 0. 0. 0. 0. 0. 0. 0. 0.
      0. 0. 0. 0. 0. 0. 0. 0. 0. 0. 0. 0. 0. 0. 0. 0. 0. 0. 0. 0. 0. 0.
      0. 0.</_>
    <_>
      -5.36388543e-05 -5.72529607e-05 4.44742545e-05 2.07531884e-05
      1.64840138e-04 7.02658581e-05 3.78945006e-05 1.09309058e-05
      -9.06648274e-05 -1.17193602e-04 -1.31115776e-05 2.10276430e-05
      -2.28606968e-05 3.47463683e-05 6.90050219e-05 1.42727131e-05 0. 0.
      0. 0. 0. 0. 0. 0. 0. 0. 0. 0. 0. 0. 0. 0. 0. 0. 0. 0. 0. 0. 0. 0.
      0. 0. 0. 0. 0. 0. 0. 0. 0. 0. 0. 0. 0. 0. 0. 0. 0. 0. 0. 0. 0. 0.
      0. 0.</_>
    <_>
      3.29487986e-04 -6.88519140e-05 -6.76041236e-04 -4.19317017e-04
      1.02872052e-03 3.98696022e-04 1.07801607e-04 -3.71226168e-04
      -2.99061066e-04 -3.05085443e-04 -7.33824039e-04 -4.88883816e-04
      -4.52303095e-04 -2.62475514e-04 4.02937148e-04 -2.62256770e-04 0.
      0. 0. 0. 0. 0. 0. 0. 0. 0. 0. 0. 0. 0. 0. 0. 0. 0. 0. 0. 0. 0. 0.
      0. 0. 0. 0. 0. 0. 0. 0. 0. 0. 0. 0. 0. 0. 0. 0. 0. 0. 0. 0. 0. 0.
      0. 0. 0.</_>
    <_>
      -2.53035687e-05 -1.27695210e-04 -1.38137693e-04 -2.68777978e-04
      1.68357190e-04 1.71280626e-04 3.90615285e-04 -2.69881682e-04
      -3.97487747e-04 -2.29367142e-04 9.60930338e-05 -4.83431562e-04
      -3.88062072e-05 4.72957647e-04 7.59984396e-05 -1.72670898e-05 0.
      0. 0. 0. 0. 0. 0. 0. 0. 0. 0. 0. 0. 0. 0. 0. 0. 0. 0. 0. 0. 0. 0.
      0. 0. 0. 0. 0. 0. 0. 0. 0. 0. 0. 0. 0. 0. 0. 0. 0. 0. 0. 0. 0. 0.
      0. 0. 0.</_>
    <_>
      2.37415406e-05 0. 1.24400567e-05 3.98446673e-06 -8.27683543e-05
      2.97229030e-06 8.77706407e-06 3.52497568e-06 5.93618324e-06
      5.88021840e-06 0. 8.20188598e-06 -8.29381970e-05 7.50750542e-06
      7.26021062e-06 7.13757345e-06 0. 0. 0. 0. 0. 0. 0. 0. 0. 0. 0. 0.
      0. 0. 0. 0. 0. 0. 0. 0. 0. 0. 0. 0. 0. 0. 0. 0. 0. 0. 0. 0. 0. 0.
      0. 0. 0. 0. 0. 0. 0. 0. 0. 0. 0. 0. 0. 0.</_>
    <_>
      1.34059388e-04 1.56506823e-04 4.71843887e-05 5.48660182e-06
      -1.70866129e-04 -2.10119775e-04 5.57372841e-05 4.10767534e-05
      1.09084009e-04 -8.22077272e-05 -1.09413355e-04 -1.08533888e-04
      2.63872425e-06 2.84659600e-05 -5.82675457e-05 -7.98007648e-07 0.
      0. 0. 0. 0. 0. 0. 0. 0. 0. 0. 0. 0. 0. 0. 0. 0. 0. 0. 0. 0. 0. 0.
      0. 0. 0. 0. 0. 0. 0. 0. 0. 0. 0. 0. 0. 0. 0. 0. 0. 0. 0. 0. 0. 0.
      0. 0. 0.</_>
    <_>
      1.67782040e-04 2.42125243e-04 6.52751987e-05 -5.22249479e-07
      -2.47193122e-04 -8.91028249e-05 -5.22676855e-05 -4.43783319e-05
      1.49224667e-04 -2.95756268e-04 -1.76560658e-04 1.45837359e-04
      -4.83107124e-06 -5.73956604e-05 -5.55661391e-05 -1.94836466e-05 0.
      0. 0. 0. 0. 0. 0. 0. 0. 0. 0. 0. 0. 0. 0. 0. 0. 0. 0. 0. 0. 0. 0.
      0. 0. 0. 0. 0. 0. 0. 0. 0. 0. 0. 0. 0. 0. 0. 0. 0. 0. 0. 0. 0. 0.
      0. 0. 0.</_>
    <_>
      -1.34496686e-05 5.05837124e-05 1.26700688e-04 2.06006407e-05
      1.42769117e-04 7.02499483e-06 8.04115407e-05 4.36516857e-05
      -4.48098399e-05 -2.43656003e-04 -7.36433722e-05 -1.53233723e-05
      -1.55072077e-04 -1.59931333e-05 4.83709373e-05 3.88578665e-05 0.
      0. 0. 0. 0. 0. 0. 0. 0. 0. 0. 0. 0. 0. 0. 0. 0. 0. 0. 0. 0. 0. 0.
      0. 0. 0. 0. 0. 0. 0. 0. 0. 0. 0. 0. 0. 0. 0. 0. 0. 0. 0. 0. 0. 0.
      0. 0. 0.</_>
    <_>
      2.75500701e-04 2.86998373e-04 7.25691461e-06 1.28849846e-04
      -1.48565494e-04 -1.66179132e-04 1.10537294e-05 2.20622285e-04
      2.36942360e-05 -2.02402764e-04 -4.01937796e-05 -3.75416785e-05
      -4.29262072e-05 -6.52878225e-05 -2.08562575e-04 -7.02254110e-05 0.
      0. 0. 0. 0. 0. 0. 0. 0. 0. 0. 0. 0. 0. 0. 0. 0. 0. 0. 0. 0. 0. 0.
      0. 0. 0. 0. 0. 0. 0. 0. 0. 0. 0. 0. 0. 0. 0. 0. 0. 0. 0. 0. 0. 0.
      0. 0. 0.</_>
    <_>
      1.03334132e-04 2.94758356e-04 2.61903799e-04 -1.25634062e-04
      -1.21970646e-04 -2.47173331e-04 2.61369481e-04 1.64685203e-04
      4.52874156e-05 -4.20289609e-04 -1.96668450e-04 1.46866068e-05
      -2.02410039e-04 4.94708220e-05 -2.05671924e-04 -7.82652714e-05 0.
      0. 0. 0. 0. 0. 0. 0. 0. 0. 0. 0. 0. 0. 0. 0. 0. 0. 0. 0. 0. 0. 0.
      0. 0. 0. 0. 0. 0. 0. 0. 0. 0. 0. 0. 0. 0. 0. 0. 0. 0. 0. 0. 0. 0.
      0. 0. 0.</_>
    <_>
      2.48786346e-05 1.25640399e-05 1.13827027e-05 4.15428121e-06
      -6.70968584e-05 0. 8.36778236e-06 6.24820268e-06 1.47924093e-05
      7.39904124e-07 3.71279407e-06 3.27759699e-06 -5.95808306e-05
      4.46043578e-06 2.98075406e-06 5.47749551e-06 0. 0. 0. 0. 0. 0. 0.
      0. 0. 0. 0. 0. 0. 0. 0. 0. 0. 0. 0. 0. 0. 0. 0. 0. 0. 0. 0. 0. 0.
      0. 0. 0. 0. 0. 0. 0. 0. 0. 0. 0. 0. 0. 0. 0. 0. 0. 0. 0.</_>
    <_>
      -3.73075363e-06 -1.55795031e-04 -1.84475633e-04 -1.58239942e-04
      1.56935945e-04 5.34935389e-04 -1.83943630e-04 -4.74644330e-05
      -1.61348202e-04 -1.25584847e-04 3.52368806e-04 4.21253033e-04
      1.83076718e-05 -3.59560159e-04 1.79281691e-04 -2.17363966e-04 0.
      0. 0. 0. 0. 0. 0. 0. 0. 0. 0. 0. 0. 0. 0. 0. 0. 0. 0. 0. 0. 0. 0.
      0. 0. 0. 0. 0. 0. 0. 0. 0. 0. 0. 0. 0. 0. 0. 0. 0. 0. 0. 0. 0. 0.
      0. 0. 0.</_>
    <_>
      -8.21720969e-05 -6.74267067e-05 3.02395310e-05 3.11456206e-05
      1.49338070e-04 8.21638459e-05 4.65119265e-05 3.03492270e-05
      -7.70412662e-05 -8.48902855e-05 9.26357734e-06 5.70826305e-05
      -5.29490826e-05 -2.25391250e-05 4.35462316e-05 2.66427778e-05 0.
      0. 0. 0. 0. 0. 0. 0. 0. 0. 0. 0. 0. 0. 0. 0. 0. 0. 0. 0. 0. 0. 0.
      0. 0. 0. 0. 0. 0. 0. 0. 0. 0. 0. 0. 0. 0. 0. 0. 0. 0. 0. 0. 0. 0.
      0. 0. 0.</_>
    <_>
      3.68863344e-04 -7.25289792e-05 -3.75265867e-04 1.44260295e-04
      4.33068024e-04 5.07486518e-04 -1.68045051e-06 5.83986912e-05
      -7.45367361e-05 3.65741231e-04 1.65233636e-04 2.94539146e-04
      -1.85876532e-04 -3.11684329e-04 1.26906700e-04 -3.78554425e-04 0.
      0. 0. 0. 0. 0. 0. 0. 0. 0. 0. 0. 0. 0. 0. 0. 0. 0. 0. 0. 0. 0. 0.
      0. 0. 0. 0. 0. 0. 0. 0. 0. 0. 0. 0. 0. 0. 0. 0. 0. 0. 0. 0. 0. 0.
      0. 0. 0.</_>
    <_>
      -2.26612116e-04 -1.25518956e-04 -1.29835651e-04 -2.89059099e-05
      2.63482187e-04 3.71905975e-04 1.86599165e-04 -2.12245122e-05
      -2.39387489e-04 2.92794808e-04 4.28160740e-04 4.60010051e-05
      -3.49885377e-04 -4.16188595e-05 -7.47573631e-06 -1.14442228e-04 0.
      0. 0. 0. 0. 0. 0. 0. 0. 0. 0. 0. 0. 0. 0. 0. 0. 0. 0. 0. 0. 0. 0.
      0. 0. 0. 0. 0. 0. 0. 0. 0. 0. 0. 0. 0. 0. 0. 0. 0. 0. 0. 0. 0. 0.
      0. 0. 0.</_>
    <_>
      2.21889495e-05 0. 6.87095644e-06 3.72442173e-06 -8.49885691e-05
      5.81400354e-06 7.12299970e-06 1.51181821e-05 8.63843616e-06
      1.93757551e-05 1.59089686e-05 1.36571998e-05 -9.62673221e-05
      1.34240713e-06 5.33181856e-06 4.99007820e-06 0. 0. 0. 0. 0. 0. 0.
      0. 0. 0. 0. 0. 0. 0. 0. 0. 0. 0. 0. 0. 0. 0. 0. 0. 0. 0. 0. 0. 0.
      0. 0. 0. 0. 0. 0. 0. 0. 0. 0. 0. 0. 0. 0. 0. 0. 0. 0. 0.</_>
    <_>
      -7.21372999e-05 -8.67026683e-05 5.77480787e-05 4.90220918e-05
      1.74441986e-04 4.07237421e-05 9.97613752e-05 7.29087260e-05
      -1.14028822e-04 -8.03987423e-05 -2.05926358e-06 -1.76781105e-05
      -7.80867413e-05 3.82063854e-06 3.79197008e-05 6.04118904e-05 0. 0.
      0. 0. 0. 0. 0. 0. 0. 0. 0. 0. 0. 0. 0. 0. 0. 0. 0. 0. 0. 0. 0. 0.
      0. 0. 0. 0. 0. 0. 0. 0. 0. 0. 0. 0. 0. 0. 0. 0. 0. 0. 0. 0. 0. 0.
      0. 0.</_>
    <_>
      5.16748172e-04 -1.20265388e-04 -4.44066158e-04 4.33034817e-04
      3.36166588e-04 -3.75261676e-04 -1.87559257e-04 2.95158505e-04
      -5.20921429e-04 5.51036384e-04 7.94314255e-05 -8.27651820e-04
      1.38168616e-04 -6.24268665e-04 -2.40330584e-04 -3.74232011e-04 0.
      0. 0. 0. 0. 0. 0. 0. 0. 0. 0. 0. 0. 0. 0. 0. 0. 0. 0. 0. 0. 0. 0.
      0. 0. 0. 0. 0. 0. 0. 0. 0. 0. 0. 0. 0. 0. 0. 0. 0. 0. 0. 0. 0. 0.
      0. 0. 0.</_>
    <_>
      -2.46570882e-04 -3.09537078e-04 -5.90009586e-05 9.74715149e-05
      1.83816461e-04 5.12366387e-05 3.09240801e-04 3.80369920e-06
      -4.07521264e-04 3.22510314e-04 3.43166263e-04 -3.39077553e-04
      -4.01744968e-04 2.08721656e-04 -1.75886395e-04 7.44285571e-05 0.
      0. 0. 0. 0. 0. 0. 0. 0. 0. 0. 0. 0. 0. 0. 0. 0. 0. 0. 0. 0. 0. 0.
      0. 0. 0. 0. 0. 0. 0. 0. 0. 0. 0. 0. 0. 0. 0. 0. 0. 0. 0. 0. 0. 0.
      0. 0. 0.</_>
    <_>
      1.33280628e-05 0. 2.14542160e-06 1.32994519e-05 -7.78784743e-05 0.
      5.94081894e-06 1.10067613e-05 1.37660863e-05 4.40722897e-06
      4.74104854e-06 9.92840614e-06 -8.67682102e-05 1.04864057e-05 0.
      1.58247803e-05 0. 0. 0. 0. 0. 0. 0. 0. 0. 0. 0. 0. 0. 0. 0. 0. 0.
      0. 0. 0. 0. 0. 0. 0. 0. 0. 0. 0. 0. 0. 0. 0. 0. 0. 0. 0. 0. 0. 0.
      0. 0. 0. 0. 0. 0. 0. 0. 0.</_>
    <_>
      1.27774532e-04 1.06106942e-04 -6.21279760e-05 -4.31759472e-05
      -1.46452556e-04 -5.48894568e-05 -1.01191770e-04 -2.48805190e-05
      3.56893142e-05 1.15535215e-04 4.44779289e-05 -4.23579731e-05
      6.64803811e-05 -1.12606085e-05 -6.41993756e-05 -5.34757528e-05 0.
      0. 0. 0. 0. 0. 0. 0. 0. 0. 0. 0. 0. 0. 0. 0. 0. 0. 0. 0. 0. 0. 0.
      0. 0. 0. 0. 0. 0. 0. 0. 0. 0. 0. 0. 0. 0. 0. 0. 0. 0. 0. 0. 0. 0.
      0. 0. 0.</_>
    <_>
      -2.37076711e-05 1.25572435e-04 -6.40597427e-05 -1.60769225e-04
      -2.43105707e-04 -7.03834157e-05 -1.05006045e-04 -5.41787813e-05
      1.15962648e-04 1.77445996e-04 4.17134434e-05 -1.84043893e-05
      1.39961601e-04 8.35575702e-06 -8.80981897e-05 -8.52905359e-05 0.
      0. 0. 0. 0. 0. 0. 0. 0. 0. 0. 0. 0. 0. 0. 0. 0. 0. 0. 0. 0. 0. 0.
      0. 0. 0. 0. 0. 0. 0. 0. 0. 0. 0. 0. 0. 0. 0. 0. 0. 0. 0. 0. 0. 0.
      0. 0. 0.</_>
    <_>
      2.32579732e-05 1.20415743e-05 1.06610344e-06 0. -6.76981072e-05 0.
      0. 1.74583192e-06 2.20478141e-05 1.49177777e-05 7.44908220e-06
      1.59838555e-06 -4.72997563e-05 4.38510187e-06 0. 0. 0. 0. 0. 0. 0.
      0. 0. 0. 0. 0. 0. 0. 0. 0. 0. 0. 0. 0. 0. 0. 0. 0. 0. 0. 0. 0. 0.
      0. 0. 0. 0. 0. 0. 0. 0. 0. 0. 0. 0. 0. 0. 0. 0. 0. 0. 0. 0. 0.</_>
    <_>
      -6.46673783e-04 -4.58891998e-04 1.06883403e-04 -1.56648312e-04
      -1.06719257e-04 5.56986721e-04 7.01604760e-04 -2.51576654e-04
      -3.16034944e-04 3.00359592e-04 1.35501323e-04 1.36423943e-04
      -7.54374545e-04 2.00912633e-04 -3.25532688e-04 2.14573884e-04 0.
      0. 0. 0. 0. 0. 0. 0. 0. 0. 0. 0. 0. 0. 0. 0. 0. 0. 0. 0. 0. 0. 0.
      0. 0. 0. 0. 0. 0. 0. 0. 0. 0. 0. 0. 0. 0. 0. 0. 0. 0. 0. 0. 0. 0.
      0. 0. 0.</_>
    <_>
      9.37666118e-06 0. 1.07161140e-05 9.96966810e-06 -8.32834412e-05
      1.07161140e-05 0. 8.12669805e-06 1.01479554e-05 9.99924509e-07
      3.40950123e-06 1.99535916e-05 -8.06830285e-05 3.40950123e-06
      9.99924509e-07 8.89799230e-06 0. 0. 0. 0. 0. 0. 0. 0. 0. 0. 0. 0.
      0. 0. 0. 0. 0. 0. 0. 0. 0. 0. 0. 0. 0. 0. 0. 0. 0. 0. 0. 0. 0. 0.
      0. 0. 0. 0. 0. 0. 0. 0. 0. 0. 0. 0. 0. 0.</_>
    <_>
      1.42336421e-05 4.53559733e-06 5.53980817e-06 9.53633935e-06
      -8.63058522e-05 9.99948679e-06 5.25657981e-07 1.56865390e-05
      1.39263484e-05 6.43584656e-07 2.04580238e-06 1.34012516e-05
      -7.82913557e-05 3.63689310e-07 6.46337867e-06 1.06562793e-05 0. 0.
      0. 0. 0. 0. 0. 0. 0. 0. 0. 0. 0. 0. 0. 0. 0. 0. 0. 0. 0. 0. 0. 0.
      0. 0. 0. 0. 0. 0. 0. 0. 0. 0. 0. 0. 0. 0. 0. 0. 0. 0. 0. 0. 0. 0.
      0. 0.</_></support_vectors>
  <uncompressed_sv_total>69</uncompressed_sv_total>
  <uncompressed_support_vectors>
    <_>
      3.69255664e+03 0. 4.88405176e+03 2.82096899e+03 5.63601123e+03
      4.66476135e+01 8.65970886e+02 0. 2.11293115e+03 1.84928064e+03
      3.54027588e+03 2.17839551e+03 3.75038403e+03 9.42559265e+02
      1.04212073e+03 0. 0. 0. 0. 0. 0. 0. 0. 0. 0. 0. 0. 0. 0. 0. 0. 0.
      0. 0. 0. 0. 0. 0. 0. 0. 0. 0. 0. 0. 0. 0. 0. 0. 0. 0. 0. 0. 0. 0.
      0. 0. 0. 0. 0. 0. 0. 0. 0. 0.</_>
    <_>
      4.62236426e+03 7.65324768e+02 1.87228210e+03 6.91809235e+01
      5.01565479e+03 1.33614392e+03 2.20102686e+03 0. 1948.
      6.46623535e+02 1.19120056e+03 1.45077271e+03 5.07488965e+03
      6.92342407e+02 1.21897302e+03 1.99474805e+03 0. 0. 0. 0. 0. 0. 0.
      0. 0. 0. 0. 0. 0. 0. 0. 0. 0. 0. 0. 0. 0. 0. 0. 0. 0. 0. 0. 0. 0.
      0. 0. 0. 0. 0. 0. 0. 0. 0. 0. 0. 0. 0. 0. 0. 0. 0. 0. 0.</_>
    <_>
      7.90414648e+03 2.00327051e+03 1.51418823e+03 7.63468384e+02
      2.49362988e+03 0. 0. 2.55096924e+03 5.29676611e+03 0.
      5.59072449e+02 8.79659042e+01 2.42154614e+03 5.14861145e+02 0.
      2.16133789e+03 0. 0. 0. 0. 0. 0. 0. 0. 0. 0. 0. 0. 0. 0. 0. 0. 0.
      0. 0. 0. 0. 0. 0. 0. 0. 0. 0. 0. 0. 0. 0. 0. 0. 0. 0. 0. 0. 0. 0.
      0. 0. 0. 0. 0. 0. 0. 0. 0.</_>
    <_>
      3014. 1.20846130e+03 1.21418030e+03 6.45804932e+02 4.82133154e+03
      2.20287476e+03 1.57953467e+03 1.49274719e+03 3.08321362e+03
      1.35542114e+03 2.23266113e+03 2.02744983e+03 3.71356567e+03 0.
      1.06931555e+03 8.46249390e+02 0. 0. 0. 0. 0. 0. 0. 0. 0. 0. 0. 0.
      0. 0. 0. 0. 0. 0. 0. 0. 0. 0. 0. 0. 0. 0. 0. 0. 0. 0. 0. 0. 0. 0.
      0. 0. 0. 0. 0. 0. 0. 0. 0. 0. 0. 0. 0. 0.</_>
    <_>
      3.29405469e+03 9.02319214e+02 1.27351184e+03 9.13898254e+02
      5.09276172e+03 0. 1.58713806e+03 1.30435413e+03 3.37066821e+03
      2.09475830e+03 1.55779395e+03 6.50246094e+02 3.78249561e+03
      7.94074280e+02 3.41505493e+02 2.90104565e+03 0. 0. 0. 0. 0. 0. 0.
      0. 0. 0. 0. 0. 0. 0. 0. 0. 0. 0. 0. 0. 0. 0. 0. 0. 0. 0. 0. 0. 0.
      0. 0. 0. 0. 0. 0. 0. 0. 0. 0. 0. 0. 0. 0. 0. 0. 0. 0. 0.</_>
    <_>
      6.56339453e+03 2.62363818e+03 4.44288208e+02 0. 0. 0.
      1.02449989e+02 4.28098114e+02 8.05417969e+03 4.40672705e+03
      9.41107056e+02 1.48487354e+03 4.49913184e+03 0. 0. 3.01673853e+03
      0. 0. 0. 0. 0. 0. 0. 0. 0. 0. 0. 0. 0. 0. 0. 0. 0. 0. 0. 0. 0. 0.
      0. 0. 0. 0. 0. 0. 0. 0. 0. 0. 0. 0. 0. 0. 0. 0. 0. 0. 0. 0. 0. 0.
      0. 0. 0. 0.</_>
    <_>
      2.37622681e+03 2.34233008e+03 9.89909546e+02 9.13898254e+02
      3.41389819e+03 9.89909546e+02 2.34233008e+03 9.28226746e+02
      2.85071582e+03 1.84646362e+03 5.00657562e+02 1.68323535e+03
      4.18323535e+03 5.00657562e+02 1.84646362e+03 1.40271594e+03 0. 0.
      0. 0. 0. 0. 0. 0. 0. 0. 0. 0. 0. 0. 0. 0. 0. 0. 0. 0. 0. 0. 0. 0.
      0. 0. 0. 0. 0. 0. 0. 0. 0. 0. 0. 0. 0. 0. 0. 0. 0. 0. 0. 0. 0. 0.
      0. 0.</_>
    <_>
      4.72036230e+03 1.05068176e+03 1.39069116e+03 6.83264221e+02
      3.54882422e+03 7.94074280e+02 5.67850342e+02 2.90104565e+03
      3.29405469e+03 9.02319214e+02 1.19985461e+03 1.36068457e+03
      4.26597510e+03 0. 1.63751270e+03 1.34609717e+03 0. 0. 0. 0. 0. 0.
      0. 0. 0. 0. 0. 0. 0. 0. 0. 0. 0. 0. 0. 0. 0. 0. 0. 0. 0. 0. 0. 0.
      0. 0. 0. 0. 0. 0. 0. 0. 0. 0. 0. 0. 0. 0. 0. 0. 0. 0. 0. 0.</_>
    <_>
      5592. 6.62397156e+02 9.31632996e+02 9.42274902e+02 2.85427490e+03
      9.31632996e+02 6.62397156e+02 0. 9.48702344e+03 0. 0. 0.
      1.70859412e+03 9.37332397e+02 5.48032837e+02 6.42535828e+02 0. 0.
      0. 0. 0. 0. 0. 0. 0. 0. 0. 0. 0. 0. 0. 0. 0. 0. 0. 0. 0. 0. 0. 0.
      0. 0. 0. 0. 0. 0. 0. 0. 0. 0. 0. 0. 0. 0. 0. 0. 0. 0. 0. 0. 0. 0.
      0. 0.</_>
    <_>
      1.34131091e+03 6.21240417e+02 3.56256421e+03 2.28811768e+03
      6.07907666e+03 4.91934967e+02 0. 0. 1.31045544e+03 1.18137720e+03
      1.54773999e+03 1.61343103e+03 4750. 1.14635620e+03 0.
      8.03762390e+02 0. 0. 0. 0. 0. 0. 0. 0. 0. 0. 0. 0. 0. 0. 0. 0. 0.
      0. 0. 0. 0. 0. 0. 0. 0. 0. 0. 0. 0. 0. 0. 0. 0. 0. 0. 0. 0. 0. 0.
      0. 0. 0. 0. 0. 0. 0. 0. 0.</_>
    <_>
      3.19556909e+03 0. 1.67440955e+03 5.36302124e+02 5.17952686e+03
      4.00065002e+02 1.18137720e+03 4.74455475e+02 7.98999695e+02
      7.91466980e+02 0. 1.10395923e+03 5.15666602e+03 1.01049689e+03
      9.77211426e+02 9.60704712e+02 0. 0. 0. 0. 0. 0. 0. 0. 0. 0. 0. 0.
      0. 0. 0. 0. 0. 0. 0. 0. 0. 0. 0. 0. 0. 0. 0. 0. 0. 0. 0. 0. 0. 0.
      0. 0. 0. 0. 0. 0. 0. 0. 0. 0. 0. 0. 0. 0.</_>
    <_>
      4.43314404e+03 3.90608350e+03 1.84071045e+03 1.05536720e+02 1802.
      2.81684235e+02 1.18908582e+03 1.81479028e+03 2.80507104e+03
      6.90323486e+02 0. 0. 1.97134570e+03 0. 1.65958362e+03
      5.53398621e+02 0. 0. 0. 0. 0. 0. 0. 0. 0. 0. 0. 0. 0. 0. 0. 0. 0.
      0. 0. 0. 0. 0. 0. 0. 0. 0. 0. 0. 0. 0. 0. 0. 0. 0. 0. 0. 0. 0. 0.
      0. 0. 0. 0. 0. 0. 0. 0. 0.</_>
    <_>
      2.42478711e+03 0. 7.50851501e+02 4.07001221e+02 7.03253125e+03
      6.35348694e+02 7.78394531e+02 1.65210034e+03 944. 2.11736377e+03
      1.73851685e+03 1.49244568e+03 5800. 1.46696960e+02 5.82656006e+02
      5.45310913e+02 0. 0. 0. 0. 0. 0. 0. 0. 0. 0. 0. 0. 0. 0. 0. 0. 0.
      0. 0. 0. 0. 0. 0. 0. 0. 0. 0. 0. 0. 0. 0. 0. 0. 0. 0. 0. 0. 0. 0.
      0. 0. 0. 0. 0. 0. 0. 0. 0.</_>
    <_>
      1.80112524e+03 0. 2.89927582e+02 1.79725891e+03 5.79567285e+03 0.
      8.02829285e+02 1.48742969e+03 1.86031885e+03 5.95583313e+02
      6.40694946e+02 1.34170312e+03 4.59433350e+03 1.41710999e+03 0.
      2.13852612e+03 0. 0. 0. 0. 0. 0. 0. 0. 0. 0. 0. 0. 0. 0. 0. 0. 0.
      0. 0. 0. 0. 0. 0. 0. 0. 0. 0. 0. 0. 0. 0. 0. 0. 0. 0. 0. 0. 0. 0.
      0. 0. 0. 0. 0. 0. 0. 0. 0.</_>
    <_>
      5.60680566e+03 2.90286548e+03 2.57005829e+02 0. 0. 0. 0.
      4.20868164e+02 5.31507227e+03 3.59623267e+03 1.79575220e+03
      3.85323242e+02 4.91743506e+03 1.05711768e+03 0. 0. 0. 0. 0. 0. 0.
      0. 0. 0. 0. 0. 0. 0. 0. 0. 0. 0. 0. 0. 0. 0. 0. 0. 0. 0. 0. 0. 0.
      0. 0. 0. 0. 0. 0. 0. 0. 0. 0. 0. 0. 0. 0. 0. 0. 0. 0. 0. 0. 0.</_>
    <_>
      1.29026599e+03 0. 1.47457996e+03 1.37186609e+03 4.85986621e+03
      1.47457996e+03 0. 1.11826599e+03 1.39639917e+03 1.37593597e+02
      4.69160950e+02 2.74569385e+03 5.21769385e+03 4.69160950e+02
      1.37593597e+02 1.22439917e+03 0. 0. 0. 0. 0. 0. 0. 0. 0. 0. 0. 0.
      0. 0. 0. 0. 0. 0. 0. 0. 0. 0. 0. 0. 0. 0. 0. 0. 0. 0. 0. 0. 0. 0.
      0. 0. 0. 0. 0. 0. 0. 0. 0. 0. 0. 0. 0. 0.</_>
    <_>
      1.86031885e+03 5.95583313e+02 6.40694946e+02 1.34170312e+03
      4.59433350e+03 1.41710999e+03 0. 2.13852612e+03 1.80112524e+03 0.
      2.89927582e+02 1.79725891e+03 5.79567285e+03 0. 8.02829285e+02
      1.48742969e+03 0. 0. 0. 0. 0. 0. 0. 0. 0. 0. 0. 0. 0. 0. 0. 0. 0.
      0. 0. 0. 0. 0. 0. 0. 0. 0. 0. 0. 0. 0. 0. 0. 0. 0. 0. 0. 0. 0. 0.
      0. 0. 0. 0. 0. 0. 0. 0. 0.</_>
    <_>
      3.17942407e+03 7.14382751e+02 3.86657471e+02 1.15054297e+03
      3.13854297e+03 3.86657471e+02 7.14382751e+02 2.08742407e+03
      3.17942407e+03 7.14382751e+02 3.86657471e+02 1.15054297e+03
      3.13854297e+03 3.86657471e+02 7.14382751e+02 2.08742407e+03 0. 0.
      0. 0. 0. 0. 0. 0. 0. 0. 0. 0. 0. 0. 0. 0. 0. 0. 0. 0. 0. 0. 0. 0.
      0. 0. 0. 0. 0. 0. 0. 0. 0. 0. 0. 0. 0. 0. 0. 0. 0. 0. 0. 0. 0. 0.
      0. 0.</_>
    <_>
      1.89886255e+03 2.51435278e+03 1.00854041e+03 1.71835266e+03
      4.89835254e+03 1.00854041e+03 2.51435278e+03 4.54862610e+02
      2.85041089e+03 1.61591309e+03 2.16113306e+03 8.59176331e+02
      4.03917627e+03 2.16113306e+03 1.61591309e+03 1.40641089e+03 0. 0.
      0. 0. 0. 0. 0. 0. 0. 0. 0. 0. 0. 0. 0. 0. 0. 0. 0. 0. 0. 0. 0. 0.
      0. 0. 0. 0. 0. 0. 0. 0. 0. 0. 0. 0. 0. 0. 0. 0. 0. 0. 0. 0. 0. 0.
      0. 0.</_>
    <_>
      4.54133496e+03 8.98439758e+02 1.27962500e+03 8.41493896e+02
      3.36365601e+03 1.44388281e+03 1.68509473e+03 2.06975977e+03
      2.60773364e+03 1.98963574e+03 1.77814478e+03 0. 3.07228613e+03
      6.85423462e+02 3.58736664e+02 1.88969153e+03 0. 0. 0. 0. 0. 0. 0.
      0. 0. 0. 0. 0. 0. 0. 0. 0. 0. 0. 0. 0. 0. 0. 0. 0. 0. 0. 0. 0. 0.
      0. 0. 0. 0. 0. 0. 0. 0. 0. 0. 0. 0. 0. 0. 0. 0. 0. 0. 0.</_>
    <_>
      4.78444922e+03 9.48937317e+02 0. 9.14532654e+02 2.82653271e+03 0.
      9.48937317e+02 4.59245312e+03 9.24400781e+03 0. 0. 0.
      1.70126880e+03 0. 9.36586365e+02 5.79385010e+03 0. 0. 0. 0. 0. 0.
      0. 0. 0. 0. 0. 0. 0. 0. 0. 0. 0. 0. 0. 0. 0. 0. 0. 0. 0. 0. 0. 0.
      0. 0. 0. 0. 0. 0. 0. 0. 0. 0. 0. 0. 0. 0. 0. 0. 0. 0. 0. 0.</_>
    <_>
      0. 0. 0. 0. 16320. 0. 0. 0. 0. 0. 0. 0. 16320. 0. 0. 0. 0. 0. 0.
      0. 0. 0. 0. 0. 0. 0. 0. 0. 0. 0. 0. 0. 0. 0. 0. 0. 0. 0. 0. 0. 0.
      0. 0. 0. 0. 0. 0. 0. 0. 0. 0. 0. 0. 0. 0. 0. 0. 0. 0. 0. 0. 0. 0.
      0.</_>
    <_>
      3.34327979e+03 2.43463721e+03 1.23190625e+03 2.93149658e+03
      3.98820166e+03 4.56830505e+02 8.11906128e+02 0. 1674.
      2.03823877e+03 1.76506836e+03 3.00273657e+03 3.46106665e+03
      9.42559265e+02 1.10058582e+03 1.61748267e+03 0. 0. 0. 0. 0. 0. 0.
      0. 0. 0. 0. 0. 0. 0. 0. 0. 0. 0. 0. 0. 0. 0. 0. 0. 0. 0. 0. 0. 0.
      0. 0. 0. 0. 0. 0. 0. 0. 0. 0. 0. 0. 0. 0. 0. 0. 0. 0. 0.</_>
    <_>
      1.43365869e+03 1.34453772e+03 1.52801904e+03 7.13330200e+02
      5.10287256e+03 2.17400317e+03 2.34327710e+03 3.06887604e+02
      2.91064331e+03 1.20058875e+03 5.26636475e+02 2.85296326e+02
      3.47546997e+03 2.83004712e+03 8.36337280e+02 1.64666260e+03 0. 0.
      0. 0. 0. 0. 0. 0. 0. 0. 0. 0. 0. 0. 0. 0. 0. 0. 0. 0. 0. 0. 0. 0.
      0. 0. 0. 0. 0. 0. 0. 0. 0. 0. 0. 0. 0. 0. 0. 0. 0. 0. 0. 0. 0. 0.
      0. 0.</_>
    <_>
      6.82284131e+03 2.46985815e+03 4.15308398e+03 0. 1250. 0.
      1.12724280e+03 2.61093842e+02 0. 0. 1.09261108e+03 0.
      4.41520459e+03 7.13943970e+02 7.53100098e+02 2.00002930e+03 0. 0.
      0. 0. 0. 0. 0. 0. 0. 0. 0. 0. 0. 0. 0. 0. 0. 0. 0. 0. 0. 0. 0. 0.
      0. 0. 0. 0. 0. 0. 0. 0. 0. 0. 0. 0. 0. 0. 0. 0. 0. 0. 0. 0. 0. 0.
      0. 0.</_>
    <_>
      4.51071729e+03 1.20846130e+03 1.81686267e+03 6.45804932e+02
      5.74333154e+03 2.20287476e+03 2.17914282e+03 4.57735718e+02 1470.
      1.68932043e+03 2.23266113e+03 1.68838696e+03 3.23156567e+03 0.
      1.06931555e+03 8.46249390e+02 0. 0. 0. 0. 0. 0. 0. 0. 0. 0. 0. 0.
      0. 0. 0. 0. 0. 0. 0. 0. 0. 0. 0. 0. 0. 0. 0. 0. 0. 0. 0. 0. 0. 0.
      0. 0. 0. 0. 0. 0. 0. 0. 0. 0. 0. 0. 0. 0.</_>
    <_>
      2346. 8.35694946e+02 8.70220337e+02 1.84619055e+03 3.47385449e+03
      2.48651636e+03 1.67851904e+03 3.09520728e+03 2.44565186e+03
      2.55122510e+03 1.05985474e+03 0. 3.40067920e+03 1.62428687e+03
      1.46607800e+03 1.63381665e+03 0. 0. 0. 0. 0. 0. 0. 0. 0. 0. 0. 0.
      0. 0. 0. 0. 0. 0. 0. 0. 0. 0. 0. 0. 0. 0. 0. 0. 0. 0. 0. 0. 0. 0.
      0. 0. 0. 0. 0. 0. 0. 0. 0. 0. 0. 0. 0. 0.</_>
    <_>
      2.95722583e+03 6.23149121e+03 1.70469940e+02 0. 7.51446960e+02 0.
      0. 1.38056055e+03 5.30567041e+03 6.70853857e+03 1.70469940e+02
      8.91078003e+02 3.20505933e+03 1.01213904e+03 5.96417664e+02 0. 0.
      0. 0. 0. 0. 0. 0. 0. 0. 0. 0. 0. 0. 0. 0. 0. 0. 0. 0. 0. 0. 0. 0.
      0. 0. 0. 0. 0. 0. 0. 0. 0. 0. 0. 0. 0. 0. 0. 0. 0. 0. 0. 0. 0. 0.
      0. 0. 0.</_>
    <_>
      2.61250952e+03 1.45642981e+03 1.55816467e+03 3.06887604e+02
      3.96214453e+03 2.24964185e+03 7.14821655e+02 1.27789319e+03
      3.81089111e+03 1.53153519e+02 2.99034277e+03 4.11526428e+02
      3.06571777e+03 1.44504980e+03 1.70301245e+03 1.38044348e+03 0. 0.
      0. 0. 0. 0. 0. 0. 0. 0. 0. 0. 0. 0. 0. 0. 0. 0. 0. 0. 0. 0. 0. 0.
      0. 0. 0. 0. 0. 0. 0. 0. 0. 0. 0. 0. 0. 0. 0. 0. 0. 0. 0. 0. 0. 0.
      0. 0.</_>
    <_>
      6.69174951e+03 1.21897302e+03 7.90793274e+02 1.67137817e+03
      2.11356567e+03 6.65230774e+02 1.06931555e+03 8.46249390e+02 4308.
      1.89157910e+03 1.54566479e+03 6.19909668e+02 3.35289771e+03
      9.42559265e+02 7.65324768e+02 4.99289490e+02 0. 0. 0. 0. 0. 0. 0.
      0. 0. 0. 0. 0. 0. 0. 0. 0. 0. 0. 0. 0. 0. 0. 0. 0. 0. 0. 0. 0. 0.
      0. 0. 0. 0. 0. 0. 0. 0. 0. 0. 0. 0. 0. 0. 0. 0. 0. 0. 0.</_>
    <_>
      3.61597607e+03 2.22008789e+03 1.45908838e+03 0. 3.86343311e+03
      4.77529053e+02 1.66667651e+03 1.58523254e+03 7.49323242e+03
      1.66667651e+03 4.77529053e+02 7.77432983e+02 3086. 1.45908838e+03
      2.22008789e+03 1.37597595e+03 0. 0. 0. 0. 0. 0. 0. 0. 0. 0. 0. 0.
      0. 0. 0. 0. 0. 0. 0. 0. 0. 0. 0. 0. 0. 0. 0. 0. 0. 0. 0. 0. 0. 0.
      0. 0. 0. 0. 0. 0. 0. 0. 0. 0. 0. 0. 0. 0.</_>
    <_>
      2.63826538e+03 6.35107849e+02 1.90569275e+03 1.94262573e+03
      2.61901123e+03 1.89232239e+03 1.74573376e+03 5.56420715e+02
      3.34140161e+03 1.18512708e+03 1.64476929e+03 3.33565582e+02
      3.93608008e+03 2.39881738e+03 0. 1.72849109e+03 0. 0. 0. 0. 0. 0.
      0. 0. 0. 0. 0. 0. 0. 0. 0. 0. 0. 0. 0. 0. 0. 0. 0. 0. 0. 0. 0. 0.
      0. 0. 0. 0. 0. 0. 0. 0. 0. 0. 0. 0. 0. 0. 0. 0. 0. 0. 0. 0.</_>
    <_>
      3.26824268e+03 1.04212073e+03 1.55816467e+03 6.40453186e+02
      3.59749829e+03 1.96089453e+03 7.14821655e+02 1.27789319e+03
      3.36667041e+03 1.53153519e+02 3.16296973e+03 0. 2.89171777e+03
      1.44504980e+03 1.99317163e+03 1.44696802e+03 0. 0. 0. 0. 0. 0. 0.
      0. 0. 0. 0. 0. 0. 0. 0. 0. 0. 0. 0. 0. 0. 0. 0. 0. 0. 0. 0. 0. 0.
      0. 0. 0. 0. 0. 0. 0. 0. 0. 0. 0. 0. 0. 0. 0. 0. 0. 0. 0.</_>
    <_>
      3.25565845e+03 1.64401947e+02 1.77862195e+03 0. 2.99321167e+03
      6.45525208e+02 2.00471326e+03 1.54357227e+03 7.28899414e+03
      1.70800757e+03 1.22613213e+02 1.78076562e+03 2.21704980e+03
      1.01548047e+03 1.92834265e+03 4.82501801e+02 0. 0. 0. 0. 0. 0. 0.
      0. 0. 0. 0. 0. 0. 0. 0. 0. 0. 0. 0. 0. 0. 0. 0. 0. 0. 0. 0. 0. 0.
      0. 0. 0. 0. 0. 0. 0. 0. 0. 0. 0. 0. 0. 0. 0. 0. 0. 0. 0.</_>
    <_>
      2.33235571e+03 1.26607800e+03 1.72027966e+03 1.91049728e+02
      4.40645557e+03 3.97836639e+02 2.26817603e+03 1.54357227e+03
      2.73221411e+03 2.57624609e+03 8.39890442e+02 1.59999304e+03
      3.20104980e+03 1.85537097e+03 1.31125903e+03 1.00285742e+03 0. 0.
      0. 0. 0. 0. 0. 0. 0. 0. 0. 0. 0. 0. 0. 0. 0. 0. 0. 0. 0. 0. 0. 0.
      0. 0. 0. 0. 0. 0. 0. 0. 0. 0. 0. 0. 0. 0. 0. 0. 0. 0. 0. 0. 0. 0.
      0. 0.</_>
    <_>
      8.29761621e+03 1.73701807e+03 1.07424390e+03 1.30402161e+03
      2.40268286e+03 0. 6.79536621e+02 3.08492554e+03 4.30092529e+03
      6.79536621e+02 0. 2.34682770e+02 3.47202148e+03 1.07424390e+03
      1.73701807e+03 1.57761597e+03 0. 0. 0. 0. 0. 0. 0. 0. 0. 0. 0. 0.
      0. 0. 0. 0. 0. 0. 0. 0. 0. 0. 0. 0. 0. 0. 0. 0. 0. 0. 0. 0. 0. 0.
      0. 0. 0. 0. 0. 0. 0. 0. 0. 0. 0. 0. 0. 0.</_>
    <_>
      6.92778467e+03 2.68678125e+03 1.21194604e+03 1.54012985e+02
      3.67751416e+03 5.43323120e+02 9.23953491e+02 2.03873169e+03
      2.88673169e+03 9.23953491e+02 5.43323120e+02 1.50951416e+03
      2.32201294e+03 1.21194604e+03 2.68678125e+03 5.75784668e+02 0. 0.
      0. 0. 0. 0. 0. 0. 0. 0. 0. 0. 0. 0. 0. 0. 0. 0. 0. 0. 0. 0. 0. 0.
      0. 0. 0. 0. 0. 0. 0. 0. 0. 0. 0. 0. 0. 0. 0. 0. 0. 0. 0. 0. 0. 0.
      0. 0.</_>
    <_>
      5744. 6.50053833e+02 8.97067444e+02 8.79422546e+02 2.66342261e+03
      8.97067444e+02 6.50053833e+02 0. 9.46988672e+03 0. 0. 0.
      1.52514038e+03 0. 1.32563623e+03 7.83205078e+02 0. 0. 0. 0. 0. 0.
      0. 0. 0. 0. 0. 0. 0. 0. 0. 0. 0. 0. 0. 0. 0. 0. 0. 0. 0. 0. 0. 0.
      0. 0. 0. 0. 0. 0. 0. 0. 0. 0. 0. 0. 0. 0. 0. 0. 0. 0. 0. 0.</_>
    <_>
      3.31603345e+03 1.63713708e+03 1.59261975e+03 1.28546216e+03
      3.95626099e+03 0. 2.61986328e+03 1.87784448e+03 3.56796777e+03
      2.01796814e+03 1.67422949e+03 0. 3.47761157e+03 1.70132715e+03
      1.37388416e+03 4.46508667e+02 0. 0. 0. 0. 0. 0. 0. 0. 0. 0. 0. 0.
      0. 0. 0. 0. 0. 0. 0. 0. 0. 0. 0. 0. 0. 0. 0. 0. 0. 0. 0. 0. 0. 0.
      0. 0. 0. 0. 0. 0. 0. 0. 0. 0. 0. 0. 0. 0.</_>
    <_>
      1460. 1.11013782e+03 1.15091064e+03 7.12062256e+02 4.47623389e+03
      1.38537415e+03 2.39823535e+03 3.06887604e+02 3.72064331e+03
      1.06081567e+03 1.20748596e+03 6.26917847e+02 3.22756152e+03
      1.28895117e+03 3.40332080e+03 1.69201135e+03 0. 0. 0. 0. 0. 0. 0.
      0. 0. 0. 0. 0. 0. 0. 0. 0. 0. 0. 0. 0. 0. 0. 0. 0. 0. 0. 0. 0. 0.
      0. 0. 0. 0. 0. 0. 0. 0. 0. 0. 0. 0. 0. 0. 0. 0. 0. 0. 0.</_>
    <_>
      1870. 1.55256946e+03 2.76169604e+03 6.33018188e+02 4.54066895e+03
      2.07001880e+03 2.40831348e+03 0. 2.26375488e+03 1.69238916e+03
      9.02229431e+02 1.44574426e+03 4.95564697e+03 2.83979858e+03
      1.87160925e+03 7.91784058e+02 0. 0. 0. 0. 0. 0. 0. 0. 0. 0. 0. 0.
      0. 0. 0. 0. 0. 0. 0. 0. 0. 0. 0. 0. 0. 0. 0. 0. 0. 0. 0. 0. 0. 0.
      0. 0. 0. 0. 0. 0. 0. 0. 0. 0. 0. 0. 0. 0.</_>
    <_>
      3.19989795e+03 2.06915576e+03 8.11947021e+02 6.38811401e+02
      3.55491797e+03 4.29662659e+02 4.15740295e+02 4.72534375e+03
      7.04934375e+03 4.15740295e+02 4.29662659e+02 7.86918030e+02
      3.40681152e+03 8.11947021e+02 2.06915576e+03 1.33189807e+03 0. 0.
      0. 0. 0. 0. 0. 0. 0. 0. 0. 0. 0. 0. 0. 0. 0. 0. 0. 0. 0. 0. 0. 0.
      0. 0. 0. 0. 0. 0. 0. 0. 0. 0. 0. 0. 0. 0. 0. 0. 0. 0. 0. 0. 0. 0.
      0. 0.</_>
    <_>
      2.96773096e+03 8.77366699e+02 9.05319824e+02 1.85605969e+03
      3.22645068e+03 3.19041431e+03 6.69727234e+02 9.99547913e+02
      2.88918994e+03 1.09615649e+03 1.03259033e+03 2.36903271e+03 1620.
      1.71615967e+03 2.20205884e+03 5.83660889e+02 0. 0. 0. 0. 0. 0. 0.
      0. 0. 0. 0. 0. 0. 0. 0. 0. 0. 0. 0. 0. 0. 0. 0. 0. 0. 0. 0. 0. 0.
      0. 0. 0. 0. 0. 0. 0. 0. 0. 0. 0. 0. 0. 0. 0. 0. 0. 0. 0.</_>
    <_>
      5.03260742e+03 1.54809912e+03 1.80486731e+03 2.70681592e+03
      3.01299048e+03 8.74538757e+02 0. 7.20406799e+02 3480.
      1.00114465e+03 9.02229431e+02 1.46420044e+03 4.69673584e+03
      1.85211780e+03 1.25373193e+03 7.19077026e+02 0. 0. 0. 0. 0. 0. 0.
      0. 0. 0. 0. 0. 0. 0. 0. 0. 0. 0. 0. 0. 0. 0. 0. 0. 0. 0. 0. 0. 0.
      0. 0. 0. 0. 0. 0. 0. 0. 0. 0. 0. 0. 0. 0. 0. 0. 0. 0. 0.</_>
    <_>
      4.02049487e+03 2.85087793e+03 9.72210876e+02 1.62932397e+03 2676.
      0. 2.33403076e+03 2.23102637e+03 5.80163574e+03 2.90193054e+02
      5.37447693e+02 1.28548523e+03 2.96234717e+03 1.14907812e+03
      5.35817200e+02 4.66566193e+02 0. 0. 0. 0. 0. 0. 0. 0. 0. 0. 0. 0.
      0. 0. 0. 0. 0. 0. 0. 0. 0. 0. 0. 0. 0. 0. 0. 0. 0. 0. 0. 0. 0. 0.
      0. 0. 0. 0. 0. 0. 0. 0. 0. 0. 0. 0. 0. 0.</_>
    <_>
      3.20584375e+03 9.64598450e+02 2.95135083e+03 1.99699768e+02
      5.98903906e+03 0. 1.52261975e+03 1.72798938e+03 3.52560205e+03
      1.86420593e+03 0. 2.08363208e+03 4.64947803e+03 1.05346167e+03
      2.31267847e+03 4.65192444e+02 0. 0. 0. 0. 0. 0. 0. 0. 0. 0. 0. 0.
      0. 0. 0. 0. 0. 0. 0. 0. 0. 0. 0. 0. 0. 0. 0. 0. 0. 0. 0. 0. 0. 0.
      0. 0. 0. 0. 0. 0. 0. 0. 0. 0. 0. 0. 0. 0.</_>
    <_>
      2024. 4.22755420e+03 1.09250745e+03 2.76799561e+02 4.73355225e+03
      7.30020569e+02 5.70816956e+02 1.88730884e+03 3.94230859e+03
      2.57271289e+03 1.61058990e+02 8.89640381e+02 4.08023633e+03
      1.12323853e+03 1.13653491e+03 2.07185376e+03 0. 0. 0. 0. 0. 0. 0.
      0. 0. 0. 0. 0. 0. 0. 0. 0. 0. 0. 0. 0. 0. 0. 0. 0. 0. 0. 0. 0. 0.
      0. 0. 0. 0. 0. 0. 0. 0. 0. 0. 0. 0. 0. 0. 0. 0. 0. 0. 0.</_>
    <_>
      6.33174951e+03 1.21897302e+03 5.78752136e+02 1.44999622e+03
      2.13547314e+03 1.82173572e+03 5.95063049e+02 0. 4.05199609e+03
      3.12371582e+02 2.19384814e+03 1.87414246e+03 2.98880298e+03
      9.42559265e+02 7.65324768e+02 4.99289490e+02 0. 0. 0. 0. 0. 0. 0.
      0. 0. 0. 0. 0. 0. 0. 0. 0. 0. 0. 0. 0. 0. 0. 0. 0. 0. 0. 0. 0. 0.
      0. 0. 0. 0. 0. 0. 0. 0. 0. 0. 0. 0. 0. 0. 0. 0. 0. 0. 0.</_>
    <_>
      3.25920312e+03 1.57451465e+03 2.36945532e+03 9.82939026e+02
      5.47692285e+03 4.29662659e+02 2.11055713e+03 3.48764600e+03
      3.35710107e+03 1.46021118e+03 3.56609039e+02 9.10286865e+02
      3.48281152e+03 8.61975647e+02 1.95908142e+03 4.89979584e+02 0. 0.
      0. 0. 0. 0. 0. 0. 0. 0. 0. 0. 0. 0. 0. 0. 0. 0. 0. 0. 0. 0. 0. 0.
      0. 0. 0. 0. 0. 0. 0. 0. 0. 0. 0. 0. 0. 0. 0. 0. 0. 0. 0. 0. 0. 0.
      0. 0.</_>
    <_>
      4.70623828e+03 4.22612354e+03 2.29956641e+03 0. 1760.
      1.40655609e+02 1.39064819e+03 4.01183258e+02 4.37837061e+03
      2.50007996e+02 8.59592957e+02 9.49210205e+01 2.84411523e+03
      9.12452515e+02 9.18131897e+02 0. 0. 0. 0. 0. 0. 0. 0. 0. 0. 0. 0.
      0. 0. 0. 0. 0. 0. 0. 0. 0. 0. 0. 0. 0. 0. 0. 0. 0. 0. 0. 0. 0. 0.
      0. 0. 0. 0. 0. 0. 0. 0. 0. 0. 0. 0. 0. 0. 0.</_>
    <_>
      4.09967773e+03 1.80132422e+03 2.82524219e+03 3.86432404e+02
      4.25263623e+03 1.12305627e+03 1.33739526e+03 8.44773315e+02
      8.39578613e+02 3.59010645e+03 2.74200653e+02 1.49044019e+03
      3.32744043e+03 1.91705359e+03 1.44387891e+03 0. 0. 0. 0. 0. 0. 0.
      0. 0. 0. 0. 0. 0. 0. 0. 0. 0. 0. 0. 0. 0. 0. 0. 0. 0. 0. 0. 0. 0.
      0. 0. 0. 0. 0. 0. 0. 0. 0. 0. 0. 0. 0. 0. 0. 0. 0. 0. 0. 0.</_>
    <_>
      2.96459399e+03 8.61872253e+02 1.14813379e+03 1.74046399e+03
      4.34717529e+03 1.47836072e+03 1.48822632e+03 1.87784448e+03
      4.04396777e+03 2.37785962e+03 1.35870459e+03 0. 3.02039307e+03
      1.59876733e+03 2.15686475e+03 0. 0. 0. 0. 0. 0. 0. 0. 0. 0. 0. 0.
      0. 0. 0. 0. 0. 0. 0. 0. 0. 0. 0. 0. 0. 0. 0. 0. 0. 0. 0. 0. 0. 0.
      0. 0. 0. 0. 0. 0. 0. 0. 0. 0. 0. 0. 0. 0. 0.</_>
    <_>
      3.41064014e+03 8.04767029e+02 1.51824231e+03 2.18183716e+03
      4.48323584e+03 1.71908313e+03 7.76284729e+02 1.31277637e+03
      2.49081958e+03 7.35447449e+02 7.76176514e+02 6.98765564e+02
      3.96254663e+03 2.87678979e+03 8.04767029e+02 3.00085522e+03 0. 0.
      0. 0. 0. 0. 0. 0. 0. 0. 0. 0. 0. 0. 0. 0. 0. 0. 0. 0. 0. 0. 0. 0.
      0. 0. 0. 0. 0. 0. 0. 0. 0. 0. 0. 0. 0. 0. 0. 0. 0. 0. 0. 0. 0. 0.
      0. 0.</_>
    <_>
      4.41185596e+03 1.63755933e+03 1.84260596e+03 5.84837280e+02
      4.37896045e+03 2.53186865e+03 3.21126129e+02 0. 2.06240332e+03
      2.04401566e+02 1.71702832e+03 0. 3.98618213e+03 2.87589331e+03
      1.58286536e+03 1.13151440e+03 0. 0. 0. 0. 0. 0. 0. 0. 0. 0. 0. 0.
      0. 0. 0. 0. 0. 0. 0. 0. 0. 0. 0. 0. 0. 0. 0. 0. 0. 0. 0. 0. 0. 0.
      0. 0. 0. 0. 0. 0. 0. 0. 0. 0. 0. 0. 0. 0.</_>
    <_>
      4.89928174e+03 1.54071826e+03 2.81257874e+02 8.58261047e+02
      4.00626099e+03 2.81257874e+02 1.54071826e+03 2.83928174e+03
      4.89928174e+03 1.54071826e+03 2.81257874e+02 8.58261047e+02
      4.00626099e+03 2.81257874e+02 1.54071826e+03 2.83928174e+03 0. 0.
      0. 0. 0. 0. 0. 0. 0. 0. 0. 0. 0. 0. 0. 0. 0. 0. 0. 0. 0. 0. 0. 0.
      0. 0. 0. 0. 0. 0. 0. 0. 0. 0. 0. 0. 0. 0. 0. 0. 0. 0. 0. 0. 0. 0.
      0. 0.</_>
    <_>
      4.63414014e+03 3.12371582e+02 9.34392822e+02 1.64829175e+03
      5.58008008e+03 1.61965259e+03 1.97737598e+03 4.57735718e+02 1410.
      4.22291382e+02 2.75502075e+03 1.44678809e+03 3.02147314e+03
      1.15650500e+03 1.34167810e+03 7.58377197e+02 0. 0. 0. 0. 0. 0. 0.
      0. 0. 0. 0. 0. 0. 0. 0. 0. 0. 0. 0. 0. 0. 0. 0. 0. 0. 0. 0. 0. 0.
      0. 0. 0. 0. 0. 0. 0. 0. 0. 0. 0. 0. 0. 0. 0. 0. 0. 0. 0.</_>
    <_>
      2.86515820e+03 8.46300903e+02 9.52253113e+02 0. 4.86193506e+03
      9.40952698e+02 2.39754443e+03 2.04182751e+03 3.79358472e+03
      3.70475372e+02 7.48113464e+02 7.19904175e+02 4.13530518e+03
      2.04445557e+03 1.86988049e+03 7.12699097e+02 0. 0. 0. 0. 0. 0. 0.
      0. 0. 0. 0. 0. 0. 0. 0. 0. 0. 0. 0. 0. 0. 0. 0. 0. 0. 0. 0. 0. 0.
      0. 0. 0. 0. 0. 0. 0. 0. 0. 0. 0. 0. 0. 0. 0. 0. 0. 0. 0.</_>
    <_>
      2.96483789e+03 2.84477612e+03 1.38568555e+03 1.90568433e+03
      2.04756555e+03 7.78781128e+02 1.06931555e+03 8.46249390e+02
      3.92536255e+03 1.20846130e+03 1.21418030e+03 0. 4.58925391e+03
      9.34392822e+02 1.28469751e+03 2.65660425e+03 0. 0. 0. 0. 0. 0. 0.
      0. 0. 0. 0. 0. 0. 0. 0. 0. 0. 0. 0. 0. 0. 0. 0. 0. 0. 0. 0. 0. 0.
      0. 0. 0. 0. 0. 0. 0. 0. 0. 0. 0. 0. 0. 0. 0. 0. 0. 0. 0.</_>
    <_>
      5.95316553e+03 7.40121582e+02 8.80708496e+02 1.09650061e+03
      3.96828125e+03 1.61072913e+03 5.77672913e+02 1.86570532e+03
      4.72770508e+03 1.31779443e+03 8.80708496e+02 1.09650061e+03
      4.29650049e+03 5.56656067e+02 1.65779443e+03 1.93886426e+03 0. 0.
      0. 0. 0. 0. 0. 0. 0. 0. 0. 0. 0. 0. 0. 0. 0. 0. 0. 0. 0. 0. 0. 0.
      0. 0. 0. 0. 0. 0. 0. 0. 0. 0. 0. 0. 0. 0. 0. 0. 0. 0. 0. 0. 0. 0.
      0. 0.</_>
    <_>
      2.50666846e+03 1.63161096e+03 5.32805786e+02 1.03417993e+03
      3.55919458e+03 8.59102600e+02 2.25084058e+03 0. 6.39673145e+03
      4.15611237e+02 1.81419641e+03 4.55034058e+02 2.86222900e+03
      2.84347583e+03 1.74759436e+03 4.03150085e+02 0. 0. 0. 0. 0. 0. 0.
      0. 0. 0. 0. 0. 0. 0. 0. 0. 0. 0. 0. 0. 0. 0. 0. 0. 0. 0. 0. 0. 0.
      0. 0. 0. 0. 0. 0. 0. 0. 0. 0. 0. 0. 0. 0. 0. 0. 0. 0. 0.</_>
    <_>
      6.43586670e+03 8.30963318e+02 1.41289478e+03 3.01705139e+02
      3.09599927e+03 0. 1.87059094e+03 9.94339966e+02 8.62233984e+03
      1.87059094e+03 0. 1.16599939e+03 2.23170508e+03 1.41289478e+03
      8.30963318e+02 8.03866882e+02 0. 0. 0. 0. 0. 0. 0. 0. 0. 0. 0. 0.
      0. 0. 0. 0. 0. 0. 0. 0. 0. 0. 0. 0. 0. 0. 0. 0. 0. 0. 0. 0. 0. 0.
      0. 0. 0. 0. 0. 0. 0. 0. 0. 0. 0. 0. 0. 0.</_>
    <_>
      2.90539380e+03 2.44131250e+03 9.92380981e+02 1.49805640e+03
      4.28471289e+03 0. 1.20251038e+03 1.53394913e+02 3.63300269e+03
      1.29845972e+03 0. 2.79125879e+03 4.19215234e+03 1.96781140e+03
      2.12626733e+03 7.47830200e+02 0. 0. 0. 0. 0. 0. 0. 0. 0. 0. 0. 0.
      0. 0. 0. 0. 0. 0. 0. 0. 0. 0. 0. 0. 0. 0. 0. 0. 0. 0. 0. 0. 0. 0.
      0. 0. 0. 0. 0. 0. 0. 0. 0. 0. 0. 0. 0. 0.</_>
    <_>
      4792. 1.55256946e+03 1.80445886e+03 9.01346313e+02 4.47296045e+03
      2.53186865e+03 3.21126129e+02 0. 2218. 2.88617401e+02
      1.80513770e+03 1.11372620e+03 4.35670020e+03 2.02068555e+03
      1.96385522e+03 2.26106171e+02 0. 0. 0. 0. 0. 0. 0. 0. 0. 0. 0. 0.
      0. 0. 0. 0. 0. 0. 0. 0. 0. 0. 0. 0. 0. 0. 0. 0. 0. 0. 0. 0. 0. 0.
      0. 0. 0. 0. 0. 0. 0. 0. 0. 0. 0. 0. 0. 0.</_>
    <_>
      7.02008008e+03 9.41387268e+02 0. 8.61895569e+02 2.64589551e+03 0.
      9.41387268e+02 6.63608398e+03 7.26800830e+03 0. 0. 0. 764.
      6.61254883e+02 1.20893677e+03 3.68029614e+03 0. 0. 0. 0. 0. 0. 0.
      0. 0. 0. 0. 0. 0. 0. 0. 0. 0. 0. 0. 0. 0. 0. 0. 0. 0. 0. 0. 0. 0.
      0. 0. 0. 0. 0. 0. 0. 0. 0. 0. 0. 0. 0. 0. 0. 0. 0. 0. 0.</_>
    <_>
      5.04654639e+03 8.95911133e+02 0. 1.49707251e+03 4.18907227e+03 0.
      8.95911133e+02 3.44254639e+03 5.04654639e+03 8.95911133e+02 0.
      1.49707251e+03 4.18907227e+03 0. 8.95911133e+02 3.44254639e+03 0.
      0. 0. 0. 0. 0. 0. 0. 0. 0. 0. 0. 0. 0. 0. 0. 0. 0. 0. 0. 0. 0. 0.
      0. 0. 0. 0. 0. 0. 0. 0. 0. 0. 0. 0. 0. 0. 0. 0. 0. 0. 0. 0. 0. 0.
      0. 0. 0.</_>
    <_>
      4.61999316e+03 8.75004211e+02 6.59037695e+03 9.18001343e+02 2470.
      0. 4.29196930e+02 3.83275360e+02 1192. 0. 2.71302930e+03
      3.02281055e+03 2.35963135e+03 1.85580188e+03 1.72450720e+03 0. 0.
      0. 0. 0. 0. 0. 0. 0. 0. 0. 0. 0. 0. 0. 0. 0. 0. 0. 0. 0. 0. 0. 0.
      0. 0. 0. 0. 0. 0. 0. 0. 0. 0. 0. 0. 0. 0. 0. 0. 0. 0. 0. 0. 0. 0.
      0. 0. 0.</_>
    <_>
      10148. 7.76284729e+02 9.02229431e+02 3.16509094e+02 1.54450903e+03
      9.02229431e+02 7.76284729e+02 0. 10148. 7.76284729e+02
      9.02229431e+02 3.16509094e+02 1.54450903e+03 9.02229431e+02
      7.76284729e+02 0. 0. 0. 0. 0. 0. 0. 0. 0. 0. 0. 0. 0. 0. 0. 0. 0.
      0. 0. 0. 0. 0. 0. 0. 0. 0. 0. 0. 0. 0. 0. 0. 0. 0. 0. 0. 0. 0. 0.
      0. 0. 0. 0. 0. 0. 0. 0. 0. 0.</_>
    <_>
      4.64026025e+03 8.79320190e+02 5.31683057e+03 1.65914209e+03
      3.90062378e+03 0. 4.29196930e+02 3.83275360e+02 1902.
      3.21126129e+02 4.00309985e+03 2.71251172e+03 3.33840332e+03
      9.02229431e+02 8.89510193e+02 0. 0. 0. 0. 0. 0. 0. 0. 0. 0. 0. 0.
      0. 0. 0. 0. 0. 0. 0. 0. 0. 0. 0. 0. 0. 0. 0. 0. 0. 0. 0. 0. 0. 0.
      0. 0. 0. 0. 0. 0. 0. 0. 0. 0. 0. 0. 0. 0. 0.</_>
    <_>
      6.29277344e+03 7.64944458e+02 1.72831836e+03 0. 3.44229834e+03 0.
      5.28239111e+03 0. 2420. 5.28239111e+03 0. 1.12829846e+03 2314.
      1.72831836e+03 7.64944458e+02 8.44773315e+02 0. 0. 0. 0. 0. 0. 0.
      0. 0. 0. 0. 0. 0. 0. 0. 0. 0. 0. 0. 0. 0. 0. 0. 0. 0. 0. 0. 0. 0.
      0. 0. 0. 0. 0. 0. 0. 0. 0. 0. 0. 0. 0. 0. 0. 0. 0. 0. 0.</_></uncompressed_support_vectors>
  <decision_functions>
    <_>
      <sv_count>1</sv_count>
      <rho>3.9136985655986783e-01</rho>
      <alpha>
        1.</alpha>
      <index>
        0</index></_>
    <_>
      <sv_count>1</sv_count>
      <rho>-6.9167879447811031e-01</rho>
      <alpha>
        1.</alpha>
      <index>
        1</index></_>
    <_>
      <sv_count>1</sv_count>
      <rho>-2.6469368540960442e-01</rho>
      <alpha>
        1.</alpha>
      <index>
        2</index></_>
    <_>
      <sv_count>1</sv_count>
      <rho>-2.5819246444055255e-01</rho>
      <alpha>
        1.</alpha>
      <index>
        3</index></_>
    <_>
      <sv_count>1</sv_count>
      <rho>9.3438056996876323e-02</rho>
      <alpha>
        1.</alpha>
      <index>
        4</index></_>
    <_>
      <sv_count>1</sv_count>
      <rho>3.0431109068979401e-01</rho>
      <alpha>
        1.</alpha>
      <index>
        5</index></_>
    <_>
      <sv_count>1</sv_count>
      <rho>-7.4527703797363876e-01</rho>
      <alpha>
        1.</alpha>
      <index>
        6</index></_>
    <_>
      <sv_count>1</sv_count>
      <rho>1.8737359979672332e+00</rho>
      <alpha>
        1.</alpha>
      <index>
        7</index></_>
    <_>
      <sv_count>1</sv_count>
      <rho>7.8308738881058670e-01</rho>
      <alpha>
        1.</alpha>
      <index>
        8</index></_>
    <_>
      <sv_count>1</sv_count>
      <rho>-1.2865562451749564e+00</rho>
      <alpha>
        1.</alpha>
      <index>
        9</index></_>
    <_>
      <sv_count>1</sv_count>
      <rho>5.9628235235524985e-01</rho>
      <alpha>
        1.</alpha>
      <index>
        10</index></_>
    <_>
      <sv_count>1</sv_count>
      <rho>8.9931691761126042e-01</rho>
      <alpha>
        1.</alpha>
      <index>
        11</index></_>
    <_>
      <sv_count>1</sv_count>
      <rho>2.0672709265325482e+00</rho>
      <alpha>
        1.</alpha>
      <index>
        12</index></_>
    <_>
      <sv_count>1</sv_count>
      <rho>1.0939620141858102e+00</rho>
      <alpha>
        1.</alpha>
      <index>
        13</index></_>
    <_>
      <sv_count>1</sv_count>
      <rho>1.2898862385511678e+00</rho>
      <alpha>
        1.</alpha>
      <index>
        14</index></_>
    <_>
      <sv_count>1</sv_count>
      <rho>-3.3474070564793695e-01</rho>
      <alpha>
        1.</alpha>
      <index>
        15</index></_>
    <_>
      <sv_count>1</sv_count>
      <rho>1.8277261148306370e+00</rho>
      <alpha>
        1.</alpha>
      <index>
        16</index></_>
    <_>
      <sv_count>1</sv_count>
      <rho>1.3246644536052530e+00</rho>
      <alpha>
        1.</alpha>
      <index>
        17</index></_>
    <_>
      <sv_count>1</sv_count>
      <rho>-7.6028605328260301e-01</rho>
      <alpha>
        1.</alpha>
      <index>
        18</index></_>
    <_>
      <sv_count>1</sv_count>
      <rho>4.5647925069511130e-01</rho>
      <alpha>
        1.</alpha>
      <index>
        19</index></_>
    <_>
      <sv_count>1</sv_count>
      <rho>-5.8645695311083636e-02</rho>
      <alpha>
        1.</alpha>
      <index>
        20</index></_>
    <_>
      <sv_count>1</sv_count>
      <rho>4.5055030170931076e-01</rho>
      <alpha>
        1.</alpha>
      <index>
        21</index></_>
    <_>
      <sv_count>1</sv_count>
      <rho>1.1013975096204951e+00</rho>
      <alpha>
        1.</alpha>
      <index>
        22</index></_>
    <_>
      <sv_count>1</sv_count>
      <rho>-5.2171035720387415e-01</rho>
      <alpha>
        1.</alpha>
      <index>
        23</index></_>
    <_>
      <sv_count>1</sv_count>
      <rho>1.1972763463284597e+00</rho>
      <alpha>
        1.</alpha>
      <index>
        24</index></_>
    <_>
      <sv_count>1</sv_count>
      <rho>-9.5553667719994531e-02</rho>
      <alpha>
        1.</alpha>
      <index>
        25</index></_>
    <_>
      <sv_count>1</sv_count>
      <rho>-1.6448524861586353e+00</rho>
      <alpha>
        1.</alpha>
      <index>
        26</index></_>
    <_>
      <sv_count>1</sv_count>
      <rho>2.6274135682015060e-01</rho>
      <alpha>
        1.</alpha>
      <index>
        27</index></_>
    <_>
      <sv_count>1</sv_count>
      <rho>1.5742689934151610e-01</rho>
      <alpha>
        1.</alpha>
      <index>
        28</index></_>
    <_>
      <sv_count>1</sv_count>
      <rho>3.9227509042814618e-01</rho>
      <alpha>
        1.</alpha>
      <index>
        29</index></_>
    <_>
      <sv_count>1</sv_count>
      <rho>-4.4538293923905825e-01</rho>
      <alpha>
        1.</alpha>
      <index>
        30</index></_>
    <_>
      <sv_count>1</sv_count>
      <rho>1.3024500946471454e-01</rho>
      <alpha>
        1.</alpha>
      <index>
        31</index></_>
    <_>
      <sv_count>1</sv_count>
      <rho>-8.7968120608278000e-01</rho>
      <alpha>
        1.</alpha>
      <index>
        32</index></_>
    <_>
      <sv_count>1</sv_count>
      <rho>-1.7043308387189418e+00</rho>
      <alpha>
        1.</alpha>
      <index>
        33</index></_>
    <_>
      <sv_count>1</sv_count>
      <rho>2.2409782993959113e-01</rho>
      <alpha>
        1.</alpha>
      <index>
        34</index></_>
    <_>
      <sv_count>1</sv_count>
      <rho>2.9832755484984602e-01</rho>
      <alpha>
        1.</alpha>
      <index>
        35</index></_>
    <_>
      <sv_count>1</sv_count>
      <rho>-9.0966197656368974e-01</rho>
      <alpha>
        1.</alpha>
      <index>
        36</index></_>
    <_>
      <sv_count>1</sv_count>
      <rho>9.2546047914811191e-01</rho>
      <alpha>
        1.</alpha>
      <index>
        37</index></_>
    <_>
      <sv_count>1</sv_count>
      <rho>3.2124435233399123e-01</rho>
      <alpha>
        1.</alpha>
      <index>
        38</index></_>
    <_>
      <sv_count>1</sv_count>
      <rho>-1.0673799438974032e+00</rho>
      <alpha>
        1.</alpha>
      <index>
        39</index></_>
    <_>
      <sv_count>1</sv_count>
      <rho>8.7241051414497572e-01</rho>
      <alpha>
        1.</alpha>
      <index>
        40</index></_>
    <_>
      <sv_count>1</sv_count>
      <rho>-5.9624385438338423e-01</rho>
      <alpha>
        1.</alpha>
      <index>
        41</index></_>
    <_>
      <sv_count>1</sv_count>
      <rho>3.3091248415956374e+00</rho>
      <alpha>
        1.</alpha>
      <index>
        42</index></_>
    <_>
      <sv_count>1</sv_count>
      <rho>-3.5453231055631262e-01</rho>
      <alpha>
        1.</alpha>
      <index>
        43</index></_>
    <_>
      <sv_count>1</sv_count>
      <rho>-1.9580960695376071e+00</rho>
      <alpha>
        1.</alpha>
      <index>
        44</index></_>
    <_>
      <sv_count>1</sv_count>
      <rho>-8.9628063587211637e-01</rho>
      <alpha>
        1.</alpha>
      <index>
        45</index></_>
    <_>
      <sv_count>1</sv_count>
      <rho>6.6387811134506092e-02</rho>
      <alpha>
        1.</alpha>
      <index>
        46</index></_>
    <_>
      <sv_count>1</sv_count>
      <rho>-2.2276176121733928e+00</rho>
      <alpha>
        1.</alpha>
      <index>
        47</index></_>
    <_>
      <sv_count>1</sv_count>
      <rho>-1.6870340213952209e+00</rho>
      <alpha>
        1.</alpha>
      <index>
        48</index></_>
    <_>
      <sv_count>1</sv_count>
      <rho>9.8172396308401588e-01</rho>
      <alpha>
        1.</alpha>
      <index>
        49</index></_>
    <_>
      <sv_count>1</sv_count>
      <rho>1.2117163035687435e+00</rho>
      <alpha>
        1.</alpha>
      <index>
        50</index></_>
    <_>
      <sv_count>1</sv_count>
      <rho>-8.7676505976099883e-01</rho>
      <alpha>
        1.</alpha>
      <index>
        51</index></_>
    <_>
      <sv_count>1</sv_count>
      <rho>-5.4560573043073184e+00</rho>
      <alpha>
        1.</alpha>
      <index>
        52</index></_>
    <_>
      <sv_count>1</sv_count>
      <rho>-1.6759328076244047e+00</rho>
      <alpha>
        1.</alpha>
      <index>
        53</index></_>
    <_>
      <sv_count>1</sv_count>
      <rho>-1.6862265498119007e+00</rho>
      <alpha>
        1.</alpha>
      <index>
        54</index></_></decision_functions></opencv_ml_svm>
</opencv_storage>
