<?xml version="1.0"?>
<opencv_storage>
<opencv_ml_svm>
  <format>3</format>
  <svmType>C_SVC</svmType>
  <kernel>
    <type>LINEAR</type></kernel>
  <C>1.</C>
  <term_criteria><epsilon>1.1920928955078125e-07</epsilon>
    <iterations>1000</iterations></term_criteria>
  <var_count>64</var_count>
  <class_count>10</class_count>
  <class_labels type_id="opencv-matrix">
    <rows>10</rows>
    <cols>1</cols>
    <dt>i</dt>
    <data>
      0 1 2 3 4 5 6 7 8 9</data></class_labels>
  <sv_total>45</sv_total>
  <support_vectors>
    <_>
      2.56057800e-04 -1.01863743e-05 0. 1.20272576e-04 2.44300973e-05 0.
      -1.01863743e-05 1.20272576e-04 -3.98882577e-04 1.44184538e-04 0.
      1.20272576e-04 3.51900293e-04 0. -1.01863743e-05 1.20272576e-04 0.
      0. 0. 0. 0. 0. 0. 0. 0. 0. 0. 0. 0. 0. 0. 0. 0. 0. 0. 0. 0. 0. 0.
      0. 0. 0. 0. 0. 0. 0. 0. 0. 0. 0. 0. 0. 0. 0. 0. 0. 0. 0. 0. 0. 0.
      0. 0. 0.</_>
    <_>
      1.37743045e-04 -9.73990318e-05 -6.16005564e-05 4.35581751e-05
      -1.10194436e-04 0. -1.94798067e-05 4.35581751e-05 1.92840263e-04
      -1.16878837e-04 0. 4.35581751e-05 -6.66362539e-05 0.
      -1.94798067e-05 4.35581751e-05 0. 0. 0. 0. 0. 0. 0. 0. 0. 0. 0. 0.
      0. 0. 0. 0. 0. 0. 0. 0. 0. 0. 0. 0. 0. 0. 0. 0. 0. 0. 0. 0. 0. 0.
      0. 0. 0. 0. 0. 0. 0. 0. 0. 0. 0. 0. 0. 0.</_>
    <_>
      7.28685918e-05 -8.66036062e-05 0. 1.38270452e-05 -5.47202071e-05
      0. -8.65927286e-05 -6.77626358e-21 2.74064892e-04 -4.32963679e-05
      0. 5.53324862e-05 -1.10052693e-04 0. -1.36094473e-04
      5.53324862e-05 0. 0. 0. 0. 0. 0. 0. 0. 0. 0. 0. 0. 0. 0. 0. 0. 0.
      0. 0. 0. 0. 0. 0. 0. 0. 0. 0. 0. 0. 0. 0. 0. 0. 0. 0. 0. 0. 0. 0.
      0. 0. 0. 0. 0. 0. 0. 0. 0.</_>
    <_>
      -8.52384910e-05 -3.31766380e-04 0. 4.13200287e-05 2.12267696e-05
      0. 7.55333822e-05 -5.15755528e-05 1.80759962e-04 1.78939299e-05 0.
      4.13200287e-05 -2.21478658e-05 0. 3.03601537e-05 -9.87704188e-05
      0. 0. 0. 0. 0. 0. 0. 0. 0. 0. 0. 0. 0. 0. 0. 0. 0. 0. 0. 0. 0. 0.
      0. 0. 0. 0. 0. 0. 0. 0. 0. 0. 0. 0. 0. 0. 0. 0. 0. 0. 0. 0. 0. 0.
      0. 0. 0. 0.</_>
    <_>
      1.00865524e-04 -2.39981830e-07 0. 3.07684058e-05 -1.87212150e-04
      0. -1.33930429e-04 -8.88079740e-05 1.54517445e-04 2.64981136e-05
      -1.69106526e-04 3.07684058e-05 -1.43262514e-04 0. 2.64981136e-05
      3.07684058e-05 0. 0. 0. 0. 0. 0. 0. 0. 0. 0. 0. 0. 0. 0. 0. 0. 0.
      0. 0. 0. 0. 0. 0. 0. 0. 0. 0. 0. 0. 0. 0. 0. 0. 0. 0. 0. 0. 0. 0.
      0. 0. 0. 0. 0. 0. 0. 0. 0.</_>
    <_>
      -5.33096645e-05 -4.51085034e-05 0. 3.64375301e-05 -1.33759400e-04
      -1.29180262e-04 -2.38529683e-04 -5.49067154e-05 3.65180982e-04
      -1.87881902e-04 -1.29180262e-04 -1.58652656e-05 -9.82983056e-06
      -3.69836598e-05 4.82875330e-05 3.64375301e-05 0. 0. 0. 0. 0. 0. 0.
      0. 0. 0. 0. 0. 0. 0. 0. 0. 0. 0. 0. 0. 0. 0. 0. 0. 0. 0. 0. 0. 0.
      0. 0. 0. 0. 0. 0. 0. 0. 0. 0. 0. 0. 0. 0. 0. 0. 0. 0. 0.</_>
    <_>
      -1.09036628e-04 3.05902831e-05 0. 1.09956622e-04 4.45706130e-04 0.
      1.59841264e-04 1.09956622e-04 3.54703734e-05 -9.86606974e-05 0.
      1.09956622e-04 -2.47166376e-04 0. 3.05902831e-05 1.09956622e-04 0.
      0. 0. 0. 0. 0. 0. 0. 0. 0. 0. 0. 0. 0. 0. 0. 0. 0. 0. 0. 0. 0. 0.
      0. 0. 0. 0. 0. 0. 0. 0. 0. 0. 0. 0. 0. 0. 0. 0. 0. 0. 0. 0. 0. 0.
      0. 0. 0.</_>
    <_>
      3.78863304e-04 -1.12211608e-04 0. 0. -3.78863304e-04 0.
      -1.12211608e-04 0. 3.78863304e-04 -2.67896743e-04 0. 0.
      -3.78863304e-04 0. -2.67896743e-04 0. 0. 0. 0. 0. 0. 0. 0. 0. 0.
      0. 0. 0. 0. 0. 0. 0. 0. 0. 0. 0. 0. 0. 0. 0. 0. 0. 0. 0. 0. 0. 0.
      0. 0. 0. 0. 0. 0. 0. 0. 0. 0. 0. 0. 0. 0. 0. 0. 0.</_>
    <_>
      1.37119045e-04 -7.99055415e-05 -1.54742040e-04 -8.61512381e-05
      1.10323177e-04 -3.31431598e-04 8.98436047e-05 5.43064052e-05
      3.62335850e-05 -1.12831745e-04 0. -5.51127523e-05 -3.15167912e-04
      0. -2.88451120e-05 -5.51127523e-05 0. 0. 0. 0. 0. 0. 0. 0. 0. 0.
      0. 0. 0. 0. 0. 0. 0. 0. 0. 0. 0. 0. 0. 0. 0. 0. 0. 0. 0. 0. 0. 0.
      0. 0. 0. 0. 0. 0. 0. 0. 0. 0. 0. 0. 0. 0. 0. 0.</_>
    <_>
      8.04185183e-05 -3.35793120e-05 -2.92612076e-05 -1.28054262e-06
      -3.65457017e-05 0. 9.82588153e-06 -1.28054262e-06 1.86255726e-04
      -6.12460062e-05 0. -1.28054262e-06 -5.39638204e-05 0.
      8.68053030e-06 0. 0. 0. 0. 0. 0. 0. 0. 0. 0. 0. 0. 0. 0. 0. 0. 0.
      0. 0. 0. 0. 0. 0. 0. 0. 0. 0. 0. 0. 0. 0. 0. 0. 0. 0. 0. 0. 0. 0.
      0. 0. 0. 0. 0. 0. 0. 0. 0. 0.</_>
    <_>
      1.20363884e-05 -2.10536600e-05 0. -1.11546942e-05 -2.00657432e-05
      0. -3.21302578e-05 -2.31289341e-05 2.11328836e-04 -2.64087030e-05
      0. 0. -8.70787480e-05 0. -4.17408082e-05 0. 0. 0. 0. 0. 0. 0. 0.
      0. 0. 0. 0. 0. 0. 0. 0. 0. 0. 0. 0. 0. 0. 0. 0. 0. 0. 0. 0. 0. 0.
      0. 0. 0. 0. 0. 0. 0. 0. 0. 0. 0. 0. 0. 0. 0. 0. 0. 0. 0.</_>
    <_>
      -8.84355686e-05 -1.72442014e-04 0. 0. -7.01997578e-06 0.
      2.93877220e-05 -4.66132915e-05 1.74729532e-04 -3.05153426e-05 0.
      0. -9.46395594e-05 0. 6.94869777e-06 -6.92748436e-05 0. 0. 0. 0.
      0. 0. 0. 0. 0. 0. 0. 0. 0. 0. 0. 0. 0. 0. 0. 0. 0. 0. 0. 0. 0. 0.
      0. 0. 0. 0. 0. 0. 0. 0. 0. 0. 0. 0. 0. 0. 0. 0. 0. 0. 0. 0. 0. 0.</_>
    <_>
      0. -1.33628537e-05 0. 0. -1.16454270e-04 0. -8.01771021e-05
      -5.97604885e-05 1.40201097e-04 -2.67257001e-05 -8.45140821e-05 0.
      -1.51183413e-04 0. 0. 0. 0. 0. 0. 0. 0. 0. 0. 0. 0. 0. 0. 0. 0. 0.
      0. 0. 0. 0. 0. 0. 0. 0. 0. 0. 0. 0. 0. 0. 0. 0. 0. 0. 0. 0. 0. 0.
      0. 0. 0. 0. 0. 0. 0. 0. 0. 0. 0. 0.</_>
    <_>
      -5.15768515e-05 -3.66721943e-05 0. 0. -1.09008870e-04
      -2.89919117e-05 -8.95817720e-05 -2.05003798e-05 1.92247069e-04
      -1.07321393e-04 -2.89919117e-05 -3.29811483e-05 -1.24510465e-04
      -2.33211922e-05 -1.09612884e-05 0. 0. 0. 0. 0. 0. 0. 0. 0. 0. 0.
      0. 0. 0. 0. 0. 0. 0. 0. 0. 0. 0. 0. 0. 0. 0. 0. 0. 0. 0. 0. 0. 0.
      0. 0. 0. 0. 0. 0. 0. 0. 0. 0. 0. 0. 0. 0. 0. 0.</_>
    <_>
      -1.19841789e-04 2.53844428e-05 0. 0. 2.02261668e-04 0.
      8.58123531e-05 0. 1.85780082e-04 -9.12655596e-05 0. 0.
      -2.27264012e-04 0. 2.93486246e-05 -1.66477332e-06 0. 0. 0. 0. 0.
      0. 0. 0. 0. 0. 0. 0. 0. 0. 0. 0. 0. 0. 0. 0. 0. 0. 0. 0. 0. 0. 0.
      0. 0. 0. 0. 0. 0. 0. 0. 0. 0. 0. 0. 0. 0. 0. 0. 0. 0. 0. 0. 0.</_>
    <_>
      -1.43000880e-05 -5.38891909e-05 -1.86600882e-05 0. -9.97980314e-05
      -1.86600882e-05 -5.38891909e-05 -1.31946763e-05 1.40417847e-04
      -1.17475887e-04 0. 0. -1.87249752e-04 0. -8.41185392e-05 0. 0. 0.
      0. 0. 0. 0. 0. 0. 0. 0. 0. 0. 0. 0. 0. 0. 0. 0. 0. 0. 0. 0. 0. 0.
      0. 0. 0. 0. 0. 0. 0. 0. 0. 0. 0. 0. 0. 0. 0. 0. 0. 0. 0. 0. 0. 0.
      0. 0.</_>
    <_>
      -3.05812318e-05 -5.69821968e-05 -5.26301556e-05 -5.39606335e-05
      -1.05907766e-05 -1.17101161e-04 3.74440447e-06 0. 1.05323124e-04
      -1.07347514e-04 0. -3.72151444e-05 -2.49632110e-04 0.
      -4.07750485e-05 -3.72151444e-05 0. 0. 0. 0. 0. 0. 0. 0. 0. 0. 0.
      0. 0. 0. 0. 0. 0. 0. 0. 0. 0. 0. 0. 0. 0. 0. 0. 0. 0. 0. 0. 0. 0.
      0. 0. 0. 0. 0. 0. 0. 0. 0. 0. 0. 0. 0. 0. 0.</_>
    <_>
      -1.50434469e-04 1.05699757e-04 1.92693013e-04 -1.18175943e-04
      2.56224099e-04 0. -1.09444860e-04 -1.36254544e-04 1.01952814e-04
      2.80419423e-04 0. 0. -1.62850229e-05 0. -2.59909517e-04 0. 0. 0.
      0. 0. 0. 0. 0. 0. 0. 0. 0. 0. 0. 0. 0. 0. 0. 0. 0. 0. 0. 0. 0. 0.
      0. 0. 0. 0. 0. 0. 0. 0. 0. 0. 0. 0. 0. 0. 0. 0. 0. 0. 0. 0. 0. 0.
      0. 0.</_>
    <_>
      -2.02856332e-04 -1.79445851e-04 1.09699809e-04 1.51856821e-05
      1.30954169e-04 0. -6.79124332e-06 1.51856821e-05 -4.87566867e-05
      2.41363072e-04 0. 1.51856821e-05 6.03065564e-05 0. -2.78988809e-05
      -1.55138972e-04 0. 0. 0. 0. 0. 0. 0. 0. 0. 0. 0. 0. 0. 0. 0. 0. 0.
      0. 0. 0. 0. 0. 0. 0. 0. 0. 0. 0. 0. 0. 0. 0. 0. 0. 0. 0. 0. 0. 0.
      0. 0. 0. 0. 0. 0. 0. 0. 0.</_>
    <_>
      3.45230583e-05 1.68025115e-04 1.32835514e-04 0. -1.18811717e-04 0.
      -1.68025115e-04 -9.39289093e-05 -2.48828001e-05 1.68025130e-04
      -1.32835514e-04 0. -2.97029299e-04 0. 0. 0. 0. 0. 0. 0. 0. 0. 0.
      0. 0. 0. 0. 0. 0. 0. 0. 0. 0. 0. 0. 0. 0. 0. 0. 0. 0. 0. 0. 0. 0.
      0. 0. 0. 0. 0. 0. 0. 0. 0. 0. 0. 0. 0. 0. 0. 0. 0. 0. 0.</_>
    <_>
      -1.07508269e-04 1.60912736e-04 1.69518840e-04 2.04703046e-08
      -2.59143504e-04 0. -1.60828873e-04 2.04703046e-08 -1.51583445e-04
      1.52212102e-04 0. -2.39715402e-04 -7.57852467e-05 -1.69518840e-04
      9.15459619e-09 0. 0. 0. 0. 0. 0. 0. 0. 0. 0. 0. 0. 0. 0. 0. 0. 0.
      0. 0. 0. 0. 0. 0. 0. 0. 0. 0. 0. 0. 0. 0. 0. 0. 0. 0. 0. 0. 0. 0.
      0. 0. 0. 0. 0. 0. 0. 0. 0. 0.</_>
    <_>
      -1.35947950e-04 5.23470808e-05 3.44874970e-05 1.91947720e-06
      1.21076468e-04 0. 2.09533955e-05 1.91947720e-06 -1.44130638e-04
      4.13018752e-05 0. 1.91947720e-06 -2.19583799e-05 0. 8.58416172e-07
      0. 0. 0. 0. 0. 0. 0. 0. 0. 0. 0. 0. 0. 0. 0. 0. 0. 0. 0. 0. 0. 0.
      0. 0. 0. 0. 0. 0. 0. 0. 0. 0. 0. 0. 0. 0. 0. 0. 0. 0. 0. 0. 0. 0.
      0. 0. 0. 0. 0.</_>
    <_>
      1.95705288e-05 2.51383695e-04 3.47570603e-05 0. 1.60134558e-04
      -3.01618828e-04 -1.74101893e-04 -2.13276740e-04 -6.80164885e-05
      8.43891248e-05 0. 0. -3.47495283e-04 0. -4.47467901e-04 0. 0. 0.
      0. 0. 0. 0. 0. 0. 0. 0. 0. 0. 0. 0. 0. 0. 0. 0. 0. 0. 0. 0. 0. 0.
      0. 0. 0. 0. 0. 0. 0. 0. 0. 0. 0. 0. 0. 0. 0. 0. 0. 0. 0. 0. 0. 0.
      0. 0.</_>
    <_>
      0. 7.15572241e-05 1.23132762e-04 -1.74136032e-04 3.20013751e-05
      -1.23132762e-04 0. 0. -1.88265229e-04 1.55752001e-04 0. 0.
      -2.75333237e-04 0. -1.16814008e-04 0. 0. 0. 0. 0. 0. 0. 0. 0. 0.
      0. 0. 0. 0. 0. 0. 0. 0. 0. 0. 0. 0. 0. 0. 0. 0. 0. 0. 0. 0. 0. 0.
      0. 0. 0. 0. 0. 0. 0. 0. 0. 0. 0. 0. 0. 0. 0. 0. 0.</_>
    <_>
      -4.94497253e-05 -3.28042050e-04 0. 5.49943616e-05 5.84264671e-06
      0. 1.24970160e-04 8.70582808e-05 -1.13279566e-04 4.30182627e-05 0.
      0. 1.15963630e-04 0. 1.45479789e-04 -1.74116562e-04 0. 0. 0. 0. 0.
      0. 0. 0. 0. 0. 0. 0. 0. 0. 0. 0. 0. 0. 0. 0. 0. 0. 0. 0. 0. 0. 0.
      0. 0. 0. 0. 0. 0. 0. 0. 0. 0. 0. 0. 0. 0. 0. 0. 0. 0. 0. 0. 0.</_>
    <_>
      2.09463775e-04 9.60933394e-05 0. 4.78609982e-05 -2.26679040e-04 0.
      -4.40734439e-05 -2.95534519e-05 -1.55364804e-04 1.84552046e-05
      -1.72503613e-04 0. -1.68948434e-04 0. 1.91977510e-04 0. 0. 0. 0.
      0. 0. 0. 0. 0. 0. 0. 0. 0. 0. 0. 0. 0. 0. 0. 0. 0. 0. 0. 0. 0. 0.
      0. 0. 0. 0. 0. 0. 0. 0. 0. 0. 0. 0. 0. 0. 0. 0. 0. 0. 0. 0. 0. 0.
      0.</_>
    <_>
      1.08179578e-04 4.91640749e-05 0. 2.71483732e-05 -1.87986618e-04
      -7.09401429e-05 6.48577088e-06 7.14644120e-05 -3.36728292e-04
      -1.25456514e-04 -7.09401429e-05 -1.42928824e-04 1.46157705e-04
      -1.01065925e-04 2.34776628e-04 0. 0. 0. 0. 0. 0. 0. 0. 0. 0. 0. 0.
      0. 0. 0. 0. 0. 0. 0. 0. 0. 0. 0. 0. 0. 0. 0. 0. 0. 0. 0. 0. 0. 0.
      0. 0. 0. 0. 0. 0. 0. 0. 0. 0. 0. 0. 0. 0. 0.</_>
    <_>
      -6.50940929e-05 4.71534586e-05 0. 1.45166496e-05 1.40390708e-04 0.
      9.63572238e-05 3.36179110e-05 -2.01088405e-04 -4.44174339e-06 0.
      0. 1.28196925e-05 0. 7.72222338e-05 0. 0. 0. 0. 0. 0. 0. 0. 0. 0.
      0. 0. 0. 0. 0. 0. 0. 0. 0. 0. 0. 0. 0. 0. 0. 0. 0. 0. 0. 0. 0. 0.
      0. 0. 0. 0. 0. 0. 0. 0. 0. 0. 0. 0. 0. 0. 0. 0. 0.</_>
    <_>
      3.11987067e-04 7.09597662e-05 -2.50005600e-04 1.54997397e-04
      -1.96909226e-04 -2.50005600e-04 6.28007474e-05 2.38011598e-05
      -2.20479487e-04 -3.25019530e-04 0. 0. -2.19939204e-04 0.
      1.34061456e-05 0. 0. 0. 0. 0. 0. 0. 0. 0. 0. 0. 0. 0. 0. 0. 0. 0.
      0. 0. 0. 0. 0. 0. 0. 0. 0. 0. 0. 0. 0. 0. 0. 0. 0. 0. 0. 0. 0. 0.
      0. 0. 0. 0. 0. 0. 0. 0. 0. 0.</_>
    <_>
      1.77233087e-04 1.44086325e-05 0. -1.20806282e-04 -1.14299481e-04
      -1.36951727e-04 1.07617554e-04 9.68395034e-05 -2.60759611e-04
      -1.11531235e-05 0. 0. -2.62446672e-04 0. 6.47444613e-05 0. 0. 0.
      0. 0. 0. 0. 0. 0. 0. 0. 0. 0. 0. 0. 0. 0. 0. 0. 0. 0. 0. 0. 0. 0.
      0. 0. 0. 0. 0. 0. 0. 0. 0. 0. 0. 0. 0. 0. 0. 0. 0. 0. 0. 0. 0. 0.
      0. 0.</_>
    <_>
      7.06114879e-05 1.87090991e-04 0. 0. -1.18437049e-04 0.
      -9.40617174e-05 -5.66457493e-05 -3.79650082e-05 -1.80634743e-05
      -8.01091810e-05 0. -1.38847900e-04 0. 1.07942024e-05
      8.07823235e-05 0. 0. 0. 0. 0. 0. 0. 0. 0. 0. 0. 0. 0. 0. 0. 0. 0.
      0. 0. 0. 0. 0. 0. 0. 0. 0. 0. 0. 0. 0. 0. 0. 0. 0. 0. 0. 0. 0. 0.
      0. 0. 0. 0. 0. 0. 0. 0. 0.</_>
    <_>
      2.14915508e-05 2.29785350e-04 0. 0. -1.66352998e-04
      -2.98949126e-05 -1.42484379e-04 4.62978278e-06 -5.75935082e-05
      -1.03586681e-04 -2.98949126e-05 -7.18301308e-05 -6.00599524e-05
      -5.07915684e-05 -6.68686880e-06 1.14107926e-04 0. 0. 0. 0. 0. 0.
      0. 0. 0. 0. 0. 0. 0. 0. 0. 0. 0. 0. 0. 0. 0. 0. 0. 0. 0. 0. 0. 0.
      0. 0. 0. 0. 0. 0. 0. 0. 0. 0. 0. 0. 0. 0. 0. 0. 0. 0. 0. 0.</_>
    <_>
      4.80070339e-05 2.47948134e-04 0. 0. 1.59037023e-04 0.
      1.54278205e-05 9.31149043e-05 -1.02754333e-04 -5.23195122e-05 0.
      0. -3.39256949e-05 0. 1.30581557e-05 8.46241601e-05 0. 0. 0. 0. 0.
      0. 0. 0. 0. 0. 0. 0. 0. 0. 0. 0. 0. 0. 0. 0. 0. 0. 0. 0. 0. 0. 0.
      0. 0. 0. 0. 0. 0. 0. 0. 0. 0. 0. 0. 0. 0. 0. 0. 0. 0. 0. 0. 0.</_>
    <_>
      1.12844253e-04 2.16754997e-04 -5.49038668e-05 0. -8.75247206e-05
      -5.49038668e-05 -8.95511184e-05 -3.88228982e-05 -5.86263595e-05
      -1.29922846e-04 0. 0. -1.52887267e-04 0. -1.02481667e-04
      1.22720710e-04 0. 0. 0. 0. 0. 0. 0. 0. 0. 0. 0. 0. 0. 0. 0. 0. 0.
      0. 0. 0. 0. 0. 0. 0. 0. 0. 0. 0. 0. 0. 0. 0. 0. 0. 0. 0. 0. 0. 0.
      0. 0. 0. 0. 0. 0. 0. 0. 0.</_>
    <_>
      1.09084111e-04 1.99543530e-04 -3.43675820e-05 -8.03817093e-05
      -2.02624815e-05 -1.08389817e-04 -2.06803161e-05 3.29115646e-05
      -1.23966267e-04 -5.62713285e-05 0. -2.43015529e-05 -1.68903891e-04
      0. -5.17219487e-05 8.03817093e-05 0. 0. 0. 0. 0. 0. 0. 0. 0. 0. 0.
      0. 0. 0. 0. 0. 0. 0. 0. 0. 0. 0. 0. 0. 0. 0. 0. 0. 0. 0. 0. 0. 0.
      0. 0. 0. 0. 0. 0. 0. 0. 0. 0. 0. 0. 0. 0. 0.</_>
    <_>
      -1.31070105e-04 -6.21684667e-05 0. 0. 8.82559743e-06
      -5.67674651e-05 8.20968999e-05 2.09798789e-04 2.47642547e-05
      -1.90585037e-04 2.96700280e-04 -2.38604815e-04 3.31374176e-04
      -1.68719067e-04 -1.33831390e-05 0. 0. 0. 0. 0. 0. 0. 0. 0. 0. 0.
      0. 0. 0. 0. 0. 0. 0. 0. 0. 0. 0. 0. 0. 0. 0. 0. 0. 0. 0. 0. 0. 0.
      0. 0. 0. 0. 0. 0. 0. 0. 0. 0. 0. 0. 0. 0. 0. 0.</_>
    <_>
      -6.10288844e-05 2.32075436e-05 0. 0. 1.98917551e-04 0.
      1.11404770e-04 5.44915201e-05 -5.74110345e-05 -1.27655794e-05
      7.70626430e-05 0. 4.53113498e-05 0. 1.16037700e-05 0. 0. 0. 0. 0.
      0. 0. 0. 0. 0. 0. 0. 0. 0. 0. 0. 0. 0. 0. 0. 0. 0. 0. 0. 0. 0. 0.
      0. 0. 0. 0. 0. 0. 0. 0. 0. 0. 0. 0. 0. 0. 0. 0. 0. 0. 0. 0. 0. 0.</_>
    <_>
      -4.73442014e-05 -1.64371857e-04 -1.31236331e-04 0. 2.06128068e-04
      -1.31236331e-04 1.08620516e-04 9.02048560e-05 -5.53916834e-05
      -2.35583808e-04 2.58805259e-04 0. 1.50440232e-04 0.
      -2.81176384e-04 0. 0. 0. 0. 0. 0. 0. 0. 0. 0. 0. 0. 0. 0. 0. 0. 0.
      0. 0. 0. 0. 0. 0. 0. 0. 0. 0. 0. 0. 0. 0. 0. 0. 0. 0. 0. 0. 0. 0.
      0. 0. 0. 0. 0. 0. 0. 0. 0. 0.</_>
    <_>
      3.48477579e-06 -1.04833452e-04 0. -2.36433742e-04 2.03585281e-04
      -1.67183884e-04 2.25696131e-04 1.28818356e-04 -1.80174451e-04
      5.42101086e-20 1.82176635e-04 0. -6.70496320e-06 0.
      -1.53863468e-04 0. 0. 0. 0. 0. 0. 0. 0. 0. 0. 0. 0. 0. 0. 0. 0. 0.
      0. 0. 0. 0. 0. 0. 0. 0. 0. 0. 0. 0. 0. 0. 0. 0. 0. 0. 0. 0. 0. 0.
      0. 0. 0. 0. 0. 0. 0. 0. 0. 0.</_>
    <_>
      -2.32219350e-06 5.82699286e-05 0. 0. 2.35331347e-04 3.23296517e-05
      1.49879212e-04 2.28605186e-05 -7.66818412e-05 6.41609076e-05
      3.23296517e-05 3.19858627e-05 -5.87811428e-06 2.26174179e-05
      3.06706024e-05 0. 0. 0. 0. 0. 0. 0. 0. 0. 0. 0. 0. 0. 0. 0. 0. 0.
      0. 0. 0. 0. 0. 0. 0. 0. 0. 0. 0. 0. 0. 0. 0. 0. 0. 0. 0. 0. 0. 0.
      0. 0. 0. 0. 0. 0. 0. 0. 0. 0.</_>
    <_>
      2.52245343e-04 -1.24758924e-04 -1.22582656e-04 0. 1.35407099e-04
      5.63216281e-06 1.45556129e-04 3.98254087e-06 -1.55035465e-04
      -6.66138949e-05 1.28214815e-04 2.27084209e-04 -3.18814913e-04
      1.60572759e-04 -3.85714084e-04 0. 0. 0. 0. 0. 0. 0. 0. 0. 0. 0. 0.
      0. 0. 0. 0. 0. 0. 0. 0. 0. 0. 0. 0. 0. 0. 0. 0. 0. 0. 0. 0. 0. 0.
      0. 0. 0. 0. 0. 0. 0. 0. 0. 0. 0. 0. 0. 0. 0.</_>
    <_>
      1.15721865e-04 -2.83862100e-05 -3.24323846e-05 -1.50389722e-04
      2.16457702e-04 -1.25603692e-04 1.63277422e-04 2.07793692e-05
      -1.08673390e-04 5.97782418e-05 2.93864614e-05 1.08830980e-04
      -2.05525444e-04 9.31713075e-05 -8.83900793e-05 -2.29331617e-05 0.
      0. 0. 0. 0. 0. 0. 0. 0. 0. 0. 0. 0. 0. 0. 0. 0. 0. 0. 0. 0. 0. 0.
      0. 0. 0. 0. 0. 0. 0. 0. 0. 0. 0. 0. 0. 0. 0. 0. 0. 0. 0. 0. 0. 0.
      0. 0. 0.</_>
    <_>
      9.41431717e-05 -6.89553635e-05 -2.77576728e-05 0. -2.30505670e-04
      -2.77576728e-05 -1.06570064e-04 -1.96276396e-05 7.17162984e-05
      -6.93310794e-05 0. 0. -5.36927073e-05 0. -1.06945779e-04 0. 0. 0.
      0. 0. 0. 0. 0. 0. 0. 0. 0. 0. 0. 0. 0. 0. 0. 0. 0. 0. 0. 0. 0. 0.
      0. 0. 0. 0. 0. 0. 0. 0. 0. 0. 0. 0. 0. 0. 0. 0. 0. 0. 0. 0. 0. 0.
      0. 0.</_>
    <_>
      1.02638151e-04 -1.01340171e-04 -1.05316634e-04 -7.44701174e-05
      -2.35495187e-04 -2.10633269e-04 -9.99121403e-05 0. -1.88243757e-05
      -3.67696557e-05 0. -7.44701174e-05 -1.23999140e-04 0.
      -1.08532797e-04 -5.51937374e-05 0. 0. 0. 0. 0. 0. 0. 0. 0. 0. 0.
      0. 0. 0. 0. 0. 0. 0. 0. 0. 0. 0. 0. 0. 0. 0. 0. 0. 0. 0. 0. 0. 0.
      0. 0. 0. 0. 0. 0. 0. 0. 0. 0. 0. 0. 0. 0. 0.</_>
    <_>
      1.03021957e-04 -1.00880982e-06 1.21116216e-04 -3.65879823e-04
      1.57612609e-04 -1.76025263e-04 2.26470642e-04 1.39983837e-04
      -2.19930997e-04 2.83858215e-04 0. -5.43417264e-05 -2.51204940e-04
      0. 1.93138825e-04 -5.43417264e-05 0. 0. 0. 0. 0. 0. 0. 0. 0. 0. 0.
      0. 0. 0. 0. 0. 0. 0. 0. 0. 0. 0. 0. 0. 0. 0. 0. 0. 0. 0. 0. 0. 0.
      0. 0. 0. 0. 0. 0. 0. 0. 0. 0. 0. 0. 0. 0. 0.</_></support_vectors>
  <uncompressed_sv_total>21</uncompressed_sv_total>
  <uncompressed_support_vectors>
    <_>
      4590. 5.82851221e+03 1.14039453e+03 8.06380798e+02 5610. 0.
      3.60624451e+02 8.06380798e+02 2.84638086e+03 6.13061523e+03 0.
      8.06380798e+02 4080. 0. 1.08187329e+03 0. 0. 0. 0. 0. 0. 0. 0. 0.
      0. 0. 0. 0. 0. 0. 0. 0. 0. 0. 0. 0. 0. 0. 0. 0. 0. 0. 0. 0. 0. 0.
      0. 0. 0. 0. 0. 0. 0. 0. 0. 0. 0. 0. 0. 0. 0. 0. 0. 0.</_>
    <_>
      7650. 2.16374658e+03 0. 0. 4.37638086e+03 0. 3.24561987e+03
      8.06380798e+02 2040. 1.80312219e+03 0. 0. 5.18276172e+03 0.
      2.88499561e+03 0. 0. 0. 0. 0. 0. 0. 0. 0. 0. 0. 0. 0. 0. 0. 0. 0.
      0. 0. 0. 0. 0. 0. 0. 0. 0. 0. 0. 0. 0. 0. 0. 0. 0. 0. 0. 0. 0. 0.
      0. 0. 0. 0. 0. 0. 0. 0. 0. 0.</_>
    <_>
      1.10891426e+04 5.52640918e+03 0. 0. 2550. 0. 0. 2.41914233e+03
      7650. 1.50101904e+03 0. 0. 3.94914233e+03 0. 7.21248901e+02
      1.61276160e+03 0. 0. 0. 0. 0. 0. 0. 0. 0. 0. 0. 0. 0. 0. 0. 0. 0.
      0. 0. 0. 0. 0. 0. 0. 0. 0. 0. 0. 0. 0. 0. 0. 0. 0. 0. 0. 0. 0. 0.
      0. 0. 0. 0. 0. 0. 0. 0. 0.</_>
    <_>
      5610. 1.44249780e+03 0. 0. 5.69276172e+03 0. 3.24561987e+03
      1.61276160e+03 4.88638086e+03 1.08187329e+03 2.28078906e+03 0.
      5100. 0. 1.08187329e+03 0. 0. 0. 0. 0. 0. 0. 0. 0. 0. 0. 0. 0. 0.
      0. 0. 0. 0. 0. 0. 0. 0. 0. 0. 0. 0. 0. 0. 0. 0. 0. 0. 0. 0. 0. 0.
      0. 0. 0. 0. 0. 0. 0. 0. 0. 0. 0. 0. 0.</_>
    <_>
      1.13027617e+04 2.28078906e+03 0. 0. 0. 0. 0. 0. 1.10063809e+04
      4.08391113e+03 0. 0. 4590. 0. 3.60624451e+02 8.06380798e+02 0. 0.
      0. 0. 0. 0. 0. 0. 0. 0. 0. 0. 0. 0. 0. 0. 0. 0. 0. 0. 0. 0. 0. 0.
      0. 0. 0. 0. 0. 0. 0. 0. 0. 0. 0. 0. 0. 0. 0. 0. 0. 0. 0. 0. 0. 0.
      0. 0.</_>
    <_>
      6120. 3.30414111e+03 0. 0. 5610. 0. 3.30414111e+03 0. 6120.
      2.88499561e+03 0. 0. 5610. 0. 2.88499561e+03 0. 0. 0. 0. 0. 0. 0.
      0. 0. 0. 0. 0. 0. 0. 0. 0. 0. 0. 0. 0. 0. 0. 0. 0. 0. 0. 0. 0. 0.
      0. 0. 0. 0. 0. 0. 0. 0. 0. 0. 0. 0. 0. 0. 0. 0. 0. 0. 0. 0.</_>
    <_>
      7.00914258e+03 2.22226782e+03 1.14039453e+03 8.06380798e+02 2550.
      2.28078906e+03 1.08187329e+03 0. 7650. 2.52437109e+03 0.
      8.06380798e+02 5.39638086e+03 0. 1.80312219e+03 8.06380798e+02 0.
      0. 0. 0. 0. 0. 0. 0. 0. 0. 0. 0. 0. 0. 0. 0. 0. 0. 0. 0. 0. 0. 0.
      0. 0. 0. 0. 0. 0. 0. 0. 0. 0. 0. 0. 0. 0. 0. 0. 0. 0. 0. 0. 0. 0.
      0. 0. 0.</_>
    <_>
      9180. 2.58289233e+03 0. 0. 4590. 0. 2.58289233e+03 0. 9180.
      2.58289233e+03 0. 0. 4590. 0. 2.58289233e+03 0. 0. 0. 0. 0. 0. 0.
      0. 0. 0. 0. 0. 0. 0. 0. 0. 0. 0. 0. 0. 0. 0. 0. 0. 0. 0. 0. 0. 0.
      0. 0. 0. 0. 0. 0. 0. 0. 0. 0. 0. 0. 0. 0. 0. 0. 0. 0. 0. 0.</_>
    <_>
      5610. 1.08187329e+03 0. 0. 2550. 0. 1.08187329e+03 0. 8670.
      3.60624451e+02 0. 0. 1020. 0. 1.08187329e+03 0. 0. 0. 0. 0. 0. 0.
      0. 0. 0. 0. 0. 0. 0. 0. 0. 0. 0. 0. 0. 0. 0. 0. 0. 0. 0. 0. 0. 0.
      0. 0. 0. 0. 0. 0. 0. 0. 0. 0. 0. 0. 0. 0. 0. 0. 0. 0. 0. 0.</_>
    <_>
      2.33638086e+03 2.16374658e+03 1.14039453e+03 0. 3.86638086e+03 0.
      7.21248901e+02 0. 1.31638086e+03 2.52437109e+03 0. 0. 3060. 0.
      7.21248901e+02 0. 0. 0. 0. 0. 0. 0. 0. 0. 0. 0. 0. 0. 0. 0. 0. 0.
      0. 0. 0. 0. 0. 0. 0. 0. 0. 0. 0. 0. 0. 0. 0. 0. 0. 0. 0. 0. 0. 0.
      0. 0. 0. 0. 0. 0. 0. 0. 0. 0.</_>
    <_>
      2550. 1.44249780e+03 0. 8.06380798e+02 2040. 0. 1.08187329e+03
      8.06380798e+02 510. 7.21248901e+02 0. 0. 2.84638086e+03 0.
      2.16374658e+03 0. 0. 0. 0. 0. 0. 0. 0. 0. 0. 0. 0. 0. 0. 0. 0. 0.
      0. 0. 0. 0. 0. 0. 0. 0. 0. 0. 0. 0. 0. 0. 0. 0. 0. 0. 0. 0. 0. 0.
      0. 0. 0. 0. 0. 0. 0. 0. 0. 0.</_>
    <_>
      4.88638086e+03 4.74663916e+03 0. 0. 2.84638086e+03 0.
      7.21248901e+02 0. 2.12276172e+03 7.21248901e+02 0. 0.
      2.63276172e+03 0. 1.08187329e+03 1.61276160e+03 0. 0. 0. 0. 0. 0.
      0. 0. 0. 0. 0. 0. 0. 0. 0. 0. 0. 0. 0. 0. 0. 0. 0. 0. 0. 0. 0. 0.
      0. 0. 0. 0. 0. 0. 0. 0. 0. 0. 0. 0. 0. 0. 0. 0. 0. 0. 0. 0.</_>
    <_>
      2040. 7.21248901e+02 0. 0. 4.88638086e+03 0. 2.16374658e+03
      8.06380798e+02 1530. 1.08187329e+03 1.14039453e+03 0. 5610. 0.
      7.21248901e+02 0. 0. 0. 0. 0. 0. 0. 0. 0. 0. 0. 0. 0. 0. 0. 0. 0.
      0. 0. 0. 0. 0. 0. 0. 0. 0. 0. 0. 0. 0. 0. 0. 0. 0. 0. 0. 0. 0. 0.
      0. 0. 0. 0. 0. 0. 0. 0. 0. 0.</_>
    <_>
      3060. 1.08187329e+03 0. 0. 5610. 0. 1.80312231e+03 0.
      2.33638086e+03 1.50101904e+03 0. 1.61276160e+03 3570.
      1.14039453e+03 7.21248901e+02 0. 0. 0. 0. 0. 0. 0. 0. 0. 0. 0. 0.
      0. 0. 0. 0. 0. 0. 0. 0. 0. 0. 0. 0. 0. 0. 0. 0. 0. 0. 0. 0. 0. 0.
      0. 0. 0. 0. 0. 0. 0. 0. 0. 0. 0. 0. 0. 0. 0.</_>
    <_>
      7.00914258e+03 7.21248901e+02 0. 0. 0. 0. 0. 0. 6.20276172e+03
      1.44249780e+03 0. 0. 3.86638086e+03 0. 7.21248901e+02 0. 0. 0. 0.
      0. 0. 0. 0. 0. 0. 0. 0. 0. 0. 0. 0. 0. 0. 0. 0. 0. 0. 0. 0. 0. 0.
      0. 0. 0. 0. 0. 0. 0. 0. 0. 0. 0. 0. 0. 0. 0. 0. 0. 0. 0. 0. 0. 0.
      0.</_>
    <_>
      1.82638086e+03 1.08187329e+03 1.14039453e+03 0. 3060.
      1.14039453e+03 1.08187329e+03 8.06380798e+02 1020. 2.16374658e+03
      0. 0. 4080. 0. 2.16374658e+03 0. 0. 0. 0. 0. 0. 0. 0. 0. 0. 0. 0.
      0. 0. 0. 0. 0. 0. 0. 0. 0. 0. 0. 0. 0. 0. 0. 0. 0. 0. 0. 0. 0. 0.
      0. 0. 0. 0. 0. 0. 0. 0. 0. 0. 0. 0. 0. 0. 0.</_>
    <_>
      2.33638086e+03 1.50101904e+03 0. 1.61276160e+03 3570.
      1.14039453e+03 7.21248901e+02 0. 3060. 1.08187329e+03 0. 0. 5610.
      0. 1.80312231e+03 0. 0. 0. 0. 0. 0. 0. 0. 0. 0. 0. 0. 0. 0. 0. 0.
      0. 0. 0. 0. 0. 0. 0. 0. 0. 0. 0. 0. 0. 0. 0. 0. 0. 0. 0. 0. 0. 0.
      0. 0. 0. 0. 0. 0. 0. 0. 0. 0. 0.</_>
    <_>
      4.88638086e+03 3.60624451e+02 0. 8.06380798e+02 1.82638086e+03 0.
      3.60624451e+02 8.06380798e+02 4.88638086e+03 3.60624451e+02 0.
      8.06380798e+02 1.82638086e+03 0. 3.60624451e+02 8.06380798e+02 0.
      0. 0. 0. 0. 0. 0. 0. 0. 0. 0. 0. 0. 0. 0. 0. 0. 0. 0. 0. 0. 0. 0.
      0. 0. 0. 0. 0. 0. 0. 0. 0. 0. 0. 0. 0. 0. 0. 0. 0. 0. 0. 0. 0. 0.
      0. 0. 0.</_>
    <_>
      8160. 2.88499561e+03 0. 0. 5610. 0. 2.88499561e+03 0. 8160.
      3.30414111e+03 0. 0. 5610. 0. 3.30414111e+03 0. 0. 0. 0. 0. 0. 0.
      0. 0. 0. 0. 0. 0. 0. 0. 0. 0. 0. 0. 0. 0. 0. 0. 0. 0. 0. 0. 0. 0.
      0. 0. 0. 0. 0. 0. 0. 0. 0. 0. 0. 0. 0. 0. 0. 0. 0. 0. 0. 0.</_>
    <_>
      9690. 2.52437109e+03 0. 0. 4.37638086e+03 1.14039453e+03
      4.02539014e+03 8.06380798e+02 6.20276172e+03 3.66476563e+03
      1.14039453e+03 0. 3.86638086e+03 0. 1.80312219e+03 0. 0. 0. 0. 0.
      0. 0. 0. 0. 0. 0. 0. 0. 0. 0. 0. 0. 0. 0. 0. 0. 0. 0. 0. 0. 0. 0.
      0. 0. 0. 0. 0. 0. 0. 0. 0. 0. 0. 0. 0. 0. 0. 0. 0. 0. 0. 0. 0. 0.</_>
    <_>
      11220. 2.58289233e+03 0. 0. 4590. 0. 2.58289233e+03 0. 11220.
      2.58289233e+03 0. 0. 4590. 0. 2.58289233e+03 0. 0. 0. 0. 0. 0. 0.
      0. 0. 0. 0. 0. 0. 0. 0. 0. 0. 0. 0. 0. 0. 0. 0. 0. 0. 0. 0. 0. 0.
      0. 0. 0. 0. 0. 0. 0. 0. 0. 0. 0. 0. 0. 0. 0. 0. 0. 0. 0. 0.</_></uncompressed_support_vectors>
  <decision_functions>
    <_>
      <sv_count>1</sv_count>
      <rho>-5.8165590891270258e-01</rho>
      <alpha>
        1.</alpha>
      <index>
        0</index></_>
    <_>
      <sv_count>1</sv_count>
      <rho>3.4156989902948953e-01</rho>
      <alpha>
        1.</alpha>
      <index>
        1</index></_>
    <_>
      <sv_count>1</sv_count>
      <rho>3.6754740481119413e-01</rho>
      <alpha>
        1.</alpha>
      <index>
        2</index></_>
    <_>
      <sv_count>1</sv_count>
      <rho>-6.6452688846888763e-01</rho>
      <alpha>
        1.</alpha>
      <index>
        3</index></_>
    <_>
      <sv_count>1</sv_count>
      <rho>-3.8212712299594426e-01</rho>
      <alpha>
        1.</alpha>
      <index>
        4</index></_>
    <_>
      <sv_count>1</sv_count>
      <rho>1.1074188101830235e-01</rho>
      <alpha>
        1.</alpha>
      <index>
        5</index></_>
    <_>
      <sv_count>1</sv_count>
      <rho>-5.9806951405097319e-01</rho>
      <alpha>
        1.</alpha>
      <index>
        6</index></_>
    <_>
      <sv_count>1</sv_count>
      <rho>5.1440720523566008e-01</rho>
      <alpha>
        1.</alpha>
      <index>
        7</index></_>
    <_>
      <sv_count>1</sv_count>
      <rho>-6.8912708974638104e-01</rho>
      <alpha>
        1.</alpha>
      <index>
        8</index></_>
    <_>
      <sv_count>1</sv_count>
      <rho>8.7935650611103788e-01</rho>
      <alpha>
        1.</alpha>
      <index>
        9</index></_>
    <_>
      <sv_count>1</sv_count>
      <rho>6.4753697512170882e-01</rho>
      <alpha>
        1.</alpha>
      <index>
        10</index></_>
    <_>
      <sv_count>1</sv_count>
      <rho>-2.5390532138442018e-01</rho>
      <alpha>
        1.</alpha>
      <index>
        11</index></_>
    <_>
      <sv_count>1</sv_count>
      <rho>-3.4645842485858425e-01</rho>
      <alpha>
        1.</alpha>
      <index>
        12</index></_>
    <_>
      <sv_count>1</sv_count>
      <rho>-2.1468980572288388e-01</rho>
      <alpha>
        1.</alpha>
      <index>
        13</index></_>
    <_>
      <sv_count>1</sv_count>
      <rho>3.4149816128434712e-01</rho>
      <alpha>
        1.</alpha>
      <index>
        14</index></_>
    <_>
      <sv_count>1</sv_count>
      <rho>-5.5825353943702660e-01</rho>
      <alpha>
        1.</alpha>
      <index>
        15</index></_>
    <_>
      <sv_count>1</sv_count>
      <rho>-6.8046280820201555e-01</rho>
      <alpha>
        1.</alpha>
      <index>
        16</index></_>
    <_>
      <sv_count>1</sv_count>
      <rho>6.1350399852350879e-01</rho>
      <alpha>
        1.</alpha>
      <index>
        17</index></_>
    <_>
      <sv_count>1</sv_count>
      <rho>-5.2617974204759632e-01</rho>
      <alpha>
        1.</alpha>
      <index>
        18</index></_>
    <_>
      <sv_count>1</sv_count>
      <rho>-1.5023587619912471e+00</rho>
      <alpha>
        1.</alpha>
      <index>
        19</index></_>
    <_>
      <sv_count>1</sv_count>
      <rho>-1.8748302103342427e+00</rho>
      <alpha>
        1.</alpha>
      <index>
        20</index></_>
    <_>
      <sv_count>1</sv_count>
      <rho>-8.3383365764676076e-01</rho>
      <alpha>
        1.</alpha>
      <index>
        21</index></_>
    <_>
      <sv_count>1</sv_count>
      <rho>-1.1397147474274185e+00</rho>
      <alpha>
        1.</alpha>
      <index>
        22</index></_>
    <_>
      <sv_count>1</sv_count>
      <rho>-1.3624435080954451e+00</rho>
      <alpha>
        1.</alpha>
      <index>
        23</index></_>
    <_>
      <sv_count>1</sv_count>
      <rho>-7.1951500968796378e-01</rho>
      <alpha>
        1.</alpha>
      <index>
        24</index></_>
    <_>
      <sv_count>1</sv_count>
      <rho>-9.5402343880413054e-01</rho>
      <alpha>
        1.</alpha>
      <index>
        25</index></_>
    <_>
      <sv_count>1</sv_count>
      <rho>-2.8837894912590784e-01</rho>
      <alpha>
        1.</alpha>
      <index>
        26</index></_>
    <_>
      <sv_count>1</sv_count>
      <rho>-5.7069271093495011e-01</rho>
      <alpha>
        1.</alpha>
      <index>
        27</index></_>
    <_>
      <sv_count>1</sv_count>
      <rho>-1.2355338525154922e+00</rho>
      <alpha>
        1.</alpha>
      <index>
        28</index></_>
    <_>
      <sv_count>1</sv_count>
      <rho>-1.4113040251723801e+00</rho>
      <alpha>
        1.</alpha>
      <index>
        29</index></_>
    <_>
      <sv_count>1</sv_count>
      <rho>-4.8908215643585889e-01</rho>
      <alpha>
        1.</alpha>
      <index>
        30</index></_>
    <_>
      <sv_count>1</sv_count>
      <rho>-5.5884453002809509e-01</rho>
      <alpha>
        1.</alpha>
      <index>
        31</index></_>
    <_>
      <sv_count>1</sv_count>
      <rho>6.8073768005697066e-01</rho>
      <alpha>
        1.</alpha>
      <index>
        32</index></_>
    <_>
      <sv_count>1</sv_count>
      <rho>-2.6708429865255512e-01</rho>
      <alpha>
        1.</alpha>
      <index>
        33</index></_>
    <_>
      <sv_count>1</sv_count>
      <rho>-2.6714286369885182e-01</rho>
      <alpha>
        1.</alpha>
      <index>
        34</index></_>
    <_>
      <sv_count>1</sv_count>
      <rho>1.0971306341035905e+00</rho>
      <alpha>
        1.</alpha>
      <index>
        35</index></_>
    <_>
      <sv_count>1</sv_count>
      <rho>3.9801704639296265e-01</rho>
      <alpha>
        1.</alpha>
      <index>
        36</index></_>
    <_>
      <sv_count>1</sv_count>
      <rho>6.9654281778930827e-01</rho>
      <alpha>
        1.</alpha>
      <index>
        37</index></_>
    <_>
      <sv_count>1</sv_count>
      <rho>3.0201682189314205e-01</rho>
      <alpha>
        1.</alpha>
      <index>
        38</index></_>
    <_>
      <sv_count>1</sv_count>
      <rho>6.4205750986690768e-01</rho>
      <alpha>
        1.</alpha>
      <index>
        39</index></_>
    <_>
      <sv_count>1</sv_count>
      <rho>-6.7023988640545651e-01</rho>
      <alpha>
        1.</alpha>
      <index>
        40</index></_>
    <_>
      <sv_count>1</sv_count>
      <rho>1.5225495580765441e-01</rho>
      <alpha>
        1.</alpha>
      <index>
        41</index></_>
    <_>
      <sv_count>1</sv_count>
      <rho>-3.2977301607073306e-01</rho>
      <alpha>
        1.</alpha>
      <index>
        42</index></_>
    <_>
      <sv_count>1</sv_count>
      <rho>-1.0811968106665200e+00</rho>
      <alpha>
        1.</alpha>
      <index>
        43</index></_>
    <_>
      <sv_count>1</sv_count>
      <rho>-2.5250982619629248e-01</rho>
      <alpha>
        1.</alpha>
      <index>
        44</index></_></decision_functions></opencv_ml_svm>
</opencv_storage>
