<?xml version="1.0"?>
<opencv_storage>
<opencv_ml_svm>
  <format>3</format>
  <svmType>C_SVC</svmType>
  <kernel>
    <type>LINEAR</type></kernel>
  <C>1.</C>
  <term_criteria><epsilon>1.1920928955078125e-07</epsilon>
    <iterations>1000</iterations></term_criteria>
  <var_count>64</var_count>
  <class_count>11</class_count>
  <class_labels type_id="opencv-matrix">
    <rows>11</rows>
    <cols>1</cols>
    <dt>i</dt>
    <data>
      0 1 2 3 4 5 6 7 8 9 11</data></class_labels>
  <sv_total>55</sv_total>
  <support_vectors>
    <_>
      1.29079577e-04 -4.76445493e-05 6.55978220e-05 -3.71180420e-08
      1.32613670e-04 6.55978220e-05 -4.76445493e-05 -4.28651110e-05
      -2.79779662e-04 5.48624048e-05 1.61216405e-04 1.28280197e-04
      3.19211947e-04 4.07640509e-05 -4.57179995e-05 -4.20654970e-07 0.
      0. 0. 0. 0. 0. 0. 0. 0. 0. 0. 0. 0. 0. 0. 0. 0. 0. 0. 0. 0. 0. 0.
      0. 0. 0. 0. 0. 0. 0. 0. 0. 0. 0. 0. 0. 0. 0. 0. 0. 0. 0. 0. 0. 0.
      0. 0. 0.</_>
    <_>
      7.48060775e-05 -8.16754837e-05 -1.68885002e-04 -8.33267623e-05
      -1.15356954e-04 -4.11441442e-06 4.34318208e-05 1.04484476e-04
      9.97843526e-05 -4.28061940e-05 -1.41239128e-04 -4.45057594e-05
      -6.16294710e-05 -3.82084763e-05 1.80617990e-05 9.18146761e-05 0.
      0. 0. 0. 0. 0. 0. 0. 0. 0. 0. 0. 0. 0. 0. 0. 0. 0. 0. 0. 0. 0. 0.
      0. 0. 0. 0. 0. 0. 0. 0. 0. 0. 0. 0. 0. 0. 0. 0. 0. 0. 0. 0. 0. 0.
      0. 0. 0.</_>
    <_>
      -4.75588713e-05 7.02559589e-07 -1.38226475e-04 6.67197965e-05
      -1.83990807e-04 -8.61183944e-05 -6.07992042e-05 1.93985441e-04
      2.23501207e-04 7.47291733e-06 -4.15233153e-05 -9.41839971e-06
      -1.81339681e-04 -7.72580242e-05 -7.00298842e-05 1.01408048e-04 0.
      0. 0. 0. 0. 0. 0. 0. 0. 0. 0. 0. 0. 0. 0. 0. 0. 0. 0. 0. 0. 0. 0.
      0. 0. 0. 0. 0. 0. 0. 0. 0. 0. 0. 0. 0. 0. 0. 0. 0. 0. 0. 0. 0. 0.
      0. 0. 0.</_>
    <_>
      -2.49034376e-04 -2.68186413e-04 -1.05280575e-04 5.34454084e-05
      1.90634790e-04 1.29353997e-04 5.53599020e-05 -1.07015214e-04
      1.33808717e-04 6.53631359e-05 5.99159612e-05 1.46287013e-04
      1.96919747e-04 6.58538629e-05 4.59235489e-05 -2.93862595e-05 0. 0.
      0. 0. 0. 0. 0. 0. 0. 0. 0. 0. 0. 0. 0. 0. 0. 0. 0. 0. 0. 0. 0. 0.
      0. 0. 0. 0. 0. 0. 0. 0. 0. 0. 0. 0. 0. 0. 0. 0. 0. 0. 0. 0. 0. 0.
      0. 0.</_>
    <_>
      8.42646041e-05 -7.25173522e-05 -9.97183888e-05 6.48180794e-05
      -2.18645684e-04 -2.34166626e-04 -1.22978003e-04 7.00893142e-05
      7.48525490e-05 -9.25017812e-05 -2.38217137e-04 -1.23065751e-04
      -6.80054582e-05 6.53926763e-05 -5.35955332e-05 1.58003721e-04 0.
      0. 0. 0. 0. 0. 0. 0. 0. 0. 0. 0. 0. 0. 0. 0. 0. 0. 0. 0. 0. 0. 0.
      0. 0. 0. 0. 0. 0. 0. 0. 0. 0. 0. 0. 0. 0. 0. 0. 0. 0. 0. 0. 0. 0.
      0. 0. 0.</_>
    <_>
      -6.21561412e-05 5.18644811e-05 -1.65655700e-04 -2.29573561e-05
      -3.89961031e-04 -1.61904929e-04 -2.18562593e-04 7.53828936e-05
      3.35061486e-04 -2.55076535e-04 -3.16237158e-04 2.13253370e-04
      -1.70829444e-04 -1.89538085e-04 1.64909477e-04 2.74122667e-05 0.
      0. 0. 0. 0. 0. 0. 0. 0. 0. 0. 0. 0. 0. 0. 0. 0. 0. 0. 0. 0. 0. 0.
      0. 0. 0. 0. 0. 0. 0. 0. 0. 0. 0. 0. 0. 0. 0. 0. 0. 0. 0. 0. 0. 0.
      0. 0. 0.</_>
    <_>
      -9.47867284e-06 -1.28478190e-04 3.32593445e-05 5.49253418e-05
      1.96966808e-04 5.07024088e-05 2.55734558e-05 6.74341209e-05
      -2.40088430e-05 -1.85594123e-04 -3.39527942e-05 1.46847406e-05
      -6.79232762e-05 1.04007777e-05 2.73363330e-05 3.89360794e-05 0. 0.
      0. 0. 0. 0. 0. 0. 0. 0. 0. 0. 0. 0. 0. 0. 0. 0. 0. 0. 0. 0. 0. 0.
      0. 0. 0. 0. 0. 0. 0. 0. 0. 0. 0. 0. 0. 0. 0. 0. 0. 0. 0. 0. 0. 0.
      0. 0.</_>
    <_>
      2.20467162e-04 -1.76062371e-04 -1.45859769e-04 1.85913686e-05
      -1.39572832e-04 -1.45859769e-04 -1.76062371e-04 2.13447041e-04
      1.50415799e-04 -1.17666146e-04 -2.02279134e-05 -1.66614307e-04
      -2.64224567e-04 -2.02279134e-05 -1.17666146e-04 1.43395664e-04 0.
      0. 0. 0. 0. 0. 0. 0. 0. 0. 0. 0. 0. 0. 0. 0. 0. 0. 0. 0. 0. 0. 0.
      0. 0. 0. 0. 0. 0. 0. 0. 0. 0. 0. 0. 0. 0. 0. 0. 0. 0. 0. 0. 0. 0.
      0. 0. 0.</_>
    <_>
      -9.67526939e-05 -2.32913429e-04 -2.97756749e-04 9.73605493e-05
      -1.76215384e-04 -7.79278416e-05 1.12879670e-05 -1.08631582e-04
      2.63701368e-04 -9.17870711e-05 -1.62169672e-04 -2.02665498e-04
      -4.10695066e-04 5.16155887e-05 -3.85380554e-04 3.15394369e-04 0.
      0. 0. 0. 0. 0. 0. 0. 0. 0. 0. 0. 0. 0. 0. 0. 0. 0. 0. 0. 0. 0. 0.
      0. 0. 0. 0. 0. 0. 0. 0. 0. 0. 0. 0. 0. 0. 0. 0. 0. 0. 0. 0. 0. 0.
      0. 0. 0.</_>
    <_>
      2.37459299e-05 4.46857030e-06 6.52330527e-07 7.39413190e-06
      -6.64250547e-05 6.52330527e-07 4.46857030e-06 1.60610853e-05
      2.37459299e-05 4.46857030e-06 6.52330527e-07 7.39413190e-06
      -6.64250547e-05 6.52330527e-07 4.46857030e-06 1.60610853e-05 0. 0.
      0. 0. 0. 0. 0. 0. 0. 0. 0. 0. 0. 0. 0. 0. 0. 0. 0. 0. 0. 0. 0. 0.
      0. 0. 0. 0. 0. 0. 0. 0. 0. 0. 0. 0. 0. 0. 0. 0. 0. 0. 0. 0. 0. 0.
      0. 0.</_>
    <_>
      5.43252463e-05 -2.26321736e-05 -5.59594955e-05 -3.51239250e-05
      -3.74516276e-05 9.84572671e-06 6.51010259e-06 1.36038725e-05
      1.38241696e-04 -3.29039503e-05 -6.96244606e-05 -4.09904496e-05
      -4.08566739e-05 -5.36467496e-07 -4.42970531e-06 1.77759466e-05 0.
      0. 0. 0. 0. 0. 0. 0. 0. 0. 0. 0. 0. 0. 0. 0. 0. 0. 0. 0. 0. 0. 0.
      0. 0. 0. 0. 0. 0. 0. 0. 0. 0. 0. 0. 0. 0. 0. 0. 0. 0. 0. 0. 0. 0.
      0. 0. 0.</_>
    <_>
      2.96779981e-05 -1.78187693e-05 -2.86715567e-05 6.25249140e-06
      -4.88221449e-05 -4.01926045e-05 -1.81088808e-06 3.10567157e-05
      1.90133025e-04 -1.02609411e-05 -4.52864442e-05 -3.26800982e-05
      -8.15732274e-05 -2.21153387e-05 -3.06828260e-05 1.38915148e-05 0.
      0. 0. 0. 0. 0. 0. 0. 0. 0. 0. 0. 0. 0. 0. 0. 0. 0. 0. 0. 0. 0. 0.
      0. 0. 0. 0. 0. 0. 0. 0. 0. 0. 0. 0. 0. 0. 0. 0. 0. 0. 0. 0. 0. 0.
      0. 0. 0.</_>
    <_>
      -1.66616912e-04 -1.27990454e-04 -1.15735937e-04 1.46017992e-05
      2.68093554e-05 4.67909194e-05 8.70325384e-05 1.05184889e-04
      3.23034386e-04 0. -6.00085805e-05 -9.44190560e-06 -1.30472428e-04
      2.95792033e-05 9.65687432e-05 1.04684696e-05 0. 0. 0. 0. 0. 0. 0.
      0. 0. 0. 0. 0. 0. 0. 0. 0. 0. 0. 0. 0. 0. 0. 0. 0. 0. 0. 0. 0. 0.
      0. 0. 0. 0. 0. 0. 0. 0. 0. 0. 0. 0. 0. 0. 0. 0. 0. 0. 0.</_>
    <_>
      8.85495465e-05 -1.37891057e-05 -1.63262539e-05 8.09367793e-06
      -6.00367021e-05 -4.56075868e-05 -2.47788739e-05 1.24779808e-05
      1.70700761e-04 -4.01423677e-05 -6.61228478e-05 -6.00452768e-05
      -6.74485636e-05 2.54018487e-05 -9.79275228e-06 1.99162459e-05 0.
      0. 0. 0. 0. 0. 0. 0. 0. 0. 0. 0. 0. 0. 0. 0. 0. 0. 0. 0. 0. 0. 0.
      0. 0. 0. 0. 0. 0. 0. 0. 0. 0. 0. 0. 0. 0. 0. 0. 0. 0. 0. 0. 0. 0.
      0. 0. 0.</_>
    <_>
      6.64339168e-05 -4.15619343e-06 -3.02377484e-05 2.47002254e-06
      -2.35192692e-05 -3.66155182e-05 -3.47002788e-05 3.87760592e-05
      2.27268829e-04 -7.72531857e-05 -6.90414527e-05 0. -6.99078446e-05
      4.82453970e-06 1.92154293e-05 6.11382120e-06 0. 0. 0. 0. 0. 0. 0.
      0. 0. 0. 0. 0. 0. 0. 0. 0. 0. 0. 0. 0. 0. 0. 0. 0. 0. 0. 0. 0. 0.
      0. 0. 0. 0. 0. 0. 0. 0. 0. 0. 0. 0. 0. 0. 0. 0. 0. 0. 0.</_>
    <_>
      -3.65397791e-05 -7.93888321e-05 1.14407612e-05 3.81374339e-05
      1.16087976e-04 2.81017437e-05 2.67831256e-05 3.56183737e-05
      7.43667551e-05 -1.73682085e-04 -4.53641078e-05 -5.18710913e-05
      -1.19299249e-04 2.09919417e-05 2.70852343e-05 -2.14588745e-05 0.
      0. 0. 0. 0. 0. 0. 0. 0. 0. 0. 0. 0. 0. 0. 0. 0. 0. 0. 0. 0. 0. 0.
      0. 0. 0. 0. 0. 0. 0. 0. 0. 0. 0. 0. 0. 0. 0. 0. 0. 0. 0. 0. 0. 0.
      0. 0. 0.</_>
    <_>
      9.96433955e-05 -4.49024410e-05 -9.27910332e-06 1.94932809e-07
      -1.72367527e-05 -9.27910332e-06 -4.49024410e-05 2.61412588e-05
      1.70389874e-04 -5.18778616e-05 -1.40663724e-05 -4.72918291e-05
      -7.62604468e-05 9.28832924e-06 -3.13541750e-05 5.84761801e-06 0.
      0. 0. 0. 0. 0. 0. 0. 0. 0. 0. 0. 0. 0. 0. 0. 0. 0. 0. 0. 0. 0. 0.
      0. 0. 0. 0. 0. 0. 0. 0. 0. 0. 0. 0. 0. 0. 0. 0. 0. 0. 0. 0. 0. 0.
      0. 0. 0.</_>
    <_>
      7.00810633e-05 -1.08841250e-05 -4.08978885e-05 9.60960824e-06
      -3.51880954e-05 -1.46486782e-05 1.03588936e-05 1.98166836e-05
      2.23164214e-04 -3.96991236e-05 -5.27897173e-05 -5.98657134e-05
      -1.33505295e-04 3.51051676e-05 -3.32483469e-05 3.65443884e-05 0.
      0. 0. 0. 0. 0. 0. 0. 0. 0. 0. 0. 0. 0. 0. 0. 0. 0. 0. 0. 0. 0. 0.
      0. 0. 0. 0. 0. 0. 0. 0. 0. 0. 0. 0. 0. 0. 0. 0. 0. 0. 0. 0. 0. 0.
      0. 0. 0.</_>
    <_>
      2.11721981e-05 2.65337167e-06 3.22400592e-06 3.60882427e-06
      -5.17338740e-05 3.22400592e-06 2.65337167e-06 1.74748516e-06
      3.63482213e-05 0. 0. 0. -5.61267880e-05 3.24372922e-06
      2.25290319e-06 4.42818873e-06 0. 0. 0. 0. 0. 0. 0. 0. 0. 0. 0. 0.
      0. 0. 0. 0. 0. 0. 0. 0. 0. 0. 0. 0. 0. 0. 0. 0. 0. 0. 0. 0. 0. 0.
      0. 0. 0. 0. 0. 0. 0. 0. 0. 0. 0. 0. 0. 0.</_>
    <_>
      -2.45872623e-04 6.73028408e-05 2.16130633e-04 2.06736877e-04
      1.02767168e-04 -3.99005330e-05 -1.21065779e-04 -3.82511607e-05
      3.33319440e-05 6.38220081e-05 1.68535174e-04 6.67670320e-05
      -4.29598840e-05 -1.01542701e-05 -1.31107474e-04 -6.79031064e-06 0.
      0. 0. 0. 0. 0. 0. 0. 0. 0. 0. 0. 0. 0. 0. 0. 0. 0. 0. 0. 0. 0. 0.
      0. 0. 0. 0. 0. 0. 0. 0. 0. 0. 0. 0. 0. 0. 0. 0. 0. 0. 0. 0. 0. 0.
      0. 0. 0.</_>
    <_>
      -8.74766047e-05 -2.73137175e-05 4.37706549e-05 1.16674069e-04
      1.04211751e-04 6.25730172e-06 -5.30323741e-05 -5.03380943e-05
      -4.77689973e-05 4.15719187e-05 1.65441597e-04 9.42891857e-05
      7.43322817e-05 4.02387850e-05 -3.93944974e-05 -7.62931904e-06 0.
      0. 0. 0. 0. 0. 0. 0. 0. 0. 0. 0. 0. 0. 0. 0. 0. 0. 0. 0. 0. 0. 0.
      0. 0. 0. 0. 0. 0. 0. 0. 0. 0. 0. 0. 0. 0. 0. 0. 0. 0. 0. 0. 0. 0.
      0. 0. 0.</_>
    <_>
      -1.18801850e-04 9.94019501e-05 2.70388642e-04 2.20031332e-04
      -4.99942835e-05 -1.13807044e-04 -1.38603020e-04 -1.56266746e-04
      -7.06435167e-05 -4.60549345e-05 2.91543820e-05 5.43211343e-07
      -3.76420576e-05 1.15634153e-04 -6.78140423e-05 -3.98366410e-06 0.
      0. 0. 0. 0. 0. 0. 0. 0. 0. 0. 0. 0. 0. 0. 0. 0. 0. 0. 0. 0. 0. 0.
      0. 0. 0. 0. 0. 0. 0. 0. 0. 0. 0. 0. 0. 0. 0. 0. 0. 0. 0. 0. 0. 0.
      0. 0. 0.</_>
    <_>
      -7.70510014e-05 7.14988128e-05 3.51211056e-04 7.69407488e-05
      3.34568904e-05 3.16535843e-05 -1.01933634e-04 -1.46946812e-04
      -7.78568574e-05 4.99862908e-05 1.03663515e-04 5.19303612e-05
      2.04590378e-05 -1.97760237e-05 4.65523811e-07 -1.63900142e-04 0.
      0. 0. 0. 0. 0. 0. 0. 0. 0. 0. 0. 0. 0. 0. 0. 0. 0. 0. 0. 0. 0. 0.
      0. 0. 0. 0. 0. 0. 0. 0. 0. 0. 0. 0. 0. 0. 0. 0. 0. 0. 0. 0. 0. 0.
      0. 0. 0.</_>
    <_>
      -9.34083582e-05 1.16436122e-05 7.64274882e-05 8.10893034e-05
      1.23309626e-04 1.25729657e-05 0. 7.90299237e-06 -1.06697458e-04
      -5.88086987e-05 5.70201773e-05 5.15098509e-05 -3.81200771e-05
      -4.61486979e-06 2.31292761e-05 1.13916058e-05 0. 0. 0. 0. 0. 0. 0.
      0. 0. 0. 0. 0. 0. 0. 0. 0. 0. 0. 0. 0. 0. 0. 0. 0. 0. 0. 0. 0. 0.
      0. 0. 0. 0. 0. 0. 0. 0. 0. 0. 0. 0. 0. 0. 0. 0. 0. 0. 0.</_>
    <_>
      1.78698701e-05 5.73619545e-05 4.09485830e-04 1.73947687e-04
      1.41957440e-04 -1.60100011e-04 -1.94113585e-04 -1.34774920e-04
      -1.08556444e-04 1.11943795e-04 1.85755576e-04 -5.20876929e-05
      -5.46752999e-05 -9.67793039e-06 -1.03447164e-04 -1.16980133e-04 0.
      0. 0. 0. 0. 0. 0. 0. 0. 0. 0. 0. 0. 0. 0. 0. 0. 0. 0. 0. 0. 0. 0.
      0. 0. 0. 0. 0. 0. 0. 0. 0. 0. 0. 0. 0. 0. 0. 0. 0. 0. 0. 0. 0. 0.
      0. 0. 0.</_>
    <_>
      -6.44084139e-05 1.17821137e-05 2.66332034e-04 1.09272652e-04
      1.01004356e-04 -3.16316509e-05 -5.89775700e-05 -1.04819621e-04
      -1.26318526e-04 7.85633456e-05 2.28719902e-04 -4.96716893e-05
      -7.41478289e-05 1.64748344e-05 -1.21482757e-04 -5.22366754e-05 0.
      0. 0. 0. 0. 0. 0. 0. 0. 0. 0. 0. 0. 0. 0. 0. 0. 0. 0. 0. 0. 0. 0.
      0. 0. 0. 0. 0. 0. 0. 0. 0. 0. 0. 0. 0. 0. 0. 0. 0. 0. 0. 0. 0. 0.
      0. 0. 0.</_>
    <_>
      9.96636300e-06 4.61601257e-06 2.64709761e-05 1.70014355e-05
      -7.60932890e-05 3.65523192e-06 0. 0. 9.73709757e-06 8.77800539e-06
      1.15001967e-05 1.19883016e-05 -8.59687498e-05 8.51778805e-06 0.
      5.97220833e-06 0. 0. 0. 0. 0. 0. 0. 0. 0. 0. 0. 0. 0. 0. 0. 0. 0.
      0. 0. 0. 0. 0. 0. 0. 0. 0. 0. 0. 0. 0. 0. 0. 0. 0. 0. 0. 0. 0. 0.
      0. 0. 0. 0. 0. 0. 0. 0. 0.</_>
    <_>
      -3.83994120e-05 -1.24545579e-04 4.52816039e-06 1.93601572e-05
      1.57896269e-04 1.13114824e-04 6.44493048e-06 -1.19232194e-04
      -8.05575837e-05 -5.25055566e-06 8.51236837e-05 7.13515692e-05
      1.48509003e-04 8.39394197e-05 2.95667596e-05 -9.10390008e-06 0. 0.
      0. 0. 0. 0. 0. 0. 0. 0. 0. 0. 0. 0. 0. 0. 0. 0. 0. 0. 0. 0. 0. 0.
      0. 0. 0. 0. 0. 0. 0. 0. 0. 0. 0. 0. 0. 0. 0. 0. 0. 0. 0. 0. 0. 0.
      0. 0.</_>
    <_>
      2.44857860e-04 -2.87825987e-05 1.53770656e-04 -1.59402098e-05
      -1.63344113e-04 -8.44723327e-05 1.97991631e-05 -2.72568635e-04
      -1.47440354e-04 -2.13504143e-04 -2.65883777e-04 -1.19372089e-04
      7.20287644e-05 2.15011110e-04 7.98152760e-05 8.62584493e-05 0. 0.
      0. 0. 0. 0. 0. 0. 0. 0. 0. 0. 0. 0. 0. 0. 0. 0. 0. 0. 0. 0. 0. 0.
      0. 0. 0. 0. 0. 0. 0. 0. 0. 0. 0. 0. 0. 0. 0. 0. 0. 0. 0. 0. 0. 0.
      0. 0.</_>
    <_>
      1.89566577e-04 -5.51566518e-05 2.51654419e-04 -1.88214821e-04
      1.63840759e-05 4.71386120e-05 6.69313231e-05 -2.21182723e-04
      -2.37436732e-04 -1.29820561e-04 -1.33716734e-04 1.10655688e-04
      2.20895090e-04 -6.48643390e-06 2.09903475e-04 -2.32516104e-04 0.
      0. 0. 0. 0. 0. 0. 0. 0. 0. 0. 0. 0. 0. 0. 0. 0. 0. 0. 0. 0. 0. 0.
      0. 0. 0. 0. 0. 0. 0. 0. 0. 0. 0. 0. 0. 0. 0. 0. 0. 0. 0. 0. 0. 0.
      0. 0. 0.</_>
    <_>
      -2.90043317e-05 -5.10747086e-05 5.35721265e-05 2.60224388e-05
      1.56912574e-04 7.98843321e-05 2.22089020e-05 -1.44606101e-05
      -1.08017368e-04 -1.11518144e-04 -3.32715740e-06 2.70308174e-05
      -1.49968973e-05 2.52107129e-05 6.30480499e-05 1.82827171e-05 0. 0.
      0. 0. 0. 0. 0. 0. 0. 0. 0. 0. 0. 0. 0. 0. 0. 0. 0. 0. 0. 0. 0. 0.
      0. 0. 0. 0. 0. 0. 0. 0. 0. 0. 0. 0. 0. 0. 0. 0. 0. 0. 0. 0. 0. 0.
      0. 0.</_>
    <_>
      4.70371655e-04 -1.66444777e-04 1.06325788e-04 -1.79626266e-04
      1.10419824e-04 -9.25069180e-05 -1.31922507e-05 -1.39813012e-04
      -2.18035464e-04 -3.49888542e-05 -1.04422063e-04 -2.46513839e-04
      5.58400461e-05 9.76566953e-05 9.51926340e-05 -1.24675498e-04 0. 0.
      0. 0. 0. 0. 0. 0. 0. 0. 0. 0. 0. 0. 0. 0. 0. 0. 0. 0. 0. 0. 0. 0.
      0. 0. 0. 0. 0. 0. 0. 0. 0. 0. 0. 0. 0. 0. 0. 0. 0. 0. 0. 0. 0. 0.
      0. 0.</_>
    <_>
      2.13194449e-04 -1.80476825e-04 1.84351986e-04 -1.39719108e-04
      1.57666742e-04 7.96162058e-05 9.03205146e-05 -3.08489631e-04
      -3.34492623e-04 -5.21809125e-06 5.69410731e-05 -2.12667845e-04
      -5.68281257e-06 1.55239759e-04 -2.84406760e-05 -1.06039341e-04 0.
      0. 0. 0. 0. 0. 0. 0. 0. 0. 0. 0. 0. 0. 0. 0. 0. 0. 0. 0. 0. 0. 0.
      0. 0. 0. 0. 0. 0. 0. 0. 0. 0. 0. 0. 0. 0. 0. 0. 0. 0. 0. 0. 0. 0.
      0. 0. 0.</_>
    <_>
      2.37415406e-05 0. 1.24400567e-05 3.98446673e-06 -8.27683543e-05
      2.97229030e-06 8.77706407e-06 3.52497568e-06 5.93618324e-06
      5.88021840e-06 0. 8.20188598e-06 -8.29381970e-05 7.50750542e-06
      7.26021062e-06 7.13757345e-06 0. 0. 0. 0. 0. 0. 0. 0. 0. 0. 0. 0.
      0. 0. 0. 0. 0. 0. 0. 0. 0. 0. 0. 0. 0. 0. 0. 0. 0. 0. 0. 0. 0. 0.
      0. 0. 0. 0. 0. 0. 0. 0. 0. 0. 0. 0. 0. 0.</_>
    <_>
      1.15208168e-04 1.34536371e-04 3.23931235e-05 -2.41937432e-05
      -1.64869212e-04 -1.12076923e-04 -3.40232291e-05 2.56323619e-05
      8.93567722e-06 -4.46898630e-05 -1.21440069e-04 -1.14448296e-04
      -9.46252621e-05 5.11546887e-06 1.70857165e-05 -6.81600852e-07 0.
      0. 0. 0. 0. 0. 0. 0. 0. 0. 0. 0. 0. 0. 0. 0. 0. 0. 0. 0. 0. 0. 0.
      0. 0. 0. 0. 0. 0. 0. 0. 0. 0. 0. 0. 0. 0. 0. 0. 0. 0. 0. 0. 0. 0.
      0. 0. 0.</_>
    <_>
      1.22438229e-04 2.33895553e-04 4.47281927e-05 -4.98371046e-05
      -1.32842702e-04 -1.29489927e-04 -9.63697457e-05 2.27951568e-06
      1.15970623e-04 -1.59203875e-04 -1.60043346e-04 3.38290170e-06
      -9.50895774e-05 -5.01798095e-05 6.89902663e-05 -7.45952857e-05 0.
      0. 0. 0. 0. 0. 0. 0. 0. 0. 0. 0. 0. 0. 0. 0. 0. 0. 0. 0. 0. 0. 0.
      0. 0. 0. 0. 0. 0. 0. 0. 0. 0. 0. 0. 0. 0. 0. 0. 0. 0. 0. 0. 0. 0.
      0. 0. 0.</_>
    <_>
      2.73179994e-05 4.08496180e-06 7.88470279e-05 2.44316670e-05
      1.20609940e-04 7.88855778e-06 3.28251008e-05 9.89222535e-05
      -8.35126557e-05 -1.86300167e-04 -8.11131540e-05 -2.42557362e-05
      -1.50773369e-04 -3.99546589e-05 4.64765872e-05 6.23026499e-05 0.
      0. 0. 0. 0. 0. 0. 0. 0. 0. 0. 0. 0. 0. 0. 0. 0. 0. 0. 0. 0. 0. 0.
      0. 0. 0. 0. 0. 0. 0. 0. 0. 0. 0. 0. 0. 0. 0. 0. 0. 0. 0. 0. 0. 0.
      0. 0. 0.</_>
    <_>
      1.74378787e-04 1.32569956e-04 7.21281467e-05 -6.85302657e-05
      -1.36651506e-04 -6.00410494e-05 -9.77683158e-05 7.51599873e-05
      -3.86961619e-06 -9.80138138e-05 -4.24441278e-05 -1.42699224e-04
      -1.87516838e-04 -4.24441278e-05 -1.58430812e-05 -7.20023745e-05 0.
      0. 0. 0. 0. 0. 0. 0. 0. 0. 0. 0. 0. 0. 0. 0. 0. 0. 0. 0. 0. 0. 0.
      0. 0. 0. 0. 0. 0. 0. 0. 0. 0. 0. 0. 0. 0. 0. 0. 0. 0. 0. 0. 0. 0.
      0. 0. 0.</_>
    <_>
      1.49385858e-04 2.31965285e-04 4.04741477e-05 -4.29714892e-05
      -1.78125731e-04 -6.71711314e-05 1.01847536e-05 -6.89518638e-05
      6.01531719e-05 -6.16465986e-05 -1.03916449e-04 -1.67775608e-04
      -2.47382064e-04 8.31507168e-06 -8.17817927e-05 -1.03942930e-05 0.
      0. 0. 0. 0. 0. 0. 0. 0. 0. 0. 0. 0. 0. 0. 0. 0. 0. 0. 0. 0. 0. 0.
      0. 0. 0. 0. 0. 0. 0. 0. 0. 0. 0. 0. 0. 0. 0. 0. 0. 0. 0. 0. 0. 0.
      0. 0. 0.</_>
    <_>
      2.09906902e-05 1.54278823e-05 7.62276613e-06 8.55387100e-07
      -6.12866643e-05 1.02325555e-06 4.31951275e-06 8.16959346e-06
      1.34644970e-05 2.50769222e-06 3.45644054e-07 5.43845253e-08
      -6.07160582e-05 3.18310612e-07 6.02865885e-06 3.34653168e-06 0. 0.
      0. 0. 0. 0. 0. 0. 0. 0. 0. 0. 0. 0. 0. 0. 0. 0. 0. 0. 0. 0. 0. 0.
      0. 0. 0. 0. 0. 0. 0. 0. 0. 0. 0. 0. 0. 0. 0. 0. 0. 0. 0. 0. 0. 0.
      0. 0.</_>
    <_>
      -1.03651706e-04 3.37896490e-05 9.16853824e-05 -1.48104751e-04
      1.69120962e-04 2.26921009e-04 1.82918648e-05 5.09524070e-05
      -2.02859042e-06 4.98817026e-05 1.92940977e-04 3.07239592e-04
      9.30310052e-05 -2.28482648e-04 1.73396838e-04 -3.86529835e-04 0.
      0. 0. 0. 0. 0. 0. 0. 0. 0. 0. 0. 0. 0. 0. 0. 0. 0. 0. 0. 0. 0. 0.
      0. 0. 0. 0. 0. 0. 0. 0. 0. 0. 0. 0. 0. 0. 0. 0. 0. 0. 0. 0. 0. 0.
      0. 0. 0.</_>
    <_>
      -8.64485919e-05 -5.64943439e-05 3.19138417e-05 2.15322452e-05
      1.60751471e-04 7.34476271e-05 5.26643998e-05 3.57382887e-05
      -7.44139979e-05 -7.47125086e-05 1.45672948e-05 5.47513228e-05
      -4.01390571e-05 -3.52461175e-05 3.56528180e-05 2.82154087e-05 0.
      0. 0. 0. 0. 0. 0. 0. 0. 0. 0. 0. 0. 0. 0. 0. 0. 0. 0. 0. 0. 0. 0.
      0. 0. 0. 0. 0. 0. 0. 0. 0. 0. 0. 0. 0. 0. 0. 0. 0. 0. 0. 0. 0. 0.
      0. 0. 0.</_>
    <_>
      3.31486255e-04 -1.51506523e-04 -3.29408613e-05 -2.33930681e-04
      2.75092141e-04 1.79506809e-04 -7.13005693e-06 2.02869458e-04
      9.01400563e-05 1.53628556e-04 3.35172634e-04 1.37483869e-06
      -9.83940336e-05 -2.90310651e-04 -3.12037228e-05 -1.69423874e-04 0.
      0. 0. 0. 0. 0. 0. 0. 0. 0. 0. 0. 0. 0. 0. 0. 0. 0. 0. 0. 0. 0. 0.
      0. 0. 0. 0. 0. 0. 0. 0. 0. 0. 0. 0. 0. 0. 0. 0. 0. 0. 0. 0. 0. 0.
      0. 0. 0.</_>
    <_>
      -9.44109997e-05 -5.37112574e-05 2.15418295e-05 -1.23392572e-04
      2.93578079e-04 2.46939075e-04 2.25488358e-04 -1.26525658e-04
      -4.38740972e-05 2.12854065e-04 3.71591392e-04 2.24476025e-05
      -1.62657772e-04 -9.28511799e-05 -1.13138027e-04 -1.20424244e-04 0.
      0. 0. 0. 0. 0. 0. 0. 0. 0. 0. 0. 0. 0. 0. 0. 0. 0. 0. 0. 0. 0. 0.
      0. 0. 0. 0. 0. 0. 0. 0. 0. 0. 0. 0. 0. 0. 0. 0. 0. 0. 0. 0. 0. 0.
      0. 0. 0.</_>
    <_>
      2.21889513e-05 0. 6.87095689e-06 3.72442196e-06 -8.49885691e-05
      5.81400354e-06 7.12299970e-06 1.51181821e-05 8.63843616e-06
      1.93757533e-05 1.59089705e-05 1.36572007e-05 -9.62673221e-05
      1.34240736e-06 5.33181901e-06 4.99007820e-06 0. 0. 0. 0. 0. 0. 0.
      0. 0. 0. 0. 0. 0. 0. 0. 0. 0. 0. 0. 0. 0. 0. 0. 0. 0. 0. 0. 0. 0.
      0. 0. 0. 0. 0. 0. 0. 0. 0. 0. 0. 0. 0. 0. 0. 0. 0. 0. 0.</_>
    <_>
      -4.93660373e-05 -9.28702721e-05 4.73806140e-05 3.89886045e-05
      1.55846952e-04 6.68988578e-05 7.80748305e-05 7.63974604e-05
      -1.25438062e-04 -7.44378267e-05 -8.15797762e-07 -1.78530299e-05
      -8.54905375e-05 -1.72215623e-05 1.66212048e-05 8.75543337e-05 0.
      0. 0. 0. 0. 0. 0. 0. 0. 0. 0. 0. 0. 0. 0. 0. 0. 0. 0. 0. 0. 0. 0.
      0. 0. 0. 0. 0. 0. 0. 0. 0. 0. 0. 0. 0. 0. 0. 0. 0. 0. 0. 0. 0. 0.
      0. 0. 0.</_>
    <_>
      3.19815561e-04 -2.55794643e-04 -2.84522655e-04 -2.09999580e-05
      1.87016587e-04 -2.96124344e-04 -4.28433450e-05 1.58268449e-04
      5.83307301e-05 5.32438244e-05 -9.23821208e-05 -3.01765773e-04
      -1.21529876e-04 -2.12786526e-05 -2.41932343e-04 3.55133641e-04 0.
      0. 0. 0. 0. 0. 0. 0. 0. 0. 0. 0. 0. 0. 0. 0. 0. 0. 0. 0. 0. 0. 0.
      0. 0. 0. 0. 0. 0. 0. 0. 0. 0. 0. 0. 0. 0. 0. 0. 0. 0. 0. 0. 0. 0.
      0. 0. 0.</_>
    <_>
      -2.91497399e-05 -1.94030537e-04 -7.21426986e-05 6.92617177e-05
      1.65698235e-04 -8.95576304e-05 2.04021781e-04 -8.58990825e-05
      -1.31843655e-04 1.69442632e-04 1.52802735e-04 -2.84435722e-04
      -2.72521225e-04 2.02494877e-04 -3.22714099e-04 2.00337949e-04 0.
      0. 0. 0. 0. 0. 0. 0. 0. 0. 0. 0. 0. 0. 0. 0. 0. 0. 0. 0. 0. 0. 0.
      0. 0. 0. 0. 0. 0. 0. 0. 0. 0. 0. 0. 0. 0. 0. 0. 0. 0. 0. 0. 0. 0.
      0. 0. 0.</_>
    <_>
      1.33280628e-05 0. 2.14542160e-06 1.32994519e-05 -7.78784743e-05 0.
      5.94081848e-06 1.10067604e-05 1.37660863e-05 4.40722897e-06
      4.74104809e-06 9.92840705e-06 -8.67682102e-05 1.04864066e-05 0.
      1.58247803e-05 0. 0. 0. 0. 0. 0. 0. 0. 0. 0. 0. 0. 0. 0. 0. 0. 0.
      0. 0. 0. 0. 0. 0. 0. 0. 0. 0. 0. 0. 0. 0. 0. 0. 0. 0. 0. 0. 0. 0.
      0. 0. 0. 0. 0. 0. 0. 0. 0.</_>
    <_>
      1.31260167e-04 2.27748569e-05 -2.97782735e-05 -3.71321767e-05
      -1.38708536e-04 -4.02205587e-05 -9.51701368e-05 -2.06142540e-05
      1.00128134e-04 7.10940585e-05 5.26203949e-05 -5.27348639e-05
      2.98309114e-05 2.26092743e-05 -7.50228137e-05 -5.69931071e-05 0.
      0. 0. 0. 0. 0. 0. 0. 0. 0. 0. 0. 0. 0. 0. 0. 0. 0. 0. 0. 0. 0. 0.
      0. 0. 0. 0. 0. 0. 0. 0. 0. 0. 0. 0. 0. 0. 0. 0. 0. 0. 0. 0. 0. 0.
      0. 0. 0.</_>
    <_>
      6.77081334e-05 6.79543373e-05 -4.80173585e-05 -4.39025825e-05
      -1.78435541e-04 -2.63267375e-05 -3.58838879e-05 -7.84337462e-05
      9.08646471e-05 1.21907469e-04 4.52287895e-05 -6.64648614e-05
      3.18864768e-05 2.21296632e-05 -8.44507886e-05 -5.52363308e-05 0.
      0. 0. 0. 0. 0. 0. 0. 0. 0. 0. 0. 0. 0. 0. 0. 0. 0. 0. 0. 0. 0. 0.
      0. 0. 0. 0. 0. 0. 0. 0. 0. 0. 0. 0. 0. 0. 0. 0. 0. 0. 0. 0. 0. 0.
      0. 0. 0.</_>
    <_>
      2.32579714e-05 1.20415734e-05 1.06610332e-06 0. -6.76980999e-05 0.
      0. 1.74583192e-06 2.20478123e-05 1.49177777e-05 7.44908175e-06
      1.59838555e-06 -4.72997563e-05 4.38510187e-06 0. 0. 0. 0. 0. 0. 0.
      0. 0. 0. 0. 0. 0. 0. 0. 0. 0. 0. 0. 0. 0. 0. 0. 0. 0. 0. 0. 0. 0.
      0. 0. 0. 0. 0. 0. 0. 0. 0. 0. 0. 0. 0. 0. 0. 0. 0. 0. 0. 0. 0.</_>
    <_>
      -4.43375931e-04 -2.34541454e-04 4.84256365e-04 -1.97043089e-04
      -2.10904036e-04 3.11331154e-04 5.24865754e-04 -4.06681618e-04
      -3.93285358e-04 3.79817211e-04 2.70855031e-04 1.67841237e-04
      -4.37078794e-04 -1.65099074e-04 -3.79964331e-04 5.40507608e-05 0.
      0. 0. 0. 0. 0. 0. 0. 0. 0. 0. 0. 0. 0. 0. 0. 0. 0. 0. 0. 0. 0. 0.
      0. 0. 0. 0. 0. 0. 0. 0. 0. 0. 0. 0. 0. 0. 0. 0. 0. 0. 0. 0. 0. 0.
      0. 0. 0.</_>
    <_>
      9.37666118e-06 0. 1.07161122e-05 9.96966901e-06 -8.32834412e-05
      1.07161122e-05 0. 8.12669805e-06 1.01479554e-05 9.99924509e-07
      3.40950101e-06 1.99535916e-05 -8.06830212e-05 3.40950101e-06
      9.99924509e-07 8.89799139e-06 0. 0. 0. 0. 0. 0. 0. 0. 0. 0. 0. 0.
      0. 0. 0. 0. 0. 0. 0. 0. 0. 0. 0. 0. 0. 0. 0. 0. 0. 0. 0. 0. 0. 0.
      0. 0. 0. 0. 0. 0. 0. 0. 0. 0. 0. 0. 0. 0.</_>
    <_>
      1.37660863e-05 4.40722897e-06 4.74104809e-06 9.92840705e-06
      -8.67682102e-05 1.04864066e-05 0. 1.58247803e-05 1.33280628e-05 0.
      2.14542160e-06 1.32994519e-05 -7.78784743e-05 0. 5.94081848e-06
      1.10067613e-05 0. 0. 0. 0. 0. 0. 0. 0. 0. 0. 0. 0. 0. 0. 0. 0. 0.
      0. 0. 0. 0. 0. 0. 0. 0. 0. 0. 0. 0. 0. 0. 0. 0. 0. 0. 0. 0. 0. 0.
      0. 0. 0. 0. 0. 0. 0. 0. 0.</_></support_vectors>
  <uncompressed_sv_total>29</uncompressed_sv_total>
  <uncompressed_support_vectors>
    <_>
      4.78444922e+03 9.48937317e+02 0. 9.14532654e+02 2.82653271e+03 0.
      9.48937317e+02 4.59245313e+03 9.24400781e+03 0. 0. 0.
      1.70126880e+03 0. 9.36586365e+02 5.79385010e+03 0. 0. 0. 0. 0. 0.
      0. 0. 0. 0. 0. 0. 0. 0. 0. 0. 0. 0. 0. 0. 0. 0. 0. 0. 0. 0. 0. 0.
      0. 0. 0. 0. 0. 0. 0. 0. 0. 0. 0. 0. 0. 0. 0. 0. 0. 0. 0. 0.</_>
    <_>
      3.69255664e+03 0. 4.88405176e+03 2.82096899e+03 5.63601123e+03
      4.66476135e+01 8.65970886e+02 0. 2.11293115e+03 1.84928064e+03
      3.54027588e+03 2.17839526e+03 3.75038403e+03 9.42559326e+02
      1.04212073e+03 0. 0. 0. 0. 0. 0. 0. 0. 0. 0. 0. 0. 0. 0. 0. 0. 0.
      0. 0. 0. 0. 0. 0. 0. 0. 0. 0. 0. 0. 0. 0. 0. 0. 0. 0. 0. 0. 0. 0.
      0. 0. 0. 0. 0. 0. 0. 0. 0. 0.</_>
    <_>
      4.62236426e+03 7.65324768e+02 1.87228210e+03 6.91809235e+01
      5.01565479e+03 1.33614392e+03 2.20102686e+03 0. 1948.
      6.46623535e+02 1.19120056e+03 1.45077271e+03 5.07488965e+03
      6.92342407e+02 1.21897302e+03 1.99474805e+03 0. 0. 0. 0. 0. 0. 0.
      0. 0. 0. 0. 0. 0. 0. 0. 0. 0. 0. 0. 0. 0. 0. 0. 0. 0. 0. 0. 0. 0.
      0. 0. 0. 0. 0. 0. 0. 0. 0. 0. 0. 0. 0. 0. 0. 0. 0. 0. 0.</_>
    <_>
      7.90414648e+03 2.00327063e+03 1.51418823e+03 7.63468384e+02
      2.49362988e+03 0. 0. 2.55096924e+03 5.29676611e+03 0.
      5.59072449e+02 8.79659042e+01 2.42154614e+03 5.14861145e+02 0.
      2.16133789e+03 0. 0. 0. 0. 0. 0. 0. 0. 0. 0. 0. 0. 0. 0. 0. 0. 0.
      0. 0. 0. 0. 0. 0. 0. 0. 0. 0. 0. 0. 0. 0. 0. 0. 0. 0. 0. 0. 0. 0.
      0. 0. 0. 0. 0. 0. 0. 0. 0.</_>
    <_>
      3014. 1.20846130e+03 1.21418030e+03 6.45804932e+02 4.82133154e+03
      2.20287476e+03 1.57953467e+03 1.49274719e+03 3.08321362e+03
      1.35542114e+03 2.23266113e+03 2.02744983e+03 3.71356567e+03 0.
      1.06931555e+03 8.46249390e+02 0. 0. 0. 0. 0. 0. 0. 0. 0. 0. 0. 0.
      0. 0. 0. 0. 0. 0. 0. 0. 0. 0. 0. 0. 0. 0. 0. 0. 0. 0. 0. 0. 0. 0.
      0. 0. 0. 0. 0. 0. 0. 0. 0. 0. 0. 0. 0. 0.</_>
    <_>
      3.34205493e+03 1.26121191e+03 5.44987183e+02 9.13898254e+02
      5.22929150e+03 1.05926367e+03 1.32053918e+03 4.30743530e+02
      2.96587109e+03 1.47210132e+03 1.50027966e+03 6.50246094e+02
      4.17468164e+03 7.94074280e+02 3.41505493e+02 2.90104565e+03 0. 0.
      0. 0. 0. 0. 0. 0. 0. 0. 0. 0. 0. 0. 0. 0. 0. 0. 0. 0. 0. 0. 0. 0.
      0. 0. 0. 0. 0. 0. 0. 0. 0. 0. 0. 0. 0. 0. 0. 0. 0. 0. 0. 0. 0. 0.
      0. 0.</_>
    <_>
      6.56339453e+03 2.62363818e+03 4.44288208e+02 0. 0. 0.
      1.02449989e+02 4.28098114e+02 8.05417969e+03 4.40672705e+03
      9.41107056e+02 1.48487354e+03 4.49913184e+03 0. 0. 3.01673853e+03
      0. 0. 0. 0. 0. 0. 0. 0. 0. 0. 0. 0. 0. 0. 0. 0. 0. 0. 0. 0. 0. 0.
      0. 0. 0. 0. 0. 0. 0. 0. 0. 0. 0. 0. 0. 0. 0. 0. 0. 0. 0. 0. 0. 0.
      0. 0. 0. 0.</_>
    <_>
      2.37622681e+03 2.34233008e+03 9.89909546e+02 9.13898193e+02
      3.41389819e+03 9.89909546e+02 2.34233008e+03 9.28226746e+02
      2.85071582e+03 1.84646362e+03 5.00657593e+02 1.68323523e+03
      4.18323535e+03 5.00657593e+02 1.84646362e+03 1.40271594e+03 0. 0.
      0. 0. 0. 0. 0. 0. 0. 0. 0. 0. 0. 0. 0. 0. 0. 0. 0. 0. 0. 0. 0. 0.
      0. 0. 0. 0. 0. 0. 0. 0. 0. 0. 0. 0. 0. 0. 0. 0. 0. 0. 0. 0. 0. 0.
      0. 0.</_>
    <_>
      4.72036279e+03 1.05068176e+03 1.39069116e+03 6.83264221e+02
      3.54882422e+03 7.94074280e+02 5.67850342e+02 2.90104565e+03
      3.29405469e+03 9.02319275e+02 1.19985461e+03 1.36068457e+03
      4.26597510e+03 0. 1.63751270e+03 1.34609717e+03 0. 0. 0. 0. 0. 0.
      0. 0. 0. 0. 0. 0. 0. 0. 0. 0. 0. 0. 0. 0. 0. 0. 0. 0. 0. 0. 0. 0.
      0. 0. 0. 0. 0. 0. 0. 0. 0. 0. 0. 0. 0. 0. 0. 0. 0. 0. 0. 0.</_>
    <_>
      7.51832471e+03 340. 1.28667664e+03 8.82281067e+02 3.85428101e+03
      1.28667664e+03 340. 1.33032471e+03 7.51832471e+03 340.
      1.28667664e+03 8.82281128e+02 3.85428101e+03 1.28667664e+03 340.
      1.33032471e+03 0. 0. 0. 0. 0. 0. 0. 0. 0. 0. 0. 0. 0. 0. 0. 0. 0.
      0. 0. 0. 0. 0. 0. 0. 0. 0. 0. 0. 0. 0. 0. 0. 0. 0. 0. 0. 0. 0. 0.
      0. 0. 0. 0. 0. 0. 0. 0. 0.</_>
    <_>
      5592. 6.62397156e+02 9.31632996e+02 9.42274902e+02 2.85427490e+03
      9.31632996e+02 6.62397156e+02 0. 9.48702344e+03 0. 0. 0.
      1.70859412e+03 9.37332397e+02 5.48032837e+02 6.42535828e+02 0. 0.
      0. 0. 0. 0. 0. 0. 0. 0. 0. 0. 0. 0. 0. 0. 0. 0. 0. 0. 0. 0. 0. 0.
      0. 0. 0. 0. 0. 0. 0. 0. 0. 0. 0. 0. 0. 0. 0. 0. 0. 0. 0. 0. 0. 0.
      0. 0.</_>
    <_>
      1.34131091e+03 6.21240479e+02 3.56256421e+03 2.28811768e+03
      6.07907666e+03 4.91934967e+02 0. 0. 1.31045544e+03 1.18137720e+03
      1.54773999e+03 1.61343103e+03 4750. 1.14635620e+03 0.
      8.03762451e+02 0. 0. 0. 0. 0. 0. 0. 0. 0. 0. 0. 0. 0. 0. 0. 0. 0.
      0. 0. 0. 0. 0. 0. 0. 0. 0. 0. 0. 0. 0. 0. 0. 0. 0. 0. 0. 0. 0. 0.
      0. 0. 0. 0. 0. 0. 0. 0. 0.</_>
    <_>
      3.19556909e+03 0. 1.67440955e+03 5.36302124e+02 5.17952686e+03
      4.00065002e+02 1.18137720e+03 4.74455475e+02 7.98999695e+02
      7.91466980e+02 0. 1.10395923e+03 5.15666602e+03 1.01049689e+03
      9.77211426e+02 9.60704712e+02 0. 0. 0. 0. 0. 0. 0. 0. 0. 0. 0. 0.
      0. 0. 0. 0. 0. 0. 0. 0. 0. 0. 0. 0. 0. 0. 0. 0. 0. 0. 0. 0. 0. 0.
      0. 0. 0. 0. 0. 0. 0. 0. 0. 0. 0. 0. 0. 0.</_>
    <_>
      4.43314404e+03 3.90608350e+03 1.84071045e+03 1.05536720e+02 1802.
      2.81684235e+02 1.18908582e+03 1.81479028e+03 2.80507104e+03
      6.90323486e+02 0. 0. 1.97134570e+03 0. 1.65958362e+03
      5.53398621e+02 0. 0. 0. 0. 0. 0. 0. 0. 0. 0. 0. 0. 0. 0. 0. 0. 0.
      0. 0. 0. 0. 0. 0. 0. 0. 0. 0. 0. 0. 0. 0. 0. 0. 0. 0. 0. 0. 0. 0.
      0. 0. 0. 0. 0. 0. 0. 0. 0.</_>
    <_>
      2.42478711e+03 0. 7.50851501e+02 4.07001221e+02 7.03253125e+03
      6.35348694e+02 7.78394531e+02 1.65210034e+03 944. 2.11736353e+03
      1.73851685e+03 1.49244568e+03 5800. 1.46696976e+02 5.82656006e+02
      5.45310913e+02 0. 0. 0. 0. 0. 0. 0. 0. 0. 0. 0. 0. 0. 0. 0. 0. 0.
      0. 0. 0. 0. 0. 0. 0. 0. 0. 0. 0. 0. 0. 0. 0. 0. 0. 0. 0. 0. 0. 0.
      0. 0. 0. 0. 0. 0. 0. 0. 0.</_>
    <_>
      1.80112524e+03 0. 2.89927582e+02 1.79725891e+03 5.79567285e+03 0.
      8.02829224e+02 1.48742957e+03 1.86031885e+03 5.95583313e+02
      6.40694885e+02 1.34170325e+03 4.59433350e+03 1.41711011e+03 0.
      2.13852612e+03 0. 0. 0. 0. 0. 0. 0. 0. 0. 0. 0. 0. 0. 0. 0. 0. 0.
      0. 0. 0. 0. 0. 0. 0. 0. 0. 0. 0. 0. 0. 0. 0. 0. 0. 0. 0. 0. 0. 0.
      0. 0. 0. 0. 0. 0. 0. 0. 0.</_>
    <_>
      5.60680566e+03 2.90286548e+03 2.57005829e+02 0. 0. 0. 0.
      4.20868164e+02 5.31507227e+03 3.59623267e+03 1.79575220e+03
      3.85323242e+02 4.91743457e+03 1.05711768e+03 0. 0. 0. 0. 0. 0. 0.
      0. 0. 0. 0. 0. 0. 0. 0. 0. 0. 0. 0. 0. 0. 0. 0. 0. 0. 0. 0. 0. 0.
      0. 0. 0. 0. 0. 0. 0. 0. 0. 0. 0. 0. 0. 0. 0. 0. 0. 0. 0. 0. 0.</_>
    <_>
      1.29026599e+03 0. 1.47457983e+03 1.37186621e+03 4.85986621e+03
      1.47457983e+03 0. 1.11826611e+03 1.39639917e+03 1.37593597e+02
      4.69160950e+02 2.74569385e+03 5.21769385e+03 4.69160950e+02
      1.37593597e+02 1.22439917e+03 0. 0. 0. 0. 0. 0. 0. 0. 0. 0. 0. 0.
      0. 0. 0. 0. 0. 0. 0. 0. 0. 0. 0. 0. 0. 0. 0. 0. 0. 0. 0. 0. 0. 0.
      0. 0. 0. 0. 0. 0. 0. 0. 0. 0. 0. 0. 0. 0.</_>
    <_>
      1.86031885e+03 5.95583313e+02 6.40694885e+02 1.34170325e+03
      4.59433350e+03 1.41711011e+03 0. 2.13852612e+03 1.80112524e+03 0.
      2.89927582e+02 1.79725891e+03 5.79567285e+03 0. 8.02829224e+02
      1.48742969e+03 0. 0. 0. 0. 0. 0. 0. 0. 0. 0. 0. 0. 0. 0. 0. 0. 0.
      0. 0. 0. 0. 0. 0. 0. 0. 0. 0. 0. 0. 0. 0. 0. 0. 0. 0. 0. 0. 0. 0.
      0. 0. 0. 0. 0. 0. 0. 0. 0.</_>
    <_>
      3.17942407e+03 7.14382751e+02 3.86657471e+02 1.15054285e+03
      3.13854297e+03 3.86657471e+02 7.14382751e+02 2.08742407e+03
      3.17942407e+03 7.14382751e+02 3.86657471e+02 1.15054297e+03
      3.13854297e+03 3.86657471e+02 7.14382751e+02 2.08742407e+03 0. 0.
      0. 0. 0. 0. 0. 0. 0. 0. 0. 0. 0. 0. 0. 0. 0. 0. 0. 0. 0. 0. 0. 0.
      0. 0. 0. 0. 0. 0. 0. 0. 0. 0. 0. 0. 0. 0. 0. 0. 0. 0. 0. 0. 0. 0.
      0. 0.</_>
    <_>
      1.89886255e+03 2.51435303e+03 1.00854047e+03 1.71835266e+03
      4.89835254e+03 1.00854047e+03 2.51435303e+03 4.54862579e+02
      2.85041089e+03 1.61591309e+03 2.16113306e+03 8.59176331e+02
      4.03917627e+03 2.16113306e+03 1.61591309e+03 1.40641089e+03 0. 0.
      0. 0. 0. 0. 0. 0. 0. 0. 0. 0. 0. 0. 0. 0. 0. 0. 0. 0. 0. 0. 0. 0.
      0. 0. 0. 0. 0. 0. 0. 0. 0. 0. 0. 0. 0. 0. 0. 0. 0. 0. 0. 0. 0. 0.
      0. 0.</_>
    <_>
      4.54133496e+03 8.98439758e+02 1.27962500e+03 8.41493896e+02
      3.36365601e+03 1.44388281e+03 1.68509473e+03 2.06976001e+03
      2.60773364e+03 1.98963574e+03 1.77814478e+03 0. 3.07228613e+03
      6.85423462e+02 3.58736664e+02 1.88969153e+03 0. 0. 0. 0. 0. 0. 0.
      0. 0. 0. 0. 0. 0. 0. 0. 0. 0. 0. 0. 0. 0. 0. 0. 0. 0. 0. 0. 0. 0.
      0. 0. 0. 0. 0. 0. 0. 0. 0. 0. 0. 0. 0. 0. 0. 0. 0. 0. 0.</_>
    <_>
      5.04654639e+03 8.95911133e+02 0. 1.49707251e+03 4.18907227e+03 0.
      8.95911133e+02 3.44254639e+03 5.04654639e+03 8.95911133e+02 0.
      1.49707251e+03 4.18907227e+03 0. 8.95911133e+02 3.44254639e+03 0.
      0. 0. 0. 0. 0. 0. 0. 0. 0. 0. 0. 0. 0. 0. 0. 0. 0. 0. 0. 0. 0. 0.
      0. 0. 0. 0. 0. 0. 0. 0. 0. 0. 0. 0. 0. 0. 0. 0. 0. 0. 0. 0. 0. 0.
      0. 0. 0.</_>
    <_>
      0. 0. 0. 0. 16320. 0. 0. 0. 0. 0. 0. 0. 16320. 0. 0. 0. 0. 0. 0.
      0. 0. 0. 0. 0. 0. 0. 0. 0. 0. 0. 0. 0. 0. 0. 0. 0. 0. 0. 0. 0. 0.
      0. 0. 0. 0. 0. 0. 0. 0. 0. 0. 0. 0. 0. 0. 0. 0. 0. 0. 0. 0. 0. 0.
      0.</_>
    <_>
      4.72036230e+03 1.05068176e+03 1.39069116e+03 6.83264221e+02
      3.54882422e+03 7.94074280e+02 5.67850342e+02 2.90104565e+03
      3.29405469e+03 9.02319214e+02 1.19985461e+03 1.36068457e+03
      4.26597510e+03 0. 1.63751270e+03 1.34609717e+03 0. 0. 0. 0. 0. 0.
      0. 0. 0. 0. 0. 0. 0. 0. 0. 0. 0. 0. 0. 0. 0. 0. 0. 0. 0. 0. 0. 0.
      0. 0. 0. 0. 0. 0. 0. 0. 0. 0. 0. 0. 0. 0. 0. 0. 0. 0. 0. 0.</_>
    <_>
      2.90539380e+03 2.44131250e+03 9.92380981e+02 1.49805640e+03
      4.28471289e+03 0. 1.20251038e+03 1.53394913e+02 3.63300269e+03
      1.29845984e+03 0. 2.79125879e+03 4.19215234e+03 1.96781140e+03
      2.12626733e+03 7.47830200e+02 0. 0. 0. 0. 0. 0. 0. 0. 0. 0. 0. 0.
      0. 0. 0. 0. 0. 0. 0. 0. 0. 0. 0. 0. 0. 0. 0. 0. 0. 0. 0. 0. 0. 0.
      0. 0. 0. 0. 0. 0. 0. 0. 0. 0. 0. 0. 0. 0.</_>
    <_>
      2.47175366e+03 3.29365845e+03 2.82213110e+03 2.72158936e+03
      4.13862402e+03 4.21984741e+02 0. 6.86115234e+02 1734.
      1.62244434e+03 3.70951270e+03 2.11414136e+03 3.63801563e+03
      9.02229431e+02 7.76284729e+02 3.82334900e+02 0. 0. 0. 0. 0. 0. 0.
      0. 0. 0. 0. 0. 0. 0. 0. 0. 0. 0. 0. 0. 0. 0. 0. 0. 0. 0. 0. 0. 0.
      0. 0. 0. 0. 0. 0. 0. 0. 0. 0. 0. 0. 0. 0. 0. 0. 0. 0. 0.</_>
    <_>
      4792. 1.55256946e+03 1.80445886e+03 9.01346313e+02 4.47296045e+03
      2.53186865e+03 3.21126129e+02 0. 2218. 2.88617401e+02
      1.80513770e+03 1.11372620e+03 4.35670020e+03 2.02068555e+03
      1.96385522e+03 2.26106171e+02 0. 0. 0. 0. 0. 0. 0. 0. 0. 0. 0. 0.
      0. 0. 0. 0. 0. 0. 0. 0. 0. 0. 0. 0. 0. 0. 0. 0. 0. 0. 0. 0. 0. 0.
      0. 0. 0. 0. 0. 0. 0. 0. 0. 0. 0. 0. 0. 0.</_>
    <_>
      7.02008008e+03 9.41387268e+02 0. 8.61895569e+02 2.64589551e+03 0.
      9.41387268e+02 6.63608398e+03 7.26800830e+03 0. 0. 0. 764.
      6.61254883e+02 1.20893677e+03 3.68029614e+03 0. 0. 0. 0. 0. 0. 0.
      0. 0. 0. 0. 0. 0. 0. 0. 0. 0. 0. 0. 0. 0. 0. 0. 0. 0. 0. 0. 0. 0.
      0. 0. 0. 0. 0. 0. 0. 0. 0. 0. 0. 0. 0. 0. 0. 0. 0. 0. 0.</_></uncompressed_support_vectors>
  <decision_functions>
    <_>
      <sv_count>1</sv_count>
      <rho>6.3412642267770145e-02</rho>
      <alpha>
        1.</alpha>
      <index>
        0</index></_>
    <_>
      <sv_count>1</sv_count>
      <rho>-9.1897357384312250e-01</rho>
      <alpha>
        1.</alpha>
      <index>
        1</index></_>
    <_>
      <sv_count>1</sv_count>
      <rho>-1.1249646515146525e+00</rho>
      <alpha>
        1.</alpha>
      <index>
        2</index></_>
    <_>
      <sv_count>1</sv_count>
      <rho>-2.1952283533886754e-01</rho>
      <alpha>
        1.</alpha>
      <index>
        3</index></_>
    <_>
      <sv_count>1</sv_count>
      <rho>-1.4246061782653510e+00</rho>
      <alpha>
        1.</alpha>
      <index>
        4</index></_>
    <_>
      <sv_count>1</sv_count>
      <rho>-1.9645768329230771e+00</rho>
      <alpha>
        1.</alpha>
      <index>
        5</index></_>
    <_>
      <sv_count>1</sv_count>
      <rho>-5.6254521814767422e-01</rho>
      <alpha>
        1.</alpha>
      <index>
        6</index></_>
    <_>
      <sv_count>1</sv_count>
      <rho>-1.0616732443017485e+00</rho>
      <alpha>
        1.</alpha>
      <index>
        7</index></_>
    <_>
      <sv_count>1</sv_count>
      <rho>-2.6880121438433271e+00</rho>
      <alpha>
        1.</alpha>
      <index>
        8</index></_>
    <_>
      <sv_count>1</sv_count>
      <rho>-1.1681139180007434e+00</rho>
      <alpha>
        1.</alpha>
      <index>
        9</index></_>
    <_>
      <sv_count>1</sv_count>
      <rho>3.6033872852171356e-01</rho>
      <alpha>
        1.</alpha>
      <index>
        10</index></_>
    <_>
      <sv_count>1</sv_count>
      <rho>5.9114235644796065e-01</rho>
      <alpha>
        1.</alpha>
      <index>
        11</index></_>
    <_>
      <sv_count>1</sv_count>
      <rho>9.9628220606671958e-01</rho>
      <alpha>
        1.</alpha>
      <index>
        12</index></_>
    <_>
      <sv_count>1</sv_count>
      <rho>7.8362747211038586e-01</rho>
      <alpha>
        1.</alpha>
      <index>
        13</index></_>
    <_>
      <sv_count>1</sv_count>
      <rho>1.2743162838091753e+00</rho>
      <alpha>
        1.</alpha>
      <index>
        14</index></_>
    <_>
      <sv_count>1</sv_count>
      <rho>-3.1263703565637818e-01</rho>
      <alpha>
        1.</alpha>
      <index>
        15</index></_>
    <_>
      <sv_count>1</sv_count>
      <rho>9.1289017281710372e-01</rho>
      <alpha>
        1.</alpha>
      <index>
        16</index></_>
    <_>
      <sv_count>1</sv_count>
      <rho>1.1756376848494723e+00</rho>
      <alpha>
        1.</alpha>
      <index>
        17</index></_>
    <_>
      <sv_count>1</sv_count>
      <rho>-7.6028599166545796e-01</rho>
      <alpha>
        1.</alpha>
      <index>
        18</index></_>
    <_>
      <sv_count>1</sv_count>
      <rho>8.2663056029282733e-01</rho>
      <alpha>
        1.</alpha>
      <index>
        19</index></_>
    <_>
      <sv_count>1</sv_count>
      <rho>6.0517219687733248e-01</rho>
      <alpha>
        1.</alpha>
      <index>
        20</index></_>
    <_>
      <sv_count>1</sv_count>
      <rho>-1.4119571688709512e-01</rho>
      <alpha>
        1.</alpha>
      <index>
        21</index></_>
    <_>
      <sv_count>1</sv_count>
      <rho>7.3131652785606538e-01</rho>
      <alpha>
        1.</alpha>
      <index>
        22</index></_>
    <_>
      <sv_count>1</sv_count>
      <rho>-3.1563790265336122e-01</rho>
      <alpha>
        1.</alpha>
      <index>
        23</index></_>
    <_>
      <sv_count>1</sv_count>
      <rho>1.5292715733566333e+00</rho>
      <alpha>
        1.</alpha>
      <index>
        24</index></_>
    <_>
      <sv_count>1</sv_count>
      <rho>5.4406708166539097e-01</rho>
      <alpha>
        1.</alpha>
      <index>
        25</index></_>
    <_>
      <sv_count>1</sv_count>
      <rho>-1.6448524895981762e+00</rho>
      <alpha>
        1.</alpha>
      <index>
        26</index></_>
    <_>
      <sv_count>1</sv_count>
      <rho>5.6853539639385398e-01</rho>
      <alpha>
        1.</alpha>
      <index>
        27</index></_>
    <_>
      <sv_count>1</sv_count>
      <rho>-6.2339068384779761e-01</rho>
      <alpha>
        1.</alpha>
      <index>
        28</index></_>
    <_>
      <sv_count>1</sv_count>
      <rho>9.4802284822299121e-01</rho>
      <alpha>
        1.</alpha>
      <index>
        29</index></_>
    <_>
      <sv_count>1</sv_count>
      <rho>-3.2102211998041658e-01</rho>
      <alpha>
        1.</alpha>
      <index>
        30</index></_>
    <_>
      <sv_count>1</sv_count>
      <rho>9.2363145919983802e-01</rho>
      <alpha>
        1.</alpha>
      <index>
        31</index></_>
    <_>
      <sv_count>1</sv_count>
      <rho>2.1558936810164983e-01</rho>
      <alpha>
        1.</alpha>
      <index>
        32</index></_>
    <_>
      <sv_count>1</sv_count>
      <rho>-1.7043308387189422e+00</rho>
      <alpha>
        1.</alpha>
      <index>
        33</index></_>
    <_>
      <sv_count>1</sv_count>
      <rho>-3.9363245749047482e-01</rho>
      <alpha>
        1.</alpha>
      <index>
        34</index></_>
    <_>
      <sv_count>1</sv_count>
      <rho>2.4832456003596706e-01</rho>
      <alpha>
        1.</alpha>
      <index>
        35</index></_>
    <_>
      <sv_count>1</sv_count>
      <rho>-8.2559256840357986e-01</rho>
      <alpha>
        1.</alpha>
      <index>
        36</index></_>
    <_>
      <sv_count>1</sv_count>
      <rho>-3.4091906099249741e-01</rho>
      <alpha>
        1.</alpha>
      <index>
        37</index></_>
    <_>
      <sv_count>1</sv_count>
      <rho>-3.1760908919064124e-01</rho>
      <alpha>
        1.</alpha>
      <index>
        38</index></_>
    <_>
      <sv_count>1</sv_count>
      <rho>-9.9108435994825805e-01</rho>
      <alpha>
        1.</alpha>
      <index>
        39</index></_>
    <_>
      <sv_count>1</sv_count>
      <rho>1.4831547523066266e+00</rho>
      <alpha>
        1.</alpha>
      <index>
        40</index></_>
    <_>
      <sv_count>1</sv_count>
      <rho>-4.7703622537614104e-01</rho>
      <alpha>
        1.</alpha>
      <index>
        41</index></_>
    <_>
      <sv_count>1</sv_count>
      <rho>2.3333848557968588e+00</rho>
      <alpha>
        1.</alpha>
      <index>
        42</index></_>
    <_>
      <sv_count>1</sv_count>
      <rho>9.2516866309024770e-01</rho>
      <alpha>
        1.</alpha>
      <index>
        43</index></_>
    <_>
      <sv_count>1</sv_count>
      <rho>-1.9580961675147051e+00</rho>
      <alpha>
        1.</alpha>
      <index>
        44</index></_>
    <_>
      <sv_count>1</sv_count>
      <rho>-8.8339639510075318e-01</rho>
      <alpha>
        1.</alpha>
      <index>
        45</index></_>
    <_>
      <sv_count>1</sv_count>
      <rho>5.8781526754545876e-01</rho>
      <alpha>
        1.</alpha>
      <index>
        46</index></_>
    <_>
      <sv_count>1</sv_count>
      <rho>-9.1732900988861288e-01</rho>
      <alpha>
        1.</alpha>
      <index>
        47</index></_>
    <_>
      <sv_count>1</sv_count>
      <rho>-1.6870340433750945e+00</rho>
      <alpha>
        1.</alpha>
      <index>
        48</index></_>
    <_>
      <sv_count>1</sv_count>
      <rho>8.1835759328731472e-01</rho>
      <alpha>
        1.</alpha>
      <index>
        49</index></_>
    <_>
      <sv_count>1</sv_count>
      <rho>6.8869961452692641e-01</rho>
      <alpha>
        1.</alpha>
      <index>
        50</index></_>
    <_>
      <sv_count>1</sv_count>
      <rho>-8.7676506209774419e-01</rho>
      <alpha>
        1.</alpha>
      <index>
        51</index></_>
    <_>
      <sv_count>1</sv_count>
      <rho>-4.4020839618201952e+00</rho>
      <alpha>
        1.</alpha>
      <index>
        52</index></_>
    <_>
      <sv_count>1</sv_count>
      <rho>-1.6759327353324214e+00</rho>
      <alpha>
        1.</alpha>
      <index>
        53</index></_>
    <_>
      <sv_count>1</sv_count>
      <rho>-1.6870340244110975e+00</rho>
      <alpha>
        1.</alpha>
      <index>
        54</index></_></decision_functions></opencv_ml_svm>
</opencv_storage>
